digraph Tree {
node [shape=box] ;
0 [label="X[0] <= 3.385\ngini = 0.093\nsamples = 3717670\nvalue = [5596794, 286278]"] ;
1 [label="X[0] <= 0.745\ngini = 0.109\nsamples = 94328\nvalue = [8623, 140650]"] ;
0 -> 1 [labeldistance=2.5, labelangle=45, headlabel="True"] ;
2 [label="X[5] <= 750.0\ngini = 0.439\nsamples = 1773\nvalue = [1887, 911]"] ;
1 -> 2 ;
3 [label="X[0] <= 0.325\ngini = 0.201\nsamples = 556\nvalue = [101, 789]"] ;
2 -> 3 ;
4 [label="X[3] <= 28166.0\ngini = 0.499\nsamples = 73\nvalue = [52, 56]"] ;
3 -> 4 ;
5 [label="X[5] <= 687.0\ngini = 0.33\nsamples = 14\nvalue = [5, 19]"] ;
4 -> 5 ;
6 [label="X[5] <= 486.0\ngini = 0.095\nsamples = 11\nvalue = [1, 19]"] ;
5 -> 6 ;
7 [label="gini = 0.0\nsamples = 7\nvalue = [0, 14]"] ;
6 -> 7 ;
8 [label="X[6] <= 18032011.0\ngini = 0.278\nsamples = 4\nvalue = [1, 5]"] ;
6 -> 8 ;
9 [label="gini = 0.0\nsamples = 1\nvalue = [0, 3]"] ;
8 -> 9 ;
10 [label="gini = 0.444\nsamples = 3\nvalue = [1, 2]"] ;
8 -> 10 ;
11 [label="gini = 0.0\nsamples = 3\nvalue = [4, 0]"] ;
5 -> 11 ;
12 [label="X[5] <= 397.5\ngini = 0.493\nsamples = 59\nvalue = [47, 37]"] ;
4 -> 12 ;
13 [label="gini = 0.0\nsamples = 21\nvalue = [0, 28]"] ;
12 -> 13 ;
14 [label="X[3] <= 94844964.0\ngini = 0.27\nsamples = 38\nvalue = [47, 9]"] ;
12 -> 14 ;
15 [label="X[6] <= 21037011.0\ngini = 0.226\nsamples = 37\nvalue = [47, 7]"] ;
14 -> 15 ;
16 [label="gini = 0.0\nsamples = 20\nvalue = [29, 0]"] ;
15 -> 16 ;
17 [label="gini = 0.403\nsamples = 17\nvalue = [18, 7]"] ;
15 -> 17 ;
18 [label="gini = 0.0\nsamples = 1\nvalue = [0, 2]"] ;
14 -> 18 ;
19 [label="X[3] <= 66128700.0\ngini = 0.117\nsamples = 483\nvalue = [49, 733]"] ;
3 -> 19 ;
20 [label="X[5] <= 579.5\ngini = 0.135\nsamples = 407\nvalue = [48, 609]"] ;
19 -> 20 ;
21 [label="X[3] <= 65790282.0\ngini = 0.042\nsamples = 315\nvalue = [11, 496]"] ;
20 -> 21 ;
22 [label="X[5] <= 405.5\ngini = 0.039\nsamples = 314\nvalue = [10, 496]"] ;
21 -> 22 ;
23 [label="gini = 0.0\nsamples = 218\nvalue = [0, 352]"] ;
22 -> 23 ;
24 [label="gini = 0.121\nsamples = 96\nvalue = [10, 144]"] ;
22 -> 24 ;
25 [label="gini = 0.0\nsamples = 1\nvalue = [1, 0]"] ;
21 -> 25 ;
26 [label="X[2] <= 14374.5\ngini = 0.372\nsamples = 92\nvalue = [37, 113]"] ;
20 -> 26 ;
27 [label="X[6] <= 25067011.0\ngini = 0.496\nsamples = 23\nvalue = [16, 19]"] ;
26 -> 27 ;
28 [label="gini = 0.393\nsamples = 19\nvalue = [7, 19]"] ;
27 -> 28 ;
29 [label="gini = 0.0\nsamples = 4\nvalue = [9, 0]"] ;
27 -> 29 ;
30 [label="X[5] <= 605.5\ngini = 0.299\nsamples = 69\nvalue = [21, 94]"] ;
26 -> 30 ;
31 [label="gini = 0.0\nsamples = 3\nvalue = [4, 0]"] ;
30 -> 31 ;
32 [label="gini = 0.259\nsamples = 66\nvalue = [17, 94]"] ;
30 -> 32 ;
33 [label="X[3] <= 75516444.0\ngini = 0.016\nsamples = 76\nvalue = [1, 124]"] ;
19 -> 33 ;
34 [label="X[5] <= 552.5\ngini = 0.051\nsamples = 23\nvalue = [1, 37]"] ;
33 -> 34 ;
35 [label="gini = 0.0\nsamples = 20\nvalue = [0, 32]"] ;
34 -> 35 ;
36 [label="X[6] <= 15072010.5\ngini = 0.278\nsamples = 3\nvalue = [1, 5]"] ;
34 -> 36 ;
37 [label="gini = 0.5\nsamples = 2\nvalue = [1, 1]"] ;
36 -> 37 ;
38 [label="gini = 0.0\nsamples = 1\nvalue = [0, 4]"] ;
36 -> 38 ;
39 [label="gini = 0.0\nsamples = 53\nvalue = [0, 87]"] ;
33 -> 39 ;
40 [label="X[3] <= 37525.5\ngini = 0.12\nsamples = 1217\nvalue = [1786, 122]"] ;
2 -> 40 ;
41 [label="X[0] <= 0.585\ngini = 0.157\nsamples = 316\nvalue = [436, 41]"] ;
40 -> 41 ;
42 [label="X[2] <= 18209.0\ngini = 0.069\nsamples = 243\nvalue = [350, 13]"] ;
41 -> 42 ;
43 [label="gini = 0.0\nsamples = 63\nvalue = [94, 0]"] ;
42 -> 43 ;
44 [label="X[3] <= 36959.0\ngini = 0.092\nsamples = 180\nvalue = [256, 13]"] ;
42 -> 44 ;
45 [label="X[0] <= 0.505\ngini = 0.052\nsamples = 177\nvalue = [255, 7]"] ;
44 -> 45 ;
46 [label="gini = 0.026\nsamples = 151\nvalue = [221, 3]"] ;
45 -> 46 ;
47 [label="gini = 0.188\nsamples = 26\nvalue = [34, 4]"] ;
45 -> 47 ;
48 [label="X[4] <= 160729804800.0\ngini = 0.245\nsamples = 3\nvalue = [1, 6]"] ;
44 -> 48 ;
49 [label="gini = 0.0\nsamples = 1\nvalue = [1, 0]"] ;
48 -> 49 ;
50 [label="gini = 0.0\nsamples = 2\nvalue = [0, 6]"] ;
48 -> 50 ;
51 [label="X[3] <= 34480.0\ngini = 0.371\nsamples = 73\nvalue = [86, 28]"] ;
41 -> 51 ;
52 [label="X[6] <= 4522010.5\ngini = 0.346\nsamples = 69\nvalue = [84, 24]"] ;
51 -> 52 ;
53 [label="X[2] <= 55945.0\ngini = 0.5\nsamples = 7\nvalue = [5, 5]"] ;
52 -> 53 ;
54 [label="gini = 0.278\nsamples = 5\nvalue = [5, 1]"] ;
53 -> 54 ;
55 [label="gini = 0.0\nsamples = 2\nvalue = [0, 4]"] ;
53 -> 55 ;
56 [label="X[5] <= 1080.5\ngini = 0.313\nsamples = 62\nvalue = [79, 19]"] ;
52 -> 56 ;
57 [label="gini = 0.495\nsamples = 24\nvalue = [22, 18]"] ;
56 -> 57 ;
58 [label="gini = 0.034\nsamples = 38\nvalue = [57, 1]"] ;
56 -> 58 ;
59 [label="X[5] <= 1333.0\ngini = 0.444\nsamples = 4\nvalue = [2, 4]"] ;
51 -> 59 ;
60 [label="gini = 0.0\nsamples = 3\nvalue = [0, 4]"] ;
59 -> 60 ;
61 [label="gini = 0.0\nsamples = 1\nvalue = [2, 0]"] ;
59 -> 61 ;
62 [label="X[4] <= 261429379072.0\ngini = 0.107\nsamples = 901\nvalue = [1350, 81]"] ;
40 -> 62 ;
63 [label="X[0] <= 0.675\ngini = 0.171\nsamples = 239\nvalue = [346, 36]"] ;
62 -> 63 ;
64 [label="X[3] <= 87135212.0\ngini = 0.101\nsamples = 213\nvalue = [318, 18]"] ;
63 -> 64 ;
65 [label="X[6] <= 22057012.0\ngini = 0.08\nsamples = 199\nvalue = [299, 13]"] ;
64 -> 65 ;
66 [label="gini = 0.107\nsamples = 141\nvalue = [216, 13]"] ;
65 -> 66 ;
67 [label="gini = 0.0\nsamples = 58\nvalue = [83, 0]"] ;
65 -> 67 ;
68 [label="X[6] <= 25527011.0\ngini = 0.33\nsamples = 14\nvalue = [19, 5]"] ;
64 -> 68 ;
69 [label="gini = 0.095\nsamples = 12\nvalue = [19, 1]"] ;
68 -> 69 ;
70 [label="gini = 0.0\nsamples = 2\nvalue = [0, 4]"] ;
68 -> 70 ;
71 [label="X[0] <= 0.735\ngini = 0.476\nsamples = 26\nvalue = [28, 18]"] ;
63 -> 71 ;
72 [label="X[5] <= 1031.0\ngini = 0.493\nsamples = 25\nvalue = [23, 18]"] ;
71 -> 72 ;
73 [label="gini = 0.1\nsamples = 12\nvalue = [1, 18]"] ;
72 -> 73 ;
74 [label="gini = 0.0\nsamples = 13\nvalue = [22, 0]"] ;
72 -> 74 ;
75 [label="gini = 0.0\nsamples = 1\nvalue = [5, 0]"] ;
71 -> 75 ;
76 [label="X[4] <= 992344178688.0\ngini = 0.082\nsamples = 662\nvalue = [1004, 45]"] ;
62 -> 76 ;
77 [label="X[6] <= 31042011.0\ngini = 0.079\nsamples = 655\nvalue = [999, 43]"] ;
76 -> 77 ;
78 [label="X[2] <= 654.0\ngini = 0.075\nsamples = 650\nvalue = [990, 40]"] ;
77 -> 78 ;
79 [label="gini = 0.375\nsamples = 7\nvalue = [9, 3]"] ;
78 -> 79 ;
80 [label="gini = 0.07\nsamples = 643\nvalue = [981, 37]"] ;
78 -> 80 ;
81 [label="X[3] <= 19654969.5\ngini = 0.375\nsamples = 5\nvalue = [9, 3]"] ;
77 -> 81 ;
82 [label="gini = 0.5\nsamples = 2\nvalue = [3, 3]"] ;
81 -> 82 ;
83 [label="gini = 0.0\nsamples = 3\nvalue = [6, 0]"] ;
81 -> 83 ;
84 [label="X[0] <= 0.565\ngini = 0.408\nsamples = 7\nvalue = [5, 2]"] ;
76 -> 84 ;
85 [label="gini = 0.0\nsamples = 5\nvalue = [5, 0]"] ;
84 -> 85 ;
86 [label="gini = 0.0\nsamples = 2\nvalue = [0, 2]"] ;
84 -> 86 ;
87 [label="X[2] <= 70421.0\ngini = 0.088\nsamples = 92555\nvalue = [6736, 139739]"] ;
1 -> 87 ;
88 [label="X[0] <= 2.945\ngini = 0.087\nsamples = 92530\nvalue = [6699, 139739]"] ;
87 -> 88 ;
89 [label="X[2] <= 5625.0\ngini = 0.076\nsamples = 89333\nvalue = [5579, 135820]"] ;
88 -> 89 ;
90 [label="X[0] <= 1.125\ngini = 0.049\nsamples = 9759\nvalue = [384, 14902]"] ;
89 -> 90 ;
91 [label="X[0] <= 0.765\ngini = 0.219\nsamples = 396\nvalue = [75, 523]"] ;
90 -> 91 ;
92 [label="X[2] <= 3308.5\ngini = 0.48\nsamples = 14\nvalue = [8, 12]"] ;
91 -> 92 ;
93 [label="gini = 0.346\nsamples = 7\nvalue = [2, 7]"] ;
92 -> 93 ;
94 [label="gini = 0.496\nsamples = 7\nvalue = [6, 5]"] ;
92 -> 94 ;
95 [label="X[5] <= 1155.5\ngini = 0.205\nsamples = 382\nvalue = [67, 511]"] ;
91 -> 95 ;
96 [label="gini = 0.083\nsamples = 349\nvalue = [23, 505]"] ;
95 -> 96 ;
97 [label="gini = 0.211\nsamples = 33\nvalue = [44, 6]"] ;
95 -> 97 ;
98 [label="X[4] <= 2355122688.0\ngini = 0.041\nsamples = 9363\nvalue = [309, 14379]"] ;
90 -> 98 ;
99 [label="X[4] <= 2260072448.0\ngini = 0.139\nsamples = 25\nvalue = [3, 37]"] ;
98 -> 99 ;
100 [label="gini = 0.097\nsamples = 24\nvalue = [2, 37]"] ;
99 -> 100 ;
101 [label="gini = 0.0\nsamples = 1\nvalue = [1, 0]"] ;
99 -> 101 ;
102 [label="X[0] <= 1.405\ngini = 0.041\nsamples = 9338\nvalue = [306, 14342]"] ;
98 -> 102 ;
103 [label="gini = 0.079\nsamples = 810\nvalue = [51, 1184]"] ;
102 -> 103 ;
104 [label="gini = 0.037\nsamples = 8528\nvalue = [255, 13158]"] ;
102 -> 104 ;
105 [label="X[5] <= 1100.5\ngini = 0.079\nsamples = 79574\nvalue = [5195, 120918]"] ;
89 -> 105 ;
106 [label="X[3] <= 66284.0\ngini = 0.027\nsamples = 75581\nvalue = [1615, 118159]"] ;
105 -> 106 ;
107 [label="X[2] <= 6071.5\ngini = 0.024\nsamples = 35640\nvalue = [698, 55765]"] ;
106 -> 107 ;
108 [label="gini = 0.0\nsamples = 5\nvalue = [10, 0]"] ;
107 -> 108 ;
109 [label="gini = 0.024\nsamples = 35635\nvalue = [688, 55765]"] ;
107 -> 109 ;
110 [label="X[0] <= 1.045\ngini = 0.029\nsamples = 39941\nvalue = [917, 62394]"] ;
106 -> 110 ;
111 [label="gini = 0.174\nsamples = 949\nvalue = [145, 1364]"] ;
110 -> 111 ;
112 [label="gini = 0.025\nsamples = 38992\nvalue = [772, 61030]"] ;
110 -> 112 ;
113 [label="X[0] <= 1.295\ngini = 0.492\nsamples = 3993\nvalue = [3580, 2759]"] ;
105 -> 113 ;
114 [label="X[4] <= 60774684672.0\ngini = 0.258\nsamples = 666\nvalue = [902, 162]"] ;
113 -> 114 ;
115 [label="gini = 0.09\nsamples = 48\nvalue = [81, 4]"] ;
114 -> 115 ;
116 [label="gini = 0.271\nsamples = 618\nvalue = [821, 158]"] ;
114 -> 116 ;
117 [label="X[0] <= 2.575\ngini = 0.5\nsamples = 3327\nvalue = [2678, 2597]"] ;
113 -> 117 ;
118 [label="gini = 0.499\nsamples = 2791\nvalue = [2119, 2318]"] ;
117 -> 118 ;
119 [label="gini = 0.444\nsamples = 536\nvalue = [559, 279]"] ;
117 -> 119 ;
120 [label="X[0] <= 3.145\ngini = 0.346\nsamples = 3197\nvalue = [1120, 3919]"] ;
88 -> 120 ;
121 [label="X[5] <= 1054.0\ngini = 0.273\nsamples = 2031\nvalue = [523, 2686]"] ;
120 -> 121 ;
122 [label="X[2] <= 69590.0\ngini = 0.098\nsamples = 1758\nvalue = [144, 2629]"] ;
121 -> 122 ;
123 [label="X[6] <= 8072010.5\ngini = 0.093\nsamples = 1731\nvalue = [133, 2596]"] ;
122 -> 123 ;
124 [label="gini = 0.055\nsamples = 402\nvalue = [18, 617]"] ;
123 -> 124 ;
125 [label="gini = 0.104\nsamples = 1329\nvalue = [115, 1979]"] ;
123 -> 125 ;
126 [label="X[2] <= 69893.0\ngini = 0.375\nsamples = 27\nvalue = [11, 33]"] ;
122 -> 126 ;
127 [label="gini = 0.0\nsamples = 3\nvalue = [8, 0]"] ;
126 -> 127 ;
128 [label="gini = 0.153\nsamples = 24\nvalue = [3, 33]"] ;
126 -> 128 ;
129 [label="X[5] <= 1320.5\ngini = 0.227\nsamples = 273\nvalue = [379, 57]"] ;
121 -> 129 ;
130 [label="X[6] <= 23047011.0\ngini = 0.342\nsamples = 140\nvalue = [175, 49]"] ;
129 -> 130 ;
131 [label="gini = 0.262\nsamples = 102\nvalue = [136, 25]"] ;
130 -> 131 ;
132 [label="gini = 0.472\nsamples = 38\nvalue = [39, 24]"] ;
130 -> 132 ;
133 [label="X[2] <= 3922.0\ngini = 0.073\nsamples = 133\nvalue = [204, 8]"] ;
129 -> 133 ;
134 [label="gini = 0.346\nsamples = 6\nvalue = [7, 2]"] ;
133 -> 134 ;
135 [label="gini = 0.057\nsamples = 127\nvalue = [197, 6]"] ;
133 -> 135 ;
136 [label="X[5] <= 826.5\ngini = 0.44\nsamples = 1166\nvalue = [597, 1233]"] ;
120 -> 136 ;
137 [label="X[0] <= 3.245\ngini = 0.078\nsamples = 738\nvalue = [48, 1129]"] ;
136 -> 137 ;
138 [label="X[6] <= 23027011.0\ngini = 0.041\nsamples = 389\nvalue = [13, 602]"] ;
137 -> 138 ;
139 [label="gini = 0.017\nsamples = 292\nvalue = [4, 457]"] ;
138 -> 139 ;
140 [label="gini = 0.11\nsamples = 97\nvalue = [9, 145]"] ;
138 -> 140 ;
141 [label="X[4] <= 5199091200.0\ngini = 0.117\nsamples = 349\nvalue = [35, 527]"] ;
137 -> 141 ;
142 [label="gini = 0.0\nsamples = 1\nvalue = [1, 0]"] ;
141 -> 142 ;
143 [label="gini = 0.114\nsamples = 348\nvalue = [34, 527]"] ;
141 -> 143 ;
144 [label="X[2] <= 24348.5\ngini = 0.268\nsamples = 428\nvalue = [549, 104]"] ;
136 -> 144 ;
145 [label="X[4] <= 153442402304.0\ngini = 0.132\nsamples = 163\nvalue = [223, 17]"] ;
144 -> 145 ;
146 [label="gini = 0.397\nsamples = 24\nvalue = [24, 9]"] ;
145 -> 146 ;
147 [label="gini = 0.074\nsamples = 139\nvalue = [199, 8]"] ;
145 -> 147 ;
148 [label="X[6] <= 6067010.5\ngini = 0.333\nsamples = 265\nvalue = [326, 87]"] ;
144 -> 148 ;
149 [label="gini = 0.139\nsamples = 51\nvalue = [74, 6]"] ;
148 -> 149 ;
150 [label="gini = 0.368\nsamples = 214\nvalue = [252, 81]"] ;
148 -> 150 ;
151 [label="gini = 0.0\nsamples = 25\nvalue = [37, 0]"] ;
87 -> 151 ;
152 [label="X[6] <= 1022010.5\ngini = 0.05\nsamples = 3623342\nvalue = [5588171, 145628]"] ;
0 -> 152 [labeldistance=2.5, labelangle=-45, headlabel="False"] ;
153 [label="X[4] <= 999956217856.0\ngini = 0.058\nsamples = 15016\nvalue = [23003, 705]"] ;
152 -> 153 ;
154 [label="X[5] <= 407.0\ngini = 0.057\nsamples = 15014\nvalue = [23001, 702]"] ;
153 -> 154 ;
155 [label="X[5] <= 323.5\ngini = 0.208\nsamples = 264\nvalue = [53, 397]"] ;
154 -> 155 ;
156 [label="X[0] <= 1067.126\ngini = 0.114\nsamples = 188\nvalue = [19, 295]"] ;
155 -> 156 ;
157 [label="X[3] <= 29448584.0\ngini = 0.36\nsamples = 10\nvalue = [13, 4]"] ;
156 -> 157 ;
158 [label="X[3] <= 65512.5\ngini = 0.142\nsamples = 8\nvalue = [12, 1]"] ;
157 -> 158 ;
159 [label="gini = 0.0\nsamples = 6\nvalue = [9, 0]"] ;
158 -> 159 ;
160 [label="gini = 0.375\nsamples = 2\nvalue = [3, 1]"] ;
158 -> 160 ;
161 [label="X[2] <= 17732.0\ngini = 0.375\nsamples = 2\nvalue = [1, 3]"] ;
157 -> 161 ;
162 [label="gini = 0.0\nsamples = 1\nvalue = [0, 3]"] ;
161 -> 162 ;
163 [label="gini = 0.0\nsamples = 1\nvalue = [1, 0]"] ;
161 -> 163 ;
164 [label="X[0] <= 2892.144\ngini = 0.04\nsamples = 178\nvalue = [6, 291]"] ;
156 -> 164 ;
165 [label="X[3] <= 44541.5\ngini = 0.159\nsamples = 29\nvalue = [4, 42]"] ;
164 -> 165 ;
166 [label="gini = 0.408\nsamples = 4\nvalue = [2, 5]"] ;
165 -> 166 ;
167 [label="gini = 0.097\nsamples = 25\nvalue = [2, 37]"] ;
165 -> 167 ;
168 [label="X[3] <= 33910.0\ngini = 0.016\nsamples = 149\nvalue = [2, 249]"] ;
164 -> 168 ;
169 [label="gini = 0.071\nsamples = 34\nvalue = [2, 52]"] ;
168 -> 169 ;
170 [label="gini = 0.0\nsamples = 115\nvalue = [0, 197]"] ;
168 -> 170 ;
171 [label="X[4] <= 347322499072.0\ngini = 0.375\nsamples = 76\nvalue = [34, 102]"] ;
155 -> 171 ;
172 [label="X[3] <= 55575.5\ngini = 0.49\nsamples = 21\nvalue = [16, 12]"] ;
171 -> 172 ;
173 [label="X[6] <= 1017010.5\ngini = 0.355\nsamples = 9\nvalue = [3, 10]"] ;
172 -> 173 ;
174 [label="gini = 0.444\nsamples = 8\nvalue = [3, 6]"] ;
173 -> 174 ;
175 [label="gini = 0.0\nsamples = 1\nvalue = [0, 4]"] ;
173 -> 175 ;
176 [label="X[4] <= 133345480704.0\ngini = 0.231\nsamples = 12\nvalue = [13, 2]"] ;
172 -> 176 ;
177 [label="gini = 0.0\nsamples = 7\nvalue = [9, 0]"] ;
176 -> 177 ;
178 [label="gini = 0.444\nsamples = 5\nvalue = [4, 2]"] ;
176 -> 178 ;
179 [label="X[0] <= 1367.357\ngini = 0.278\nsamples = 55\nvalue = [18, 90]"] ;
171 -> 179 ;
180 [label="X[2] <= 1128.5\ngini = 0.18\nsamples = 13\nvalue = [18, 2]"] ;
179 -> 180 ;
181 [label="gini = 0.0\nsamples = 1\nvalue = [0, 1]"] ;
180 -> 181 ;
182 [label="gini = 0.1\nsamples = 12\nvalue = [18, 1]"] ;
180 -> 182 ;
183 [label="gini = 0.0\nsamples = 42\nvalue = [0, 88]"] ;
179 -> 183 ;
184 [label="X[0] <= 1815.147\ngini = 0.026\nsamples = 14750\nvalue = [22948, 305]"] ;
154 -> 184 ;
185 [label="X[5] <= 556.5\ngini = 0.002\nsamples = 11739\nvalue = [18523, 18]"] ;
184 -> 185 ;
186 [label="X[5] <= 554.5\ngini = 0.11\nsamples = 155\nvalue = [243, 15]"] ;
185 -> 186 ;
187 [label="X[6] <= 1012010.5\ngini = 0.07\nsamples = 150\nvalue = [238, 9]"] ;
186 -> 187 ;
188 [label="gini = 0.053\nsamples = 42\nvalue = [72, 2]"] ;
187 -> 188 ;
189 [label="gini = 0.078\nsamples = 108\nvalue = [166, 7]"] ;
187 -> 189 ;
190 [label="X[3] <= 7919048.0\ngini = 0.496\nsamples = 5\nvalue = [5, 6]"] ;
186 -> 190 ;
191 [label="gini = 0.245\nsamples = 3\nvalue = [1, 6]"] ;
190 -> 191 ;
192 [label="gini = 0.0\nsamples = 2\nvalue = [4, 0]"] ;
190 -> 192 ;
193 [label="X[3] <= 89139100.0\ngini = 0.0\nsamples = 11584\nvalue = [18280, 3]"] ;
185 -> 193 ;
194 [label="X[0] <= 1175.568\ngini = 0.0\nsamples = 10946\nvalue = [17280, 2]"] ;
193 -> 194 ;
195 [label="gini = 0.0\nsamples = 9818\nvalue = [15524, 0]"] ;
194 -> 195 ;
196 [label="gini = 0.002\nsamples = 1128\nvalue = [1756, 2]"] ;
194 -> 196 ;
197 [label="X[3] <= 89192064.0\ngini = 0.002\nsamples = 638\nvalue = [1000, 1]"] ;
193 -> 197 ;
198 [label="gini = 0.0\nsamples = 1\nvalue = [0, 1]"] ;
197 -> 198 ;
199 [label="gini = 0.0\nsamples = 637\nvalue = [1000, 0]"] ;
197 -> 199 ;
200 [label="X[2] <= 421.0\ngini = 0.114\nsamples = 3011\nvalue = [4425, 287]"] ;
184 -> 200 ;
201 [label="X[4] <= 396790939648.0\ngini = 0.5\nsamples = 11\nvalue = [10, 10]"] ;
200 -> 201 ;
202 [label="X[0] <= 6391.746\ngini = 0.375\nsamples = 6\nvalue = [6, 2]"] ;
201 -> 202 ;
203 [label="gini = 0.0\nsamples = 4\nvalue = [5, 0]"] ;
202 -> 203 ;
204 [label="gini = 0.444\nsamples = 2\nvalue = [1, 2]"] ;
202 -> 204 ;
205 [label="X[2] <= 256.0\ngini = 0.444\nsamples = 5\nvalue = [4, 8]"] ;
201 -> 205 ;
206 [label="gini = 0.0\nsamples = 2\nvalue = [4, 0]"] ;
205 -> 206 ;
207 [label="gini = 0.0\nsamples = 3\nvalue = [0, 8]"] ;
205 -> 207 ;
208 [label="X[5] <= 611.5\ngini = 0.111\nsamples = 3000\nvalue = [4415, 277]"] ;
200 -> 208 ;
209 [label="X[2] <= 68032.5\ngini = 0.356\nsamples = 116\nvalue = [45, 149]"] ;
208 -> 209 ;
210 [label="gini = 0.342\nsamples = 113\nvalue = [41, 146]"] ;
209 -> 210 ;
211 [label="gini = 0.49\nsamples = 3\nvalue = [4, 3]"] ;
209 -> 211 ;
212 [label="X[5] <= 832.5\ngini = 0.055\nsamples = 2884\nvalue = [4370, 128]"] ;
208 -> 212 ;
213 [label="gini = 0.328\nsamples = 256\nvalue = [323, 84]"] ;
212 -> 213 ;
214 [label="gini = 0.021\nsamples = 2628\nvalue = [4047, 44]"] ;
212 -> 214 ;
215 [label="X[6] <= 1017010.5\ngini = 0.48\nsamples = 2\nvalue = [2, 3]"] ;
153 -> 215 ;
216 [label="gini = 0.0\nsamples = 1\nvalue = [2, 0]"] ;
215 -> 216 ;
217 [label="gini = 0.0\nsamples = 1\nvalue = [0, 3]"] ;
215 -> 217 ;
218 [label="X[3] <= 88229048.0\ngini = 0.049\nsamples = 3608326\nvalue = [5565168, 144923]"] ;
152 -> 218 ;
219 [label="X[5] <= 479.5\ngini = 0.049\nsamples = 3395981\nvalue = [5237953, 136132]"] ;
218 -> 219 ;
220 [label="X[0] <= 1472.222\ngini = 0.396\nsamples = 75184\nvalue = [32385, 86730]"] ;
219 -> 220 ;
221 [label="X[3] <= 88156040.0\ngini = 0.25\nsamples = 18717\nvalue = [25320, 4354]"] ;
220 -> 221 ;
222 [label="X[3] <= 31349558.0\ngini = 0.25\nsamples = 18710\nvalue = [25312, 4349]"] ;
221 -> 222 ;
223 [label="X[0] <= 858.604\ngini = 0.255\nsamples = 13173\nvalue = [17760, 3131]"] ;
222 -> 223 ;
224 [label="gini = 0.129\nsamples = 8903\nvalue = [13137, 980]"] ;
223 -> 224 ;
225 [label="gini = 0.433\nsamples = 4270\nvalue = [4623, 2151]"] ;
223 -> 225 ;
226 [label="X[0] <= 1128.339\ngini = 0.239\nsamples = 5537\nvalue = [7552, 1218]"] ;
222 -> 226 ;
227 [label="gini = 0.171\nsamples = 4785\nvalue = [6896, 719]"] ;
226 -> 227 ;
228 [label="gini = 0.491\nsamples = 752\nvalue = [656, 499]"] ;
226 -> 228 ;
229 [label="X[0] <= 1025.978\ngini = 0.473\nsamples = 7\nvalue = [8, 5]"] ;
221 -> 229 ;
230 [label="X[3] <= 88217852.0\ngini = 0.198\nsamples = 5\nvalue = [8, 1]"] ;
229 -> 230 ;
231 [label="gini = 0.0\nsamples = 3\nvalue = [6, 0]"] ;
230 -> 231 ;
232 [label="gini = 0.444\nsamples = 2\nvalue = [2, 1]"] ;
230 -> 232 ;
233 [label="gini = 0.0\nsamples = 2\nvalue = [0, 4]"] ;
229 -> 233 ;
234 [label="X[5] <= 379.5\ngini = 0.146\nsamples = 56467\nvalue = [7065, 82376]"] ;
220 -> 234 ;
235 [label="X[2] <= 70465.5\ngini = 0.074\nsamples = 43981\nvalue = [2694, 67023]"] ;
234 -> 235 ;
236 [label="X[2] <= 69685.0\ngini = 0.074\nsamples = 43970\nvalue = [2678, 67023]"] ;
235 -> 236 ;
237 [label="gini = 0.073\nsamples = 43814\nvalue = [2644, 66814]"] ;
236 -> 237 ;
238 [label="gini = 0.241\nsamples = 156\nvalue = [34, 209]"] ;
236 -> 238 ;
239 [label="gini = 0.0\nsamples = 11\nvalue = [16, 0]"] ;
235 -> 239 ;
240 [label="X[2] <= 69694.0\ngini = 0.345\nsamples = 12486\nvalue = [4371, 15353]"] ;
234 -> 240 ;
241 [label="X[4] <= 9536334848.0\ngini = 0.342\nsamples = 12409\nvalue = [4292, 15308]"] ;
240 -> 241 ;
242 [label="gini = 0.449\nsamples = 107\nvalue = [60, 116]"] ;
241 -> 242 ;
243 [label="gini = 0.341\nsamples = 12302\nvalue = [4232, 15192]"] ;
241 -> 243 ;
244 [label="X[0] <= 6691.007\ngini = 0.462\nsamples = 77\nvalue = [79, 45]"] ;
240 -> 244 ;
245 [label="gini = 0.231\nsamples = 46\nvalue = [65, 10]"] ;
244 -> 245 ;
246 [label="gini = 0.408\nsamples = 31\nvalue = [14, 35]"] ;
244 -> 246 ;
247 [label="X[0] <= 1769.768\ngini = 0.019\nsamples = 3320797\nvalue = [5205568, 49402]"] ;
219 -> 247 ;
248 [label="X[6] <= 2097010.5\ngini = 0.002\nsamples = 2648312\nvalue = [4187680, 3283]"] ;
247 -> 248 ;
249 [label="X[2] <= 70631.5\ngini = 0.001\nsamples = 142212\nvalue = [224937, 145]"] ;
248 -> 249 ;
250 [label="X[5] <= 701.5\ngini = 0.001\nsamples = 142111\nvalue = [224789, 136]"] ;
249 -> 250 ;
251 [label="gini = 0.023\nsamples = 4034\nvalue = [6400, 76]"] ;
250 -> 251 ;
252 [label="gini = 0.001\nsamples = 138077\nvalue = [218389, 60]"] ;
250 -> 252 ;
253 [label="X[5] <= 636.0\ngini = 0.108\nsamples = 101\nvalue = [148, 9]"] ;
249 -> 253 ;
254 [label="gini = 0.32\nsamples = 5\nvalue = [2, 8]"] ;
253 -> 254 ;
255 [label="gini = 0.014\nsamples = 96\nvalue = [146, 1]"] ;
253 -> 255 ;
256 [label="X[5] <= 600.5\ngini = 0.002\nsamples = 2506100\nvalue = [3962743, 3138]"] ;
248 -> 256 ;
257 [label="X[0] <= 1427.595\ngini = 0.047\nsamples = 24221\nvalue = [37497, 921]"] ;
256 -> 257 ;
258 [label="gini = 0.032\nsamples = 23215\nvalue = [36234, 605]"] ;
257 -> 258 ;
259 [label="gini = 0.32\nsamples = 1006\nvalue = [1263, 316]"] ;
257 -> 259 ;
260 [label="X[0] <= 3.635\ngini = 0.001\nsamples = 2481879\nvalue = [3925246, 2217]"] ;
256 -> 260 ;
261 [label="gini = 0.16\nsamples = 419\nvalue = [612, 59]"] ;
260 -> 261 ;
262 [label="gini = 0.001\nsamples = 2481460\nvalue = [3924634, 2158]"] ;
260 -> 262 ;
263 [label="X[2] <= 73.5\ngini = 0.083\nsamples = 672485\nvalue = [1017888, 46119]"] ;
247 -> 263 ;
264 [label="X[6] <= 23572011.0\ngini = 0.429\nsamples = 329\nvalue = [376, 170]"] ;
263 -> 264 ;
265 [label="X[2] <= 63.5\ngini = 0.459\nsamples = 247\nvalue = [265, 147]"] ;
264 -> 265 ;
266 [label="gini = 0.0\nsamples = 127\nvalue = [200, 0]"] ;
265 -> 266 ;
267 [label="gini = 0.425\nsamples = 120\nvalue = [65, 147]"] ;
265 -> 267 ;
268 [label="X[4] <= 90817314816.0\ngini = 0.284\nsamples = 82\nvalue = [111, 23]"] ;
264 -> 268 ;
269 [label="gini = 0.498\nsamples = 10\nvalue = [8, 7]"] ;
268 -> 269 ;
270 [label="gini = 0.233\nsamples = 72\nvalue = [103, 16]"] ;
268 -> 270 ;
271 [label="X[0] <= 5996.979\ngini = 0.083\nsamples = 672156\nvalue = [1017512, 45949]"] ;
263 -> 271 ;
272 [label="X[5] <= 679.5\ngini = 0.099\nsamples = 394089\nvalue = [590595, 32642]"] ;
271 -> 272 ;
273 [label="gini = 0.5\nsamples = 20727\nvalue = [16023, 16727]"] ;
272 -> 273 ;
274 [label="gini = 0.052\nsamples = 373362\nvalue = [574572, 15915]"] ;
272 -> 274 ;
275 [label="X[5] <= 679.5\ngini = 0.059\nsamples = 278067\nvalue = [426917, 13307]"] ;
271 -> 275 ;
276 [label="gini = 0.463\nsamples = 11697\nvalue = [11753, 6721]"] ;
275 -> 276 ;
277 [label="gini = 0.031\nsamples = 266370\nvalue = [415164, 6586]"] ;
275 -> 277 ;
278 [label="X[4] <= 65073145856.0\ngini = 0.051\nsamples = 212345\nvalue = [327215, 8791]"] ;
218 -> 278 ;
279 [label="X[3] <= 95520708.0\ngini = 0.057\nsamples = 13843\nvalue = [21289, 647]"] ;
278 -> 279 ;
280 [label="X[0] <= 1974.799\ngini = 0.063\nsamples = 8588\nvalue = [13142, 439]"] ;
279 -> 280 ;
281 [label="X[5] <= 302.5\ngini = 0.006\nsamples = 6782\nvalue = [10670, 34]"] ;
280 -> 281 ;
282 [label="X[4] <= 55189348352.0\ngini = 0.355\nsamples = 8\nvalue = [3, 10]"] ;
281 -> 282 ;
283 [label="gini = 0.0\nsamples = 7\nvalue = [0, 10]"] ;
282 -> 283 ;
284 [label="gini = 0.0\nsamples = 1\nvalue = [3, 0]"] ;
282 -> 284 ;
285 [label="X[5] <= 447.5\ngini = 0.004\nsamples = 6774\nvalue = [10667, 24]"] ;
281 -> 285 ;
286 [label="gini = 0.326\nsamples = 29\nvalue = [31, 8]"] ;
285 -> 286 ;
287 [label="gini = 0.003\nsamples = 6745\nvalue = [10636, 16]"] ;
285 -> 287 ;
288 [label="X[0] <= 4853.431\ngini = 0.242\nsamples = 1806\nvalue = [2472, 405]"] ;
280 -> 288 ;
289 [label="X[3] <= 88311480.0\ngini = 0.311\nsamples = 725\nvalue = [941, 224]"] ;
288 -> 289 ;
290 [label="gini = 0.0\nsamples = 2\nvalue = [0, 5]"] ;
289 -> 290 ;
291 [label="gini = 0.306\nsamples = 723\nvalue = [941, 219]"] ;
289 -> 291 ;
292 [label="X[5] <= 512.0\ngini = 0.189\nsamples = 1081\nvalue = [1531, 181]"] ;
288 -> 292 ;
293 [label="gini = 0.104\nsamples = 83\nvalue = [7, 120]"] ;
292 -> 293 ;
294 [label="gini = 0.074\nsamples = 998\nvalue = [1524, 61]"] ;
292 -> 294 ;
295 [label="X[5] <= 405.5\ngini = 0.049\nsamples = 5255\nvalue = [8147, 208]"] ;
279 -> 295 ;
296 [label="X[5] <= 308.0\ngini = 0.167\nsamples = 80\nvalue = [11, 109]"] ;
295 -> 296 ;
297 [label="X[0] <= 1495.319\ngini = 0.022\nsamples = 60\nvalue = [1, 90]"] ;
296 -> 297 ;
298 [label="gini = 0.219\nsamples = 4\nvalue = [1, 7]"] ;
297 -> 298 ;
299 [label="gini = 0.0\nsamples = 56\nvalue = [0, 83]"] ;
297 -> 299 ;
300 [label="X[0] <= 1839.001\ngini = 0.452\nsamples = 20\nvalue = [10, 19]"] ;
296 -> 300 ;
301 [label="gini = 0.219\nsamples = 6\nvalue = [7, 1]"] ;
300 -> 301 ;
302 [label="gini = 0.245\nsamples = 14\nvalue = [3, 18]"] ;
300 -> 302 ;
303 [label="X[6] <= 1077010.5\ngini = 0.024\nsamples = 5175\nvalue = [8136, 99]"] ;
295 -> 303 ;
304 [label="X[0] <= 10323.45\ngini = 0.136\nsamples = 77\nvalue = [114, 9]"] ;
303 -> 304 ;
305 [label="gini = 0.095\nsamples = 76\nvalue = [114, 6]"] ;
304 -> 305 ;
306 [label="gini = 0.0\nsamples = 1\nvalue = [0, 3]"] ;
304 -> 306 ;
307 [label="X[5] <= 551.5\ngini = 0.022\nsamples = 5098\nvalue = [8022, 90]"] ;
303 -> 307 ;
308 [label="gini = 0.375\nsamples = 88\nvalue = [117, 39]"] ;
307 -> 308 ;
309 [label="gini = 0.013\nsamples = 5010\nvalue = [7905, 51]"] ;
307 -> 309 ;
310 [label="X[3] <= 88229092.0\ngini = 0.051\nsamples = 198502\nvalue = [305926, 8144]"] ;
278 -> 310 ;
311 [label="X[5] <= 885.0\ngini = 0.375\nsamples = 2\nvalue = [1, 3]"] ;
310 -> 311 ;
312 [label="gini = 0.0\nsamples = 1\nvalue = [0, 3]"] ;
311 -> 312 ;
313 [label="gini = 0.0\nsamples = 1\nvalue = [1, 0]"] ;
311 -> 313 ;
314 [label="X[5] <= 458.5\ngini = 0.05\nsamples = 198500\nvalue = [305925, 8141]"] ;
310 -> 314 ;
315 [label="X[2] <= 68037.0\ngini = 0.387\nsamples = 4495\nvalue = [1857, 5215]"] ;
314 -> 315 ;
316 [label="X[5] <= 279.5\ngini = 0.382\nsamples = 4386\nvalue = [1774, 5139]"] ;
315 -> 316 ;
317 [label="gini = 0.137\nsamples = 2132\nvalue = [251, 3133]"] ;
316 -> 317 ;
318 [label="gini = 0.491\nsamples = 2254\nvalue = [1523, 2006]"] ;
316 -> 318 ;
319 [label="X[0] <= 1069.231\ngini = 0.499\nsamples = 109\nvalue = [83, 76]"] ;
315 -> 319 ;
320 [label="gini = 0.115\nsamples = 34\nvalue = [46, 3]"] ;
319 -> 320 ;
321 [label="gini = 0.446\nsamples = 75\nvalue = [37, 73]"] ;
319 -> 321 ;
322 [label="X[2] <= 269.0\ngini = 0.019\nsamples = 194005\nvalue = [304068, 2926]"] ;
314 -> 322 ;
323 [label="X[0] <= 3806.763\ngini = 0.059\nsamples = 626\nvalue = [993, 31]"] ;
322 -> 323 ;
324 [label="gini = 0.002\nsamples = 504\nvalue = [826, 1]"] ;
323 -> 324 ;
325 [label="gini = 0.258\nsamples = 122\nvalue = [167, 30]"] ;
323 -> 325 ;
326 [label="X[5] <= 653.5\ngini = 0.019\nsamples = 193379\nvalue = [303075, 2895]"] ;
322 -> 326 ;
327 [label="gini = 0.271\nsamples = 5777\nvalue = [7713, 1490]"] ;
326 -> 327 ;
328 [label="gini = 0.009\nsamples = 187602\nvalue = [295362, 1405]"] ;
326 -> 328 ;
}