digraph Tree { 
node [shape=box] ;
0 [label="[f25<1.02398252] yes=1,no=2,missing=1"] ;
1 [label="[f25<0.692334116] yes=3,no=4,missing=3"] ;
3 [label="[f27<0.882408261] yes=7,no=8,missing=7"] ;
7 [label="[f5<0.843473434] yes=15,no=16,missing=15"] ;
15 [label="[f26<0.736854732] yes=31,no=32,missing=31"] ;
31 [label="[f9<1.03347886] yes=63,no=64,missing=63"] ;
63 [label="[f24<0.713785291] yes=127,no=128,missing=127"] ;
127 [label="[f17<1.27873945] yes=255,no=256,missing=255"] ;
255 [label="leaf=-0.0162643306"] ;
256 [label="leaf=0.0320489407"] ;
128 [label="[f22<0.824831247] yes=257,no=258,missing=257"] ;
257 [label="leaf=-0.0182756651"] ;
258 [label="leaf=-0.0524556041"] ;
64 [label="[f27<0.636690021] yes=129,no=130,missing=129"] ;
129 [label="[f10<1.99866152] yes=259,no=260,missing=259"] ;
259 [label="leaf=0.0580018833"] ;
260 [label="leaf=-0.0762075111"] ;
130 [label="[f9<1.23454678] yes=261,no=262,missing=261"] ;
261 [label="leaf=-0.00517301215"] ;
262 [label="leaf=0.0327625982"] ;
32 [label="[f24<0.721510649] yes=65,no=66,missing=65"] ;
65 [label="[f25<0.523594141] yes=131,no=132,missing=131"] ;
131 [label="[f27<0.768772125] yes=263,no=264,missing=263"] ;
263 [label="leaf=0.0385142602"] ;
264 [label="leaf=-0.00540280994"] ;
132 [label="[f27<0.806640744] yes=265,no=266,missing=265"] ;
265 [label="leaf=0.0667678788"] ;
266 [label="leaf=0.0268649198"] ;
66 [label="[f22<0.800792336] yes=133,no=134,missing=133"] ;
133 [label="[f21<0.751136124] yes=267,no=268,missing=267"] ;
267 [label="leaf=0.00258739269"] ;
268 [label="leaf=0.0460721813"] ;
134 [label="[f23<1.24653912] yes=269,no=270,missing=269"] ;
269 [label="leaf=-0.0175923146"] ;
270 [label="leaf=0.039500095"] ;
16 [label="[f5<1.56396425] yes=33,no=34,missing=33"] ;
33 [label="[f25<0.507686853] yes=67,no=68,missing=67"] ;
67 [label="[f27<0.634173632] yes=135,no=136,missing=135"] ;
135 [label="[f6<-1.59677124] yes=271,no=272,missing=271"] ;
271 [label="leaf=-0.0190616008"] ;
272 [label="leaf=0.0447310247"] ;
136 [label="[f21<1.09091425] yes=273,no=274,missing=273"] ;
273 [label="leaf=-0.00772230281"] ;
274 [label="leaf=0.0344245248"] ;
68 [label="[f24<0.758487701] yes=137,no=138,missing=137"] ;
137 [label="[f26<0.744176149] yes=275,no=276,missing=275"] ;
275 [label="leaf=0.0275383927"] ;
276 [label="leaf=0.0710323006"] ;
138 [label="[f22<0.723533511] yes=277,no=278,missing=277"] ;
277 [label="leaf=0.0740020573"] ;
278 [label="leaf=0.0103726834"] ;
34 [label="[f13<0.632500291] yes=69,no=70,missing=69"] ;
69 [label="[f3<1.71087837] yes=139,no=140,missing=139"] ;
139 [label="[f7<0.458352089] yes=279,no=280,missing=279"] ;
279 [label="leaf=0.0129774008"] ;
280 [label="leaf=0.0841046795"] ;
140 [label="[f15<-0.66643703] yes=281,no=282,missing=281"] ;
281 [label="leaf=0.0255227964"] ;
282 [label="leaf=-0.0612146966"] ;
70 [label="[f5<2.16499925] yes=141,no=142,missing=141"] ;
141 [label="[f0<1.41283023] yes=283,no=284,missing=283"] ;
283 [label="leaf=0.0741507784"] ;
284 [label="leaf=0.0320273824"] ;
142 [label="[f9<0.521492302] yes=285,no=286,missing=285"] ;
285 [label="leaf=-0.0145880794"] ;
286 [label="leaf=0.10725379"] ;
8 [label="[f5<1.84977877] yes=17,no=18,missing=17"] ;
17 [label="[f3<2.39141703] yes=35,no=36,missing=35"] ;
35 [label="[f0<2.21303749] yes=71,no=72,missing=71"] ;
71 [label="[f24<1.03525198] yes=143,no=144,missing=143"] ;
143 [label="[f22<1.00737238] yes=287,no=288,missing=287"] ;
287 [label="leaf=-0.0546883643"] ;
288 [label="leaf=-0.0127344979"] ;
144 [label="[f22<0.769209862] yes=289,no=290,missing=289"] ;
289 [label="leaf=0.023827998"] ;
290 [label="leaf=-0.0133421738"] ;
72 [label="[f0<2.88330841] yes=145,no=146,missing=145"] ;
145 [label="[f24<0.935329914] yes=291,no=292,missing=291"] ;
291 [label="leaf=-0.0833813101"] ;
292 [label="leaf=-0.046061039"] ;
146 [label="[f6<1.12834167] yes=293,no=294,missing=293"] ;
293 [label="leaf=-0.11445757"] ;
294 [label="leaf=-0.0596462004"] ;
36 [label="[f23<1.22511232] yes=73,no=74,missing=73"] ;
73 [label="[f3<2.75118494] yes=147,no=148,missing=147"] ;
147 [label="[f6<2.78153038] yes=295,no=296,missing=295"] ;
295 [label="leaf=-0.0767488778"] ;
296 [label="leaf=0.114177465"] ;
148 [label="[f6<1.1496315] yes=297,no=298,missing=297"] ;
297 [label="leaf=-0.111721709"] ;
298 [label="leaf=-0.071421884"] ;
74 [label="[f25<0.482505977] yes=149,no=150,missing=149"] ;
149 [label="[f22<0.793972135] yes=299,no=300,missing=299"] ;
299 [label="leaf=0.0788855925"] ;
300 [label="leaf=-0.0512845032"] ;
150 [label="[f23<2.2115407] yes=301,no=302,missing=301"] ;
301 [label="leaf=0.018418869"] ;
302 [label="leaf=0.123051248"] ;
18 [label="[f13<0.819800436] yes=37,no=38,missing=37"] ;
37 [label="[f9<1.70139682] yes=75,no=76,missing=75"] ;
75 [label="[f17<0.734724522] yes=151,no=152,missing=151"] ;
151 [label="[f6<1.90072107] yes=303,no=304,missing=303"] ;
303 [label="leaf=-0.0811784416"] ;
304 [label="leaf=0.136393115"] ;
152 [label="[f6<0.98822403] yes=305,no=306,missing=305"] ;
305 [label="leaf=-0.0242190044"] ;
306 [label="leaf=0.0860452279"] ;
76 [label="[f17<0.488883257] yes=153,no=154,missing=153"] ;
153 [label="[f23<1.38449836] yes=307,no=308,missing=307"] ;
307 [label="leaf=-0.0580779687"] ;
308 [label="leaf=0.114346758"] ;
154 [label="[f15<-1.62030435] yes=309,no=310,missing=309"] ;
309 [label="leaf=-0.10396897"] ;
310 [label="leaf=0.0562532507"] ;
38 [label="[f0<2.26501203] yes=77,no=78,missing=77"] ;
77 [label="[f3<3.26387739] yes=155,no=156,missing=155"] ;
155 [label="[f5<2.55987215] yes=311,no=312,missing=311"] ;
311 [label="leaf=0.0591901056"] ;
312 [label="leaf=0.110465921"] ;
156 [label="[f6<-1.43833435] yes=313,no=314,missing=313"] ;
313 [label="leaf=0.0662906319"] ;
314 [label="leaf=-0.0754763409"] ;
78 [label="[f6<0.690164804] yes=157,no=158,missing=157"] ;
157 [label="[f6<-1.66311657] yes=315,no=316,missing=315"] ;
315 [label="leaf=0.057798624"] ;
316 [label="leaf=-0.0698232576"] ;
158 [label="[f14<1.08427906] yes=317,no=318,missing=317"] ;
317 [label="leaf=0.0643023625"] ;
318 [label="leaf=-0.106222428"] ;
4 [label="[f26<0.839570045] yes=9,no=10,missing=9"] ;
9 [label="[f5<0.864359856] yes=19,no=20,missing=19"] ;
19 [label="[f9<1.11393118] yes=39,no=40,missing=39"] ;
39 [label="[f25<0.785195589] yes=79,no=80,missing=79"] ;
79 [label="[f26<0.779820919] yes=159,no=160,missing=159"] ;
159 [label="[f3<1.23637354] yes=319,no=320,missing=319"] ;
319 [label="leaf=-0.0047397078"] ;
320 [label="leaf=-0.052415248"] ;
160 [label="[f27<0.768479824] yes=321,no=322,missing=321"] ;
321 [label="leaf=0.0560138896"] ;
322 [label="leaf=0.0050133951"] ;
80 [label="[f27<0.788117528] yes=161,no=162,missing=161"] ;
161 [label="[f26<0.753143907] yes=323,no=324,missing=323"] ;
323 [label="leaf=-0.0357289836"] ;
324 [label="leaf=-0.00104180467"] ;
162 [label="[f22<0.795388579] yes=325,no=326,missing=325"] ;
325 [label="leaf=0.00250166631"] ;
326 [label="leaf=-0.0656459853"] ;
40 [label="[f27<0.862613142] yes=81,no=82,missing=81"] ;
81 [label="[f25<0.87320596] yes=163,no=164,missing=163"] ;
163 [label="[f9<1.23290992] yes=327,no=328,missing=327"] ;
327 [label="leaf=0.0411758088"] ;
328 [label="leaf=0.0727816001"] ;
164 [label="[f5<0.417179286] yes=329,no=330,missing=329"] ;
329 [label="leaf=-0.0682980791"] ;
330 [label="leaf=0.0266004708"] ;
82 [label="[f17<0.531357765] yes=165,no=166,missing=165"] ;
165 [label="[f21<1.17639673] yes=331,no=332,missing=331"] ;
331 [label="leaf=0.0852076784"] ;
332 [label="leaf=-0.0836240873"] ;
166 [label="[f19<0.348600805] yes=333,no=334,missing=333"] ;
333 [label="leaf=-0.0725433379"] ;
334 [label="leaf=-0.00335832173"] ;
20 [label="[f27<0.837994397] yes=41,no=42,missing=41"] ;
41 [label="[f3<1.09546351] yes=83,no=84,missing=83"] ;
83 [label="[f0<1.30275023] yes=167,no=168,missing=167"] ;
167 [label="[f5<1.01487064] yes=335,no=336,missing=335"] ;
335 [label="leaf=0.0441380329"] ;
336 [label="leaf=0.0706843808"] ;
168 [label="[f26<0.780225456] yes=337,no=338,missing=337"] ;
337 [label="leaf=-0.0195872318"] ;
338 [label="leaf=0.0434394963"] ;
84 [label="[f13<1.12625968] yes=169,no=170,missing=169"] ;
169 [label="[f26<0.762972593] yes=339,no=340,missing=339"] ;
339 [label="leaf=-0.0260584503"] ;
340 [label="leaf=0.0262588207"] ;
170 [label="[f5<1.67851901] yes=341,no=342,missing=341"] ;
341 [label="leaf=0.0407012589"] ;
342 [label="leaf=0.104960941"] ;
42 [label="[f5<1.9575088] yes=85,no=86,missing=85"] ;
85 [label="[f8<0.543269038] yes=171,no=172,missing=171"] ;
171 [label="[f0<1.11370182] yes=343,no=344,missing=343"] ;
343 [label="leaf=-0.0239775069"] ;
344 [label="leaf=-0.0669407174"] ;
172 [label="[f18<0.131125391] yes=345,no=346,missing=345"] ;
345 [label="leaf=0.0722567737"] ;
346 [label="leaf=-0.00849093497"] ;
86 [label="[f13<0.506316304] yes=173,no=174,missing=173"] ;
173 [label="leaf=-0.109045185"] ;
174 [label="[f3<2.91052604] yes=347,no=348,missing=347"] ;
347 [label="leaf=0.128783047"] ;
348 [label="leaf=-0.0483285598"] ;
10 [label="[f27<0.876385093] yes=21,no=22,missing=21"] ;
21 [label="[f5<0.996732354] yes=43,no=44,missing=43"] ;
43 [label="[f21<1.00473571] yes=87,no=88,missing=87"] ;
87 [label="[f22<0.999216557] yes=175,no=176,missing=175"] ;
175 [label="[f25<0.939269185] yes=349,no=350,missing=349"] ;
349 [label="leaf=0.0628550649"] ;
350 [label="leaf=0.025328422"] ;
176 [label="[f3<1.45517969] yes=351,no=352,missing=351"] ;
351 [label="leaf=0.103261881"] ;
352 [label="leaf=0.0367860049"] ;
88 [label="[f26<0.900856853] yes=177,no=178,missing=177"] ;
177 [label="[f0<0.593406916] yes=353,no=354,missing=353"] ;
353 [label="leaf=-0.0174041409"] ;
354 [label="leaf=0.0230427571"] ;
178 [label="[f5<0.758507729] yes=355,no=356,missing=355"] ;
355 [label="leaf=0.0277327951"] ;
356 [label="leaf=0.0598802529"] ;
44 [label="[f5<1.6973443] yes=89,no=90,missing=89"] ;
89 [label="[f22<1.02871764] yes=179,no=180,missing=179"] ;
179 [label="[f22<0.763847828] yes=357,no=358,missing=357"] ;
357 [label="leaf=0.0968778059"] ;
358 [label="leaf=0.073822625"] ;
180 [label="[f21<1.00581026] yes=359,no=360,missing=359"] ;
359 [label="leaf=0.112246983"] ;
360 [label="leaf=0.0691525564"] ;
90 [label="[f3<2.46996236] yes=181,no=182,missing=181"] ;
181 [label="[f17<0.37642917] yes=361,no=362,missing=361"] ;
361 [label="leaf=-0.0191338528"] ;
362 [label="leaf=0.120970368"] ;
182 [label="[f5<1.76719487] yes=363,no=364,missing=363"] ;
363 [label="leaf=-0.082226105"] ;
364 [label="leaf=0.0900710747"] ;
22 [label="[f3<1.62761188] yes=45,no=46,missing=45"] ;
45 [label="[f5<0.867657781] yes=91,no=92,missing=91"] ;
91 [label="[f9<0.981228948] yes=183,no=184,missing=183"] ;
183 [label="[f22<1.00421977] yes=365,no=366,missing=365"] ;
365 [label="leaf=-0.0126770828"] ;
366 [label="leaf=0.0174764674"] ;
184 [label="[f0<1.13593745] yes=367,no=368,missing=367"] ;
367 [label="leaf=0.0508411191"] ;
368 [label="leaf=0.00793188903"] ;
92 [label="[f0<1.40798044] yes=185,no=186,missing=185"] ;
185 [label="[f5<1.78968441] yes=369,no=370,missing=369"] ;
369 [label="leaf=0.0547647774"] ;
370 [label="leaf=0.10238196"] ;
186 [label="[f24<1.03117919] yes=371,no=372,missing=371"] ;
371 [label="leaf=-0.0301162507"] ;
372 [label="leaf=0.0287163258"] ;
46 [label="[f3<2.66541529] yes=93,no=94,missing=93"] ;
93 [label="[f5<1.96987581] yes=187,no=188,missing=187"] ;
187 [label="[f8<1.62980711] yes=373,no=374,missing=373"] ;
373 [label="leaf=-0.0194012988"] ;
374 [label="leaf=0.0189857204"] ;
188 [label="[f8<0.543269038] yes=375,no=376,missing=375"] ;
375 [label="leaf=0.0820439979"] ;
376 [label="leaf=-0.0692943335"] ;
94 [label="[f23<1.40299535] yes=189,no=190,missing=189"] ;
189 [label="[f5<2.18130541] yes=377,no=378,missing=377"] ;
377 [label="leaf=-0.0756501853"] ;
378 [label="leaf=-0.00524095399"] ;
190 [label="[f25<0.962640047] yes=379,no=380,missing=379"] ;
379 [label="leaf=0.0661127344"] ;
380 [label="leaf=-0.0435481183"] ;
2 [label="[f25<1.69316006] yes=5,no=6,missing=5"] ;
5 [label="[f22<1.00642347] yes=11,no=12,missing=11"] ;
11 [label="[f24<1.02651489] yes=23,no=24,missing=23"] ;
23 [label="[f27<0.91094929] yes=47,no=48,missing=47"] ;
47 [label="[f5<0.867199719] yes=95,no=96,missing=95"] ;
95 [label="[f24<0.739363968] yes=191,no=192,missing=191"] ;
191 [label="[f26<0.843814492] yes=381,no=382,missing=381"] ;
381 [label="leaf=-0.0331992172"] ;
382 [label="leaf=0.0149647668"] ;
192 [label="[f21<0.930405974] yes=383,no=384,missing=383"] ;
383 [label="leaf=-0.0619112439"] ;
384 [label="leaf=-0.0264361035"] ;
96 [label="[f22<0.747794986] yes=193,no=194,missing=193"] ;
193 [label="[f25<1.39287496] yes=385,no=386,missing=385"] ;
385 [label="leaf=0.0550992973"] ;
386 [label="leaf=-0.00247278949"] ;
194 [label="[f24<0.718897998] yes=387,no=388,missing=387"] ;
387 [label="leaf=0.0245740879"] ;
388 [label="leaf=-0.0219112523"] ;
48 [label="[f27<1.06238365] yes=97,no=98,missing=97"] ;
97 [label="[f26<1.05685198] yes=195,no=196,missing=195"] ;
195 [label="[f22<0.774087787] yes=389,no=390,missing=389"] ;
389 [label="leaf=-0.0314937904"] ;
390 [label="leaf=-0.0880075097"] ;
196 [label="[f25<1.25473189] yes=391,no=392,missing=391"] ;
391 [label="leaf=-0.0245627817"] ;
392 [label="leaf=-0.0599638633"] ;
98 [label="[f0<1.31903803] yes=197,no=198,missing=197"] ;
197 [label="[f22<0.79421705] yes=393,no=394,missing=393"] ;
393 [label="leaf=-0.0521141179"] ;
394 [label="leaf=-0.0895638838"] ;
198 [label="[f9<0.488253742] yes=395,no=396,missing=395"] ;
395 [label="leaf=-0.0657199547"] ;
396 [label="leaf=-0.111436106"] ;
24 [label="[f27<1.06921327] yes=49,no=50,missing=49"] ;
49 [label="[f5<1.20284855] yes=99,no=100,missing=99"] ;
99 [label="[f9<1.31814671] yes=199,no=200,missing=199"] ;
199 [label="[f0<0.622139454] yes=397,no=398,missing=397"] ;
397 [label="leaf=-0.0400087647"] ;
398 [label="leaf=-0.00216450612"] ;
200 [label="[f25<1.44082534] yes=399,no=400,missing=399"] ;
399 [label="leaf=0.0474685542"] ;
400 [label="leaf=-0.00314215804"] ;
100 [label="[f3<1.18850946] yes=201,no=202,missing=201"] ;
201 [label="[f24<1.17923594] yes=401,no=402,missing=401"] ;
401 [label="leaf=0.0272889677"] ;
402 [label="leaf=0.0656417236"] ;
202 [label="[f5<1.89219284] yes=403,no=404,missing=403"] ;
403 [label="leaf=0.00894680992"] ;
404 [label="leaf=0.0762934014"] ;
50 [label="[f24<1.34501016] yes=101,no=102,missing=101"] ;
101 [label="[f21<0.953121901] yes=203,no=204,missing=203"] ;
203 [label="[f22<0.686761498] yes=405,no=406,missing=405"] ;
405 [label="leaf=0.0103516113"] ;
406 [label="leaf=-0.0783007592"] ;
204 [label="[f27<1.25227797] yes=407,no=408,missing=407"] ;
407 [label="leaf=-0.0153372688"] ;
408 [label="leaf=-0.0670238286"] ;
102 [label="[f9<1.88823771] yes=205,no=206,missing=205"] ;
205 [label="[f0<2.50850558] yes=409,no=410,missing=409"] ;
409 [label="leaf=-0.0189547855"] ;
410 [label="leaf=-0.0853089988"] ;
206 [label="[f27<1.23480082] yes=411,no=412,missing=411"] ;
411 [label="leaf=0.0801899657"] ;
412 [label="leaf=0.0114256768"] ;
12 [label="[f5<0.950012624] yes=25,no=26,missing=25"] ;
25 [label="[f9<1.42636073] yes=51,no=52,missing=51"] ;
51 [label="[f27<0.947328925] yes=103,no=104,missing=103"] ;
103 [label="[f21<1.18485785] yes=207,no=208,missing=207"] ;
207 [label="[f26<0.963443518] yes=413,no=414,missing=413"] ;
413 [label="leaf=-0.0252432358"] ;
414 [label="leaf=0.0200918"] ;
208 [label="[f17<0.647097945] yes=415,no=416,missing=415"] ;
415 [label="leaf=-0.0417207591"] ;
416 [label="leaf=0.0574937835"] ;
104 [label="[f24<1.0456847] yes=209,no=210,missing=209"] ;
209 [label="[f22<1.19856739] yes=417,no=418,missing=417"] ;
417 [label="leaf=-0.0610194318"] ;
418 [label="leaf=-0.0317486636"] ;
210 [label="[f13<1.66260719] yes=419,no=420,missing=419"] ;
419 [label="leaf=-0.0192848593"] ;
420 [label="leaf=0.0247299001"] ;
52 [label="[f27<1.28605807] yes=105,no=106,missing=105"] ;
105 [label="[f9<1.65733063] yes=211,no=212,missing=211"] ;
211 [label="[f25<1.27429843] yes=421,no=422,missing=421"] ;
421 [label="leaf=0.0486427508"] ;
422 [label="leaf=0.00682074064"] ;
212 [label="[f3<2.19069839] yes=423,no=424,missing=423"] ;
423 [label="leaf=0.0639799908"] ;
424 [label="leaf=-0.0472991094"] ;
106 [label="[f24<1.01163793] yes=213,no=214,missing=213"] ;
213 [label="[f15<1.14793015] yes=425,no=426,missing=425"] ;
425 [label="leaf=-0.0645073578"] ;
426 [label="leaf=0.0426978581"] ;
214 [label="[f26<1.96414685] yes=427,no=428,missing=427"] ;
427 [label="leaf=-0.00176936819"] ;
428 [label="leaf=0.0705649555"] ;
26 [label="[f3<2.15042925] yes=53,no=54,missing=53"] ;
53 [label="[f0<2.36896133] yes=107,no=108,missing=107"] ;
107 [label="[f5<1.75409508] yes=215,no=216,missing=215"] ;
215 [label="[f25<1.22450304] yes=429,no=430,missing=429"] ;
429 [label="leaf=0.0322418623"] ;
430 [label="leaf=0.00745530427"] ;
216 [label="[f8<0.543269038] yes=431,no=432,missing=431"] ;
431 [label="leaf=0.0677389279"] ;
432 [label="leaf=0.017180983"] ;
108 [label="[f0<3.2607646] yes=217,no=218,missing=217"] ;
217 [label="[f6<1.72446001] yes=433,no=434,missing=433"] ;
433 [label="leaf=-0.0323017463"] ;
434 [label="leaf=0.0807143226"] ;
218 [label="[f6<-1.55716193] yes=435,no=436,missing=435"] ;
435 [label="leaf=0.016567016"] ;
436 [label="leaf=-0.104756489"] ;
54 [label="[f3<3.27689934] yes=109,no=110,missing=109"] ;
109 [label="[f24<1.93621492] yes=219,no=220,missing=219"] ;
219 [label="[f5<1.84881687] yes=437,no=438,missing=437"] ;
437 [label="leaf=-0.0286818501"] ;
438 [label="leaf=0.0234020185"] ;
220 [label="[f8<0.543269038] yes=439,no=440,missing=439"] ;
439 [label="leaf=-0.0195440371"] ;
440 [label="leaf=-0.0843647793"] ;
110 [label="[f23<1.55287421] yes=221,no=222,missing=221"] ;
221 [label="[f7<0.610805273] yes=441,no=442,missing=441"] ;
441 [label="leaf=-0.109730795"] ;
442 [label="leaf=-0.0556207113"] ;
222 [label="[f4<-0.248402983] yes=443,no=444,missing=443"] ;
443 [label="leaf=-0.0476759486"] ;
444 [label="leaf=0.145643979"] ;
6 [label="[f22<1.03624737] yes=13,no=14,missing=13"] ;
13 [label="[f27<0.935422301] yes=27,no=28,missing=27"] ;
27 [label="[f21<0.573567688] yes=55,no=56,missing=55"] ;
55 [label="[f0<1.37458134] yes=111,no=112,missing=111"] ;
111 [label="[f3<1.07109499] yes=223,no=224,missing=223"] ;
223 [label="[f17<0.532818258] yes=445,no=446,missing=445"] ;
445 [label="leaf=0.00693446724"] ;
446 [label="leaf=0.0534349792"] ;
224 [label="[f13<0.714954495] yes=447,no=448,missing=447"] ;
447 [label="leaf=-0.0590010583"] ;
448 [label="leaf=0.0261244271"] ;
112 [label="[f14<0.569988608] yes=225,no=226,missing=225"] ;
225 [label="[f25<1.95321763] yes=449,no=450,missing=449"] ;
449 [label="leaf=-0.145883501"] ;
450 [label="leaf=-0.00112586829"] ;
226 [label="[f9<1.4200027] yes=451,no=452,missing=451"] ;
451 [label="leaf=-0.0484798588"] ;
452 [label="leaf=0.125403285"] ;
56 [label="[f21<0.937650323] yes=113,no=114,missing=113"] ;
113 [label="[f27<0.815866649] yes=227,no=228,missing=227"] ;
227 [label="[f5<1.22158217] yes=453,no=454,missing=453"] ;
453 [label="leaf=-0.0205365457"] ;
454 [label="leaf=0.0735239312"] ;
228 [label="[f5<1.44043183] yes=455,no=456,missing=455"] ;
455 [label="leaf=-0.0554212034"] ;
456 [label="leaf=0.00247194455"] ;
114 [label="[f0<1.15066969] yes=229,no=230,missing=229"] ;
229 [label="[f24<0.994711936] yes=457,no=458,missing=457"] ;
457 [label="leaf=-0.00794847403"] ;
458 [label="leaf=0.0417612456"] ;
230 [label="[f26<1.04085732] yes=459,no=460,missing=459"] ;
459 [label="leaf=-0.0118038747"] ;
460 [label="leaf=-0.0909919813"] ;
28 [label="[f24<1.12508953] yes=57,no=58,missing=57"] ;
57 [label="[f27<1.0809536] yes=115,no=116,missing=115"] ;
115 [label="[f5<2.15052509] yes=231,no=232,missing=231"] ;
231 [label="[f0<1.21993864] yes=461,no=462,missing=461"] ;
461 [label="leaf=-0.0668333694"] ;
462 [label="leaf=-0.103698246"] ;
232 [label="[f26<1.21296763] yes=463,no=464,missing=463"] ;
463 [label="leaf=0.106264532"] ;
464 [label="leaf=-0.0398785248"] ;
116 [label="[f27<1.20423508] yes=233,no=234,missing=233"] ;
233 [label="[f24<0.973026752] yes=465,no=466,missing=465"] ;
465 [label="leaf=-0.106133275"] ;
466 [label="leaf=-0.0762268454"] ;
234 [label="[f10<-2.68627357] yes=467,no=468,missing=467"] ;
467 [label="leaf=0.0304168761"] ;
468 [label="leaf=-0.113754511"] ;
58 [label="[f22<0.823846161] yes=117,no=118,missing=117"] ;
117 [label="[f23<1.33958864] yes=235,no=236,missing=235"] ;
235 [label="[f3<1.67975307] yes=469,no=470,missing=469"] ;
469 [label="leaf=-0.0041299588"] ;
470 [label="leaf=-0.0501409471"] ;
236 [label="[f24<2.02108073] yes=471,no=472,missing=471"] ;
471 [label="leaf=-0.103230469"] ;
472 [label="leaf=0.0661149248"] ;
118 [label="[f21<0.92146194] yes=237,no=238,missing=237"] ;
237 [label="[f5<2.31266999] yes=473,no=474,missing=473"] ;
473 [label="leaf=-0.0629412606"] ;
474 [label="leaf=-0.0226596724"] ;
238 [label="[f0<1.91217053] yes=475,no=476,missing=475"] ;
475 [label="leaf=-0.0237922054"] ;
476 [label="leaf=-0.0784906372"] ;
14 [label="[f0<1.18644786] yes=29,no=30,missing=29"] ;
29 [label="[f3<1.86595988] yes=59,no=60,missing=59"] ;
59 [label="[f25<2.25990629] yes=119,no=120,missing=119"] ;
119 [label="[f9<1.72972524] yes=239,no=240,missing=239"] ;
239 [label="[f5<1.03479505] yes=477,no=478,missing=477"] ;
477 [label="leaf=-0.0360109955"] ;
478 [label="leaf=-0.00314273289"] ;
240 [label="[f21<2.69694376] yes=479,no=480,missing=479"] ;
479 [label="leaf=0.0373211689"] ;
480 [label="leaf=-0.0378928147"] ;
120 [label="[f24<1.33332729] yes=241,no=242,missing=241"] ;
241 [label="[f3<1.03756547] yes=481,no=482,missing=481"] ;
481 [label="leaf=-0.0420315228"] ;
482 [label="leaf=-0.0779086128"] ;
242 [label="[f21<1.06076801] yes=483,no=484,missing=483"] ;
483 [label="leaf=0.0121491021"] ;
484 [label="leaf=-0.0449567698"] ;
60 [label="[f24<1.15038896] yes=121,no=122,missing=121"] ;
121 [label="[f27<1.15032458] yes=243,no=244,missing=243"] ;
243 [label="[f21<0.816042364] yes=485,no=486,missing=485"] ;
485 [label="leaf=0.0573893599"] ;
486 [label="leaf=-0.0782679096"] ;
244 [label="[f24<0.735982835] yes=487,no=488,missing=487"] ;
487 [label="leaf=-0.0637779981"] ;
488 [label="leaf=-0.113286175"] ;
122 [label="[f3<3.03760386] yes=245,no=246,missing=245"] ;
245 [label="[f21<1.7180934] yes=489,no=490,missing=489"] ;
489 [label="leaf=-0.0342104547"] ;
490 [label="leaf=-0.096116066"] ;
246 [label="[f6<-1.25464666] yes=491,no=492,missing=491"] ;
491 [label="leaf=0.0144677302"] ;
492 [label="leaf=-0.112749711"] ;
30 [label="[f24<0.969389498] yes=61,no=62,missing=61"] ;
61 [label="[f27<1.35000896] yes=123,no=124,missing=123"] ;
123 [label="[f22<1.13753104] yes=247,no=248,missing=247"] ;
247 [label="[f27<0.886726499] yes=493,no=494,missing=493"] ;
493 [label="leaf=-0.00537716504"] ;
494 [label="leaf=-0.107071877"] ;
248 [label="[f22<1.58756316] yes=495,no=496,missing=495"] ;
495 [label="leaf=-0.0463322662"] ;
496 [label="leaf=0.0693288073"] ;
124 [label="[f6<1.65662932] yes=249,no=250,missing=249"] ;
249 [label="[f13<4.17153358] yes=497,no=498,missing=497"] ;
497 [label="leaf=-0.109259523"] ;
498 [label="leaf=0.000700312026"] ;
250 [label="[f14<-0.4221825] yes=499,no=500,missing=499"] ;
499 [label="leaf=0.0638282374"] ;
500 [label="leaf=-0.0708913356"] ;
62 [label="[f27<1.47408032] yes=125,no=126,missing=125"] ;
125 [label="[f5<2.10527134] yes=251,no=252,missing=251"] ;
251 [label="[f23<1.40324712] yes=501,no=502,missing=501"] ;
501 [label="leaf=-0.031992387"] ;
502 [label="leaf=-0.0749853477"] ;
252 [label="[f24<2.35108471] yes=503,no=504,missing=503"] ;
503 [label="leaf=0.049353309"] ;
504 [label="leaf=-0.0862665325"] ;
126 [label="[f6<-1.11749983] yes=253,no=254,missing=253"] ;
253 [label="[f23<1.13326406] yes=505,no=506,missing=505"] ;
505 [label="leaf=0.0122227138"] ;
506 [label="leaf=-0.0677820891"] ;
254 [label="[f6<1.1184392] yes=507,no=508,missing=507"] ;
507 [label="leaf=-0.0798388869"] ;
508 [label="leaf=-0.0316163078"] ;
0 -> 1[labeldistance=2.5, labelangle=45, headlabel="True"] ;
1 -> 3 ;
3 -> 7 ;
7 -> 15 ;
15 -> 31 ;
31 -> 63 ;
63 -> 127 ;
127 -> 255 ;
127 -> 256 ;
63 -> 128 ;
128 -> 257 ;
128 -> 258 ;
31 -> 64 ;
64 -> 129 ;
129 -> 259 ;
129 -> 260 ;
64 -> 130 ;
130 -> 261 ;
130 -> 262 ;
15 -> 32 ;
32 -> 65 ;
65 -> 131 ;
131 -> 263 ;
131 -> 264 ;
65 -> 132 ;
132 -> 265 ;
132 -> 266 ;
32 -> 66 ;
66 -> 133 ;
133 -> 267 ;
133 -> 268 ;
66 -> 134 ;
134 -> 269 ;
134 -> 270 ;
7 -> 16 ;
16 -> 33 ;
33 -> 67 ;
67 -> 135 ;
135 -> 271 ;
135 -> 272 ;
67 -> 136 ;
136 -> 273 ;
136 -> 274 ;
33 -> 68 ;
68 -> 137 ;
137 -> 275 ;
137 -> 276 ;
68 -> 138 ;
138 -> 277 ;
138 -> 278 ;
16 -> 34 ;
34 -> 69 ;
69 -> 139 ;
139 -> 279 ;
139 -> 280 ;
69 -> 140 ;
140 -> 281 ;
140 -> 282 ;
34 -> 70 ;
70 -> 141 ;
141 -> 283 ;
141 -> 284 ;
70 -> 142 ;
142 -> 285 ;
142 -> 286 ;
3 -> 8 ;
8 -> 17 ;
17 -> 35 ;
35 -> 71 ;
71 -> 143 ;
143 -> 287 ;
143 -> 288 ;
71 -> 144 ;
144 -> 289 ;
144 -> 290 ;
35 -> 72 ;
72 -> 145 ;
145 -> 291 ;
145 -> 292 ;
72 -> 146 ;
146 -> 293 ;
146 -> 294 ;
17 -> 36 ;
36 -> 73 ;
73 -> 147 ;
147 -> 295 ;
147 -> 296 ;
73 -> 148 ;
148 -> 297 ;
148 -> 298 ;
36 -> 74 ;
74 -> 149 ;
149 -> 299 ;
149 -> 300 ;
74 -> 150 ;
150 -> 301 ;
150 -> 302 ;
8 -> 18 ;
18 -> 37 ;
37 -> 75 ;
75 -> 151 ;
151 -> 303 ;
151 -> 304 ;
75 -> 152 ;
152 -> 305 ;
152 -> 306 ;
37 -> 76 ;
76 -> 153 ;
153 -> 307 ;
153 -> 308 ;
76 -> 154 ;
154 -> 309 ;
154 -> 310 ;
18 -> 38 ;
38 -> 77 ;
77 -> 155 ;
155 -> 311 ;
155 -> 312 ;
77 -> 156 ;
156 -> 313 ;
156 -> 314 ;
38 -> 78 ;
78 -> 157 ;
157 -> 315 ;
157 -> 316 ;
78 -> 158 ;
158 -> 317 ;
158 -> 318 ;
1 -> 4 ;
4 -> 9 ;
9 -> 19 ;
19 -> 39 ;
39 -> 79 ;
79 -> 159 ;
159 -> 319 ;
159 -> 320 ;
79 -> 160 ;
160 -> 321 ;
160 -> 322 ;
39 -> 80 ;
80 -> 161 ;
161 -> 323 ;
161 -> 324 ;
80 -> 162 ;
162 -> 325 ;
162 -> 326 ;
19 -> 40 ;
40 -> 81 ;
81 -> 163 ;
163 -> 327 ;
163 -> 328 ;
81 -> 164 ;
164 -> 329 ;
164 -> 330 ;
40 -> 82 ;
82 -> 165 ;
165 -> 331 ;
165 -> 332 ;
82 -> 166 ;
166 -> 333 ;
166 -> 334 ;
9 -> 20 ;
20 -> 41 ;
41 -> 83 ;
83 -> 167 ;
167 -> 335 ;
167 -> 336 ;
83 -> 168 ;
168 -> 337 ;
168 -> 338 ;
41 -> 84 ;
84 -> 169 ;
169 -> 339 ;
169 -> 340 ;
84 -> 170 ;
170 -> 341 ;
170 -> 342 ;
20 -> 42 ;
42 -> 85 ;
85 -> 171 ;
171 -> 343 ;
171 -> 344 ;
85 -> 172 ;
172 -> 345 ;
172 -> 346 ;
42 -> 86 ;
86 -> 173 ;
86 -> 174 ;
174 -> 347 ;
174 -> 348 ;
4 -> 10 ;
10 -> 21 ;
21 -> 43 ;
43 -> 87 ;
87 -> 175 ;
175 -> 349 ;
175 -> 350 ;
87 -> 176 ;
176 -> 351 ;
176 -> 352 ;
43 -> 88 ;
88 -> 177 ;
177 -> 353 ;
177 -> 354 ;
88 -> 178 ;
178 -> 355 ;
178 -> 356 ;
21 -> 44 ;
44 -> 89 ;
89 -> 179 ;
179 -> 357 ;
179 -> 358 ;
89 -> 180 ;
180 -> 359 ;
180 -> 360 ;
44 -> 90 ;
90 -> 181 ;
181 -> 361 ;
181 -> 362 ;
90 -> 182 ;
182 -> 363 ;
182 -> 364 ;
10 -> 22 ;
22 -> 45 ;
45 -> 91 ;
91 -> 183 ;
183 -> 365 ;
183 -> 366 ;
91 -> 184 ;
184 -> 367 ;
184 -> 368 ;
45 -> 92 ;
92 -> 185 ;
185 -> 369 ;
185 -> 370 ;
92 -> 186 ;
186 -> 371 ;
186 -> 372 ;
22 -> 46 ;
46 -> 93 ;
93 -> 187 ;
187 -> 373 ;
187 -> 374 ;
93 -> 188 ;
188 -> 375 ;
188 -> 376 ;
46 -> 94 ;
94 -> 189 ;
189 -> 377 ;
189 -> 378 ;
94 -> 190 ;
190 -> 379 ;
190 -> 380 ;
0 -> 2[labeldistance=2.5, labelangle=-45, headlabel="True"] ;
2 -> 5 ;
5 -> 11 ;
11 -> 23 ;
23 -> 47 ;
47 -> 95 ;
95 -> 191 ;
191 -> 381 ;
191 -> 382 ;
95 -> 192 ;
192 -> 383 ;
192 -> 384 ;
47 -> 96 ;
96 -> 193 ;
193 -> 385 ;
193 -> 386 ;
96 -> 194 ;
194 -> 387 ;
194 -> 388 ;
23 -> 48 ;
48 -> 97 ;
97 -> 195 ;
195 -> 389 ;
195 -> 390 ;
97 -> 196 ;
196 -> 391 ;
196 -> 392 ;
48 -> 98 ;
98 -> 197 ;
197 -> 393 ;
197 -> 394 ;
98 -> 198 ;
198 -> 395 ;
198 -> 396 ;
11 -> 24 ;
24 -> 49 ;
49 -> 99 ;
99 -> 199 ;
199 -> 397 ;
199 -> 398 ;
99 -> 200 ;
200 -> 399 ;
200 -> 400 ;
49 -> 100 ;
100 -> 201 ;
201 -> 401 ;
201 -> 402 ;
100 -> 202 ;
202 -> 403 ;
202 -> 404 ;
24 -> 50 ;
50 -> 101 ;
101 -> 203 ;
203 -> 405 ;
203 -> 406 ;
101 -> 204 ;
204 -> 407 ;
204 -> 408 ;
50 -> 102 ;
102 -> 205 ;
205 -> 409 ;
205 -> 410 ;
102 -> 206 ;
206 -> 411 ;
206 -> 412 ;
5 -> 12 ;
12 -> 25 ;
25 -> 51 ;
51 -> 103 ;
103 -> 207 ;
207 -> 413 ;
207 -> 414 ;
103 -> 208 ;
208 -> 415 ;
208 -> 416 ;
51 -> 104 ;
104 -> 209 ;
209 -> 417 ;
209 -> 418 ;
104 -> 210 ;
210 -> 419 ;
210 -> 420 ;
25 -> 52 ;
52 -> 105 ;
105 -> 211 ;
211 -> 421 ;
211 -> 422 ;
105 -> 212 ;
212 -> 423 ;
212 -> 424 ;
52 -> 106 ;
106 -> 213 ;
213 -> 425 ;
213 -> 426 ;
106 -> 214 ;
214 -> 427 ;
214 -> 428 ;
12 -> 26 ;
26 -> 53 ;
53 -> 107 ;
107 -> 215 ;
215 -> 429 ;
215 -> 430 ;
107 -> 216 ;
216 -> 431 ;
216 -> 432 ;
53 -> 108 ;
108 -> 217 ;
217 -> 433 ;
217 -> 434 ;
108 -> 218 ;
218 -> 435 ;
218 -> 436 ;
26 -> 54 ;
54 -> 109 ;
109 -> 219 ;
219 -> 437 ;
219 -> 438 ;
109 -> 220 ;
220 -> 439 ;
220 -> 440 ;
54 -> 110 ;
110 -> 221 ;
221 -> 441 ;
221 -> 442 ;
110 -> 222 ;
222 -> 443 ;
222 -> 444 ;
2 -> 6 ;
6 -> 13 ;
13 -> 27 ;
27 -> 55 ;
55 -> 111 ;
111 -> 223 ;
223 -> 445 ;
223 -> 446 ;
111 -> 224 ;
224 -> 447 ;
224 -> 448 ;
55 -> 112 ;
112 -> 225 ;
225 -> 449 ;
225 -> 450 ;
112 -> 226 ;
226 -> 451 ;
226 -> 452 ;
27 -> 56 ;
56 -> 113 ;
113 -> 227 ;
227 -> 453 ;
227 -> 454 ;
113 -> 228 ;
228 -> 455 ;
228 -> 456 ;
56 -> 114 ;
114 -> 229 ;
229 -> 457 ;
229 -> 458 ;
114 -> 230 ;
230 -> 459 ;
230 -> 460 ;
13 -> 28 ;
28 -> 57 ;
57 -> 115 ;
115 -> 231 ;
231 -> 461 ;
231 -> 462 ;
115 -> 232 ;
232 -> 463 ;
232 -> 464 ;
57 -> 116 ;
116 -> 233 ;
233 -> 465 ;
233 -> 466 ;
116 -> 234 ;
234 -> 467 ;
234 -> 468 ;
28 -> 58 ;
58 -> 117 ;
117 -> 235 ;
235 -> 469 ;
235 -> 470 ;
117 -> 236 ;
236 -> 471 ;
236 -> 472 ;
58 -> 118 ;
118 -> 237 ;
237 -> 473 ;
237 -> 474 ;
118 -> 238 ;
238 -> 475 ;
238 -> 476 ;
6 -> 14 ;
14 -> 29 ;
29 -> 59 ;
59 -> 119 ;
119 -> 239 ;
239 -> 477 ;
239 -> 478 ;
119 -> 240 ;
240 -> 479 ;
240 -> 480 ;
59 -> 120 ;
120 -> 241 ;
241 -> 481 ;
241 -> 482 ;
120 -> 242 ;
242 -> 483 ;
242 -> 484 ;
29 -> 60 ;
60 -> 121 ;
121 -> 243 ;
243 -> 485 ;
243 -> 486 ;
121 -> 244 ;
244 -> 487 ;
244 -> 488 ;
60 -> 122 ;
122 -> 245 ;
245 -> 489 ;
245 -> 490 ;
122 -> 246 ;
246 -> 491 ;
246 -> 492 ;
14 -> 30 ;
30 -> 61 ;
61 -> 123 ;
123 -> 247 ;
247 -> 493 ;
247 -> 494 ;
123 -> 248 ;
248 -> 495 ;
248 -> 496 ;
61 -> 124 ;
124 -> 249 ;
249 -> 497 ;
249 -> 498 ;
124 -> 250 ;
250 -> 499 ;
250 -> 500 ;
30 -> 62 ;
62 -> 125 ;
125 -> 251 ;
251 -> 501 ;
251 -> 502 ;
125 -> 252 ;
252 -> 503 ;
252 -> 504 ;
62 -> 126 ;
126 -> 253 ;
253 -> 505 ;
253 -> 506 ;
126 -> 254 ;
254 -> 507 ;
254 -> 508 ;
}