digraph Tree { 
node [shape=box] ;
0 [label="[f25<1.17099428] yes=1,no=2,missing=1"] ;
1 [label="[f25<0.592517138] yes=3,no=4,missing=3"] ;
3 [label="[f27<0.917650938] yes=7,no=8,missing=7"] ;
7 [label="[f5<1.11719584] yes=15,no=16,missing=15"] ;
15 [label="[f21<0.889128566] yes=31,no=32,missing=31"] ;
31 [label="[f22<0.752441883] yes=63,no=64,missing=63"] ;
63 [label="[f0<1.24995208] yes=127,no=128,missing=127"] ;
127 [label="[f21<0.762177169] yes=255,no=256,missing=255"] ;
255 [label="leaf=-0.0218240712"] ;
256 [label="leaf=0.0119185047"] ;
128 [label="[f27<0.788242698] yes=257,no=258,missing=257"] ;
257 [label="leaf=0.0373334661"] ;
258 [label="leaf=-0.0168654229"] ;
64 [label="[f22<0.998765767] yes=129,no=130,missing=129"] ;
129 [label="[f16<1.91116834] yes=259,no=260,missing=259"] ;
259 [label="leaf=-0.0321218893"] ;
260 [label="leaf=-0.0598792322"] ;
130 [label="[f25<0.418141782] yes=261,no=262,missing=261"] ;
261 [label="leaf=-0.0397834629"] ;
262 [label="leaf=0.0252292305"] ;
32 [label="[f22<0.845305562] yes=65,no=66,missing=65"] ;
65 [label="[f25<0.429001153] yes=131,no=132,missing=131"] ;
131 [label="[f17<0.873953342] yes=263,no=264,missing=263"] ;
263 [label="leaf=-0.00329402345"] ;
264 [label="leaf=0.0278379265"] ;
132 [label="[f0<0.537040174] yes=265,no=266,missing=265"] ;
265 [label="leaf=-0.00327997911"] ;
266 [label="leaf=0.0468846075"] ;
66 [label="[f21<1.58456922] yes=133,no=134,missing=133"] ;
133 [label="[f9<1.07011676] yes=267,no=268,missing=267"] ;
267 [label="leaf=-0.0182520133"] ;
268 [label="leaf=0.018426178"] ;
134 [label="[f20<0.775490344] yes=269,no=270,missing=269"] ;
269 [label="leaf=0.00248307618"] ;
270 [label="leaf=0.0486421995"] ;
16 [label="[f5<1.90167427] yes=33,no=34,missing=33"] ;
33 [label="[f27<0.823685765] yes=67,no=68,missing=67"] ;
67 [label="[f27<0.546582639] yes=135,no=136,missing=135"] ;
135 [label="[f6<-0.791219115] yes=271,no=272,missing=271"] ;
271 [label="leaf=0.037977431"] ;
272 [label="leaf=0.107844524"] ;
136 [label="[f22<1.01410055] yes=273,no=274,missing=273"] ;
273 [label="leaf=0.0247568861"] ;
274 [label="leaf=0.060893625"] ;
68 [label="[f22<1.04959536] yes=137,no=138,missing=137"] ;
137 [label="[f24<1.02085912] yes=275,no=276,missing=275"] ;
275 [label="leaf=-0.0345908925"] ;
276 [label="leaf=0.0321894139"] ;
138 [label="[f23<1.34574199] yes=277,no=278,missing=277"] ;
277 [label="leaf=0.0361943059"] ;
278 [label="leaf=0.118910603"] ;
34 [label="[f13<0.737346172] yes=69,no=70,missing=69"] ;
69 [label="[f6<1.62840772] yes=139,no=140,missing=139"] ;
139 [label="[f9<1.98046207] yes=279,no=280,missing=279"] ;
279 [label="leaf=0.00499994028"] ;
280 [label="leaf=0.086044766"] ;
140 [label="leaf=0.136607409"] ;
70 [label="[f0<1.97613215] yes=141,no=142,missing=141"] ;
141 [label="[f10<-1.75812602] yes=281,no=282,missing=281"] ;
281 [label="leaf=0.00923175458"] ;
282 [label="leaf=0.106727354"] ;
142 [label="[f6<0.864445269] yes=283,no=284,missing=283"] ;
283 [label="leaf=0.0184087884"] ;
284 [label="leaf=0.11340978"] ;
8 [label="[f9<1.16932869] yes=17,no=18,missing=17"] ;
17 [label="[f24<0.967721939] yes=35,no=36,missing=35"] ;
35 [label="[f22<1.01715875] yes=71,no=72,missing=71"] ;
71 [label="[f0<1.14627743] yes=143,no=144,missing=143"] ;
143 [label="[f3<2.03985238] yes=285,no=286,missing=285"] ;
285 [label="leaf=-0.0553714223"] ;
286 [label="leaf=-0.0999578834"] ;
144 [label="[f24<0.688923955] yes=287,no=288,missing=287"] ;
287 [label="leaf=-0.0593324862"] ;
288 [label="leaf=-0.105267189"] ;
72 [label="[f24<0.729089975] yes=145,no=146,missing=145"] ;
145 [label="[f13<1.06198215] yes=289,no=290,missing=289"] ;
289 [label="leaf=-0.0269594789"] ;
290 [label="leaf=0.0349955671"] ;
146 [label="[f23<1.34718513] yes=291,no=292,missing=291"] ;
291 [label="leaf=-0.0523055755"] ;
292 [label="leaf=0.0191459116"] ;
36 [label="[f3<2.65228128] yes=73,no=74,missing=73"] ;
73 [label="[f16<1.91116834] yes=147,no=148,missing=147"] ;
147 [label="[f20<0.775490344] yes=293,no=294,missing=293"] ;
293 [label="leaf=-0.00162207859"] ;
294 [label="leaf=-0.0337370224"] ;
148 [label="[f22<1.13538849] yes=295,no=296,missing=295"] ;
295 [label="leaf=-0.0543494225"] ;
296 [label="leaf=-0.0168602746"] ;
74 [label="[f23<1.34486997] yes=149,no=150,missing=149"] ;
149 [label="[f6<-2.10624456] yes=297,no=298,missing=297"] ;
297 [label="leaf=0.0180467274"] ;
298 [label="leaf=-0.100523822"] ;
150 [label="[f17<0.474278837] yes=299,no=300,missing=299"] ;
299 [label="leaf=-0.0970658287"] ;
300 [label="leaf=0.0519988649"] ;
18 [label="[f5<1.96923447] yes=37,no=38,missing=37"] ;
37 [label="[f3<2.31109333] yes=75,no=76,missing=75"] ;
75 [label="[f0<1.56875396] yes=151,no=152,missing=151"] ;
151 [label="[f17<1.00563669] yes=301,no=302,missing=301"] ;
301 [label="leaf=-0.0192521084"] ;
302 [label="leaf=0.0139061091"] ;
152 [label="[f0<3.20686817] yes=303,no=304,missing=303"] ;
303 [label="leaf=-0.0382270478"] ;
304 [label="leaf=-0.119008265"] ;
76 [label="[f23<1.12450993] yes=153,no=154,missing=153"] ;
153 [label="[f22<1.22067499] yes=305,no=306,missing=305"] ;
305 [label="leaf=-0.101656593"] ;
306 [label="leaf=-0.0431837402"] ;
154 [label="[f21<0.861134052] yes=307,no=308,missing=307"] ;
307 [label="leaf=-0.102506831"] ;
308 [label="leaf=0.0323475301"] ;
38 [label="[f27<1.19557822] yes=77,no=78,missing=77"] ;
77 [label="[f17<0.674724638] yes=155,no=156,missing=155"] ;
155 [label="[f13<0.459601045] yes=309,no=310,missing=309"] ;
309 [label="leaf=-0.122828268"] ;
310 [label="leaf=0.03543422"] ;
156 [label="[f11<-1.58757401] yes=311,no=312,missing=311"] ;
311 [label="leaf=-0.0554606691"] ;
312 [label="leaf=0.111939728"] ;
78 [label="[f0<2.16005635] yes=157,no=158,missing=157"] ;
157 [label="[f3<1.66170585] yes=313,no=314,missing=313"] ;
313 [label="leaf=0.0573285818"] ;
314 [label="leaf=-0.0203313697"] ;
158 [label="[f17<1.15995681] yes=315,no=316,missing=315"] ;
315 [label="leaf=-0.101837181"] ;
316 [label="leaf=0.0168267302"] ;
4 [label="[f5<0.776783466] yes=9,no=10,missing=9"] ;
9 [label="[f25<0.960439682] yes=19,no=20,missing=19"] ;
19 [label="[f26<0.789936781] yes=39,no=40,missing=39"] ;
39 [label="[f24<0.749261379] yes=79,no=80,missing=79"] ;
79 [label="[f22<1.05791259] yes=159,no=160,missing=159"] ;
159 [label="[f0<0.562844455] yes=317,no=318,missing=317"] ;
317 [label="leaf=-0.0301263612"] ;
318 [label="leaf=0.00341691682"] ;
160 [label="[f21<0.989536524] yes=319,no=320,missing=319"] ;
319 [label="leaf=0.0534463823"] ;
320 [label="leaf=-0.0154347345"] ;
80 [label="[f13<1.45511055] yes=161,no=162,missing=161"] ;
161 [label="[f22<0.746119857] yes=321,no=322,missing=321"] ;
321 [label="leaf=0.00805045944"] ;
322 [label="leaf=-0.036852356"] ;
162 [label="[f27<0.850789666] yes=323,no=324,missing=323"] ;
323 [label="leaf=0.0793271661"] ;
324 [label="leaf=-0.0181733314"] ;
40 [label="[f27<0.859002769] yes=81,no=82,missing=81"] ;
81 [label="[f26<0.852581382] yes=163,no=164,missing=163"] ;
163 [label="[f25<0.843182623] yes=325,no=326,missing=325"] ;
325 [label="leaf=0.0423118584"] ;
326 [label="leaf=-0.00628672494"] ;
164 [label="[f25<0.75015521] yes=327,no=328,missing=327"] ;
327 [label="leaf=0.0371581465"] ;
328 [label="leaf=0.0758018047"] ;
82 [label="[f25<0.78590548] yes=165,no=166,missing=165"] ;
165 [label="[f22<0.821753621] yes=329,no=330,missing=329"] ;
329 [label="leaf=0.0165735316"] ;
330 [label="leaf=-0.0241461005"] ;
166 [label="[f26<0.900336325] yes=331,no=332,missing=331"] ;
331 [label="leaf=-0.0451633185"] ;
332 [label="leaf=0.0305088554"] ;
20 [label="[f26<0.901277781] yes=41,no=42,missing=41"] ;
41 [label="[f27<0.824635029] yes=83,no=84,missing=83"] ;
83 [label="[f21<0.908685386] yes=167,no=168,missing=167"] ;
167 [label="[f22<1.11279655] yes=333,no=334,missing=333"] ;
333 [label="leaf=-0.0655393004"] ;
334 [label="leaf=0.0226389673"] ;
168 [label="[f26<0.843960166] yes=335,no=336,missing=335"] ;
335 [label="leaf=-0.0346189924"] ;
336 [label="leaf=0.0132517582"] ;
84 [label="[f21<0.975606561] yes=169,no=170,missing=169"] ;
169 [label="[f9<1.15038025] yes=337,no=338,missing=337"] ;
337 [label="leaf=-0.119815342"] ;
338 [label="leaf=-0.0445882156"] ;
170 [label="[f17<1.69314003] yes=339,no=340,missing=339"] ;
339 [label="leaf=-0.0668301135"] ;
340 [label="leaf=0.0163492132"] ;
42 [label="[f27<0.915038705] yes=85,no=86,missing=85"] ;
85 [label="[f26<0.961624622] yes=171,no=172,missing=171"] ;
171 [label="[f27<0.855190992] yes=341,no=342,missing=341"] ;
341 [label="leaf=0.014287564"] ;
342 [label="leaf=-0.0504033156"] ;
172 [label="[f9<0.96505028] yes=343,no=344,missing=343"] ;
343 [label="leaf=0.0254471805"] ;
344 [label="leaf=0.0741561279"] ;
86 [label="[f9<1.17663109] yes=173,no=174,missing=173"] ;
173 [label="[f13<1.51201189] yes=345,no=346,missing=345"] ;
345 [label="leaf=-0.0474426299"] ;
346 [label="leaf=0.0116941687"] ;
174 [label="[f12<0.55371803] yes=347,no=348,missing=347"] ;
347 [label="leaf=-0.0365492627"] ;
348 [label="leaf=0.0386243425"] ;
10 [label="[f27<0.964899898] yes=21,no=22,missing=21"] ;
21 [label="[f26<0.845781982] yes=43,no=44,missing=43"] ;
43 [label="[f25<0.925569057] yes=87,no=88,missing=87"] ;
87 [label="[f27<0.800177574] yes=175,no=176,missing=175"] ;
175 [label="[f26<0.770642042] yes=349,no=350,missing=349"] ;
349 [label="leaf=0.0304130353"] ;
350 [label="leaf=0.0666905567"] ;
176 [label="[f0<1.1321857] yes=351,no=352,missing=351"] ;
351 [label="leaf=0.0195068177"] ;
352 [label="leaf=-0.0314329527"] ;
88 [label="[f27<0.785236478] yes=177,no=178,missing=177"] ;
177 [label="[f9<1.00565422] yes=353,no=354,missing=353"] ;
353 [label="leaf=-0.0114513636"] ;
354 [label="leaf=0.0309530497"] ;
178 [label="[f5<1.13253999] yes=355,no=356,missing=355"] ;
355 [label="leaf=-0.0656727925"] ;
356 [label="leaf=-0.000998890493"] ;
44 [label="[f25<1.00159144] yes=89,no=90,missing=89"] ;
89 [label="[f25<0.742911696] yes=179,no=180,missing=179"] ;
179 [label="[f27<0.820303142] yes=357,no=358,missing=357"] ;
357 [label="leaf=0.0753415748"] ;
358 [label="leaf=0.0280963387"] ;
180 [label="[f27<0.852671564] yes=359,no=360,missing=359"] ;
359 [label="leaf=0.0937666222"] ;
360 [label="leaf=0.068755962"] ;
90 [label="[f26<0.965302467] yes=181,no=182,missing=181"] ;
181 [label="[f27<0.852293253] yes=361,no=362,missing=361"] ;
361 [label="leaf=0.0245707687"] ;
362 [label="leaf=-0.0289052706"] ;
182 [label="[f27<0.903935671] yes=363,no=364,missing=363"] ;
363 [label="leaf=0.0702025518"] ;
364 [label="leaf=0.0422546417"] ;
22 [label="[f0<1.62045407] yes=45,no=46,missing=45"] ;
45 [label="[f3<1.7980144] yes=91,no=92,missing=91"] ;
91 [label="[f5<1.78968441] yes=183,no=184,missing=183"] ;
183 [label="[f24<1.12975657] yes=365,no=366,missing=365"] ;
365 [label="leaf=0.0118921995"] ;
366 [label="leaf=0.0464172512"] ;
184 [label="[f5<2.28005791] yes=367,no=368,missing=367"] ;
367 [label="leaf=0.0806959271"] ;
368 [label="leaf=0.111977004"] ;
92 [label="[f23<1.27831304] yes=185,no=186,missing=185"] ;
185 [label="[f3<2.66148114] yes=369,no=370,missing=369"] ;
369 [label="leaf=-0.0131482286"] ;
370 [label="leaf=-0.0759414583"] ;
186 [label="[f5<1.86567259] yes=371,no=372,missing=371"] ;
371 [label="leaf=0.0486660376"] ;
372 [label="leaf=0.137072623"] ;
46 [label="[f24<0.989553213] yes=93,no=94,missing=93"] ;
93 [label="[f22<1.16043186] yes=187,no=188,missing=187"] ;
187 [label="[f24<0.720660329] yes=373,no=374,missing=373"] ;
373 [label="leaf=-0.0479110666"] ;
374 [label="leaf=-0.107646368"] ;
188 [label="[f0<3.74994802] yes=375,no=376,missing=375"] ;
375 [label="leaf=-0.0260144621"] ;
376 [label="leaf=-0.139607877"] ;
94 [label="[f24<1.76702118] yes=189,no=190,missing=189"] ;
189 [label="[f22<1.20585775] yes=377,no=378,missing=377"] ;
377 [label="leaf=-0.00601518108"] ;
378 [label="leaf=0.0535603464"] ;
190 [label="[f26<1.3243947] yes=379,no=380,missing=379"] ;
379 [label="leaf=-0.0583780371"] ;
380 [label="leaf=-0.119243257"] ;
2 [label="[f22<0.988286495] yes=5,no=6,missing=5"] ;
5 [label="[f27<1.01982522] yes=11,no=12,missing=11"] ;
11 [label="[f21<0.947979212] yes=23,no=24,missing=23"] ;
23 [label="[f22<0.799092174] yes=47,no=48,missing=47"] ;
47 [label="[f5<0.957890868] yes=95,no=96,missing=95"] ;
95 [label="[f8<1.62980711] yes=191,no=192,missing=191"] ;
191 [label="[f5<0.528253019] yes=381,no=382,missing=381"] ;
381 [label="leaf=-0.0479427278"] ;
382 [label="leaf=0.0157793947"] ;
192 [label="[f24<1.221843] yes=383,no=384,missing=383"] ;
383 [label="leaf=-0.0548155196"] ;
384 [label="leaf=0.0142039573"] ;
96 [label="[f22<0.675308347] yes=193,no=194,missing=193"] ;
193 [label="[f25<1.83229065] yes=385,no=386,missing=385"] ;
385 [label="leaf=0.0581398197"] ;
386 [label="leaf=-0.0124196922"] ;
194 [label="[f25<1.40556765] yes=387,no=388,missing=387"] ;
387 [label="leaf=0.0232589953"] ;
388 [label="leaf=-0.0137422308"] ;
48 [label="[f21<0.659437895] yes=97,no=98,missing=97"] ;
97 [label="[f24<0.777153015] yes=195,no=196,missing=195"] ;
195 [label="[f26<0.926234126] yes=389,no=390,missing=389"] ;
389 [label="leaf=-0.021624824"] ;
390 [label="leaf=0.0568883419"] ;
196 [label="[f22<0.897888303] yes=391,no=392,missing=391"] ;
391 [label="leaf=-0.0328002237"] ;
392 [label="leaf=-0.00284571107"] ;
98 [label="[f5<1.63821185] yes=197,no=198,missing=197"] ;
197 [label="[f24<1.07302809] yes=393,no=394,missing=393"] ;
393 [label="leaf=-0.0675571039"] ;
394 [label="leaf=-0.0353059396"] ;
198 [label="[f5<2.13128757] yes=395,no=396,missing=395"] ;
395 [label="leaf=0.00748172542"] ;
396 [label="leaf=0.101170659"] ;
24 [label="[f27<0.879718781] yes=49,no=50,missing=49"] ;
49 [label="[f22<0.872018516] yes=99,no=100,missing=99"] ;
99 [label="[f9<0.610191345] yes=199,no=200,missing=199"] ;
199 [label="[f18<-1.51161861] yes=397,no=398,missing=397"] ;
397 [label="leaf=-0.130817607"] ;
398 [label="leaf=-0.0115962708"] ;
200 [label="[f0<1.27118111] yes=399,no=400,missing=399"] ;
399 [label="leaf=0.0602934062"] ;
400 [label="leaf=-0.0345699862"] ;
100 [label="[f21<1.09638655] yes=201,no=202,missing=201"] ;
201 [label="[f24<0.738490522] yes=401,no=402,missing=401"] ;
401 [label="leaf=0.0381135158"] ;
402 [label="leaf=-0.0195273366"] ;
202 [label="[f0<1.37458122] yes=403,no=404,missing=403"] ;
403 [label="leaf=0.0407991335"] ;
404 [label="leaf=-0.0688713938"] ;
50 [label="[f24<0.957250834] yes=101,no=102,missing=101"] ;
101 [label="[f24<0.805590153] yes=203,no=204,missing=203"] ;
203 [label="[f23<1.03596926] yes=405,no=406,missing=405"] ;
405 [label="leaf=-0.0302012116"] ;
406 [label="leaf=0.0591621771"] ;
204 [label="[f23<1.1968658] yes=407,no=408,missing=407"] ;
407 [label="leaf=-0.070338659"] ;
408 [label="leaf=0.012110644"] ;
102 [label="[f5<1.25859153] yes=205,no=206,missing=205"] ;
205 [label="[f0<0.473810554] yes=409,no=410,missing=409"] ;
409 [label="leaf=-0.0567914136"] ;
410 [label="leaf=-0.00359214586"] ;
206 [label="[f0<1.11306119] yes=411,no=412,missing=411"] ;
411 [label="leaf=0.0491254926"] ;
412 [label="leaf=-0.00307211909"] ;
12 [label="[f24<1.28139925] yes=25,no=26,missing=25"] ;
25 [label="[f24<1.00019598] yes=51,no=52,missing=51"] ;
51 [label="[f0<1.15451288] yes=103,no=104,missing=103"] ;
103 [label="[f22<0.795185447] yes=207,no=208,missing=207"] ;
207 [label="[f3<1.70105934] yes=413,no=414,missing=413"] ;
413 [label="leaf=-0.0632924736"] ;
414 [label="leaf=-0.116056621"] ;
208 [label="[f21<0.987641335] yes=415,no=416,missing=415"] ;
415 [label="leaf=-0.108142748"] ;
416 [label="leaf=-0.0793652907"] ;
104 [label="[f24<0.575702906] yes=209,no=210,missing=209"] ;
209 [label="[f18<1.28250349] yes=417,no=418,missing=417"] ;
417 [label="leaf=-0.0856156722"] ;
418 [label="leaf=0.0889046565"] ;
210 [label="[f13<0.307073921] yes=419,no=420,missing=419"] ;
419 [label="leaf=-0.0317075998"] ;
420 [label="leaf=-0.119668268"] ;
52 [label="[f27<1.2254703] yes=105,no=106,missing=105"] ;
105 [label="[f23<1.18389165] yes=211,no=212,missing=211"] ;
211 [label="[f22<0.850792885] yes=421,no=422,missing=421"] ;
421 [label="leaf=-0.0266526043"] ;
422 [label="leaf=-0.0664981753"] ;
212 [label="[f3<1.3351531] yes=423,no=424,missing=423"] ;
423 [label="leaf=-0.10288658"] ;
424 [label="leaf=-0.0596998632"] ;
106 [label="[f23<0.99835515] yes=213,no=214,missing=213"] ;
213 [label="[f21<0.941693783] yes=425,no=426,missing=425"] ;
425 [label="leaf=-0.100666106"] ;
426 [label="leaf=-0.06520807"] ;
214 [label="[f22<0.637760043] yes=427,no=428,missing=427"] ;
427 [label="leaf=-0.0130646294"] ;
428 [label="leaf=-0.121140599"] ;
26 [label="[f22<0.819110215] yes=53,no=54,missing=53"] ;
53 [label="[f3<1.3145144] yes=107,no=108,missing=107"] ;
107 [label="[f23<1.35465884] yes=215,no=216,missing=215"] ;
215 [label="[f25<1.89876866] yes=429,no=430,missing=429"] ;
429 [label="leaf=0.0287251528"] ;
430 [label="leaf=-0.0111609129"] ;
216 [label="[f24<1.97596598] yes=431,no=432,missing=431"] ;
431 [label="leaf=-0.0795300156"] ;
432 [label="leaf=0.0361387357"] ;
108 [label="[f0<2.4034586] yes=217,no=218,missing=217"] ;
217 [label="[f27<1.47257662] yes=433,no=434,missing=433"] ;
433 [label="leaf=-0.00935763679"] ;
434 [label="leaf=-0.0480629653"] ;
218 [label="[f6<-1.06353235] yes=435,no=436,missing=435"] ;
435 [label="leaf=-0.00187234196"] ;
436 [label="leaf=-0.117610686"] ;
54 [label="[f21<0.934987664] yes=109,no=110,missing=109"] ;
109 [label="[f3<2.57479262] yes=219,no=220,missing=219"] ;
219 [label="[f5<1.99465561] yes=437,no=438,missing=437"] ;
437 [label="leaf=-0.0529730879"] ;
438 [label="leaf=-0.00627438864"] ;
220 [label="[f1<-1.92559028] yes=439,no=440,missing=439"] ;
439 [label="leaf=0.0880759656"] ;
440 [label="leaf=-0.099817507"] ;
110 [label="[f3<2.72944379] yes=221,no=222,missing=221"] ;
221 [label="[f9<2.6561861] yes=441,no=442,missing=441"] ;
441 [label="leaf=-0.016478423"] ;
442 [label="leaf=0.0762782097"] ;
222 [label="[f13<2.37492728] yes=443,no=444,missing=443"] ;
443 [label="leaf=-0.112045981"] ;
444 [label="leaf=0.0847623646"] ;
6 [label="[f25<2.11191487] yes=13,no=14,missing=13"] ;
13 [label="[f0<1.33020163] yes=27,no=28,missing=27"] ;
27 [label="[f3<1.35304761] yes=55,no=56,missing=55"] ;
55 [label="[f5<1.329175] yes=111,no=112,missing=111"] ;
111 [label="[f24<0.713314056] yes=223,no=224,missing=223"] ;
223 [label="[f26<0.858243108] yes=445,no=446,missing=445"] ;
445 [label="leaf=-0.00108581095"] ;
446 [label="leaf=0.0405902378"] ;
224 [label="[f5<0.62517345] yes=447,no=448,missing=447"] ;
447 [label="leaf=-0.0430447124"] ;
448 [label="leaf=-0.00177300221"] ;
112 [label="[f5<1.94779849] yes=225,no=226,missing=225"] ;
225 [label="[f24<1.04213452] yes=449,no=450,missing=449"] ;
449 [label="leaf=0.00883607473"] ;
450 [label="leaf=0.0403583832"] ;
226 [label="[f8<0.543269038] yes=451,no=452,missing=451"] ;
451 [label="leaf=0.0862947479"] ;
452 [label="leaf=0.0264359359"] ;
56 [label="[f24<1.24170959] yes=113,no=114,missing=113"] ;
113 [label="[f5<1.73490334] yes=227,no=228,missing=227"] ;
227 [label="[f23<1.27090693] yes=453,no=454,missing=453"] ;
453 [label="leaf=-0.0521217175"] ;
454 [label="leaf=-0.00462469924"] ;
228 [label="[f3<3.21013069] yes=455,no=456,missing=455"] ;
455 [label="leaf=0.0292437728"] ;
456 [label="leaf=-0.0856671855"] ;
114 [label="[f3<2.52811551] yes=229,no=230,missing=229"] ;
229 [label="[f9<1.63517165] yes=457,no=458,missing=457"] ;
457 [label="leaf=-0.00733076921"] ;
458 [label="leaf=0.0360474885"] ;
230 [label="[f23<1.25733519] yes=459,no=460,missing=459"] ;
459 [label="leaf=-0.0651194081"] ;
460 [label="leaf=0.0427313559"] ;
28 [label="[f24<1.04770315] yes=57,no=58,missing=57"] ;
57 [label="[f24<0.70420295] yes=115,no=116,missing=115"] ;
115 [label="[f23<1.01620483] yes=231,no=232,missing=231"] ;
231 [label="[f27<0.98059094] yes=461,no=462,missing=461"] ;
461 [label="leaf=0.0341947563"] ;
462 [label="leaf=-0.0341533422"] ;
232 [label="[f11<0.770280719] yes=463,no=464,missing=463"] ;
463 [label="leaf=0.14067091"] ;
464 [label="leaf=-0.0328473561"] ;
116 [label="[f27<0.966439664] yes=233,no=234,missing=233"] ;
233 [label="[f5<1.18773341] yes=465,no=466,missing=465"] ;
465 [label="leaf=-0.063780047"] ;
466 [label="leaf=0.042419333"] ;
234 [label="[f24<0.967742503] yes=467,no=468,missing=467"] ;
467 [label="leaf=-0.0918856487"] ;
468 [label="leaf=-0.0456130803"] ;
58 [label="[f24<1.69613838] yes=117,no=118,missing=117"] ;
117 [label="[f25<1.33065546] yes=235,no=236,missing=235"] ;
235 [label="[f26<1.06090903] yes=469,no=470,missing=469"] ;
469 [label="leaf=-0.0451946035"] ;
470 [label="leaf=0.0534657128"] ;
236 [label="[f26<1.06714475] yes=471,no=472,missing=471"] ;
471 [label="leaf=-0.097490631"] ;
472 [label="leaf=-0.0151431654"] ;
118 [label="[f0<2.30884266] yes=237,no=238,missing=237"] ;
237 [label="[f5<1.89677334] yes=473,no=474,missing=473"] ;
473 [label="leaf=-0.0585974865"] ;
474 [label="leaf=-0.00722410856"] ;
238 [label="[f25<2.05608726] yes=475,no=476,missing=475"] ;
475 [label="leaf=-0.0911861658"] ;
476 [label="leaf=0.0277170334"] ;
14 [label="[f24<1.03434265] yes=29,no=30,missing=29"] ;
29 [label="[f27<1.2412473] yes=59,no=60,missing=59"] ;
59 [label="[f17<1.18624473] yes=119,no=120,missing=119"] ;
119 [label="[f24<0.735473156] yes=239,no=240,missing=239"] ;
239 [label="[f27<1.09916997] yes=477,no=478,missing=477"] ;
477 [label="leaf=0.0437129326"] ;
478 [label="leaf=-0.0609066449"] ;
240 [label="[f22<1.04209352] yes=479,no=480,missing=479"] ;
479 [label="leaf=-0.101855278"] ;
480 [label="leaf=-0.06184984"] ;
120 [label="[f21<0.834397316] yes=241,no=242,missing=241"] ;
241 [label="[f26<1.47242904] yes=481,no=482,missing=481"] ;
481 [label="leaf=0.00403129309"] ;
482 [label="leaf=0.121873222"] ;
242 [label="[f18<0.914395571] yes=483,no=484,missing=483"] ;
483 [label="leaf=-0.0483482145"] ;
484 [label="leaf=0.0233389214"] ;
60 [label="[f0<1.49399471] yes=121,no=122,missing=121"] ;
121 [label="[f3<1.94783819] yes=243,no=244,missing=243"] ;
243 [label="[f24<0.681854367] yes=485,no=486,missing=485"] ;
485 [label="leaf=0.0107358871"] ;
486 [label="leaf=-0.0876398683"] ;
244 [label="[f13<4.44725895] yes=487,no=488,missing=487"] ;
487 [label="leaf=-0.125794247"] ;
488 [label="leaf=0.00813601911"] ;
122 [label="[f23<1.54738402] yes=245,no=246,missing=245"] ;
245 [label="[f13<4.4100275] yes=489,no=490,missing=489"] ;
489 [label="leaf=-0.123144247"] ;
490 [label="leaf=-0.0155258551"] ;
246 [label="leaf=0.0212410148"] ;
30 [label="[f27<1.94282186] yes=61,no=62,missing=61"] ;
61 [label="[f17<1.13561606] yes=123,no=124,missing=123"] ;
123 [label="[f13<1.09649181] yes=247,no=248,missing=247"] ;
247 [label="[f12<1.66115403] yes=491,no=492,missing=491"] ;
491 [label="leaf=-0.0356099345"] ;
492 [label="leaf=-0.0705281571"] ;
248 [label="[f6<-0.596638918] yes=493,no=494,missing=493"] ;
493 [label="leaf=-0.00141734898"] ;
494 [label="leaf=-0.0412870459"] ;
124 [label="[f0<1.85589528] yes=249,no=250,missing=249"] ;
249 [label="[f21<1.96437669] yes=495,no=496,missing=495"] ;
495 [label="leaf=0.00130530342"] ;
496 [label="leaf=-0.0732070357"] ;
250 [label="[f17<3.27127028] yes=497,no=498,missing=497"] ;
497 [label="leaf=-0.0855704248"] ;
498 [label="leaf=0.0708438009"] ;
62 [label="[f3<2.66221142] yes=125,no=126,missing=125"] ;
125 [label="[f6<-1.09274411] yes=251,no=252,missing=251"] ;
251 [label="[f5<2.40606356] yes=499,no=500,missing=499"] ;
499 [label="leaf=-0.0518942885"] ;
500 [label="leaf=0.0596311875"] ;
252 [label="[f6<0.868901312] yes=501,no=502,missing=501"] ;
501 [label="leaf=-0.0902517587"] ;
502 [label="leaf=-0.0329710916"] ;
126 [label="[f6<1.1273514] yes=253,no=254,missing=253"] ;
253 [label="[f1<1.585567] yes=503,no=504,missing=503"] ;
503 [label="leaf=-0.127980232"] ;
504 [label="leaf=-0.0419793539"] ;
254 [label="[f3<3.52784276] yes=505,no=506,missing=505"] ;
505 [label="leaf=0.0316695459"] ;
506 [label="leaf=-0.10385529"] ;
0 -> 1[labeldistance=2.5, labelangle=45, headlabel="True"] ;
1 -> 3 ;
3 -> 7 ;
7 -> 15 ;
15 -> 31 ;
31 -> 63 ;
63 -> 127 ;
127 -> 255 ;
127 -> 256 ;
63 -> 128 ;
128 -> 257 ;
128 -> 258 ;
31 -> 64 ;
64 -> 129 ;
129 -> 259 ;
129 -> 260 ;
64 -> 130 ;
130 -> 261 ;
130 -> 262 ;
15 -> 32 ;
32 -> 65 ;
65 -> 131 ;
131 -> 263 ;
131 -> 264 ;
65 -> 132 ;
132 -> 265 ;
132 -> 266 ;
32 -> 66 ;
66 -> 133 ;
133 -> 267 ;
133 -> 268 ;
66 -> 134 ;
134 -> 269 ;
134 -> 270 ;
7 -> 16 ;
16 -> 33 ;
33 -> 67 ;
67 -> 135 ;
135 -> 271 ;
135 -> 272 ;
67 -> 136 ;
136 -> 273 ;
136 -> 274 ;
33 -> 68 ;
68 -> 137 ;
137 -> 275 ;
137 -> 276 ;
68 -> 138 ;
138 -> 277 ;
138 -> 278 ;
16 -> 34 ;
34 -> 69 ;
69 -> 139 ;
139 -> 279 ;
139 -> 280 ;
69 -> 140 ;
34 -> 70 ;
70 -> 141 ;
141 -> 281 ;
141 -> 282 ;
70 -> 142 ;
142 -> 283 ;
142 -> 284 ;
3 -> 8 ;
8 -> 17 ;
17 -> 35 ;
35 -> 71 ;
71 -> 143 ;
143 -> 285 ;
143 -> 286 ;
71 -> 144 ;
144 -> 287 ;
144 -> 288 ;
35 -> 72 ;
72 -> 145 ;
145 -> 289 ;
145 -> 290 ;
72 -> 146 ;
146 -> 291 ;
146 -> 292 ;
17 -> 36 ;
36 -> 73 ;
73 -> 147 ;
147 -> 293 ;
147 -> 294 ;
73 -> 148 ;
148 -> 295 ;
148 -> 296 ;
36 -> 74 ;
74 -> 149 ;
149 -> 297 ;
149 -> 298 ;
74 -> 150 ;
150 -> 299 ;
150 -> 300 ;
8 -> 18 ;
18 -> 37 ;
37 -> 75 ;
75 -> 151 ;
151 -> 301 ;
151 -> 302 ;
75 -> 152 ;
152 -> 303 ;
152 -> 304 ;
37 -> 76 ;
76 -> 153 ;
153 -> 305 ;
153 -> 306 ;
76 -> 154 ;
154 -> 307 ;
154 -> 308 ;
18 -> 38 ;
38 -> 77 ;
77 -> 155 ;
155 -> 309 ;
155 -> 310 ;
77 -> 156 ;
156 -> 311 ;
156 -> 312 ;
38 -> 78 ;
78 -> 157 ;
157 -> 313 ;
157 -> 314 ;
78 -> 158 ;
158 -> 315 ;
158 -> 316 ;
1 -> 4 ;
4 -> 9 ;
9 -> 19 ;
19 -> 39 ;
39 -> 79 ;
79 -> 159 ;
159 -> 317 ;
159 -> 318 ;
79 -> 160 ;
160 -> 319 ;
160 -> 320 ;
39 -> 80 ;
80 -> 161 ;
161 -> 321 ;
161 -> 322 ;
80 -> 162 ;
162 -> 323 ;
162 -> 324 ;
19 -> 40 ;
40 -> 81 ;
81 -> 163 ;
163 -> 325 ;
163 -> 326 ;
81 -> 164 ;
164 -> 327 ;
164 -> 328 ;
40 -> 82 ;
82 -> 165 ;
165 -> 329 ;
165 -> 330 ;
82 -> 166 ;
166 -> 331 ;
166 -> 332 ;
9 -> 20 ;
20 -> 41 ;
41 -> 83 ;
83 -> 167 ;
167 -> 333 ;
167 -> 334 ;
83 -> 168 ;
168 -> 335 ;
168 -> 336 ;
41 -> 84 ;
84 -> 169 ;
169 -> 337 ;
169 -> 338 ;
84 -> 170 ;
170 -> 339 ;
170 -> 340 ;
20 -> 42 ;
42 -> 85 ;
85 -> 171 ;
171 -> 341 ;
171 -> 342 ;
85 -> 172 ;
172 -> 343 ;
172 -> 344 ;
42 -> 86 ;
86 -> 173 ;
173 -> 345 ;
173 -> 346 ;
86 -> 174 ;
174 -> 347 ;
174 -> 348 ;
4 -> 10 ;
10 -> 21 ;
21 -> 43 ;
43 -> 87 ;
87 -> 175 ;
175 -> 349 ;
175 -> 350 ;
87 -> 176 ;
176 -> 351 ;
176 -> 352 ;
43 -> 88 ;
88 -> 177 ;
177 -> 353 ;
177 -> 354 ;
88 -> 178 ;
178 -> 355 ;
178 -> 356 ;
21 -> 44 ;
44 -> 89 ;
89 -> 179 ;
179 -> 357 ;
179 -> 358 ;
89 -> 180 ;
180 -> 359 ;
180 -> 360 ;
44 -> 90 ;
90 -> 181 ;
181 -> 361 ;
181 -> 362 ;
90 -> 182 ;
182 -> 363 ;
182 -> 364 ;
10 -> 22 ;
22 -> 45 ;
45 -> 91 ;
91 -> 183 ;
183 -> 365 ;
183 -> 366 ;
91 -> 184 ;
184 -> 367 ;
184 -> 368 ;
45 -> 92 ;
92 -> 185 ;
185 -> 369 ;
185 -> 370 ;
92 -> 186 ;
186 -> 371 ;
186 -> 372 ;
22 -> 46 ;
46 -> 93 ;
93 -> 187 ;
187 -> 373 ;
187 -> 374 ;
93 -> 188 ;
188 -> 375 ;
188 -> 376 ;
46 -> 94 ;
94 -> 189 ;
189 -> 377 ;
189 -> 378 ;
94 -> 190 ;
190 -> 379 ;
190 -> 380 ;
0 -> 2[labeldistance=2.5, labelangle=-45, headlabel="True"] ;
2 -> 5 ;
5 -> 11 ;
11 -> 23 ;
23 -> 47 ;
47 -> 95 ;
95 -> 191 ;
191 -> 381 ;
191 -> 382 ;
95 -> 192 ;
192 -> 383 ;
192 -> 384 ;
47 -> 96 ;
96 -> 193 ;
193 -> 385 ;
193 -> 386 ;
96 -> 194 ;
194 -> 387 ;
194 -> 388 ;
23 -> 48 ;
48 -> 97 ;
97 -> 195 ;
195 -> 389 ;
195 -> 390 ;
97 -> 196 ;
196 -> 391 ;
196 -> 392 ;
48 -> 98 ;
98 -> 197 ;
197 -> 393 ;
197 -> 394 ;
98 -> 198 ;
198 -> 395 ;
198 -> 396 ;
11 -> 24 ;
24 -> 49 ;
49 -> 99 ;
99 -> 199 ;
199 -> 397 ;
199 -> 398 ;
99 -> 200 ;
200 -> 399 ;
200 -> 400 ;
49 -> 100 ;
100 -> 201 ;
201 -> 401 ;
201 -> 402 ;
100 -> 202 ;
202 -> 403 ;
202 -> 404 ;
24 -> 50 ;
50 -> 101 ;
101 -> 203 ;
203 -> 405 ;
203 -> 406 ;
101 -> 204 ;
204 -> 407 ;
204 -> 408 ;
50 -> 102 ;
102 -> 205 ;
205 -> 409 ;
205 -> 410 ;
102 -> 206 ;
206 -> 411 ;
206 -> 412 ;
5 -> 12 ;
12 -> 25 ;
25 -> 51 ;
51 -> 103 ;
103 -> 207 ;
207 -> 413 ;
207 -> 414 ;
103 -> 208 ;
208 -> 415 ;
208 -> 416 ;
51 -> 104 ;
104 -> 209 ;
209 -> 417 ;
209 -> 418 ;
104 -> 210 ;
210 -> 419 ;
210 -> 420 ;
25 -> 52 ;
52 -> 105 ;
105 -> 211 ;
211 -> 421 ;
211 -> 422 ;
105 -> 212 ;
212 -> 423 ;
212 -> 424 ;
52 -> 106 ;
106 -> 213 ;
213 -> 425 ;
213 -> 426 ;
106 -> 214 ;
214 -> 427 ;
214 -> 428 ;
12 -> 26 ;
26 -> 53 ;
53 -> 107 ;
107 -> 215 ;
215 -> 429 ;
215 -> 430 ;
107 -> 216 ;
216 -> 431 ;
216 -> 432 ;
53 -> 108 ;
108 -> 217 ;
217 -> 433 ;
217 -> 434 ;
108 -> 218 ;
218 -> 435 ;
218 -> 436 ;
26 -> 54 ;
54 -> 109 ;
109 -> 219 ;
219 -> 437 ;
219 -> 438 ;
109 -> 220 ;
220 -> 439 ;
220 -> 440 ;
54 -> 110 ;
110 -> 221 ;
221 -> 441 ;
221 -> 442 ;
110 -> 222 ;
222 -> 443 ;
222 -> 444 ;
2 -> 6 ;
6 -> 13 ;
13 -> 27 ;
27 -> 55 ;
55 -> 111 ;
111 -> 223 ;
223 -> 445 ;
223 -> 446 ;
111 -> 224 ;
224 -> 447 ;
224 -> 448 ;
55 -> 112 ;
112 -> 225 ;
225 -> 449 ;
225 -> 450 ;
112 -> 226 ;
226 -> 451 ;
226 -> 452 ;
27 -> 56 ;
56 -> 113 ;
113 -> 227 ;
227 -> 453 ;
227 -> 454 ;
113 -> 228 ;
228 -> 455 ;
228 -> 456 ;
56 -> 114 ;
114 -> 229 ;
229 -> 457 ;
229 -> 458 ;
114 -> 230 ;
230 -> 459 ;
230 -> 460 ;
13 -> 28 ;
28 -> 57 ;
57 -> 115 ;
115 -> 231 ;
231 -> 461 ;
231 -> 462 ;
115 -> 232 ;
232 -> 463 ;
232 -> 464 ;
57 -> 116 ;
116 -> 233 ;
233 -> 465 ;
233 -> 466 ;
116 -> 234 ;
234 -> 467 ;
234 -> 468 ;
28 -> 58 ;
58 -> 117 ;
117 -> 235 ;
235 -> 469 ;
235 -> 470 ;
117 -> 236 ;
236 -> 471 ;
236 -> 472 ;
58 -> 118 ;
118 -> 237 ;
237 -> 473 ;
237 -> 474 ;
118 -> 238 ;
238 -> 475 ;
238 -> 476 ;
6 -> 14 ;
14 -> 29 ;
29 -> 59 ;
59 -> 119 ;
119 -> 239 ;
239 -> 477 ;
239 -> 478 ;
119 -> 240 ;
240 -> 479 ;
240 -> 480 ;
59 -> 120 ;
120 -> 241 ;
241 -> 481 ;
241 -> 482 ;
120 -> 242 ;
242 -> 483 ;
242 -> 484 ;
29 -> 60 ;
60 -> 121 ;
121 -> 243 ;
243 -> 485 ;
243 -> 486 ;
121 -> 244 ;
244 -> 487 ;
244 -> 488 ;
60 -> 122 ;
122 -> 245 ;
245 -> 489 ;
245 -> 490 ;
122 -> 246 ;
14 -> 30 ;
30 -> 61 ;
61 -> 123 ;
123 -> 247 ;
247 -> 491 ;
247 -> 492 ;
123 -> 248 ;
248 -> 493 ;
248 -> 494 ;
61 -> 124 ;
124 -> 249 ;
249 -> 495 ;
249 -> 496 ;
124 -> 250 ;
250 -> 497 ;
250 -> 498 ;
30 -> 62 ;
62 -> 125 ;
125 -> 251 ;
251 -> 499 ;
251 -> 500 ;
125 -> 252 ;
252 -> 501 ;
252 -> 502 ;
62 -> 126 ;
126 -> 253 ;
253 -> 503 ;
253 -> 504 ;
126 -> 254 ;
254 -> 505 ;
254 -> 506 ;
}