digraph Tree { 
node [shape=box] ;
0 [label="[f25<1.11712611] yes=1,no=2,missing=1"] ;
1 [label="[f25<0.615448654] yes=3,no=4,missing=3"] ;
3 [label="[f27<0.861822248] yes=7,no=8,missing=7"] ;
7 [label="[f5<1.00195396] yes=15,no=16,missing=15"] ;
15 [label="[f26<0.778765082] yes=31,no=32,missing=31"] ;
31 [label="[f9<0.957559109] yes=63,no=64,missing=63"] ;
63 [label="[f22<0.752261102] yes=127,no=128,missing=127"] ;
127 [label="[f0<1.32919502] yes=255,no=256,missing=255"] ;
255 [label="leaf=-0.00928120408"] ;
256 [label="leaf=0.0412267894"] ;
128 [label="[f24<0.719791889] yes=257,no=258,missing=257"] ;
257 [label="leaf=-0.0249278229"] ;
258 [label="leaf=-0.0616443753"] ;
64 [label="[f27<0.626156092] yes=129,no=130,missing=129"] ;
129 [label="[f13<0.962229252] yes=259,no=260,missing=259"] ;
259 [label="leaf=0.0474043526"] ;
260 [label="leaf=0.0988789946"] ;
130 [label="[f25<0.481829643] yes=261,no=262,missing=261"] ;
261 [label="leaf=-0.013362661"] ;
262 [label="leaf=0.0282196552"] ;
32 [label="[f22<0.742235363] yes=65,no=66,missing=65"] ;
65 [label="[f25<0.429104269] yes=131,no=132,missing=131"] ;
131 [label="[f0<0.998772144] yes=263,no=264,missing=263"] ;
263 [label="leaf=-0.00456105452"] ;
264 [label="leaf=0.0522588156"] ;
132 [label="[f21<0.732132912] yes=265,no=266,missing=265"] ;
265 [label="leaf=0.0370098129"] ;
266 [label="leaf=0.0883077309"] ;
66 [label="[f22<1.04850197] yes=133,no=134,missing=133"] ;
133 [label="[f0<1.4532752] yes=267,no=268,missing=267"] ;
267 [label="leaf=-0.0180105865"] ;
268 [label="leaf=0.0335018411"] ;
134 [label="[f9<1.0465728] yes=269,no=270,missing=269"] ;
269 [label="leaf=0.0284058899"] ;
270 [label="leaf=0.0766976774"] ;
16 [label="[f5<1.72271955] yes=33,no=34,missing=33"] ;
33 [label="[f24<0.713249981] yes=67,no=68,missing=67"] ;
67 [label="[f3<1.48507929] yes=135,no=136,missing=135"] ;
135 [label="[f26<0.729854584] yes=271,no=272,missing=271"] ;
271 [label="leaf=0.0510899909"] ;
272 [label="leaf=0.0863974318"] ;
136 [label="[f26<0.738215506] yes=273,no=274,missing=273"] ;
273 [label="leaf=-0.0216520019"] ;
274 [label="leaf=0.0531069636"] ;
68 [label="[f23<1.22857642] yes=137,no=138,missing=137"] ;
137 [label="[f24<0.995867133] yes=275,no=276,missing=275"] ;
275 [label="leaf=0.00779940281"] ;
276 [label="leaf=0.0595799163"] ;
138 [label="[f0<1.33761346] yes=277,no=278,missing=277"] ;
277 [label="leaf=0.0897518992"] ;
278 [label="leaf=0.0456063561"] ;
34 [label="[f9<0.622844577] yes=69,no=70,missing=69"] ;
69 [label="[f13<0.343164086] yes=139,no=140,missing=139"] ;
139 [label="leaf=-0.122960843"] ;
140 [label="[f0<2.12400341] yes=279,no=280,missing=279"] ;
279 [label="leaf=0.0513801277"] ;
280 [label="leaf=-0.0141483424"] ;
70 [label="[f13<0.657614112] yes=141,no=142,missing=141"] ;
141 [label="[f17<0.428761721] yes=281,no=282,missing=281"] ;
281 [label="leaf=-0.0796068236"] ;
282 [label="leaf=0.0746529624"] ;
142 [label="[f5<2.20535207] yes=283,no=284,missing=283"] ;
283 [label="leaf=0.101974748"] ;
284 [label="leaf=0.137145668"] ;
8 [label="[f21<0.936411381] yes=17,no=18,missing=17"] ;
17 [label="[f24<1.10267425] yes=35,no=36,missing=35"] ;
35 [label="[f22<1.00209093] yes=71,no=72,missing=71"] ;
71 [label="[f22<0.742174149] yes=143,no=144,missing=143"] ;
143 [label="[f17<0.553142726] yes=285,no=286,missing=285"] ;
285 [label="leaf=-0.0918379575"] ;
286 [label="leaf=-0.0349759907"] ;
144 [label="[f20<2.32647109] yes=287,no=288,missing=287"] ;
287 [label="leaf=-0.091430299"] ;
288 [label="leaf=-0.121464804"] ;
72 [label="[f26<0.799465179] yes=145,no=146,missing=145"] ;
145 [label="[f20<0.775490344] yes=289,no=290,missing=289"] ;
289 [label="leaf=-0.0529439934"] ;
290 [label="leaf=-0.105021946"] ;
146 [label="[f27<1.00321233] yes=291,no=292,missing=291"] ;
291 [label="leaf=-0.000970036082"] ;
292 [label="leaf=-0.046278175"] ;
36 [label="[f22<0.769212723] yes=73,no=74,missing=73"] ;
73 [label="[f27<0.962363958] yes=147,no=148,missing=147"] ;
147 [label="[f25<0.487745821] yes=293,no=294,missing=293"] ;
293 [label="leaf=0.0138034197"] ;
294 [label="leaf=0.0759006366"] ;
148 [label="[f0<1.80629969] yes=295,no=296,missing=295"] ;
295 [label="leaf=-0.00341388257"] ;
296 [label="leaf=-0.0775620267"] ;
74 [label="[f20<2.32647109] yes=149,no=150,missing=149"] ;
149 [label="[f3<2.37799096] yes=297,no=298,missing=297"] ;
297 [label="leaf=-0.0238093417"] ;
298 [label="leaf=-0.0922332332"] ;
150 [label="[f22<1.08542967] yes=299,no=300,missing=299"] ;
299 [label="leaf=-0.0833261833"] ;
300 [label="leaf=-0.0108362362"] ;
18 [label="[f9<1.23549104] yes=37,no=38,missing=37"] ;
37 [label="[f3<2.05039215] yes=75,no=76,missing=75"] ;
75 [label="[f0<2.75053501] yes=151,no=152,missing=151"] ;
151 [label="[f5<1.01935935] yes=301,no=302,missing=301"] ;
301 [label="leaf=-0.0411901213"] ;
302 [label="leaf=-0.00774679566"] ;
152 [label="[f17<0.783284187] yes=303,no=304,missing=303"] ;
303 [label="leaf=-0.139421135"] ;
304 [label="leaf=-0.084490858"] ;
76 [label="[f23<1.43446827] yes=153,no=154,missing=153"] ;
153 [label="[f27<0.949316442] yes=305,no=306,missing=305"] ;
305 [label="leaf=-0.036184188"] ;
306 [label="leaf=-0.0955155119"] ;
154 [label="[f23<2.17778969] yes=307,no=308,missing=307"] ;
307 [label="leaf=-0.0144003602"] ;
308 [label="leaf=0.0976601765"] ;
38 [label="[f5<1.89997947] yes=77,no=78,missing=77"] ;
77 [label="[f27<1.06046939] yes=155,no=156,missing=155"] ;
155 [label="[f17<1.35638642] yes=309,no=310,missing=309"] ;
309 [label="leaf=0.00550560327"] ;
310 [label="leaf=0.0554095022"] ;
156 [label="[f3<2.55589485] yes=311,no=312,missing=311"] ;
311 [label="leaf=-0.0247500651"] ;
312 [label="leaf=-0.116707109"] ;
78 [label="[f27<1.08506656] yes=157,no=158,missing=157"] ;
157 [label="[f13<0.635485828] yes=313,no=314,missing=313"] ;
313 [label="leaf=0.0386677496"] ;
314 [label="leaf=0.133050904"] ;
158 [label="[f0<1.50680542] yes=315,no=316,missing=315"] ;
315 [label="leaf=0.0524005406"] ;
316 [label="leaf=-0.0448158644"] ;
4 [label="[f26<0.79836607] yes=9,no=10,missing=9"] ;
9 [label="[f5<0.850710392] yes=19,no=20,missing=19"] ;
19 [label="[f25<0.914989829] yes=39,no=40,missing=39"] ;
39 [label="[f9<1.04380298] yes=79,no=80,missing=79"] ;
79 [label="[f27<0.749004483] yes=159,no=160,missing=159"] ;
159 [label="[f26<0.71664238] yes=317,no=318,missing=317"] ;
317 [label="leaf=-0.0359031484"] ;
318 [label="leaf=0.0203372538"] ;
160 [label="[f26<0.773881137] yes=319,no=320,missing=319"] ;
319 [label="leaf=-0.0683827698"] ;
320 [label="leaf=-0.0268065464"] ;
80 [label="[f27<0.80006814] yes=161,no=162,missing=161"] ;
161 [label="[f9<1.23290992] yes=321,no=322,missing=321"] ;
321 [label="leaf=0.0348377973"] ;
322 [label="leaf=0.08629217"] ;
162 [label="[f25<0.762410998] yes=323,no=324,missing=323"] ;
323 [label="leaf=0.00289007672"] ;
324 [label="leaf=-0.0679970607"] ;
40 [label="[f9<1.04934263] yes=81,no=82,missing=81"] ;
81 [label="[f22<1.01949608] yes=163,no=164,missing=163"] ;
163 [label="[f13<1.32857537] yes=325,no=326,missing=325"] ;
325 [label="leaf=-0.0857817158"] ;
326 [label="leaf=-0.017965911"] ;
164 [label="[f27<0.745680451] yes=327,no=328,missing=327"] ;
327 [label="leaf=-0.0109803965"] ;
328 [label="leaf=-0.0694023371"] ;
82 [label="[f13<1.03950262] yes=165,no=166,missing=165"] ;
165 [label="[f9<1.31682467] yes=329,no=330,missing=329"] ;
329 [label="leaf=-0.0423076935"] ;
330 [label="leaf=0.0423276983"] ;
166 [label="[f17<0.773547888] yes=331,no=332,missing=331"] ;
331 [label="leaf=-0.052566655"] ;
332 [label="leaf=0.0650365576"] ;
20 [label="[f27<0.772382498] yes=41,no=42,missing=41"] ;
41 [label="[f25<0.951424718] yes=83,no=84,missing=83"] ;
83 [label="[f5<1.72871971] yes=167,no=168,missing=167"] ;
167 [label="[f3<1.27339482] yes=333,no=334,missing=333"] ;
333 [label="leaf=0.0730038807"] ;
334 [label="leaf=0.01916066"] ;
168 [label="[f0<2.31497359] yes=335,no=336,missing=335"] ;
335 [label="leaf=0.131322831"] ;
336 [label="leaf=0.0295550134"] ;
84 [label="[f5<0.932744682] yes=169,no=170,missing=169"] ;
169 [label="[f17<1.2337091] yes=337,no=338,missing=337"] ;
337 [label="leaf=-0.0412939601"] ;
338 [label="leaf=0.0246681515"] ;
170 [label="[f0<1.62493777] yes=339,no=340,missing=339"] ;
339 [label="leaf=0.0353723206"] ;
340 [label="leaf=-0.0976454988"] ;
42 [label="[f27<0.911691308] yes=85,no=86,missing=85"] ;
85 [label="[f5<1.56561315] yes=171,no=172,missing=171"] ;
171 [label="[f0<1.35920858] yes=341,no=342,missing=341"] ;
341 [label="leaf=-0.000860778266"] ;
342 [label="leaf=-0.0627609715"] ;
172 [label="[f26<0.763317704] yes=343,no=344,missing=343"] ;
343 [label="leaf=0.040252652"] ;
344 [label="leaf=0.115019165"] ;
86 [label="[f0<1.03354383] yes=173,no=174,missing=173"] ;
173 [label="[f3<1.36711764] yes=345,no=346,missing=345"] ;
345 [label="leaf=0.0503050275"] ;
346 [label="leaf=-0.101360641"] ;
174 [label="[f21<0.96049118] yes=347,no=348,missing=347"] ;
347 [label="leaf=-0.128867969"] ;
348 [label="leaf=-0.0548591726"] ;
10 [label="[f27<0.897714138] yes=21,no=22,missing=21"] ;
21 [label="[f25<0.991675794] yes=43,no=44,missing=43"] ;
43 [label="[f26<0.852300346] yes=87,no=88,missing=87"] ;
87 [label="[f27<0.787535846] yes=175,no=176,missing=175"] ;
175 [label="[f25<0.861354649] yes=349,no=350,missing=349"] ;
349 [label="leaf=0.0946202874"] ;
350 [label="leaf=0.0379291214"] ;
176 [label="[f5<0.910529971] yes=351,no=352,missing=351"] ;
351 [label="leaf=-0.00337438029"] ;
352 [label="leaf=0.0619769283"] ;
88 [label="[f25<0.724241495] yes=177,no=178,missing=177"] ;
177 [label="[f27<0.808490396] yes=353,no=354,missing=353"] ;
353 [label="leaf=0.0916337147"] ;
354 [label="leaf=0.0458400622"] ;
178 [label="[f21<1.01440716] yes=355,no=356,missing=355"] ;
355 [label="leaf=0.117571786"] ;
356 [label="leaf=0.0777708367"] ;
44 [label="[f26<0.922468543] yes=89,no=90,missing=89"] ;
89 [label="[f5<1.01523697] yes=179,no=180,missing=179"] ;
179 [label="[f9<1.24285638] yes=357,no=358,missing=357"] ;
357 [label="leaf=-0.0482794009"] ;
358 [label="leaf=0.0434087999"] ;
180 [label="[f3<1.79998994] yes=359,no=360,missing=359"] ;
359 [label="leaf=0.0518097095"] ;
360 [label="leaf=-0.0734183267"] ;
90 [label="[f26<0.976503909] yes=181,no=182,missing=181"] ;
181 [label="[f5<1.11756229] yes=361,no=362,missing=361"] ;
361 [label="leaf=0.0299058165"] ;
362 [label="leaf=0.100988679"] ;
182 [label="[f0<0.656545162] yes=363,no=364,missing=363"] ;
363 [label="leaf=0.063854903"] ;
364 [label="leaf=0.103782013"] ;
22 [label="[f22<1.01291251] yes=45,no=46,missing=45"] ;
45 [label="[f24<1.03311563] yes=91,no=92,missing=91"] ;
91 [label="[f27<0.980782509] yes=183,no=184,missing=183"] ;
183 [label="[f22<0.797789931] yes=365,no=366,missing=365"] ;
365 [label="leaf=0.0336270854"] ;
366 [label="leaf=-0.0261846613"] ;
184 [label="[f0<1.32324719] yes=367,no=368,missing=367"] ;
367 [label="leaf=-0.0558942929"] ;
368 [label="leaf=-0.119075075"] ;
92 [label="[f27<1.06584454] yes=185,no=186,missing=185"] ;
185 [label="[f5<1.07807946] yes=369,no=370,missing=369"] ;
369 [label="leaf=0.0379344039"] ;
370 [label="leaf=0.0900139436"] ;
186 [label="[f0<1.22378182] yes=371,no=372,missing=371"] ;
371 [label="leaf=0.0205416158"] ;
372 [label="leaf=-0.042569261"] ;
46 [label="[f3<1.85680318] yes=93,no=94,missing=93"] ;
93 [label="[f5<0.908697784] yes=187,no=188,missing=187"] ;
187 [label="[f9<1.06608784] yes=373,no=374,missing=373"] ;
373 [label="leaf=0.0199725833"] ;
374 [label="leaf=0.0580473356"] ;
188 [label="[f0<2.10423851] yes=375,no=376,missing=375"] ;
375 [label="leaf=0.0801593736"] ;
376 [label="leaf=-0.0100161275"] ;
94 [label="[f3<2.84139514] yes=189,no=190,missing=189"] ;
189 [label="[f5<1.89929247] yes=377,no=378,missing=377"] ;
377 [label="leaf=-0.0048301327"] ;
378 [label="leaf=0.0680328459"] ;
190 [label="[f23<1.25033426] yes=379,no=380,missing=379"] ;
379 [label="leaf=-0.0877416357"] ;
380 [label="leaf=0.0430983864"] ;
2 [label="[f22<1.01891184] yes=5,no=6,missing=5"] ;
5 [label="[f27<0.995954394] yes=11,no=12,missing=11"] ;
11 [label="[f5<1.03346682] yes=23,no=24,missing=23"] ;
23 [label="[f21<0.960086942] yes=47,no=48,missing=47"] ;
47 [label="[f24<1.14962554] yes=95,no=96,missing=95"] ;
95 [label="[f24<0.724087477] yes=191,no=192,missing=191"] ;
191 [label="[f22<0.790688753] yes=381,no=382,missing=381"] ;
381 [label="leaf=0.0144646382"] ;
382 [label="leaf=-0.0444960669"] ;
192 [label="[f9<1.2441783] yes=383,no=384,missing=383"] ;
383 [label="leaf=-0.0873698592"] ;
384 [label="leaf=-0.0482932143"] ;
96 [label="[f22<0.812070251] yes=193,no=194,missing=193"] ;
193 [label="[f0<0.699643731] yes=385,no=386,missing=385"] ;
385 [label="leaf=-0.0374490358"] ;
386 [label="leaf=0.0321622118"] ;
194 [label="[f0<0.501993954] yes=387,no=388,missing=387"] ;
387 [label="leaf=-0.0946896076"] ;
388 [label="leaf=-0.0332384147"] ;
48 [label="[f27<0.866197109] yes=97,no=98,missing=97"] ;
97 [label="[f21<1.08703494] yes=195,no=196,missing=195"] ;
195 [label="[f22<0.828067422] yes=389,no=390,missing=389"] ;
389 [label="leaf=0.0562015735"] ;
390 [label="leaf=-0.0259422194"] ;
196 [label="[f0<1.25690651] yes=391,no=392,missing=391"] ;
391 [label="leaf=0.0392492972"] ;
392 [label="leaf=-0.068859458"] ;
98 [label="[f24<1.03726268] yes=197,no=198,missing=197"] ;
197 [label="[f24<0.77030623] yes=393,no=394,missing=393"] ;
393 [label="leaf=-0.0200513992"] ;
394 [label="leaf=-0.0774535537"] ;
198 [label="[f0<0.43354854] yes=395,no=396,missing=395"] ;
395 [label="leaf=-0.0807285532"] ;
396 [label="leaf=-0.00220943964"] ;
24 [label="[f25<1.49271452] yes=49,no=50,missing=49"] ;
49 [label="[f24<1.01664567] yes=99,no=100,missing=99"] ;
99 [label="[f27<0.923436522] yes=199,no=200,missing=199"] ;
199 [label="[f24<0.749230623] yes=397,no=398,missing=397"] ;
397 [label="leaf=0.0478621237"] ;
398 [label="leaf=-0.0105218906"] ;
200 [label="[f5<1.44176006] yes=399,no=400,missing=399"] ;
399 [label="leaf=-0.0795295909"] ;
400 [label="leaf=-0.0123502268"] ;
100 [label="[f5<1.61082125] yes=201,no=202,missing=201"] ;
201 [label="[f8<0.543269038] yes=401,no=402,missing=401"] ;
401 [label="leaf=0.00031705515"] ;
402 [label="leaf=0.0458315909"] ;
202 [label="[f5<2.00280857] yes=403,no=404,missing=403"] ;
403 [label="leaf=0.0744161904"] ;
404 [label="leaf=0.122383289"] ;
50 [label="[f5<1.89265084] yes=101,no=102,missing=101"] ;
101 [label="[f26<1.04760027] yes=203,no=204,missing=203"] ;
203 [label="[f24<1.02696562] yes=405,no=406,missing=405"] ;
405 [label="leaf=-0.0329938792"] ;
406 [label="leaf=0.0175405648"] ;
204 [label="[f24<1.02815938] yes=407,no=408,missing=407"] ;
407 [label="leaf=-0.083024852"] ;
408 [label="leaf=-0.0347269252"] ;
102 [label="[f26<1.23632526] yes=205,no=206,missing=205"] ;
205 [label="[f0<1.48594236] yes=409,no=410,missing=409"] ;
409 [label="leaf=0.0931489989"] ;
410 [label="leaf=-0.0146524059"] ;
206 [label="leaf=-0.119683586"] ;
12 [label="[f24<1.13508427] yes=25,no=26,missing=25"] ;
25 [label="[f27<1.16473389] yes=51,no=52,missing=51"] ;
51 [label="[f24<0.997611523] yes=103,no=104,missing=103"] ;
103 [label="[f22<0.787928402] yes=207,no=208,missing=207"] ;
207 [label="[f24<0.690558195] yes=411,no=412,missing=411"] ;
411 [label="leaf=-0.0211011115"] ;
412 [label="leaf=-0.0997054949"] ;
208 [label="[f21<0.629097164] yes=413,no=414,missing=413"] ;
413 [label="leaf=-0.0866434723"] ;
414 [label="leaf=-0.130334735"] ;
104 [label="[f5<2.02094698] yes=209,no=210,missing=209"] ;
209 [label="[f21<0.958129644] yes=415,no=416,missing=415"] ;
415 [label="leaf=-0.102230392"] ;
416 [label="leaf=-0.0660996065"] ;
210 [label="[f25<1.9442265] yes=417,no=418,missing=417"] ;
417 [label="leaf=0.113477349"] ;
418 [label="leaf=-0.0593978465"] ;
52 [label="[f22<0.738359213] yes=105,no=106,missing=105"] ;
105 [label="[f26<1.24269342] yes=211,no=212,missing=211"] ;
211 [label="[f19<-0.674762487] yes=419,no=420,missing=419"] ;
419 [label="leaf=0.00150683755"] ;
420 [label="leaf=-0.101299159"] ;
212 [label="[f22<0.527620912] yes=421,no=422,missing=421"] ;
421 [label="leaf=-0.0260995012"] ;
422 [label="leaf=-0.128997907"] ;
106 [label="[f0<0.853462934] yes=213,no=214,missing=213"] ;
213 [label="[f25<1.5242548] yes=423,no=424,missing=423"] ;
423 [label="leaf=-0.123663716"] ;
424 [label="leaf=-0.142565161"] ;
214 [label="[f23<0.950809121] yes=425,no=426,missing=425"] ;
425 [label="leaf=0.0513683856"] ;
426 [label="leaf=-0.149414644"] ;
26 [label="[f27<1.27369392] yes=53,no=54,missing=53"] ;
53 [label="[f25<1.65948248] yes=107,no=108,missing=107"] ;
107 [label="[f5<1.48559427] yes=215,no=216,missing=215"] ;
215 [label="[f9<2.06469154] yes=427,no=428,missing=427"] ;
427 [label="leaf=-0.0350963846"] ;
428 [label="leaf=0.0882432833"] ;
216 [label="[f5<1.98787665] yes=429,no=430,missing=429"] ;
429 [label="leaf=0.0166188143"] ;
430 [label="leaf=0.080720894"] ;
108 [label="[f5<2.03876448] yes=217,no=218,missing=217"] ;
217 [label="[f21<0.891243219] yes=431,no=432,missing=431"] ;
431 [label="leaf=-0.0808135942"] ;
432 [label="leaf=-0.0482299142"] ;
218 [label="[f13<1.0021832] yes=433,no=434,missing=433"] ;
433 [label="leaf=-0.053003598"] ;
434 [label="leaf=0.0566536076"] ;
54 [label="[f24<1.42938662] yes=109,no=110,missing=109"] ;
109 [label="[f25<1.25336504] yes=219,no=220,missing=219"] ;
219 [label="[f27<1.32054698] yes=435,no=436,missing=435"] ;
435 [label="leaf=-0.0211106595"] ;
436 [label="leaf=-0.0968593135"] ;
220 [label="[f5<3.29589033] yes=437,no=438,missing=437"] ;
437 [label="leaf=-0.129510447"] ;
438 [label="leaf=0.0498960465"] ;
110 [label="[f3<2.09857273] yes=221,no=222,missing=221"] ;
221 [label="[f5<2.22339869] yes=439,no=440,missing=439"] ;
439 [label="leaf=-0.0535149574"] ;
440 [label="leaf=0.0120625002"] ;
222 [label="[f3<2.74566984] yes=441,no=442,missing=441"] ;
441 [label="leaf=-0.079567343"] ;
442 [label="leaf=-0.124718964"] ;
6 [label="[f25<1.98797762] yes=13,no=14,missing=13"] ;
13 [label="[f0<1.32471132] yes=27,no=28,missing=27"] ;
27 [label="[f5<1.28978372] yes=55,no=56,missing=55"] ;
55 [label="[f3<1.1781826] yes=111,no=112,missing=111"] ;
111 [label="[f17<1.21740079] yes=223,no=224,missing=223"] ;
223 [label="[f27<0.962261319] yes=443,no=444,missing=443"] ;
443 [label="leaf=0.00568909245"] ;
444 [label="leaf=-0.0197672807"] ;
224 [label="[f27<1.07533145] yes=445,no=446,missing=445"] ;
445 [label="leaf=0.0404023677"] ;
446 [label="leaf=-0.000839973334"] ;
112 [label="[f24<1.09456468] yes=225,no=226,missing=225"] ;
225 [label="[f27<1.02530777] yes=447,no=448,missing=447"] ;
447 [label="leaf=-0.0267735422"] ;
448 [label="leaf=-0.0728233233"] ;
226 [label="[f25<1.36955941] yes=449,no=450,missing=449"] ;
449 [label="leaf=0.00454030605"] ;
450 [label="leaf=-0.0337229073"] ;
56 [label="[f3<2.00168777] yes=113,no=114,missing=113"] ;
113 [label="[f5<1.94779849] yes=227,no=228,missing=227"] ;
227 [label="[f25<1.65759015] yes=451,no=452,missing=451"] ;
451 [label="leaf=0.0492002815"] ;
452 [label="leaf=0.0031443208"] ;
228 [label="[f8<0.543269038] yes=453,no=454,missing=453"] ;
453 [label="leaf=0.10860955"] ;
454 [label="leaf=0.0410225652"] ;
114 [label="[f3<3.12272072] yes=229,no=230,missing=229"] ;
229 [label="[f25<1.56040931] yes=455,no=456,missing=455"] ;
455 [label="leaf=9.5656751e-06"] ;
456 [label="leaf=-0.0734591112"] ;
230 [label="[f6<1.57592559] yes=457,no=458,missing=457"] ;
457 [label="leaf=-0.114543036"] ;
458 [label="leaf=0.0344028585"] ;
28 [label="[f25<1.49365473] yes=57,no=58,missing=57"] ;
57 [label="[f24<1.8973732] yes=115,no=116,missing=115"] ;
115 [label="[f24<1.21520889] yes=231,no=232,missing=231"] ;
231 [label="[f5<0.951890588] yes=459,no=460,missing=459"] ;
459 [label="leaf=-0.0695291683"] ;
460 [label="leaf=-0.0205714237"] ;
232 [label="[f26<1.06275749] yes=461,no=462,missing=461"] ;
461 [label="leaf=-0.0480215251"] ;
462 [label="leaf=0.053061258"] ;
116 [label="[f24<2.14842319] yes=233,no=234,missing=233"] ;
233 [label="[f5<1.9099648] yes=463,no=464,missing=463"] ;
463 [label="leaf=-0.0916349664"] ;
464 [label="leaf=0.00682371203"] ;
234 [label="[f6<1.78288364] yes=465,no=466,missing=465"] ;
465 [label="leaf=-0.13694641"] ;
466 [label="leaf=0.00454637548"] ;
58 [label="[f24<1.15481758] yes=117,no=118,missing=117"] ;
117 [label="[f27<1.14472175] yes=235,no=236,missing=235"] ;
235 [label="[f5<1.17454195] yes=467,no=468,missing=467"] ;
467 [label="leaf=-0.095014967"] ;
468 [label="leaf=-0.0311695021"] ;
236 [label="[f22<1.30859947] yes=469,no=470,missing=469"] ;
469 [label="leaf=-0.145805985"] ;
470 [label="leaf=-0.0908581093"] ;
118 [label="[f25<1.62674904] yes=237,no=238,missing=237"] ;
237 [label="[f24<1.93954742] yes=471,no=472,missing=471"] ;
471 [label="leaf=-0.00788264256"] ;
472 [label="leaf=-0.0838090181"] ;
238 [label="[f0<2.15044832] yes=473,no=474,missing=473"] ;
473 [label="leaf=-0.0608036518"] ;
474 [label="leaf=-0.104399048"] ;
14 [label="[f24<1.02046216] yes=29,no=30,missing=29"] ;
29 [label="[f27<1.2253921] yes=59,no=60,missing=59"] ;
59 [label="[f27<1.05323482] yes=119,no=120,missing=119"] ;
119 [label="[f5<1.57706404] yes=239,no=240,missing=239"] ;
239 [label="[f3<0.848340869] yes=475,no=476,missing=475"] ;
475 [label="leaf=-0.0376360416"] ;
476 [label="leaf=-0.0910266861"] ;
240 [label="[f15<-0.817879677] yes=477,no=478,missing=477"] ;
477 [label="leaf=-0.0517983399"] ;
478 [label="leaf=0.0876755714"] ;
120 [label="[f22<1.1995163] yes=241,no=242,missing=241"] ;
241 [label="[f24<0.718985081] yes=479,no=480,missing=479"] ;
479 [label="leaf=-0.0272055175"] ;
480 [label="leaf=-0.11650902"] ;
242 [label="[f25<2.2912097] yes=481,no=482,missing=481"] ;
481 [label="leaf=-0.0333493762"] ;
482 [label="leaf=-0.0870061442"] ;
60 [label="[f0<1.49399471] yes=121,no=122,missing=121"] ;
121 [label="[f25<2.1710844] yes=243,no=244,missing=243"] ;
243 [label="[f22<1.29056549] yes=483,no=484,missing=483"] ;
483 [label="leaf=-0.132036239"] ;
484 [label="leaf=-0.0598925613"] ;
244 [label="[f3<1.94783819] yes=485,no=486,missing=485"] ;
485 [label="leaf=-0.114701748"] ;
486 [label="leaf=-0.151947483"] ;
122 [label="[f6<-2.14090252] yes=245,no=246,missing=245"] ;
245 [label="leaf=-0.00234241737"] ;
246 [label="[f13<0.543899298] yes=487,no=488,missing=487"] ;
487 [label="leaf=-0.0977427214"] ;
488 [label="leaf=-0.151253834"] ;
30 [label="[f3<1.91554904] yes=61,no=62,missing=61"] ;
61 [label="[f0<1.19385982] yes=123,no=124,missing=123"] ;
123 [label="[f17<0.877604485] yes=247,no=248,missing=247"] ;
247 [label="[f25<2.2379694] yes=489,no=490,missing=489"] ;
489 [label="leaf=-0.0307037365"] ;
490 [label="leaf=-0.0721170232"] ;
248 [label="[f21<1.92320013] yes=491,no=492,missing=491"] ;
491 [label="leaf=-0.00494619133"] ;
492 [label="leaf=-0.0742323846"] ;
124 [label="[f0<2.12116671] yes=249,no=250,missing=249"] ;
249 [label="[f22<1.85382986] yes=493,no=494,missing=493"] ;
493 [label="leaf=-0.0557366386"] ;
494 [label="leaf=-0.11118342"] ;
250 [label="[f6<1.13230252] yes=495,no=496,missing=495"] ;
495 [label="leaf=-0.111293212"] ;
496 [label="leaf=-0.0495821051"] ;
62 [label="[f27<1.78266215] yes=125,no=126,missing=125"] ;
125 [label="[f23<1.58850479] yes=251,no=252,missing=251"] ;
251 [label="[f3<2.25858378] yes=497,no=498,missing=497"] ;
497 [label="leaf=-0.0650877282"] ;
498 [label="leaf=-0.10625831"] ;
252 [label="[f23<1.91661596] yes=499,no=500,missing=499"] ;
499 [label="leaf=0.100673214"] ;
500 [label="leaf=-0.0794431791"] ;
126 [label="[f3<2.67612648] yes=253,no=254,missing=253"] ;
253 [label="[f6<-0.966984987] yes=501,no=502,missing=501"] ;
501 [label="leaf=-0.0579792447"] ;
502 [label="leaf=-0.119907297"] ;
254 [label="[f23<1.28289437] yes=503,no=504,missing=503"] ;
503 [label="leaf=-0.151161835"] ;
504 [label="leaf=-0.0474271327"] ;
0 -> 1 [labeldistance=2.5, labelangle=45, headlabel="True"] ;
1 -> 3 ;
3 -> 7 ;
7 -> 15 ;
15 -> 31 ;
31 -> 63 ;
63 -> 127 ;
127 -> 255 ;
127 -> 256 ;
63 -> 128 ;
128 -> 257 ;
128 -> 258 ;
31 -> 64 ;
64 -> 129 ;
129 -> 259 ;
129 -> 260 ;
64 -> 130 ;
130 -> 261 ;
130 -> 262 ;
15 -> 32 ;
32 -> 65 ;
65 -> 131 ;
131 -> 263 ;
131 -> 264 ;
65 -> 132 ;
132 -> 265 ;
132 -> 266 ;
32 -> 66 ;
66 -> 133 ;
133 -> 267 ;
133 -> 268 ;
66 -> 134 ;
134 -> 269 ;
134 -> 270 ;
7 -> 16 ;
16 -> 33 ;
33 -> 67 ;
67 -> 135 ;
135 -> 271 ;
135 -> 272 ;
67 -> 136 ;
136 -> 273 ;
136 -> 274 ;
33 -> 68 ;
68 -> 137 ;
137 -> 275 ;
137 -> 276 ;
68 -> 138 ;
138 -> 277 ;
138 -> 278 ;
16 -> 34 ;
34 -> 69 ;
69 -> 139 ;
69 -> 140 ;
140 -> 279 ;
140 -> 280 ;
34 -> 70 ;
70 -> 141 ;
141 -> 281 ;
141 -> 282 ;
70 -> 142 ;
142 -> 283 ;
142 -> 284 ;
3 -> 8 ;
8 -> 17 ;
17 -> 35 ;
35 -> 71 ;
71 -> 143 ;
143 -> 285 ;
143 -> 286 ;
71 -> 144 ;
144 -> 287 ;
144 -> 288 ;
35 -> 72 ;
72 -> 145 ;
145 -> 289 ;
145 -> 290 ;
72 -> 146 ;
146 -> 291 ;
146 -> 292 ;
17 -> 36 ;
36 -> 73 ;
73 -> 147 ;
147 -> 293 ;
147 -> 294 ;
73 -> 148 ;
148 -> 295 ;
148 -> 296 ;
36 -> 74 ;
74 -> 149 ;
149 -> 297 ;
149 -> 298 ;
74 -> 150 ;
150 -> 299 ;
150 -> 300 ;
8 -> 18 ;
18 -> 37 ;
37 -> 75 ;
75 -> 151 ;
151 -> 301 ;
151 -> 302 ;
75 -> 152 ;
152 -> 303 ;
152 -> 304 ;
37 -> 76 ;
76 -> 153 ;
153 -> 305 ;
153 -> 306 ;
76 -> 154 ;
154 -> 307 ;
154 -> 308 ;
18 -> 38 ;
38 -> 77 ;
77 -> 155 ;
155 -> 309 ;
155 -> 310 ;
77 -> 156 ;
156 -> 311 ;
156 -> 312 ;
38 -> 78 ;
78 -> 157 ;
157 -> 313 ;
157 -> 314 ;
78 -> 158 ;
158 -> 315 ;
158 -> 316 ;
1 -> 4 ;
4 -> 9 ;
9 -> 19 ;
19 -> 39 ;
39 -> 79 ;
79 -> 159 ;
159 -> 317 ;
159 -> 318 ;
79 -> 160 ;
160 -> 319 ;
160 -> 320 ;
39 -> 80 ;
80 -> 161 ;
161 -> 321 ;
161 -> 322 ;
80 -> 162 ;
162 -> 323 ;
162 -> 324 ;
19 -> 40 ;
40 -> 81 ;
81 -> 163 ;
163 -> 325 ;
163 -> 326 ;
81 -> 164 ;
164 -> 327 ;
164 -> 328 ;
40 -> 82 ;
82 -> 165 ;
165 -> 329 ;
165 -> 330 ;
82 -> 166 ;
166 -> 331 ;
166 -> 332 ;
9 -> 20 ;
20 -> 41 ;
41 -> 83 ;
83 -> 167 ;
167 -> 333 ;
167 -> 334 ;
83 -> 168 ;
168 -> 335 ;
168 -> 336 ;
41 -> 84 ;
84 -> 169 ;
169 -> 337 ;
169 -> 338 ;
84 -> 170 ;
170 -> 339 ;
170 -> 340 ;
20 -> 42 ;
42 -> 85 ;
85 -> 171 ;
171 -> 341 ;
171 -> 342 ;
85 -> 172 ;
172 -> 343 ;
172 -> 344 ;
42 -> 86 ;
86 -> 173 ;
173 -> 345 ;
173 -> 346 ;
86 -> 174 ;
174 -> 347 ;
174 -> 348 ;
4 -> 10 ;
10 -> 21 ;
21 -> 43 ;
43 -> 87 ;
87 -> 175 ;
175 -> 349 ;
175 -> 350 ;
87 -> 176 ;
176 -> 351 ;
176 -> 352 ;
43 -> 88 ;
88 -> 177 ;
177 -> 353 ;
177 -> 354 ;
88 -> 178 ;
178 -> 355 ;
178 -> 356 ;
21 -> 44 ;
44 -> 89 ;
89 -> 179 ;
179 -> 357 ;
179 -> 358 ;
89 -> 180 ;
180 -> 359 ;
180 -> 360 ;
44 -> 90 ;
90 -> 181 ;
181 -> 361 ;
181 -> 362 ;
90 -> 182 ;
182 -> 363 ;
182 -> 364 ;
10 -> 22 ;
22 -> 45 ;
45 -> 91 ;
91 -> 183 ;
183 -> 365 ;
183 -> 366 ;
91 -> 184 ;
184 -> 367 ;
184 -> 368 ;
45 -> 92 ;
92 -> 185 ;
185 -> 369 ;
185 -> 370 ;
92 -> 186 ;
186 -> 371 ;
186 -> 372 ;
22 -> 46 ;
46 -> 93 ;
93 -> 187 ;
187 -> 373 ;
187 -> 374 ;
93 -> 188 ;
188 -> 375 ;
188 -> 376 ;
46 -> 94 ;
94 -> 189 ;
189 -> 377 ;
189 -> 378 ;
94 -> 190 ;
190 -> 379 ;
190 -> 380 ;
0 -> 2 [labeldistance=2.5, labelangle=-45, headlabel="False"] ;
2 -> 5 ;
5 -> 11 ;
11 -> 23 ;
23 -> 47 ;
47 -> 95 ;
95 -> 191 ;
191 -> 381 ;
191 -> 382 ;
95 -> 192 ;
192 -> 383 ;
192 -> 384 ;
47 -> 96 ;
96 -> 193 ;
193 -> 385 ;
193 -> 386 ;
96 -> 194 ;
194 -> 387 ;
194 -> 388 ;
23 -> 48 ;
48 -> 97 ;
97 -> 195 ;
195 -> 389 ;
195 -> 390 ;
97 -> 196 ;
196 -> 391 ;
196 -> 392 ;
48 -> 98 ;
98 -> 197 ;
197 -> 393 ;
197 -> 394 ;
98 -> 198 ;
198 -> 395 ;
198 -> 396 ;
11 -> 24 ;
24 -> 49 ;
49 -> 99 ;
99 -> 199 ;
199 -> 397 ;
199 -> 398 ;
99 -> 200 ;
200 -> 399 ;
200 -> 400 ;
49 -> 100 ;
100 -> 201 ;
201 -> 401 ;
201 -> 402 ;
100 -> 202 ;
202 -> 403 ;
202 -> 404 ;
24 -> 50 ;
50 -> 101 ;
101 -> 203 ;
203 -> 405 ;
203 -> 406 ;
101 -> 204 ;
204 -> 407 ;
204 -> 408 ;
50 -> 102 ;
102 -> 205 ;
205 -> 409 ;
205 -> 410 ;
102 -> 206 ;
5 -> 12 ;
12 -> 25 ;
25 -> 51 ;
51 -> 103 ;
103 -> 207 ;
207 -> 411 ;
207 -> 412 ;
103 -> 208 ;
208 -> 413 ;
208 -> 414 ;
51 -> 104 ;
104 -> 209 ;
209 -> 415 ;
209 -> 416 ;
104 -> 210 ;
210 -> 417 ;
210 -> 418 ;
25 -> 52 ;
52 -> 105 ;
105 -> 211 ;
211 -> 419 ;
211 -> 420 ;
105 -> 212 ;
212 -> 421 ;
212 -> 422 ;
52 -> 106 ;
106 -> 213 ;
213 -> 423 ;
213 -> 424 ;
106 -> 214 ;
214 -> 425 ;
214 -> 426 ;
12 -> 26 ;
26 -> 53 ;
53 -> 107 ;
107 -> 215 ;
215 -> 427 ;
215 -> 428 ;
107 -> 216 ;
216 -> 429 ;
216 -> 430 ;
53 -> 108 ;
108 -> 217 ;
217 -> 431 ;
217 -> 432 ;
108 -> 218 ;
218 -> 433 ;
218 -> 434 ;
26 -> 54 ;
54 -> 109 ;
109 -> 219 ;
219 -> 435 ;
219 -> 436 ;
109 -> 220 ;
220 -> 437 ;
220 -> 438 ;
54 -> 110 ;
110 -> 221 ;
221 -> 439 ;
221 -> 440 ;
110 -> 222 ;
222 -> 441 ;
222 -> 442 ;
2 -> 6 ;
6 -> 13 ;
13 -> 27 ;
27 -> 55 ;
55 -> 111 ;
111 -> 223 ;
223 -> 443 ;
223 -> 444 ;
111 -> 224 ;
224 -> 445 ;
224 -> 446 ;
55 -> 112 ;
112 -> 225 ;
225 -> 447 ;
225 -> 448 ;
112 -> 226 ;
226 -> 449 ;
226 -> 450 ;
27 -> 56 ;
56 -> 113 ;
113 -> 227 ;
227 -> 451 ;
227 -> 452 ;
113 -> 228 ;
228 -> 453 ;
228 -> 454 ;
56 -> 114 ;
114 -> 229 ;
229 -> 455 ;
229 -> 456 ;
114 -> 230 ;
230 -> 457 ;
230 -> 458 ;
13 -> 28 ;
28 -> 57 ;
57 -> 115 ;
115 -> 231 ;
231 -> 459 ;
231 -> 460 ;
115 -> 232 ;
232 -> 461 ;
232 -> 462 ;
57 -> 116 ;
116 -> 233 ;
233 -> 463 ;
233 -> 464 ;
116 -> 234 ;
234 -> 465 ;
234 -> 466 ;
28 -> 58 ;
58 -> 117 ;
117 -> 235 ;
235 -> 467 ;
235 -> 468 ;
117 -> 236 ;
236 -> 469 ;
236 -> 470 ;
58 -> 118 ;
118 -> 237 ;
237 -> 471 ;
237 -> 472 ;
118 -> 238 ;
238 -> 473 ;
238 -> 474 ;
6 -> 14 ;
14 -> 29 ;
29 -> 59 ;
59 -> 119 ;
119 -> 239 ;
239 -> 475 ;
239 -> 476 ;
119 -> 240 ;
240 -> 477 ;
240 -> 478 ;
59 -> 120 ;
120 -> 241 ;
241 -> 479 ;
241 -> 480 ;
120 -> 242 ;
242 -> 481 ;
242 -> 482 ;
29 -> 60 ;
60 -> 121 ;
121 -> 243 ;
243 -> 483 ;
243 -> 484 ;
121 -> 244 ;
244 -> 485 ;
244 -> 486 ;
60 -> 122 ;
122 -> 245 ;
122 -> 246 ;
246 -> 487 ;
246 -> 488 ;
14 -> 30 ;
30 -> 61 ;
61 -> 123 ;
123 -> 247 ;
247 -> 489 ;
247 -> 490 ;
123 -> 248 ;
248 -> 491 ;
248 -> 492 ;
61 -> 124 ;
124 -> 249 ;
249 -> 493 ;
249 -> 494 ;
124 -> 250 ;
250 -> 495 ;
250 -> 496 ;
30 -> 62 ;
62 -> 125 ;
125 -> 251 ;
251 -> 497 ;
251 -> 498 ;
125 -> 252 ;
252 -> 499 ;
252 -> 500 ;
62 -> 126 ;
126 -> 253 ;
253 -> 501 ;
253 -> 502 ;
126 -> 254 ;
254 -> 503 ;
254 -> 504 ;
}