digraph Tree { 
node [shape=box] ;
0 [label="[f25<1.0267005] yes=1,no=2,missing=1"] ;
1 [label="[f25<0.692364931] yes=3,no=4,missing=3"] ;
3 [label="[f27<0.83856535] yes=7,no=8,missing=7"] ;
7 [label="[f26<0.772279501] yes=15,no=16,missing=15"] ;
15 [label="[f5<0.771378517] yes=31,no=32,missing=31"] ;
31 [label="[f9<1.15321302] yes=63,no=64,missing=63"] ;
63 [label="[f22<0.81645] yes=127,no=128,missing=127"] ;
127 [label="[f0<1.49783802] yes=255,no=256,missing=255"] ;
255 [label="leaf=-0.012573394"] ;
256 [label="leaf=0.0403290465"] ;
128 [label="[f22<1.0421325] yes=257,no=258,missing=257"] ;
257 [label="leaf=-0.0424703285"] ;
258 [label="leaf=0.00674716011"] ;
64 [label="[f25<0.313833475] yes=129,no=130,missing=129"] ;
129 [label="[f12<0.55371803] yes=259,no=260,missing=259"] ;
259 [label="leaf=0.036310371"] ;
260 [label="leaf=-0.0672010258"] ;
130 [label="[f24<0.725163281] yes=261,no=262,missing=261"] ;
261 [label="leaf=0.0664239675"] ;
262 [label="leaf=0.0198164191"] ;
32 [label="[f27<0.693210959] yes=65,no=66,missing=65"] ;
65 [label="[f9<0.850163341] yes=131,no=132,missing=131"] ;
131 [label="[f13<0.891805112] yes=263,no=264,missing=263"] ;
263 [label="leaf=0.00971979555"] ;
264 [label="leaf=0.0458577499"] ;
132 [label="[f27<0.610554993] yes=265,no=266,missing=265"] ;
265 [label="leaf=0.0772671551"] ;
266 [label="leaf=0.0414534472"] ;
66 [label="[f21<1.01093554] yes=133,no=134,missing=133"] ;
133 [label="[f26<0.727613389] yes=267,no=268,missing=267"] ;
267 [label="leaf=-0.0368150435"] ;
268 [label="leaf=0.0103445901"] ;
134 [label="[f0<0.496595204] yes=269,no=270,missing=269"] ;
269 [label="leaf=-0.0177175254"] ;
270 [label="leaf=0.0355322696"] ;
16 [label="[f24<0.704364359] yes=33,no=34,missing=33"] ;
33 [label="[f25<0.507149994] yes=67,no=68,missing=67"] ;
67 [label="[f21<2.00361443] yes=135,no=136,missing=135"] ;
135 [label="[f16<0.637056112] yes=271,no=272,missing=271"] ;
271 [label="leaf=0.047724247"] ;
272 [label="leaf=0.0114406524"] ;
136 [label="[f25<0.490317166] yes=273,no=274,missing=273"] ;
273 [label="leaf=0.110482968"] ;
274 [label="leaf=-0.00488924095"] ;
68 [label="[f24<0.632408202] yes=137,no=138,missing=137"] ;
137 [label="[f3<0.0360510796] yes=275,no=276,missing=275"] ;
275 [label="leaf=-0.0758004934"] ;
276 [label="leaf=0.102119975"] ;
138 [label="[f27<0.814532161] yes=277,no=278,missing=277"] ;
277 [label="leaf=0.0808675811"] ;
278 [label="leaf=0.0318757109"] ;
34 [label="[f22<0.771814346] yes=69,no=70,missing=69"] ;
69 [label="[f25<0.46886903] yes=139,no=140,missing=139"] ;
139 [label="[f27<0.816048503] yes=279,no=280,missing=279"] ;
279 [label="leaf=0.029188687"] ;
280 [label="leaf=-0.0404578447"] ;
140 [label="[f21<0.749837279] yes=281,no=282,missing=281"] ;
281 [label="leaf=0.0350552276"] ;
282 [label="leaf=0.0888842568"] ;
70 [label="[f22<1.02284646] yes=141,no=142,missing=141"] ;
141 [label="[f23<1.23934793] yes=283,no=284,missing=283"] ;
283 [label="leaf=-0.002112997"] ;
284 [label="leaf=0.0519374385"] ;
142 [label="[f26<0.842330217] yes=285,no=286,missing=285"] ;
285 [label="leaf=0.0218163989"] ;
286 [label="leaf=0.0626474395"] ;
8 [label="[f9<1.42868996] yes=17,no=18,missing=17"] ;
17 [label="[f21<0.935940981] yes=35,no=36,missing=35"] ;
35 [label="[f8<0.543269038] yes=71,no=72,missing=71"] ;
71 [label="[f22<1.00057459] yes=143,no=144,missing=143"] ;
143 [label="[f22<0.779174328] yes=287,no=288,missing=287"] ;
287 [label="leaf=-0.0271661226"] ;
288 [label="leaf=-0.0794159248"] ;
144 [label="[f25<0.554826677] yes=289,no=290,missing=289"] ;
289 [label="leaf=-0.0464338884"] ;
290 [label="leaf=-0.00168612285"] ;
72 [label="[f22<0.670605779] yes=145,no=146,missing=145"] ;
145 [label="[f0<2.41324949] yes=291,no=292,missing=291"] ;
291 [label="leaf=0.0549209602"] ;
292 [label="leaf=-0.1056927"] ;
146 [label="[f22<1.02818894] yes=293,no=294,missing=293"] ;
293 [label="leaf=-0.0346522816"] ;
294 [label="leaf=0.0040559331"] ;
36 [label="[f27<1.02552581] yes=73,no=74,missing=73"] ;
73 [label="[f5<1.10583651] yes=147,no=148,missing=147"] ;
147 [label="[f24<1.00199151] yes=295,no=296,missing=295"] ;
295 [label="leaf=-0.025945887"] ;
296 [label="leaf=0.00519839954"] ;
148 [label="[f26<0.853261054] yes=297,no=298,missing=297"] ;
297 [label="leaf=-0.00651929155"] ;
298 [label="leaf=0.0389625616"] ;
74 [label="[f0<2.2511034] yes=149,no=150,missing=149"] ;
149 [label="[f3<1.99219608] yes=299,no=300,missing=299"] ;
299 [label="leaf=-0.0217641685"] ;
300 [label="leaf=-0.0609195903"] ;
150 [label="[f6<-1.60023689] yes=301,no=302,missing=301"] ;
301 [label="leaf=0.000356920878"] ;
302 [label="leaf=-0.0887338445"] ;
18 [label="[f5<2.04865789] yes=37,no=38,missing=37"] ;
37 [label="[f3<2.07585239] yes=75,no=76,missing=75"] ;
75 [label="[f0<2.12583351] yes=151,no=152,missing=151"] ;
151 [label="[f17<1.19622445] yes=303,no=304,missing=303"] ;
303 [label="leaf=0.00150115183"] ;
304 [label="leaf=0.0341022834"] ;
152 [label="[f0<3.08937645] yes=305,no=306,missing=305"] ;
305 [label="leaf=-0.0428946428"] ;
306 [label="leaf=-0.11760398"] ;
76 [label="[f23<1.1170578] yes=153,no=154,missing=153"] ;
153 [label="[f24<0.724676609] yes=307,no=308,missing=307"] ;
307 [label="leaf=-0.0122004859"] ;
308 [label="leaf=-0.0850720853"] ;
154 [label="[f17<0.655252039] yes=309,no=310,missing=309"] ;
309 [label="leaf=-0.0783853158"] ;
310 [label="leaf=0.0433552451"] ;
38 [label="[f0<1.66117358] yes=77,no=78,missing=77"] ;
77 [label="[f27<1.19565248] yes=155,no=156,missing=155"] ;
155 [label="[f10<1.98943341] yes=311,no=312,missing=311"] ;
311 [label="leaf=0.117805019"] ;
312 [label="leaf=-0.00659028441"] ;
156 [label="[f3<1.66170585] yes=313,no=314,missing=313"] ;
313 [label="leaf=0.079918161"] ;
314 [label="leaf=0.00907112937"] ;
78 [label="[f0<3.28364086] yes=157,no=158,missing=157"] ;
157 [label="[f24<1.82645702] yes=315,no=316,missing=315"] ;
315 [label="leaf=0.0368019417"] ;
316 [label="leaf=-0.0991441607"] ;
158 [label="[f6<-1.37248397] yes=317,no=318,missing=317"] ;
317 [label="leaf=0.0821974427"] ;
318 [label="leaf=-0.142455712"] ;
4 [label="[f26<0.834718823] yes=9,no=10,missing=9"] ;
9 [label="[f5<0.741881073] yes=19,no=20,missing=19"] ;
19 [label="[f25<0.8507635] yes=39,no=40,missing=39"] ;
39 [label="[f26<0.76984787] yes=79,no=80,missing=79"] ;
79 [label="[f9<0.882394671] yes=159,no=160,missing=159"] ;
159 [label="[f3<0.87630856] yes=319,no=320,missing=319"] ;
319 [label="leaf=-0.0193917416"] ;
320 [label="leaf=-0.0575013161"] ;
160 [label="[f27<0.692092538] yes=321,no=322,missing=321"] ;
321 [label="leaf=0.0318454355"] ;
322 [label="leaf=-0.00699678808"] ;
80 [label="[f27<0.821316957] yes=161,no=162,missing=161"] ;
161 [label="[f24<0.751348972] yes=323,no=324,missing=323"] ;
323 [label="leaf=0.0744693801"] ;
324 [label="leaf=0.0280612838"] ;
162 [label="[f0<0.815763056] yes=325,no=326,missing=325"] ;
325 [label="leaf=-0.00907631498"] ;
326 [label="leaf=-0.0592851117"] ;
40 [label="[f3<1.02882171] yes=81,no=82,missing=81"] ;
81 [label="[f9<1.05267906] yes=163,no=164,missing=163"] ;
163 [label="[f27<0.769102573] yes=327,no=328,missing=327"] ;
327 [label="leaf=-0.0283659194"] ;
328 [label="leaf=-0.0731139109"] ;
164 [label="[f22<1.23495531] yes=329,no=330,missing=329"] ;
329 [label="leaf=0.018286746"] ;
330 [label="leaf=0.146343261"] ;
82 [label="[f22<0.982370734] yes=165,no=166,missing=165"] ;
165 [label="[f9<1.17285395] yes=331,no=332,missing=331"] ;
331 [label="leaf=-0.0861998573"] ;
332 [label="leaf=0.0020045822"] ;
166 [label="[f27<0.716347575] yes=333,no=334,missing=333"] ;
333 [label="leaf=0.0172836017"] ;
334 [label="leaf=-0.0503427684"] ;
20 [label="[f27<0.818482876] yes=41,no=42,missing=41"] ;
41 [label="[f5<0.979235351] yes=83,no=84,missing=83"] ;
83 [label="[f3<1.30942583] yes=167,no=168,missing=167"] ;
167 [label="[f25<0.916909695] yes=335,no=336,missing=335"] ;
335 [label="leaf=0.0379575118"] ;
336 [label="leaf=-0.000682089012"] ;
168 [label="[f23<1.15767419] yes=337,no=338,missing=337"] ;
337 [label="leaf=-0.0374561027"] ;
338 [label="leaf=0.0337087736"] ;
84 [label="[f8<0.543269038] yes=169,no=170,missing=169"] ;
169 [label="[f5<1.56350613] yes=339,no=340,missing=339"] ;
339 [label="leaf=0.0362842679"] ;
340 [label="leaf=0.0891273469"] ;
170 [label="[f25<0.926173449] yes=341,no=342,missing=341"] ;
341 [label="leaf=0.092100732"] ;
342 [label="leaf=0.043473497"] ;
42 [label="[f8<0.543269038] yes=85,no=86,missing=85"] ;
85 [label="[f9<1.07609725] yes=171,no=172,missing=171"] ;
171 [label="[f25<0.784703016] yes=343,no=344,missing=343"] ;
343 [label="leaf=-0.0366379023"] ;
344 [label="leaf=-0.0805009082"] ;
172 [label="[f0<1.11370182] yes=345,no=346,missing=345"] ;
345 [label="leaf=0.0424061865"] ;
346 [label="leaf=-0.0383580513"] ;
86 [label="[f25<0.887000918] yes=173,no=174,missing=173"] ;
173 [label="[f5<0.815395832] yes=347,no=348,missing=347"] ;
347 [label="leaf=0.00442235591"] ;
348 [label="leaf=0.0630550981"] ;
174 [label="[f23<0.983970404] yes=349,no=350,missing=349"] ;
349 [label="leaf=-0.138248339"] ;
350 [label="leaf=-0.017528614"] ;
10 [label="[f27<0.88138175] yes=21,no=22,missing=21"] ;
21 [label="[f26<0.88525331] yes=43,no=44,missing=43"] ;
43 [label="[f25<0.907219291] yes=87,no=88,missing=87"] ;
87 [label="[f27<0.808423996] yes=175,no=176,missing=175"] ;
175 [label="[f21<0.929543853] yes=351,no=352,missing=351"] ;
351 [label="leaf=0.0938732997"] ;
352 [label="leaf=0.0581725053"] ;
176 [label="[f5<0.997419357] yes=353,no=354,missing=353"] ;
353 [label="leaf=0.0273221768"] ;
354 [label="leaf=0.0769026801"] ;
88 [label="[f5<1.0151453] yes=177,no=178,missing=177"] ;
177 [label="[f27<0.818376303] yes=355,no=356,missing=355"] ;
355 [label="leaf=0.00185867201"] ;
356 [label="leaf=-0.064158164"] ;
178 [label="[f27<0.820143819] yes=357,no=358,missing=357"] ;
357 [label="leaf=0.0711118504"] ;
358 [label="leaf=0.00161093974"] ;
44 [label="[f21<1.02600288] yes=89,no=90,missing=89"] ;
89 [label="[f22<1.00945091] yes=179,no=180,missing=179"] ;
179 [label="[f25<0.761100292] yes=359,no=360,missing=359"] ;
359 [label="leaf=0.0509835258"] ;
360 [label="leaf=0.0871647"] ;
180 [label="[f25<0.790124178] yes=361,no=362,missing=361"] ;
361 [label="leaf=0.0990108103"] ;
362 [label="leaf=0.12118905"] ;
90 [label="[f5<0.781226337] yes=181,no=182,missing=181"] ;
181 [label="[f0<0.601825416] yes=363,no=364,missing=363"] ;
363 [label="leaf=-0.00144120853"] ;
364 [label="leaf=0.0414300375"] ;
182 [label="[f5<1.27503502] yes=365,no=366,missing=365"] ;
365 [label="leaf=0.0668490455"] ;
366 [label="leaf=0.10144899"] ;
22 [label="[f3<1.98457694] yes=45,no=46,missing=45"] ;
45 [label="[f5<0.84136641] yes=91,no=92,missing=91"] ;
91 [label="[f9<1.06797647] yes=183,no=184,missing=183"] ;
183 [label="[f25<0.941592097] yes=367,no=368,missing=367"] ;
367 [label="leaf=0.00890630763"] ;
368 [label="leaf=-0.0255479906"] ;
184 [label="[f12<0.55371803] yes=369,no=370,missing=369"] ;
369 [label="leaf=0.0112020811"] ;
370 [label="leaf=0.0577559471"] ;
92 [label="[f0<1.40523529] yes=185,no=186,missing=185"] ;
185 [label="[f5<1.80928826] yes=371,no=372,missing=371"] ;
371 [label="leaf=0.0577141456"] ;
372 [label="leaf=0.114115849"] ;
186 [label="[f24<1.79146767] yes=373,no=374,missing=373"] ;
373 [label="leaf=0.0138790561"] ;
374 [label="leaf=-0.101232342"] ;
46 [label="[f3<2.66541529] yes=93,no=94,missing=93"] ;
93 [label="[f0<1.40880394] yes=187,no=188,missing=187"] ;
187 [label="[f26<0.914617777] yes=375,no=376,missing=375"] ;
375 [label="leaf=-0.0705002248"] ;
376 [label="leaf=0.00820208155"] ;
188 [label="[f27<1.01637328] yes=377,no=378,missing=377"] ;
377 [label="leaf=0.0441509932"] ;
378 [label="leaf=-0.0781833455"] ;
94 [label="[f23<1.36335468] yes=189,no=190,missing=189"] ;
189 [label="[f27<1.01133657] yes=379,no=380,missing=379"] ;
379 [label="leaf=-0.00847586896"] ;
380 [label="leaf=-0.0870840326"] ;
190 [label="[f0<1.75862586] yes=381,no=382,missing=381"] ;
381 [label="leaf=0.0607777536"] ;
382 [label="leaf=-0.0466558598"] ;
2 [label="[f25<1.65907156] yes=5,no=6,missing=5"] ;
5 [label="[f22<1.06471324] yes=11,no=12,missing=11"] ;
11 [label="[f24<1.05249822] yes=23,no=24,missing=23"] ;
23 [label="[f27<0.93981874] yes=47,no=48,missing=47"] ;
47 [label="[f5<0.929034591] yes=95,no=96,missing=95"] ;
95 [label="[f21<1.04460311] yes=191,no=192,missing=191"] ;
191 [label="[f9<1.14704382] yes=383,no=384,missing=383"] ;
383 [label="leaf=-0.0591992699"] ;
384 [label="leaf=-0.0191893689"] ;
192 [label="[f27<0.853326619] yes=385,no=386,missing=385"] ;
385 [label="leaf=0.0185299311"] ;
386 [label="leaf=-0.0283900704"] ;
96 [label="[f5<1.21462011] yes=193,no=194,missing=193"] ;
193 [label="[f22<0.750151873] yes=387,no=388,missing=387"] ;
387 [label="leaf=0.0446099639"] ;
388 [label="leaf=-0.0165138077"] ;
194 [label="[f21<0.722236216] yes=389,no=390,missing=389"] ;
389 [label="leaf=0.0677974969"] ;
390 [label="leaf=0.0128642349"] ;
48 [label="[f27<1.11013126] yes=97,no=98,missing=97"] ;
97 [label="[f5<1.11078334] yes=195,no=196,missing=195"] ;
195 [label="[f21<1.07367349] yes=391,no=392,missing=391"] ;
391 [label="leaf=-0.088560693"] ;
392 [label="leaf=-0.0459722839"] ;
196 [label="[f22<0.981260419] yes=393,no=394,missing=393"] ;
393 [label="leaf=-0.0626921877"] ;
394 [label="leaf=-0.0109403133"] ;
98 [label="[f0<0.923829913] yes=197,no=198,missing=197"] ;
197 [label="[f3<2.01330137] yes=395,no=396,missing=395"] ;
395 [label="leaf=-0.084857814"] ;
396 [label="leaf=-0.120830916"] ;
198 [label="[f22<0.69908011] yes=397,no=398,missing=397"] ;
397 [label="leaf=-0.0710570738"] ;
398 [label="leaf=-0.116584376"] ;
24 [label="[f27<1.13943768] yes=49,no=50,missing=49"] ;
49 [label="[f5<1.00809169] yes=99,no=100,missing=99"] ;
99 [label="[f9<1.12992096] yes=199,no=200,missing=199"] ;
199 [label="[f0<0.622871399] yes=399,no=400,missing=399"] ;
399 [label="leaf=-0.0571066812"] ;
400 [label="leaf=-0.0144574046"] ;
200 [label="[f25<1.39467239] yes=401,no=402,missing=401"] ;
401 [label="leaf=0.0373739414"] ;
402 [label="leaf=-0.024426816"] ;
100 [label="[f5<1.7230401] yes=201,no=202,missing=201"] ;
201 [label="[f25<1.4134922] yes=403,no=404,missing=403"] ;
403 [label="leaf=0.031625513"] ;
404 [label="leaf=-0.00469219731"] ;
202 [label="[f3<1.72718263] yes=405,no=406,missing=405"] ;
405 [label="leaf=0.0911434665"] ;
406 [label="leaf=0.0419970267"] ;
50 [label="[f24<1.36950266] yes=101,no=102,missing=101"] ;
101 [label="[f27<1.41654861] yes=203,no=204,missing=203"] ;
203 [label="[f23<1.22597885] yes=407,no=408,missing=407"] ;
407 [label="leaf=-0.0502507463"] ;
408 [label="leaf=-0.105878271"] ;
204 [label="[f5<2.93926334] yes=409,no=410,missing=409"] ;
409 [label="leaf=-0.103584662"] ;
410 [label="leaf=0.0716822296"] ;
102 [label="[f3<2.10838223] yes=205,no=206,missing=205"] ;
205 [label="[f5<1.05655181] yes=411,no=412,missing=411"] ;
411 [label="leaf=-0.0412253551"] ;
412 [label="leaf=0.00262851897"] ;
206 [label="[f3<3.04090261] yes=413,no=414,missing=413"] ;
413 [label="leaf=-0.0523981638"] ;
414 [label="leaf=-0.103529982"] ;
12 [label="[f5<0.951478362] yes=25,no=26,missing=25"] ;
25 [label="[f27<0.947576225] yes=51,no=52,missing=51"] ;
51 [label="[f13<1.13460159] yes=103,no=104,missing=103"] ;
103 [label="[f26<0.885092735] yes=207,no=208,missing=207"] ;
207 [label="[f27<0.799686849] yes=415,no=416,missing=415"] ;
415 [label="leaf=-0.0105364649"] ;
416 [label="leaf=-0.0807517543"] ;
208 [label="[f27<0.884867966] yes=417,no=418,missing=417"] ;
417 [label="leaf=0.0263226461"] ;
418 [label="leaf=-0.0131419869"] ;
104 [label="[f17<0.779511333] yes=209,no=210,missing=209"] ;
209 [label="[f5<0.678992689] yes=419,no=420,missing=419"] ;
419 [label="leaf=-0.0314712934"] ;
420 [label="leaf=0.0254515298"] ;
210 [label="[f9<0.801816463] yes=421,no=422,missing=421"] ;
421 [label="leaf=0.0318528339"] ;
422 [label="leaf=0.0750456229"] ;
52 [label="[f9<1.44392431] yes=105,no=106,missing=105"] ;
105 [label="[f24<1.0456847] yes=211,no=212,missing=211"] ;
211 [label="[f0<1.29396582] yes=423,no=424,missing=423"] ;
423 [label="leaf=-0.0385407731"] ;
424 [label="leaf=-0.0771184787"] ;
212 [label="[f13<1.71968412] yes=425,no=426,missing=425"] ;
425 [label="leaf=-0.0180672295"] ;
426 [label="leaf=0.0319779664"] ;
106 [label="[f24<1.01034451] yes=213,no=214,missing=213"] ;
213 [label="[f0<1.50076604] yes=427,no=428,missing=427"] ;
427 [label="leaf=0.00631654356"] ;
428 [label="leaf=-0.087854594"] ;
214 [label="[f25<1.25482666] yes=429,no=430,missing=429"] ;
429 [label="leaf=0.0668867603"] ;
430 [label="leaf=0.0222344585"] ;
26 [label="[f0<2.72216868] yes=53,no=54,missing=53"] ;
53 [label="[f3<2.38371181] yes=107,no=108,missing=107"] ;
107 [label="[f5<1.67041183] yes=215,no=216,missing=215"] ;
215 [label="[f27<1.09516358] yes=431,no=432,missing=431"] ;
431 [label="leaf=0.0372295603"] ;
432 [label="leaf=0.00711130118"] ;
216 [label="[f24<2.02261257] yes=433,no=434,missing=433"] ;
433 [label="leaf=0.0658196807"] ;
434 [label="leaf=-0.0218177047"] ;
108 [label="[f3<3.62166929] yes=217,no=218,missing=217"] ;
217 [label="[f8<0.543269038] yes=435,no=436,missing=435"] ;
435 [label="leaf=-0.00687854085"] ;
436 [label="leaf=-0.0655130893"] ;
218 [label="[f6<-1.91859579] yes=437,no=438,missing=437"] ;
437 [label="leaf=0.0388042629"] ;
438 [label="leaf=-0.113508217"] ;
54 [label="[f8<0.543269038] yes=109,no=110,missing=109"] ;
109 [label="[f24<1.00626409] yes=219,no=220,missing=219"] ;
219 [label="[f24<0.730260551] yes=439,no=440,missing=439"] ;
439 [label="leaf=-0.01885405"] ;
440 [label="leaf=-0.120827511"] ;
220 [label="[f0<4.04422665] yes=441,no=442,missing=441"] ;
441 [label="leaf=0.0143144373"] ;
442 [label="leaf=-0.131045863"] ;
110 [label="[f24<0.739020705] yes=221,no=222,missing=221"] ;
221 [label="leaf=0.0511026569"] ;
222 [label="[f23<1.89513445] yes=443,no=444,missing=443"] ;
443 [label="leaf=-0.128737599"] ;
444 [label="leaf=-0.039458137"] ;
6 [label="[f22<0.987646461] yes=13,no=14,missing=13"] ;
13 [label="[f27<0.939241886] yes=27,no=28,missing=27"] ;
27 [label="[f21<0.57397759] yes=55,no=56,missing=55"] ;
55 [label="[f0<1.41795444] yes=111,no=112,missing=111"] ;
111 [label="[f0<0.444895118] yes=223,no=224,missing=223"] ;
223 [label="[f15<1.51405549] yes=445,no=446,missing=445"] ;
445 [label="leaf=-0.0618723817"] ;
446 [label="leaf=0.113621317"] ;
224 [label="[f27<0.818956017] yes=447,no=448,missing=447"] ;
447 [label="leaf=0.0509907305"] ;
448 [label="leaf=-0.00024610461"] ;
112 [label="[f14<0.645539224] yes=225,no=226,missing=225"] ;
225 [label="[f23<1.22360289] yes=449,no=450,missing=449"] ;
449 [label="leaf=-0.161905676"] ;
450 [label="leaf=-0.0310835093"] ;
226 [label="[f13<0.542230844] yes=451,no=452,missing=451"] ;
451 [label="leaf=0.0696712211"] ;
452 [label="leaf=-0.0917990282"] ;
56 [label="[f21<0.923119903] yes=113,no=114,missing=113"] ;
113 [label="[f27<0.815032721] yes=227,no=228,missing=227"] ;
227 [label="[f8<1.62980711] yes=453,no=454,missing=453"] ;
453 [label="leaf=0.0386439227"] ;
454 [label="leaf=-0.0424276441"] ;
228 [label="[f22<0.75878346] yes=455,no=456,missing=455"] ;
455 [label="leaf=0.0165959653"] ;
456 [label="leaf=-0.0721037611"] ;
114 [label="[f24<1.09607089] yes=229,no=230,missing=229"] ;
229 [label="[f24<0.815928102] yes=457,no=458,missing=457"] ;
457 [label="leaf=0.0254675727"] ;
458 [label="leaf=-0.0285368562"] ;
230 [label="[f19<0.860229731] yes=459,no=460,missing=459"] ;
459 [label="leaf=0.060559798"] ;
460 [label="leaf=-0.0522461236"] ;
28 [label="[f24<1.1250819] yes=57,no=58,missing=57"] ;
57 [label="[f27<1.0770061] yes=115,no=116,missing=115"] ;
115 [label="[f24<0.72886461] yes=231,no=232,missing=231"] ;
231 [label="[f22<0.813867807] yes=461,no=462,missing=461"] ;
461 [label="leaf=0.0400498398"] ;
462 [label="leaf=-0.0540214591"] ;
232 [label="[f24<0.957053542] yes=463,no=464,missing=463"] ;
463 [label="leaf=-0.0977443457"] ;
464 [label="leaf=-0.0717433542"] ;
116 [label="[f0<1.18708849] yes=233,no=234,missing=233"] ;
233 [label="[f22<0.811071277] yes=465,no=466,missing=465"] ;
465 [label="leaf=-0.0920912251"] ;
466 [label="leaf=-0.11723341"] ;
234 [label="[f6<-2.50332689] yes=467,no=468,missing=467"] ;
467 [label="leaf=-0.0368803628"] ;
468 [label="leaf=-0.12758857"] ;
58 [label="[f22<0.832789421] yes=117,no=118,missing=117"] ;
117 [label="[f21<0.786492467] yes=235,no=236,missing=235"] ;
235 [label="[f25<2.05362988] yes=469,no=470,missing=469"] ;
469 [label="leaf=-0.0283651948"] ;
470 [label="leaf=-0.0661149994"] ;
236 [label="[f23<1.34012294] yes=471,no=472,missing=471"] ;
471 [label="leaf=0.000485491531"] ;
472 [label="leaf=-0.0675642118"] ;
118 [label="[f21<0.913916588] yes=237,no=238,missing=237"] ;
237 [label="[f5<1.99465561] yes=473,no=474,missing=473"] ;
473 [label="leaf=-0.0808801353"] ;
474 [label="leaf=-0.0384047851"] ;
238 [label="[f3<2.0385468] yes=475,no=476,missing=475"] ;
475 [label="leaf=-0.0310303103"] ;
476 [label="leaf=-0.0863091573"] ;
14 [label="[f0<1.2269845] yes=29,no=30,missing=29"] ;
29 [label="[f3<1.28196669] yes=59,no=60,missing=59"] ;
59 [label="[f25<2.18582368] yes=119,no=120,missing=119"] ;
119 [label="[f5<1.86878729] yes=239,no=240,missing=239"] ;
239 [label="[f9<0.815665841] yes=477,no=478,missing=477"] ;
477 [label="leaf=-0.0406621806"] ;
478 [label="leaf=-0.00433403766"] ;
240 [label="[f8<0.543269038] yes=479,no=480,missing=479"] ;
479 [label="leaf=0.0823583752"] ;
480 [label="leaf=0.0227619819"] ;
120 [label="[f24<1.31940842] yes=241,no=242,missing=241"] ;
241 [label="[f24<0.966938257] yes=481,no=482,missing=481"] ;
481 [label="leaf=-0.0760290623"] ;
482 [label="leaf=-0.0469566211"] ;
242 [label="[f17<1.59869814] yes=483,no=484,missing=483"] ;
483 [label="leaf=-0.0214470178"] ;
484 [label="leaf=0.0321523249"] ;
60 [label="[f3<2.25858378] yes=121,no=122,missing=121"] ;
121 [label="[f23<1.00850201] yes=243,no=244,missing=243"] ;
243 [label="[f21<1.57046938] yes=485,no=486,missing=485"] ;
485 [label="leaf=-0.052944608"] ;
486 [label="leaf=-0.0945529863"] ;
244 [label="[f24<1.17012239] yes=487,no=488,missing=487"] ;
487 [label="leaf=-0.0545918122"] ;
488 [label="leaf=-0.00311603723"] ;
122 [label="[f23<1.75195551] yes=245,no=246,missing=245"] ;
245 [label="[f6<1.04120135] yes=489,no=490,missing=489"] ;
489 [label="leaf=-0.0997996479"] ;
490 [label="leaf=-0.046520941"] ;
246 [label="[f10<0.0219161808] yes=491,no=492,missing=491"] ;
491 [label="leaf=0.109829843"] ;
492 [label="leaf=-0.0669966191"] ;
30 [label="[f24<1.10265374] yes=61,no=62,missing=61"] ;
61 [label="[f0<1.56125057] yes=123,no=124,missing=123"] ;
123 [label="[f25<2.25535941] yes=247,no=248,missing=247"] ;
247 [label="[f5<1.88220763] yes=493,no=494,missing=493"] ;
493 [label="leaf=-0.0640466437"] ;
494 [label="leaf=0.0354511291"] ;
248 [label="[f17<1.99374795] yes=495,no=496,missing=495"] ;
495 [label="leaf=-0.110164605"] ;
496 [label="leaf=-0.0436505787"] ;
124 [label="[f27<0.98338306] yes=249,no=250,missing=249"] ;
249 [label="[f9<1.30882978] yes=497,no=498,missing=497"] ;
497 [label="leaf=-0.0715000257"] ;
498 [label="leaf=0.0581201725"] ;
250 [label="[f6<1.51255083] yes=499,no=500,missing=499"] ;
499 [label="leaf=-0.117004827"] ;
500 [label="leaf=-0.0518243015"] ;
62 [label="[f0<3.09614778] yes=125,no=126,missing=125"] ;
125 [label="[f6<-1.39872503] yes=251,no=252,missing=251"] ;
251 [label="[f13<0.682903588] yes=501,no=502,missing=501"] ;
501 [label="leaf=-0.116918541"] ;
502 [label="leaf=0.0193367098"] ;
252 [label="[f21<1.85854495] yes=503,no=504,missing=503"] ;
503 [label="leaf=-0.0484470055"] ;
504 [label="leaf=-0.08761926"] ;
126 [label="[f24<1.88392043] yes=253,no=254,missing=253"] ;
253 [label="[f23<1.17828918] yes=505,no=506,missing=505"] ;
505 [label="leaf=0.0274631809"] ;
506 [label="leaf=-0.112313919"] ;
254 [label="[f15<1.64691472] yes=507,no=508,missing=507"] ;
507 [label="leaf=-0.125175759"] ;
508 [label="leaf=0.00643183524"] ;
0 -> 1[labeldistance=2.5, labelangle=45, headlabel="True"] ;
1 -> 3 ;
3 -> 7 ;
7 -> 15 ;
15 -> 31 ;
31 -> 63 ;
63 -> 127 ;
127 -> 255 ;
127 -> 256 ;
63 -> 128 ;
128 -> 257 ;
128 -> 258 ;
31 -> 64 ;
64 -> 129 ;
129 -> 259 ;
129 -> 260 ;
64 -> 130 ;
130 -> 261 ;
130 -> 262 ;
15 -> 32 ;
32 -> 65 ;
65 -> 131 ;
131 -> 263 ;
131 -> 264 ;
65 -> 132 ;
132 -> 265 ;
132 -> 266 ;
32 -> 66 ;
66 -> 133 ;
133 -> 267 ;
133 -> 268 ;
66 -> 134 ;
134 -> 269 ;
134 -> 270 ;
7 -> 16 ;
16 -> 33 ;
33 -> 67 ;
67 -> 135 ;
135 -> 271 ;
135 -> 272 ;
67 -> 136 ;
136 -> 273 ;
136 -> 274 ;
33 -> 68 ;
68 -> 137 ;
137 -> 275 ;
137 -> 276 ;
68 -> 138 ;
138 -> 277 ;
138 -> 278 ;
16 -> 34 ;
34 -> 69 ;
69 -> 139 ;
139 -> 279 ;
139 -> 280 ;
69 -> 140 ;
140 -> 281 ;
140 -> 282 ;
34 -> 70 ;
70 -> 141 ;
141 -> 283 ;
141 -> 284 ;
70 -> 142 ;
142 -> 285 ;
142 -> 286 ;
3 -> 8 ;
8 -> 17 ;
17 -> 35 ;
35 -> 71 ;
71 -> 143 ;
143 -> 287 ;
143 -> 288 ;
71 -> 144 ;
144 -> 289 ;
144 -> 290 ;
35 -> 72 ;
72 -> 145 ;
145 -> 291 ;
145 -> 292 ;
72 -> 146 ;
146 -> 293 ;
146 -> 294 ;
17 -> 36 ;
36 -> 73 ;
73 -> 147 ;
147 -> 295 ;
147 -> 296 ;
73 -> 148 ;
148 -> 297 ;
148 -> 298 ;
36 -> 74 ;
74 -> 149 ;
149 -> 299 ;
149 -> 300 ;
74 -> 150 ;
150 -> 301 ;
150 -> 302 ;
8 -> 18 ;
18 -> 37 ;
37 -> 75 ;
75 -> 151 ;
151 -> 303 ;
151 -> 304 ;
75 -> 152 ;
152 -> 305 ;
152 -> 306 ;
37 -> 76 ;
76 -> 153 ;
153 -> 307 ;
153 -> 308 ;
76 -> 154 ;
154 -> 309 ;
154 -> 310 ;
18 -> 38 ;
38 -> 77 ;
77 -> 155 ;
155 -> 311 ;
155 -> 312 ;
77 -> 156 ;
156 -> 313 ;
156 -> 314 ;
38 -> 78 ;
78 -> 157 ;
157 -> 315 ;
157 -> 316 ;
78 -> 158 ;
158 -> 317 ;
158 -> 318 ;
1 -> 4 ;
4 -> 9 ;
9 -> 19 ;
19 -> 39 ;
39 -> 79 ;
79 -> 159 ;
159 -> 319 ;
159 -> 320 ;
79 -> 160 ;
160 -> 321 ;
160 -> 322 ;
39 -> 80 ;
80 -> 161 ;
161 -> 323 ;
161 -> 324 ;
80 -> 162 ;
162 -> 325 ;
162 -> 326 ;
19 -> 40 ;
40 -> 81 ;
81 -> 163 ;
163 -> 327 ;
163 -> 328 ;
81 -> 164 ;
164 -> 329 ;
164 -> 330 ;
40 -> 82 ;
82 -> 165 ;
165 -> 331 ;
165 -> 332 ;
82 -> 166 ;
166 -> 333 ;
166 -> 334 ;
9 -> 20 ;
20 -> 41 ;
41 -> 83 ;
83 -> 167 ;
167 -> 335 ;
167 -> 336 ;
83 -> 168 ;
168 -> 337 ;
168 -> 338 ;
41 -> 84 ;
84 -> 169 ;
169 -> 339 ;
169 -> 340 ;
84 -> 170 ;
170 -> 341 ;
170 -> 342 ;
20 -> 42 ;
42 -> 85 ;
85 -> 171 ;
171 -> 343 ;
171 -> 344 ;
85 -> 172 ;
172 -> 345 ;
172 -> 346 ;
42 -> 86 ;
86 -> 173 ;
173 -> 347 ;
173 -> 348 ;
86 -> 174 ;
174 -> 349 ;
174 -> 350 ;
4 -> 10 ;
10 -> 21 ;
21 -> 43 ;
43 -> 87 ;
87 -> 175 ;
175 -> 351 ;
175 -> 352 ;
87 -> 176 ;
176 -> 353 ;
176 -> 354 ;
43 -> 88 ;
88 -> 177 ;
177 -> 355 ;
177 -> 356 ;
88 -> 178 ;
178 -> 357 ;
178 -> 358 ;
21 -> 44 ;
44 -> 89 ;
89 -> 179 ;
179 -> 359 ;
179 -> 360 ;
89 -> 180 ;
180 -> 361 ;
180 -> 362 ;
44 -> 90 ;
90 -> 181 ;
181 -> 363 ;
181 -> 364 ;
90 -> 182 ;
182 -> 365 ;
182 -> 366 ;
10 -> 22 ;
22 -> 45 ;
45 -> 91 ;
91 -> 183 ;
183 -> 367 ;
183 -> 368 ;
91 -> 184 ;
184 -> 369 ;
184 -> 370 ;
45 -> 92 ;
92 -> 185 ;
185 -> 371 ;
185 -> 372 ;
92 -> 186 ;
186 -> 373 ;
186 -> 374 ;
22 -> 46 ;
46 -> 93 ;
93 -> 187 ;
187 -> 375 ;
187 -> 376 ;
93 -> 188 ;
188 -> 377 ;
188 -> 378 ;
46 -> 94 ;
94 -> 189 ;
189 -> 379 ;
189 -> 380 ;
94 -> 190 ;
190 -> 381 ;
190 -> 382 ;
0 -> 2[labeldistance=2.5, labelangle=-45, headlabel="True"] ;
2 -> 5 ;
5 -> 11 ;
11 -> 23 ;
23 -> 47 ;
47 -> 95 ;
95 -> 191 ;
191 -> 383 ;
191 -> 384 ;
95 -> 192 ;
192 -> 385 ;
192 -> 386 ;
47 -> 96 ;
96 -> 193 ;
193 -> 387 ;
193 -> 388 ;
96 -> 194 ;
194 -> 389 ;
194 -> 390 ;
23 -> 48 ;
48 -> 97 ;
97 -> 195 ;
195 -> 391 ;
195 -> 392 ;
97 -> 196 ;
196 -> 393 ;
196 -> 394 ;
48 -> 98 ;
98 -> 197 ;
197 -> 395 ;
197 -> 396 ;
98 -> 198 ;
198 -> 397 ;
198 -> 398 ;
11 -> 24 ;
24 -> 49 ;
49 -> 99 ;
99 -> 199 ;
199 -> 399 ;
199 -> 400 ;
99 -> 200 ;
200 -> 401 ;
200 -> 402 ;
49 -> 100 ;
100 -> 201 ;
201 -> 403 ;
201 -> 404 ;
100 -> 202 ;
202 -> 405 ;
202 -> 406 ;
24 -> 50 ;
50 -> 101 ;
101 -> 203 ;
203 -> 407 ;
203 -> 408 ;
101 -> 204 ;
204 -> 409 ;
204 -> 410 ;
50 -> 102 ;
102 -> 205 ;
205 -> 411 ;
205 -> 412 ;
102 -> 206 ;
206 -> 413 ;
206 -> 414 ;
5 -> 12 ;
12 -> 25 ;
25 -> 51 ;
51 -> 103 ;
103 -> 207 ;
207 -> 415 ;
207 -> 416 ;
103 -> 208 ;
208 -> 417 ;
208 -> 418 ;
51 -> 104 ;
104 -> 209 ;
209 -> 419 ;
209 -> 420 ;
104 -> 210 ;
210 -> 421 ;
210 -> 422 ;
25 -> 52 ;
52 -> 105 ;
105 -> 211 ;
211 -> 423 ;
211 -> 424 ;
105 -> 212 ;
212 -> 425 ;
212 -> 426 ;
52 -> 106 ;
106 -> 213 ;
213 -> 427 ;
213 -> 428 ;
106 -> 214 ;
214 -> 429 ;
214 -> 430 ;
12 -> 26 ;
26 -> 53 ;
53 -> 107 ;
107 -> 215 ;
215 -> 431 ;
215 -> 432 ;
107 -> 216 ;
216 -> 433 ;
216 -> 434 ;
53 -> 108 ;
108 -> 217 ;
217 -> 435 ;
217 -> 436 ;
108 -> 218 ;
218 -> 437 ;
218 -> 438 ;
26 -> 54 ;
54 -> 109 ;
109 -> 219 ;
219 -> 439 ;
219 -> 440 ;
109 -> 220 ;
220 -> 441 ;
220 -> 442 ;
54 -> 110 ;
110 -> 221 ;
110 -> 222 ;
222 -> 443 ;
222 -> 444 ;
2 -> 6 ;
6 -> 13 ;
13 -> 27 ;
27 -> 55 ;
55 -> 111 ;
111 -> 223 ;
223 -> 445 ;
223 -> 446 ;
111 -> 224 ;
224 -> 447 ;
224 -> 448 ;
55 -> 112 ;
112 -> 225 ;
225 -> 449 ;
225 -> 450 ;
112 -> 226 ;
226 -> 451 ;
226 -> 452 ;
27 -> 56 ;
56 -> 113 ;
113 -> 227 ;
227 -> 453 ;
227 -> 454 ;
113 -> 228 ;
228 -> 455 ;
228 -> 456 ;
56 -> 114 ;
114 -> 229 ;
229 -> 457 ;
229 -> 458 ;
114 -> 230 ;
230 -> 459 ;
230 -> 460 ;
13 -> 28 ;
28 -> 57 ;
57 -> 115 ;
115 -> 231 ;
231 -> 461 ;
231 -> 462 ;
115 -> 232 ;
232 -> 463 ;
232 -> 464 ;
57 -> 116 ;
116 -> 233 ;
233 -> 465 ;
233 -> 466 ;
116 -> 234 ;
234 -> 467 ;
234 -> 468 ;
28 -> 58 ;
58 -> 117 ;
117 -> 235 ;
235 -> 469 ;
235 -> 470 ;
117 -> 236 ;
236 -> 471 ;
236 -> 472 ;
58 -> 118 ;
118 -> 237 ;
237 -> 473 ;
237 -> 474 ;
118 -> 238 ;
238 -> 475 ;
238 -> 476 ;
6 -> 14 ;
14 -> 29 ;
29 -> 59 ;
59 -> 119 ;
119 -> 239 ;
239 -> 477 ;
239 -> 478 ;
119 -> 240 ;
240 -> 479 ;
240 -> 480 ;
59 -> 120 ;
120 -> 241 ;
241 -> 481 ;
241 -> 482 ;
120 -> 242 ;
242 -> 483 ;
242 -> 484 ;
29 -> 60 ;
60 -> 121 ;
121 -> 243 ;
243 -> 485 ;
243 -> 486 ;
121 -> 244 ;
244 -> 487 ;
244 -> 488 ;
60 -> 122 ;
122 -> 245 ;
245 -> 489 ;
245 -> 490 ;
122 -> 246 ;
246 -> 491 ;
246 -> 492 ;
14 -> 30 ;
30 -> 61 ;
61 -> 123 ;
123 -> 247 ;
247 -> 493 ;
247 -> 494 ;
123 -> 248 ;
248 -> 495 ;
248 -> 496 ;
61 -> 124 ;
124 -> 249 ;
249 -> 497 ;
249 -> 498 ;
124 -> 250 ;
250 -> 499 ;
250 -> 500 ;
30 -> 62 ;
62 -> 125 ;
125 -> 251 ;
251 -> 501 ;
251 -> 502 ;
125 -> 252 ;
252 -> 503 ;
252 -> 504 ;
62 -> 126 ;
126 -> 253 ;
253 -> 505 ;
253 -> 506 ;
126 -> 254 ;
254 -> 507 ;
254 -> 508 ;
}