digraph Tree { 
node [shape=box] ;
0 [label="[f25<1.0509088] yes=1,no=2,missing=1"] ;
1 [label="[f25<0.686982453] yes=3,no=4,missing=3"] ;
3 [label="[f27<0.901372373] yes=7,no=8,missing=7"] ;
7 [label="[f5<1.00497699] yes=15,no=16,missing=15"] ;
15 [label="[f25<0.549712062] yes=31,no=32,missing=31"] ;
31 [label="[f21<0.890098929] yes=63,no=64,missing=63"] ;
63 [label="[f22<0.726151943] yes=127,no=128,missing=127"] ;
127 [label="[f0<0.988523602] yes=253,no=254,missing=253"] ;
253 [label="leaf=-0.0113309938"] ;
254 [label="leaf=0.027515104"] ;
128 [label="[f9<0.922054291] yes=255,no=256,missing=255"] ;
255 [label="leaf=-0.053885825"] ;
256 [label="leaf=-0.018364856"] ;
64 [label="[f22<0.839656949] yes=129,no=130,missing=129"] ;
129 [label="[f0<0.572360933] yes=257,no=258,missing=257"] ;
257 [label="leaf=-0.0187626127"] ;
258 [label="leaf=0.0297683086"] ;
130 [label="[f21<1.6047641] yes=259,no=260,missing=259"] ;
259 [label="leaf=-0.0206793249"] ;
260 [label="leaf=0.0431203619"] ;
32 [label="[f26<0.715616226] yes=65,no=66,missing=65"] ;
65 [label="[f27<0.672730505] yes=131,no=132,missing=131"] ;
131 [label="[f9<0.946479559] yes=261,no=262,missing=261"] ;
261 [label="leaf=-0.00331113348"] ;
262 [label="leaf=0.0644928664"] ;
132 [label="[f22<1.00190449] yes=263,no=264,missing=263"] ;
263 [label="leaf=-0.0588929914"] ;
264 [label="leaf=-0.0123163182"] ;
66 [label="[f24<0.749217868] yes=133,no=134,missing=133"] ;
133 [label="[f27<0.779978752] yes=265,no=266,missing=265"] ;
265 [label="leaf=0.0776460096"] ;
266 [label="leaf=0.0374105759"] ;
134 [label="[f22<0.811627746] yes=267,no=268,missing=267"] ;
267 [label="leaf=0.0541521087"] ;
268 [label="leaf=-0.00058181741"] ;
16 [label="[f5<1.72271955] yes=33,no=34,missing=33"] ;
33 [label="[f25<0.545261919] yes=67,no=68,missing=67"] ;
67 [label="[f21<1.10548627] yes=135,no=136,missing=135"] ;
135 [label="[f27<0.800148249] yes=269,no=270,missing=269"] ;
269 [label="leaf=0.0290456396"] ;
270 [label="leaf=-0.0199763421"] ;
136 [label="[f21<1.82998598] yes=271,no=272,missing=271"] ;
271 [label="leaf=0.0476970859"] ;
272 [label="leaf=0.0994082615"] ;
68 [label="[f26<0.742033124] yes=137,no=138,missing=137"] ;
137 [label="[f27<0.708596885] yes=273,no=274,missing=273"] ;
273 [label="leaf=0.0592014678"] ;
274 [label="leaf=-0.0185854249"] ;
138 [label="[f24<0.704497576] yes=275,no=276,missing=275"] ;
275 [label="leaf=0.102107301"] ;
276 [label="leaf=0.0536018685"] ;
34 [label="[f9<0.613275886] yes=69,no=70,missing=69"] ;
69 [label="[f0<1.9507854] yes=139,no=140,missing=139"] ;
139 [label="[f11<0.324752331] yes=277,no=278,missing=277"] ;
277 [label="leaf=0.0892907381"] ;
278 [label="leaf=-0.00173330586"] ;
140 [label="[f6<-1.10363662] yes=279,no=280,missing=279"] ;
279 [label="leaf=0.12324556"] ;
280 [label="leaf=-0.0600170568"] ;
70 [label="[f17<0.817482948] yes=141,no=142,missing=141"] ;
141 [label="[f22<0.516968012] yes=281,no=282,missing=281"] ;
281 [label="leaf=-0.103905655"] ;
282 [label="leaf=0.0775474384"] ;
142 [label="[f5<2.05878067] yes=283,no=284,missing=283"] ;
283 [label="leaf=0.0928741321"] ;
284 [label="leaf=0.122584932"] ;
8 [label="[f22<1.06404281] yes=17,no=18,missing=17"] ;
17 [label="[f24<1.02120245] yes=35,no=36,missing=35"] ;
35 [label="[f0<1.30860662] yes=71,no=72,missing=71"] ;
71 [label="[f24<0.735301495] yes=143,no=144,missing=143"] ;
143 [label="[f9<1.16284466] yes=285,no=286,missing=285"] ;
285 [label="leaf=-0.0377711616"] ;
286 [label="leaf=0.0279965978"] ;
144 [label="[f21<0.985792875] yes=287,no=288,missing=287"] ;
287 [label="leaf=-0.0799726099"] ;
288 [label="leaf=-0.0404280983"] ;
72 [label="[f24<0.692066848] yes=145,no=146,missing=145"] ;
145 [label="[f13<1.30565691] yes=289,no=290,missing=289"] ;
289 [label="leaf=-0.0623387098"] ;
290 [label="leaf=0.0249502715"] ;
146 [label="[f27<0.959359705] yes=291,no=292,missing=291"] ;
291 [label="leaf=-0.0817558989"] ;
292 [label="leaf=-0.118812397"] ;
36 [label="[f27<1.19363272] yes=73,no=74,missing=73"] ;
73 [label="[f5<1.94871449] yes=147,no=148,missing=147"] ;
147 [label="[f21<0.891167402] yes=293,no=294,missing=293"] ;
293 [label="leaf=-0.0402772129"] ;
294 [label="leaf=-0.00410120981"] ;
148 [label="[f0<3.4563098] yes=295,no=296,missing=295"] ;
295 [label="leaf=0.112836562"] ;
296 [label="leaf=-0.0726347715"] ;
74 [label="[f0<1.09311342] yes=149,no=150,missing=149"] ;
149 [label="[f5<2.09162188] yes=297,no=298,missing=297"] ;
297 [label="leaf=-0.0433768705"] ;
298 [label="leaf=0.0723593011"] ;
150 [label="[f6<2.30522966] yes=299,no=300,missing=299"] ;
299 [label="leaf=-0.098795861"] ;
300 [label="leaf=0.0623980351"] ;
18 [label="[f5<1.76572907] yes=37,no=38,missing=37"] ;
37 [label="[f24<1.64773989] yes=75,no=76,missing=75"] ;
75 [label="[f25<0.524597526] yes=151,no=152,missing=151"] ;
151 [label="[f13<1.20941639] yes=301,no=302,missing=301"] ;
301 [label="leaf=-0.0395726673"] ;
302 [label="leaf=-0.00640592119"] ;
152 [label="[f24<0.723854363] yes=303,no=304,missing=303"] ;
303 [label="leaf=0.0326467007"] ;
304 [label="leaf=-0.0101647777"] ;
76 [label="[f0<0.921816826] yes=153,no=154,missing=153"] ;
153 [label="[f3<0.952952147] yes=305,no=306,missing=305"] ;
305 [label="leaf=0.022024028"] ;
306 [label="leaf=-0.0570001863"] ;
154 [label="[f23<2.23397422] yes=307,no=308,missing=307"] ;
307 [label="leaf=-0.11994385"] ;
308 [label="leaf=0.00257710018"] ;
38 [label="[f0<2.04421139] yes=77,no=78,missing=77"] ;
77 [label="[f3<1.71524549] yes=155,no=156,missing=155"] ;
155 [label="[f5<2.15515137] yes=309,no=310,missing=309"] ;
309 [label="leaf=0.0500716232"] ;
310 [label="leaf=0.0990768671"] ;
156 [label="[f3<2.99224973] yes=311,no=312,missing=311"] ;
311 [label="leaf=0.0182238389"] ;
312 [label="leaf=-0.076786764"] ;
78 [label="[f6<1.40758657] yes=157,no=158,missing=157"] ;
157 [label="[f27<1.37586439] yes=313,no=314,missing=313"] ;
313 [label="leaf=0.0017217322"] ;
314 [label="leaf=-0.0878821835"] ;
158 [label="[f25<0.356852233] yes=315,no=316,missing=315"] ;
315 [label="leaf=-0.0664947256"] ;
316 [label="leaf=0.111752622"] ;
4 [label="[f26<0.83182478] yes=9,no=10,missing=9"] ;
9 [label="[f5<0.850710392] yes=19,no=20,missing=19"] ;
19 [label="[f25<0.87716037] yes=39,no=40,missing=39"] ;
39 [label="[f26<0.771796107] yes=79,no=80,missing=79"] ;
79 [label="[f27<0.726190448] yes=159,no=160,missing=159"] ;
159 [label="[f22<1.0218308] yes=317,no=318,missing=317"] ;
317 [label="leaf=-0.0199909564"] ;
318 [label="leaf=0.0431173518"] ;
160 [label="[f22<1.03650331] yes=319,no=320,missing=319"] ;
319 [label="leaf=-0.0645666644"] ;
320 [label="leaf=-0.0210327003"] ;
80 [label="[f27<0.788308144] yes=161,no=162,missing=161"] ;
161 [label="[f24<0.786392093] yes=321,no=322,missing=321"] ;
321 [label="leaf=0.0780666694"] ;
322 [label="leaf=0.0316073932"] ;
162 [label="[f0<1.2746582] yes=323,no=324,missing=323"] ;
323 [label="leaf=-0.00941459369"] ;
324 [label="leaf=-0.0642054081"] ;
40 [label="[f9<1.04921675] yes=81,no=82,missing=81"] ;
81 [label="[f27<0.778917074] yes=163,no=164,missing=163"] ;
163 [label="[f22<1.10135174] yes=325,no=326,missing=325"] ;
325 [label="leaf=-0.0478818193"] ;
326 [label="leaf=0.0397387557"] ;
164 [label="[f22<0.765002608] yes=327,no=328,missing=327"] ;
327 [label="leaf=0.0232032016"] ;
328 [label="leaf=-0.0917665437"] ;
82 [label="[f3<1.18315959] yes=165,no=166,missing=165"] ;
165 [label="[f0<1.3657968] yes=329,no=330,missing=329"] ;
329 [label="leaf=0.0295427646"] ;
330 [label="leaf=-0.0608433597"] ;
166 [label="[f5<0.731300354] yes=331,no=332,missing=331"] ;
331 [label="leaf=-0.0689391196"] ;
332 [label="leaf=0.0131893475"] ;
20 [label="[f27<0.801004708] yes=41,no=42,missing=41"] ;
41 [label="[f25<0.922349453] yes=83,no=84,missing=83"] ;
83 [label="[f26<0.730897069] yes=167,no=168,missing=167"] ;
167 [label="[f27<0.703124106] yes=333,no=334,missing=333"] ;
333 [label="leaf=0.063376829"] ;
334 [label="leaf=-0.0324193351"] ;
168 [label="[f5<0.968608916] yes=335,no=336,missing=335"] ;
335 [label="leaf=0.062091887"] ;
336 [label="leaf=0.0923706219"] ;
84 [label="[f5<1.00932837] yes=169,no=170,missing=169"] ;
169 [label="[f13<0.847987652] yes=337,no=338,missing=337"] ;
337 [label="leaf=-0.0171337631"] ;
338 [label="leaf=0.0300624706"] ;
170 [label="[f0<1.46388984] yes=339,no=340,missing=339"] ;
339 [label="leaf=0.0526877455"] ;
340 [label="leaf=-0.0467957444"] ;
42 [label="[f8<0.543269038] yes=85,no=86,missing=85"] ;
85 [label="[f9<1.13105416] yes=171,no=172,missing=171"] ;
171 [label="[f25<0.830778182] yes=341,no=342,missing=341"] ;
341 [label="leaf=-0.0310576595"] ;
342 [label="leaf=-0.0807844624"] ;
172 [label="[f5<1.94734037] yes=343,no=344,missing=343"] ;
343 [label="leaf=0.012384573"] ;
344 [label="leaf=0.107735097"] ;
86 [label="[f25<0.886957407] yes=173,no=174,missing=173"] ;
173 [label="[f5<0.867245495] yes=345,no=346,missing=345"] ;
345 [label="leaf=-0.0202754233"] ;
346 [label="leaf=0.07740134"] ;
174 [label="[f5<0.923675597] yes=347,no=348,missing=347"] ;
347 [label="leaf=-0.0779558271"] ;
348 [label="leaf=0.038690757"] ;
10 [label="[f27<0.889505863] yes=21,no=22,missing=21"] ;
21 [label="[f5<0.996732354] yes=43,no=44,missing=43"] ;
43 [label="[f25<0.961340427] yes=87,no=88,missing=87"] ;
87 [label="[f21<1.06942582] yes=175,no=176,missing=175"] ;
175 [label="[f22<1.01604009] yes=349,no=350,missing=349"] ;
349 [label="leaf=0.0789559558"] ;
350 [label="leaf=0.120310679"] ;
176 [label="[f26<0.909956932] yes=351,no=352,missing=351"] ;
351 [label="leaf=0.0237538442"] ;
352 [label="leaf=0.0610433891"] ;
88 [label="[f26<0.924461484] yes=177,no=178,missing=177"] ;
177 [label="[f27<0.813681662] yes=353,no=354,missing=353"] ;
353 [label="leaf=0.00776177039"] ;
354 [label="leaf=-0.043956425"] ;
178 [label="[f9<0.898887992] yes=355,no=356,missing=355"] ;
355 [label="leaf=0.0566688254"] ;
356 [label="leaf=0.0960097685"] ;
44 [label="[f25<0.968304992] yes=89,no=90,missing=89"] ;
89 [label="[f22<1.03306687] yes=179,no=180,missing=179"] ;
179 [label="[f5<1.82028127] yes=357,no=358,missing=357"] ;
357 [label="leaf=0.105497934"] ;
358 [label="leaf=0.139194652"] ;
180 [label="[f21<1.1856389] yes=359,no=360,missing=359"] ;
359 [label="leaf=0.134003624"] ;
360 [label="leaf=0.0889919028"] ;
90 [label="[f26<0.91124481] yes=181,no=182,missing=181"] ;
181 [label="[f5<1.14073896] yes=361,no=362,missing=361"] ;
361 [label="leaf=0.0135055883"] ;
362 [label="leaf=0.0679384768"] ;
182 [label="[f5<1.29102051] yes=363,no=364,missing=363"] ;
363 [label="leaf=0.0897894725"] ;
364 [label="leaf=0.12033949"] ;
22 [label="[f22<1.01317954] yes=45,no=46,missing=45"] ;
45 [label="[f24<1.00217855] yes=91,no=92,missing=91"] ;
91 [label="[f27<0.980782509] yes=183,no=184,missing=183"] ;
183 [label="[f24<0.761371851] yes=365,no=366,missing=365"] ;
365 [label="leaf=0.0414336734"] ;
366 [label="leaf=-0.0190277454"] ;
184 [label="[f0<1.05733514] yes=367,no=368,missing=367"] ;
367 [label="leaf=-0.0349213146"] ;
368 [label="leaf=-0.0948683172"] ;
92 [label="[f27<1.14452136] yes=185,no=186,missing=185"] ;
185 [label="[f5<0.950562298] yes=369,no=370,missing=369"] ;
369 [label="leaf=0.0302443989"] ;
370 [label="leaf=0.0721073747"] ;
186 [label="[f0<0.921176314] yes=371,no=372,missing=371"] ;
371 [label="leaf=0.022014454"] ;
372 [label="leaf=-0.0412433073"] ;
46 [label="[f24<1.70344877] yes=93,no=94,missing=93"] ;
93 [label="[f5<1.13212776] yes=187,no=188,missing=187"] ;
187 [label="[f21<1.12998343] yes=373,no=374,missing=373"] ;
373 [label="leaf=0.0582227521"] ;
374 [label="leaf=0.0224817116"] ;
188 [label="[f0<1.91143847] yes=375,no=376,missing=375"] ;
375 [label="leaf=0.0835837498"] ;
376 [label="leaf=0.0219820943"] ;
94 [label="[f0<1.14572835] yes=189,no=190,missing=189"] ;
189 [label="[f3<1.42743707] yes=377,no=378,missing=377"] ;
377 [label="leaf=0.0644008964"] ;
378 [label="leaf=-0.00518895639"] ;
190 [label="[f24<1.90225029] yes=379,no=380,missing=379"] ;
379 [label="leaf=-0.046001479"] ;
380 [label="leaf=-0.125409573"] ;
2 [label="[f25<1.77594543] yes=5,no=6,missing=5"] ;
5 [label="[f22<1.06778526] yes=11,no=12,missing=11"] ;
11 [label="[f24<1.08431387] yes=23,no=24,missing=23"] ;
23 [label="[f27<0.952257156] yes=47,no=48,missing=47"] ;
47 [label="[f5<0.939019799] yes=95,no=96,missing=95"] ;
95 [label="[f21<1.03392518] yes=191,no=192,missing=191"] ;
191 [label="[f9<1.36032438] yes=381,no=382,missing=381"] ;
381 [label="leaf=-0.0640948638"] ;
382 [label="leaf=-0.0056333337"] ;
192 [label="[f0<1.26166463] yes=383,no=384,missing=383"] ;
383 [label="leaf=0.0110874623"] ;
384 [label="leaf=-0.06432423"] ;
96 [label="[f5<1.19597805] yes=193,no=194,missing=193"] ;
193 [label="[f21<0.948035121] yes=385,no=386,missing=385"] ;
385 [label="leaf=-0.0274987817"] ;
386 [label="leaf=0.0159964096"] ;
194 [label="[f5<2.09803438] yes=387,no=388,missing=387"] ;
387 [label="leaf=0.017480066"] ;
388 [label="leaf=0.111107074"] ;
48 [label="[f27<1.10457718] yes=97,no=98,missing=97"] ;
97 [label="[f5<1.96213496] yes=195,no=196,missing=195"] ;
195 [label="[f22<0.9812994] yes=389,no=390,missing=389"] ;
389 [label="leaf=-0.0943619758"] ;
390 [label="leaf=-0.0590636246"] ;
196 [label="[f24<0.979450822] yes=391,no=392,missing=391"] ;
391 [label="leaf=0.0143092694"] ;
392 [label="leaf=0.12414328"] ;
98 [label="[f0<1.01185727] yes=197,no=198,missing=197"] ;
197 [label="[f3<2.03950882] yes=393,no=394,missing=393"] ;
393 [label="leaf=-0.0976356864"] ;
394 [label="leaf=-0.133730605"] ;
198 [label="[f25<1.22870231] yes=395,no=396,missing=395"] ;
395 [label="leaf=-0.114880063"] ;
396 [label="leaf=-0.133589268"] ;
24 [label="[f27<1.13943768] yes=49,no=50,missing=49"] ;
49 [label="[f5<1.23967469] yes=99,no=100,missing=99"] ;
99 [label="[f25<1.21325612] yes=199,no=200,missing=199"] ;
199 [label="[f26<0.978365839] yes=397,no=398,missing=397"] ;
397 [label="leaf=-0.0242985431"] ;
398 [label="leaf=0.0278113727"] ;
200 [label="[f21<1.00872159] yes=399,no=400,missing=399"] ;
399 [label="leaf=-0.0314111486"] ;
400 [label="leaf=0.00821021851"] ;
100 [label="[f5<1.96552444] yes=201,no=202,missing=201"] ;
201 [label="[f3<1.78570509] yes=401,no=402,missing=401"] ;
401 [label="leaf=0.0456200317"] ;
402 [label="leaf=-0.0214806069"] ;
202 [label="[f0<2.2545805] yes=403,no=404,missing=403"] ;
403 [label="leaf=0.111354433"] ;
404 [label="leaf=0.0280173067"] ;
50 [label="[f24<1.34032536] yes=101,no=102,missing=101"] ;
101 [label="[f25<1.17078495] yes=203,no=204,missing=203"] ;
203 [label="[f21<1.01355588] yes=405,no=406,missing=405"] ;
405 [label="leaf=-0.0642026961"] ;
406 [label="leaf=0.0161354821"] ;
204 [label="[f22<0.684702396] yes=407,no=408,missing=407"] ;
407 [label="leaf=-0.00805656146"] ;
408 [label="leaf=-0.0971965864"] ;
102 [label="[f3<2.00865412] yes=205,no=206,missing=205"] ;
205 [label="[f0<2.33537912] yes=409,no=410,missing=409"] ;
409 [label="leaf=-0.0164750535"] ;
410 [label="leaf=-0.0884839892"] ;
206 [label="[f3<2.77373314] yes=411,no=412,missing=411"] ;
411 [label="leaf=-0.0551340654"] ;
412 [label="leaf=-0.10484802"] ;
12 [label="[f3<1.38770831] yes=25,no=26,missing=25"] ;
25 [label="[f5<1.18251181] yes=51,no=52,missing=51"] ;
51 [label="[f27<1.07289886] yes=103,no=104,missing=103"] ;
103 [label="[f17<1.59224796] yes=207,no=208,missing=207"] ;
207 [label="[f9<1.24386358] yes=413,no=414,missing=413"] ;
413 [label="leaf=0.0012314968"] ;
414 [label="leaf=0.0365558974"] ;
208 [label="[f0<1.34310365] yes=415,no=416,missing=415"] ;
415 [label="leaf=0.0658700094"] ;
416 [label="leaf=-0.00882341806"] ;
104 [label="[f24<1.1664083] yes=209,no=210,missing=209"] ;
209 [label="[f9<1.27162528] yes=417,no=418,missing=417"] ;
417 [label="leaf=-0.0421457887"] ;
418 [label="leaf=-0.00168773183"] ;
210 [label="[f9<1.44354653] yes=419,no=420,missing=419"] ;
419 [label="leaf=-0.00116793928"] ;
420 [label="leaf=0.0446173027"] ;
52 [label="[f0<2.25494647] yes=105,no=106,missing=105"] ;
105 [label="[f5<1.94825649] yes=211,no=212,missing=211"] ;
211 [label="[f27<0.974020243] yes=421,no=422,missing=421"] ;
421 [label="leaf=0.0699572787"] ;
422 [label="leaf=0.0289453901"] ;
212 [label="[f12<0.55371803] yes=423,no=424,missing=423"] ;
423 [label="leaf=0.0483171344"] ;
424 [label="leaf=0.102185726"] ;
106 [label="[f0<2.89730835] yes=213,no=214,missing=213"] ;
213 [label="[f25<1.23481369] yes=425,no=426,missing=425"] ;
425 [label="leaf=0.0331681371"] ;
426 [label="leaf=-0.0430746935"] ;
214 [label="[f6<-1.14473116] yes=427,no=428,missing=427"] ;
427 [label="leaf=0.0346856825"] ;
428 [label="leaf=-0.10175468"] ;
26 [label="[f3<2.42228889] yes=53,no=54,missing=53"] ;
53 [label="[f5<1.13899827] yes=107,no=108,missing=107"] ;
107 [label="[f24<1.0193429] yes=215,no=216,missing=215"] ;
215 [label="[f23<1.26873302] yes=429,no=430,missing=429"] ;
429 [label="leaf=-0.0636806414"] ;
430 [label="leaf=0.0127229979"] ;
216 [label="[f0<0.573459029] yes=431,no=432,missing=431"] ;
431 [label="leaf=-0.0341565236"] ;
432 [label="leaf=0.000459706556"] ;
108 [label="[f0<1.51257014] yes=217,no=218,missing=217"] ;
217 [label="[f25<1.425071] yes=433,no=434,missing=433"] ;
433 [label="leaf=0.0376260132"] ;
434 [label="leaf=-0.00494048512"] ;
218 [label="[f24<2.07056522] yes=435,no=436,missing=435"] ;
435 [label="leaf=-0.0306564067"] ;
436 [label="leaf=-0.117764667"] ;
54 [label="[f6<1.16646552] yes=109,no=110,missing=109"] ;
109 [label="[f23<1.72246599] yes=219,no=220,missing=219"] ;
219 [label="[f24<1.84711766] yes=437,no=438,missing=437"] ;
437 [label="leaf=-0.0570586324"] ;
438 [label="leaf=-0.107270978"] ;
220 [label="[f25<1.41115761] yes=439,no=440,missing=439"] ;
439 [label="leaf=0.11772006"] ;
440 [label="leaf=-0.0655927956"] ;
110 [label="[f7<0.271250427] yes=221,no=222,missing=221"] ;
221 [label="[f12<0.55371803] yes=441,no=442,missing=441"] ;
441 [label="leaf=-0.0893392861"] ;
442 [label="leaf=0.00537304534"] ;
222 [label="[f3<3.70574665] yes=443,no=444,missing=443"] ;
443 [label="leaf=0.0783269554"] ;
444 [label="leaf=-0.116085581"] ;
6 [label="[f24<1.02034175] yes=13,no=14,missing=13"] ;
13 [label="[f27<0.995731473] yes=27,no=28,missing=27"] ;
27 [label="[f22<1.02699244] yes=55,no=56,missing=55"] ;
55 [label="[f21<0.693263292] yes=111,no=112,missing=111"] ;
111 [label="[f27<0.824658513] yes=223,no=224,missing=223"] ;
223 [label="[f17<0.558984518] yes=445,no=446,missing=445"] ;
445 [label="leaf=-0.00140046387"] ;
446 [label="leaf=0.0705025122"] ;
224 [label="[f22<0.909806192] yes=447,no=448,missing=447"] ;
447 [label="leaf=-0.0721480772"] ;
448 [label="leaf=-0.00341268885"] ;
112 [label="[f21<0.919462442] yes=225,no=226,missing=225"] ;
225 [label="[f5<1.62469983] yes=449,no=450,missing=449"] ;
449 [label="leaf=-0.0954369232"] ;
450 [label="leaf=0.00179997762"] ;
226 [label="[f26<1.06239033] yes=451,no=452,missing=451"] ;
451 [label="leaf=-0.0135105401"] ;
452 [label="leaf=-0.0664481446"] ;
56 [label="[f25<1.83965027] yes=113,no=114,missing=113"] ;
113 [label="[f9<0.982613802] yes=227,no=228,missing=227"] ;
227 [label="[f17<1.43817115] yes=453,no=454,missing=453"] ;
453 [label="leaf=-0.0400497727"] ;
454 [label="leaf=0.0868446231"] ;
228 [label="[f17<1.01160002] yes=455,no=456,missing=455"] ;
455 [label="leaf=0.0212344155"] ;
456 [label="leaf=0.10153383"] ;
114 [label="[f24<0.697586775] yes=229,no=230,missing=229"] ;
229 [label="[f4<0.664006948] yes=457,no=458,missing=457"] ;
457 [label="leaf=0.126553297"] ;
458 [label="leaf=-0.015108916"] ;
230 [label="[f21<1.51332307] yes=459,no=460,missing=459"] ;
459 [label="leaf=-0.0264607575"] ;
460 [label="leaf=0.116011217"] ;
28 [label="[f22<1.11829495] yes=57,no=58,missing=57"] ;
57 [label="[f27<1.12727976] yes=115,no=116,missing=115"] ;
115 [label="[f24<0.724971175] yes=231,no=232,missing=231"] ;
231 [label="[f22<1.01107883] yes=461,no=462,missing=461"] ;
461 [label="leaf=-0.0845090821"] ;
462 [label="leaf=-0.00811165944"] ;
232 [label="[f22<0.763992548] yes=463,no=464,missing=463"] ;
463 [label="leaf=-0.0678350478"] ;
464 [label="leaf=-0.117696822"] ;
116 [label="[f10<-2.6017642] yes=233,no=234,missing=233"] ;
233 [label="[f3<0.681950808] yes=465,no=466,missing=465"] ;
465 [label="leaf=0.0811975226"] ;
466 [label="leaf=-0.0715711042"] ;
234 [label="[f22<0.968724847] yes=467,no=468,missing=467"] ;
467 [label="leaf=-0.136152074"] ;
468 [label="leaf=-0.123274401"] ;
58 [label="[f25<2.2521596] yes=117,no=118,missing=117"] ;
117 [label="[f0<1.59702885] yes=235,no=236,missing=235"] ;
235 [label="[f3<1.31168747] yes=469,no=470,missing=469"] ;
469 [label="leaf=-0.0225927625"] ;
470 [label="leaf=-0.0766739696"] ;
236 [label="[f6<-1.39129841] yes=471,no=472,missing=471"] ;
471 [label="leaf=-0.0226466693"] ;
472 [label="leaf=-0.122170053"] ;
118 [label="[f27<1.53418231] yes=237,no=238,missing=237"] ;
237 [label="[f6<-1.29623628] yes=473,no=474,missing=473"] ;
473 [label="leaf=-0.000893988647"] ;
474 [label="leaf=-0.0918373168"] ;
238 [label="[f6<1.63137841] yes=475,no=476,missing=475"] ;
475 [label="leaf=-0.12525712"] ;
476 [label="leaf=-0.0511015132"] ;
14 [label="[f3<2.12075138] yes=29,no=30,missing=29"] ;
29 [label="[f22<1.09233057] yes=59,no=60,missing=59"] ;
59 [label="[f5<2.20232916] yes=119,no=120,missing=119"] ;
119 [label="[f25<2.14353418] yes=239,no=240,missing=239"] ;
239 [label="[f27<1.08441854] yes=477,no=478,missing=477"] ;
477 [label="leaf=-0.0380798057"] ;
478 [label="leaf=-0.0673307925"] ;
240 [label="[f24<1.34899569] yes=479,no=480,missing=479"] ;
479 [label="leaf=-0.0981306732"] ;
480 [label="leaf=-0.0619003773"] ;
120 [label="[f0<2.0382638] yes=241,no=242,missing=241"] ;
241 [label="[f24<1.41493511] yes=481,no=482,missing=481"] ;
481 [label="leaf=-0.0514874235"] ;
482 [label="leaf=0.0439792983"] ;
242 [label="[f6<-0.969460547] yes=483,no=484,missing=483"] ;
483 [label="leaf=0.0264879763"] ;
484 [label="leaf=-0.0885761082"] ;
60 [label="[f0<1.19660497] yes=121,no=122,missing=121"] ;
121 [label="[f21<1.04498446] yes=243,no=244,missing=243"] ;
243 [label="[f21<0.758454025] yes=485,no=486,missing=485"] ;
485 [label="leaf=-0.0439159647"] ;
486 [label="leaf=0.0200292114"] ;
244 [label="[f25<2.24385166] yes=487,no=488,missing=487"] ;
487 [label="leaf=-0.0102688428"] ;
488 [label="leaf=-0.0629169792"] ;
122 [label="[f0<2.12281394] yes=245,no=246,missing=245"] ;
245 [label="[f21<1.21287513] yes=489,no=490,missing=489"] ;
489 [label="leaf=-0.0364691019"] ;
490 [label="leaf=-0.0754525587"] ;
246 [label="[f0<3.57782793] yes=491,no=492,missing=491"] ;
491 [label="leaf=-0.082545355"] ;
492 [label="leaf=-0.131705806"] ;
30 [label="[f3<3.04111719] yes=61,no=62,missing=61"] ;
61 [label="[f23<1.2889924] yes=123,no=124,missing=123"] ;
123 [label="[f22<0.623783052] yes=247,no=248,missing=247"] ;
247 [label="[f0<1.70500422] yes=493,no=494,missing=493"] ;
493 [label="leaf=0.0879401937"] ;
494 [label="leaf=-0.0990575105"] ;
248 [label="[f6<-1.21206677] yes=495,no=496,missing=495"] ;
495 [label="leaf=-0.0458483845"] ;
496 [label="leaf=-0.0949817374"] ;
124 [label="[f3<2.71646452] yes=249,no=250,missing=249"] ;
249 [label="[f27<1.67830873] yes=497,no=498,missing=497"] ;
497 [label="leaf=-0.0215780493"] ;
498 [label="leaf=-0.123769753"] ;
250 [label="[f0<1.94108593] yes=499,no=500,missing=499"] ;
499 [label="leaf=0.116104759"] ;
500 [label="leaf=-0.0553711839"] ;
62 [label="[f6<-1.8027389] yes=125,no=126,missing=125"] ;
125 [label="leaf=0.0533383973"] ;
126 [label="[f0<0.283298075] yes=251,no=252,missing=251"] ;
251 [label="[f24<3.30383778] yes=501,no=502,missing=501"] ;
501 [label="leaf=-0.0871740803"] ;
502 [label="leaf=0.0769073889"] ;
252 [label="[f18<-1.93344355] yes=503,no=504,missing=503"] ;
503 [label="leaf=-0.0657826588"] ;
504 [label="leaf=-0.131114528"] ;
0 -> 1 [labeldistance=2.5, labelangle=45, headlabel="True"] ;
1 -> 3 ;
3 -> 7 ;
7 -> 15 ;
15 -> 31 ;
31 -> 63 ;
63 -> 127 ;
127 -> 253 ;
127 -> 254 ;
63 -> 128 ;
128 -> 255 ;
128 -> 256 ;
31 -> 64 ;
64 -> 129 ;
129 -> 257 ;
129 -> 258 ;
64 -> 130 ;
130 -> 259 ;
130 -> 260 ;
15 -> 32 ;
32 -> 65 ;
65 -> 131 ;
131 -> 261 ;
131 -> 262 ;
65 -> 132 ;
132 -> 263 ;
132 -> 264 ;
32 -> 66 ;
66 -> 133 ;
133 -> 265 ;
133 -> 266 ;
66 -> 134 ;
134 -> 267 ;
134 -> 268 ;
7 -> 16 ;
16 -> 33 ;
33 -> 67 ;
67 -> 135 ;
135 -> 269 ;
135 -> 270 ;
67 -> 136 ;
136 -> 271 ;
136 -> 272 ;
33 -> 68 ;
68 -> 137 ;
137 -> 273 ;
137 -> 274 ;
68 -> 138 ;
138 -> 275 ;
138 -> 276 ;
16 -> 34 ;
34 -> 69 ;
69 -> 139 ;
139 -> 277 ;
139 -> 278 ;
69 -> 140 ;
140 -> 279 ;
140 -> 280 ;
34 -> 70 ;
70 -> 141 ;
141 -> 281 ;
141 -> 282 ;
70 -> 142 ;
142 -> 283 ;
142 -> 284 ;
3 -> 8 ;
8 -> 17 ;
17 -> 35 ;
35 -> 71 ;
71 -> 143 ;
143 -> 285 ;
143 -> 286 ;
71 -> 144 ;
144 -> 287 ;
144 -> 288 ;
35 -> 72 ;
72 -> 145 ;
145 -> 289 ;
145 -> 290 ;
72 -> 146 ;
146 -> 291 ;
146 -> 292 ;
17 -> 36 ;
36 -> 73 ;
73 -> 147 ;
147 -> 293 ;
147 -> 294 ;
73 -> 148 ;
148 -> 295 ;
148 -> 296 ;
36 -> 74 ;
74 -> 149 ;
149 -> 297 ;
149 -> 298 ;
74 -> 150 ;
150 -> 299 ;
150 -> 300 ;
8 -> 18 ;
18 -> 37 ;
37 -> 75 ;
75 -> 151 ;
151 -> 301 ;
151 -> 302 ;
75 -> 152 ;
152 -> 303 ;
152 -> 304 ;
37 -> 76 ;
76 -> 153 ;
153 -> 305 ;
153 -> 306 ;
76 -> 154 ;
154 -> 307 ;
154 -> 308 ;
18 -> 38 ;
38 -> 77 ;
77 -> 155 ;
155 -> 309 ;
155 -> 310 ;
77 -> 156 ;
156 -> 311 ;
156 -> 312 ;
38 -> 78 ;
78 -> 157 ;
157 -> 313 ;
157 -> 314 ;
78 -> 158 ;
158 -> 315 ;
158 -> 316 ;
1 -> 4 ;
4 -> 9 ;
9 -> 19 ;
19 -> 39 ;
39 -> 79 ;
79 -> 159 ;
159 -> 317 ;
159 -> 318 ;
79 -> 160 ;
160 -> 319 ;
160 -> 320 ;
39 -> 80 ;
80 -> 161 ;
161 -> 321 ;
161 -> 322 ;
80 -> 162 ;
162 -> 323 ;
162 -> 324 ;
19 -> 40 ;
40 -> 81 ;
81 -> 163 ;
163 -> 325 ;
163 -> 326 ;
81 -> 164 ;
164 -> 327 ;
164 -> 328 ;
40 -> 82 ;
82 -> 165 ;
165 -> 329 ;
165 -> 330 ;
82 -> 166 ;
166 -> 331 ;
166 -> 332 ;
9 -> 20 ;
20 -> 41 ;
41 -> 83 ;
83 -> 167 ;
167 -> 333 ;
167 -> 334 ;
83 -> 168 ;
168 -> 335 ;
168 -> 336 ;
41 -> 84 ;
84 -> 169 ;
169 -> 337 ;
169 -> 338 ;
84 -> 170 ;
170 -> 339 ;
170 -> 340 ;
20 -> 42 ;
42 -> 85 ;
85 -> 171 ;
171 -> 341 ;
171 -> 342 ;
85 -> 172 ;
172 -> 343 ;
172 -> 344 ;
42 -> 86 ;
86 -> 173 ;
173 -> 345 ;
173 -> 346 ;
86 -> 174 ;
174 -> 347 ;
174 -> 348 ;
4 -> 10 ;
10 -> 21 ;
21 -> 43 ;
43 -> 87 ;
87 -> 175 ;
175 -> 349 ;
175 -> 350 ;
87 -> 176 ;
176 -> 351 ;
176 -> 352 ;
43 -> 88 ;
88 -> 177 ;
177 -> 353 ;
177 -> 354 ;
88 -> 178 ;
178 -> 355 ;
178 -> 356 ;
21 -> 44 ;
44 -> 89 ;
89 -> 179 ;
179 -> 357 ;
179 -> 358 ;
89 -> 180 ;
180 -> 359 ;
180 -> 360 ;
44 -> 90 ;
90 -> 181 ;
181 -> 361 ;
181 -> 362 ;
90 -> 182 ;
182 -> 363 ;
182 -> 364 ;
10 -> 22 ;
22 -> 45 ;
45 -> 91 ;
91 -> 183 ;
183 -> 365 ;
183 -> 366 ;
91 -> 184 ;
184 -> 367 ;
184 -> 368 ;
45 -> 92 ;
92 -> 185 ;
185 -> 369 ;
185 -> 370 ;
92 -> 186 ;
186 -> 371 ;
186 -> 372 ;
22 -> 46 ;
46 -> 93 ;
93 -> 187 ;
187 -> 373 ;
187 -> 374 ;
93 -> 188 ;
188 -> 375 ;
188 -> 376 ;
46 -> 94 ;
94 -> 189 ;
189 -> 377 ;
189 -> 378 ;
94 -> 190 ;
190 -> 379 ;
190 -> 380 ;
0 -> 2 [labeldistance=2.5, labelangle=-45, headlabel="False"] ;
2 -> 5 ;
5 -> 11 ;
11 -> 23 ;
23 -> 47 ;
47 -> 95 ;
95 -> 191 ;
191 -> 381 ;
191 -> 382 ;
95 -> 192 ;
192 -> 383 ;
192 -> 384 ;
47 -> 96 ;
96 -> 193 ;
193 -> 385 ;
193 -> 386 ;
96 -> 194 ;
194 -> 387 ;
194 -> 388 ;
23 -> 48 ;
48 -> 97 ;
97 -> 195 ;
195 -> 389 ;
195 -> 390 ;
97 -> 196 ;
196 -> 391 ;
196 -> 392 ;
48 -> 98 ;
98 -> 197 ;
197 -> 393 ;
197 -> 394 ;
98 -> 198 ;
198 -> 395 ;
198 -> 396 ;
11 -> 24 ;
24 -> 49 ;
49 -> 99 ;
99 -> 199 ;
199 -> 397 ;
199 -> 398 ;
99 -> 200 ;
200 -> 399 ;
200 -> 400 ;
49 -> 100 ;
100 -> 201 ;
201 -> 401 ;
201 -> 402 ;
100 -> 202 ;
202 -> 403 ;
202 -> 404 ;
24 -> 50 ;
50 -> 101 ;
101 -> 203 ;
203 -> 405 ;
203 -> 406 ;
101 -> 204 ;
204 -> 407 ;
204 -> 408 ;
50 -> 102 ;
102 -> 205 ;
205 -> 409 ;
205 -> 410 ;
102 -> 206 ;
206 -> 411 ;
206 -> 412 ;
5 -> 12 ;
12 -> 25 ;
25 -> 51 ;
51 -> 103 ;
103 -> 207 ;
207 -> 413 ;
207 -> 414 ;
103 -> 208 ;
208 -> 415 ;
208 -> 416 ;
51 -> 104 ;
104 -> 209 ;
209 -> 417 ;
209 -> 418 ;
104 -> 210 ;
210 -> 419 ;
210 -> 420 ;
25 -> 52 ;
52 -> 105 ;
105 -> 211 ;
211 -> 421 ;
211 -> 422 ;
105 -> 212 ;
212 -> 423 ;
212 -> 424 ;
52 -> 106 ;
106 -> 213 ;
213 -> 425 ;
213 -> 426 ;
106 -> 214 ;
214 -> 427 ;
214 -> 428 ;
12 -> 26 ;
26 -> 53 ;
53 -> 107 ;
107 -> 215 ;
215 -> 429 ;
215 -> 430 ;
107 -> 216 ;
216 -> 431 ;
216 -> 432 ;
53 -> 108 ;
108 -> 217 ;
217 -> 433 ;
217 -> 434 ;
108 -> 218 ;
218 -> 435 ;
218 -> 436 ;
26 -> 54 ;
54 -> 109 ;
109 -> 219 ;
219 -> 437 ;
219 -> 438 ;
109 -> 220 ;
220 -> 439 ;
220 -> 440 ;
54 -> 110 ;
110 -> 221 ;
221 -> 441 ;
221 -> 442 ;
110 -> 222 ;
222 -> 443 ;
222 -> 444 ;
2 -> 6 ;
6 -> 13 ;
13 -> 27 ;
27 -> 55 ;
55 -> 111 ;
111 -> 223 ;
223 -> 445 ;
223 -> 446 ;
111 -> 224 ;
224 -> 447 ;
224 -> 448 ;
55 -> 112 ;
112 -> 225 ;
225 -> 449 ;
225 -> 450 ;
112 -> 226 ;
226 -> 451 ;
226 -> 452 ;
27 -> 56 ;
56 -> 113 ;
113 -> 227 ;
227 -> 453 ;
227 -> 454 ;
113 -> 228 ;
228 -> 455 ;
228 -> 456 ;
56 -> 114 ;
114 -> 229 ;
229 -> 457 ;
229 -> 458 ;
114 -> 230 ;
230 -> 459 ;
230 -> 460 ;
13 -> 28 ;
28 -> 57 ;
57 -> 115 ;
115 -> 231 ;
231 -> 461 ;
231 -> 462 ;
115 -> 232 ;
232 -> 463 ;
232 -> 464 ;
57 -> 116 ;
116 -> 233 ;
233 -> 465 ;
233 -> 466 ;
116 -> 234 ;
234 -> 467 ;
234 -> 468 ;
28 -> 58 ;
58 -> 117 ;
117 -> 235 ;
235 -> 469 ;
235 -> 470 ;
117 -> 236 ;
236 -> 471 ;
236 -> 472 ;
58 -> 118 ;
118 -> 237 ;
237 -> 473 ;
237 -> 474 ;
118 -> 238 ;
238 -> 475 ;
238 -> 476 ;
6 -> 14 ;
14 -> 29 ;
29 -> 59 ;
59 -> 119 ;
119 -> 239 ;
239 -> 477 ;
239 -> 478 ;
119 -> 240 ;
240 -> 479 ;
240 -> 480 ;
59 -> 120 ;
120 -> 241 ;
241 -> 481 ;
241 -> 482 ;
120 -> 242 ;
242 -> 483 ;
242 -> 484 ;
29 -> 60 ;
60 -> 121 ;
121 -> 243 ;
243 -> 485 ;
243 -> 486 ;
121 -> 244 ;
244 -> 487 ;
244 -> 488 ;
60 -> 122 ;
122 -> 245 ;
245 -> 489 ;
245 -> 490 ;
122 -> 246 ;
246 -> 491 ;
246 -> 492 ;
14 -> 30 ;
30 -> 61 ;
61 -> 123 ;
123 -> 247 ;
247 -> 493 ;
247 -> 494 ;
123 -> 248 ;
248 -> 495 ;
248 -> 496 ;
61 -> 124 ;
124 -> 249 ;
249 -> 497 ;
249 -> 498 ;
124 -> 250 ;
250 -> 499 ;
250 -> 500 ;
30 -> 62 ;
62 -> 125 ;
62 -> 126 ;
126 -> 251 ;
251 -> 501 ;
251 -> 502 ;
126 -> 252 ;
252 -> 503 ;
252 -> 504 ;
}