digraph Tree { 
node [shape=box] ;
0 [label="[f25<1.11712611] yes=1,no=2,missing=1"] ;
1 [label="[f25<0.600124836] yes=3,no=4,missing=3"] ;
3 [label="[f27<0.834549248] yes=7,no=8,missing=7"] ;
7 [label="[f5<0.792906284] yes=15,no=16,missing=15"] ;
15 [label="[f0<1.59867597] yes=31,no=32,missing=31"] ;
31 [label="[f13<1.19431293] yes=63,no=64,missing=63"] ;
63 [label="[f21<0.878447294] yes=127,no=128,missing=127"] ;
127 [label="[f22<0.726580501] yes=255,no=256,missing=255"] ;
255 [label="leaf=-0.00654275576"] ;
256 [label="leaf=-0.0537320152"] ;
128 [label="[f22<0.85202831] yes=257,no=258,missing=257"] ;
257 [label="leaf=0.0100088175"] ;
258 [label="leaf=-0.0274259932"] ;
64 [label="[f9<0.721993625] yes=129,no=130,missing=129"] ;
129 [label="[f16<0.637056112] yes=259,no=260,missing=259"] ;
259 [label="leaf=0.0185911246"] ;
260 [label="leaf=-0.0268233474"] ;
130 [label="[f27<0.633476615] yes=261,no=262,missing=261"] ;
261 [label="leaf=0.0999967605"] ;
262 [label="leaf=0.033482682"] ;
32 [label="[f22<0.834801197] yes=65,no=66,missing=65"] ;
65 [label="[f26<0.65116322] yes=131,no=132,missing=131"] ;
131 [label="[f24<0.680322647] yes=263,no=264,missing=263"] ;
263 [label="leaf=0.033226002"] ;
264 [label="leaf=-0.0204342995"] ;
132 [label="[f21<0.838898063] yes=265,no=266,missing=265"] ;
265 [label="leaf=0.0467682183"] ;
266 [label="leaf=0.0915333107"] ;
66 [label="[f21<1.04835629] yes=133,no=134,missing=133"] ;
133 [label="[f26<0.813736141] yes=267,no=268,missing=267"] ;
267 [label="leaf=-0.0370934568"] ;
268 [label="leaf=0.0457715541"] ;
134 [label="[f0<1.69942236] yes=269,no=270,missing=269"] ;
269 [label="leaf=0.00281697186"] ;
270 [label="leaf=0.0736899897"] ;
16 [label="[f5<1.15269351] yes=33,no=34,missing=33"] ;
33 [label="[f24<0.699628234] yes=67,no=68,missing=67"] ;
67 [label="[f26<0.727995634] yes=135,no=136,missing=135"] ;
135 [label="[f27<0.661451578] yes=271,no=272,missing=271"] ;
271 [label="leaf=0.039768897"] ;
272 [label="leaf=-0.0128148766"] ;
136 [label="[f25<0.305254698] yes=273,no=274,missing=273"] ;
273 [label="leaf=0.015757056"] ;
274 [label="leaf=0.0669546053"] ;
68 [label="[f23<1.32792068] yes=137,no=138,missing=137"] ;
137 [label="[f26<0.791322827] yes=275,no=276,missing=275"] ;
275 [label="leaf=-0.0228581559"] ;
276 [label="leaf=0.0139771774"] ;
138 [label="[f2<-1.3740803] yes=277,no=278,missing=277"] ;
277 [label="leaf=0.00356575521"] ;
278 [label="leaf=0.0707922354"] ;
34 [label="[f5<1.82760978] yes=69,no=70,missing=69"] ;
69 [label="[f3<1.87247968] yes=139,no=140,missing=139"] ;
139 [label="[f22<1.02547586] yes=279,no=280,missing=279"] ;
279 [label="leaf=0.0404320061"] ;
280 [label="leaf=0.0756303668"] ;
140 [label="[f23<1.20948577] yes=281,no=282,missing=281"] ;
281 [label="leaf=-0.0316254944"] ;
282 [label="leaf=0.0953758657"] ;
70 [label="[f9<0.879184127] yes=141,no=142,missing=141"] ;
141 [label="[f25<0.406648755] yes=283,no=284,missing=283"] ;
283 [label="leaf=0.00464291219"] ;
284 [label="leaf=0.0721387044"] ;
142 [label="[f17<0.426814437] yes=285,no=286,missing=285"] ;
285 [label="leaf=-0.0192834418"] ;
286 [label="leaf=0.102850102"] ;
8 [label="[f21<0.935832083] yes=17,no=18,missing=17"] ;
17 [label="[f24<1.0990448] yes=35,no=36,missing=35"] ;
35 [label="[f22<0.99880749] yes=71,no=72,missing=71"] ;
71 [label="[f21<0.65034616] yes=143,no=144,missing=143"] ;
143 [label="[f27<0.931834459] yes=287,no=288,missing=287"] ;
287 [label="leaf=-0.00481804973"] ;
288 [label="leaf=-0.0601061098"] ;
144 [label="[f5<2.21405482] yes=289,no=290,missing=289"] ;
289 [label="leaf=-0.0888823494"] ;
290 [label="leaf=0.0544046946"] ;
72 [label="[f26<0.799465179] yes=145,no=146,missing=145"] ;
145 [label="[f27<0.881107032] yes=291,no=292,missing=291"] ;
291 [label="leaf=-0.0263863243"] ;
292 [label="leaf=-0.0777663961"] ;
146 [label="[f27<1.00321233] yes=293,no=294,missing=293"] ;
293 [label="leaf=0.00885965582"] ;
294 [label="leaf=-0.0404688083"] ;
36 [label="[f27<0.96264255] yes=73,no=74,missing=73"] ;
73 [label="[f26<0.888238072] yes=147,no=148,missing=147"] ;
147 [label="[f16<0.637056112] yes=295,no=296,missing=295"] ;
295 [label="leaf=-0.00711899204"] ;
296 [label="leaf=-0.0670790225"] ;
148 [label="[f0<0.855659008] yes=297,no=298,missing=297"] ;
297 [label="leaf=-0.014261364"] ;
298 [label="leaf=0.0416337028"] ;
74 [label="[f20<2.32647109] yes=149,no=150,missing=149"] ;
149 [label="[f3<2.38704467] yes=299,no=300,missing=299"] ;
299 [label="leaf=-0.015025273"] ;
300 [label="leaf=-0.0818313286"] ;
150 [label="[f26<0.944208264] yes=301,no=302,missing=301"] ;
301 [label="leaf=-0.103778265"] ;
302 [label="leaf=-0.0524101816"] ;
18 [label="[f9<1.17272806] yes=37,no=38,missing=37"] ;
37 [label="[f27<0.933207989] yes=75,no=76,missing=75"] ;
75 [label="[f24<1.13613713] yes=151,no=152,missing=151"] ;
151 [label="[f5<1.01995468] yes=303,no=304,missing=303"] ;
303 [label="leaf=-0.0285384189"] ;
304 [label="leaf=0.0123549066"] ;
152 [label="[f0<0.661577821] yes=305,no=306,missing=305"] ;
305 [label="leaf=-0.00738830818"] ;
306 [label="leaf=0.0492725149"] ;
76 [label="[f3<1.93274581] yes=153,no=154,missing=153"] ;
153 [label="[f0<2.87086368] yes=307,no=308,missing=307"] ;
307 [label="leaf=-0.0300598945"] ;
308 [label="leaf=-0.110268034"] ;
154 [label="[f23<2.10405374] yes=309,no=310,missing=309"] ;
309 [label="leaf=-0.0736826733"] ;
310 [label="leaf=0.0906384364"] ;
38 [label="[f27<1.04756749] yes=77,no=78,missing=77"] ;
77 [label="[f5<1.86874151] yes=155,no=156,missing=155"] ;
155 [label="[f17<1.35638642] yes=311,no=312,missing=311"] ;
311 [label="leaf=0.00928885397"] ;
312 [label="leaf=0.0545100532"] ;
156 [label="[f0<2.0600419] yes=313,no=314,missing=313"] ;
313 [label="leaf=0.110810511"] ;
314 [label="leaf=0.00447702548"] ;
78 [label="[f3<2.7656672] yes=157,no=158,missing=157"] ;
157 [label="[f0<2.16893244] yes=315,no=316,missing=315"] ;
315 [label="leaf=-0.000812568644"] ;
316 [label="leaf=-0.0735263377"] ;
158 [label="[f13<1.81855893] yes=317,no=318,missing=317"] ;
317 [label="leaf=-0.112031423"] ;
318 [label="leaf=-0.0203370713"] ;
4 [label="[f26<0.804424882] yes=9,no=10,missing=9"] ;
9 [label="[f5<0.759011626] yes=19,no=20,missing=19"] ;
19 [label="[f25<0.786150455] yes=39,no=40,missing=39"] ;
39 [label="[f26<0.720567107] yes=79,no=80,missing=79"] ;
79 [label="[f27<0.666134417] yes=159,no=160,missing=159"] ;
159 [label="[f9<0.946479559] yes=319,no=320,missing=319"] ;
319 [label="leaf=-0.0126496255"] ;
320 [label="leaf=0.0572384074"] ;
160 [label="[f22<1.0161792] yes=321,no=322,missing=321"] ;
321 [label="leaf=-0.0578492768"] ;
322 [label="leaf=-0.0106179072"] ;
80 [label="[f27<0.752420187] yes=161,no=162,missing=161"] ;
161 [label="[f0<1.70976245] yes=323,no=324,missing=323"] ;
323 [label="leaf=0.0294441525"] ;
324 [label="leaf=0.112904444"] ;
162 [label="[f23<1.24127007] yes=325,no=326,missing=325"] ;
325 [label="leaf=-0.0323708504"] ;
326 [label="leaf=0.0453686602"] ;
40 [label="[f22<1.09093928] yes=81,no=82,missing=81"] ;
81 [label="[f13<1.33226347] yes=163,no=164,missing=163"] ;
163 [label="[f25<0.950804532] yes=327,no=328,missing=327"] ;
327 [label="leaf=-0.0417595655"] ;
328 [label="leaf=-0.0746421441"] ;
164 [label="[f9<0.799676061] yes=329,no=330,missing=329"] ;
329 [label="leaf=-0.00818517897"] ;
330 [label="leaf=0.054995209"] ;
82 [label="[f0<1.17153263] yes=165,no=166,missing=165"] ;
165 [label="[f3<1.33761501] yes=331,no=332,missing=331"] ;
331 [label="leaf=0.043357946"] ;
332 [label="leaf=-0.0485419147"] ;
166 [label="[f27<0.765960455] yes=333,no=334,missing=333"] ;
333 [label="leaf=-0.0039813011"] ;
334 [label="leaf=-0.107155792"] ;
20 [label="[f27<0.751893342] yes=41,no=42,missing=41"] ;
41 [label="[f5<0.92243886] yes=83,no=84,missing=83"] ;
83 [label="[f25<0.989250183] yes=167,no=168,missing=167"] ;
167 [label="[f9<0.998666525] yes=335,no=336,missing=335"] ;
335 [label="leaf=0.0217963438"] ;
336 [label="leaf=0.0642342046"] ;
168 [label="[f9<0.960706651] yes=337,no=338,missing=337"] ;
337 [label="leaf=-0.0514546521"] ;
338 [label="leaf=0.0272016376"] ;
84 [label="[f5<1.92810297] yes=169,no=170,missing=169"] ;
169 [label="[f3<1.31369758] yes=339,no=340,missing=339"] ;
339 [label="leaf=0.0615879707"] ;
340 [label="leaf=0.011259079"] ;
170 [label="[f13<0.434311569] yes=341,no=342,missing=341"] ;
341 [label="leaf=-0.0413701795"] ;
342 [label="leaf=0.117967598"] ;
42 [label="[f0<1.21216071] yes=85,no=86,missing=85"] ;
85 [label="[f22<1.10921538] yes=171,no=172,missing=171"] ;
171 [label="[f23<1.21065938] yes=343,no=344,missing=343"] ;
343 [label="leaf=-0.0172508247"] ;
344 [label="leaf=0.0659385845"] ;
172 [label="[f5<1.09259927] yes=345,no=346,missing=345"] ;
345 [label="leaf=0.0433846228"] ;
346 [label="leaf=0.0965341553"] ;
86 [label="[f21<1.01000786] yes=173,no=174,missing=173"] ;
173 [label="[f5<1.9860903] yes=347,no=348,missing=347"] ;
347 [label="leaf=-0.0707266629"] ;
348 [label="leaf=0.068839632"] ;
174 [label="[f25<0.861939311] yes=349,no=350,missing=349"] ;
349 [label="leaf=0.0141729089"] ;
350 [label="leaf=-0.0687134564"] ;
10 [label="[f27<0.950368404] yes=21,no=22,missing=21"] ;
21 [label="[f25<0.986903667] yes=43,no=44,missing=43"] ;
43 [label="[f5<0.896330833] yes=87,no=88,missing=87"] ;
87 [label="[f26<0.871181607] yes=175,no=176,missing=175"] ;
175 [label="[f27<0.790100157] yes=351,no=352,missing=351"] ;
351 [label="leaf=0.057930477"] ;
352 [label="leaf=-0.00342600024"] ;
176 [label="[f25<0.751243949] yes=353,no=354,missing=353"] ;
353 [label="leaf=0.0274131931"] ;
354 [label="leaf=0.0794571266"] ;
88 [label="[f27<0.852832913] yes=177,no=178,missing=177"] ;
177 [label="[f5<1.11508894] yes=355,no=356,missing=355"] ;
355 [label="leaf=0.0908447802"] ;
356 [label="leaf=0.110933065"] ;
178 [label="[f25<0.768553615] yes=357,no=358,missing=357"] ;
357 [label="leaf=0.0383928008"] ;
358 [label="leaf=0.0856931806"] ;
44 [label="[f26<0.954045951] yes=89,no=90,missing=89"] ;
89 [label="[f5<0.916301131] yes=179,no=180,missing=179"] ;
179 [label="[f21<1.2454195] yes=359,no=360,missing=359"] ;
359 [label="leaf=-0.0406009145"] ;
360 [label="leaf=0.0370218158"] ;
180 [label="[f5<1.11980665] yes=361,no=362,missing=361"] ;
361 [label="leaf=0.00538568711"] ;
362 [label="leaf=0.0510959923"] ;
90 [label="[f0<0.638976216] yes=181,no=182,missing=181"] ;
181 [label="[f22<1.03581882] yes=363,no=364,missing=363"] ;
363 [label="leaf=0.0108146574"] ;
364 [label="leaf=0.0616801381"] ;
182 [label="[f21<1.14031971] yes=365,no=366,missing=365"] ;
365 [label="leaf=0.0766257942"] ;
366 [label="leaf=0.0242243763"] ;
22 [label="[f22<1.06772685] yes=45,no=46,missing=45"] ;
45 [label="[f24<1.1189549] yes=91,no=92,missing=91"] ;
91 [label="[f0<0.958693147] yes=183,no=184,missing=183"] ;
183 [label="[f3<1.1536715] yes=367,no=368,missing=367"] ;
367 [label="leaf=0.00708116684"] ;
368 [label="leaf=-0.0463139378"] ;
184 [label="[f27<1.07850862] yes=369,no=370,missing=369"] ;
369 [label="leaf=-0.0464914031"] ;
370 [label="leaf=-0.0935140029"] ;
92 [label="[f3<1.98479152] yes=185,no=186,missing=185"] ;
185 [label="[f0<2.33656859] yes=371,no=372,missing=371"] ;
371 [label="leaf=0.0358003452"] ;
372 [label="leaf=-0.0608057939"] ;
186 [label="[f3<2.90578461] yes=373,no=374,missing=373"] ;
373 [label="leaf=-0.0196146201"] ;
374 [label="leaf=-0.0939778611"] ;
46 [label="[f24<1.83153129] yes=93,no=94,missing=93"] ;
93 [label="[f5<1.48793018] yes=187,no=188,missing=187"] ;
187 [label="[f25<0.769165874] yes=375,no=376,missing=375"] ;
375 [label="leaf=0.000412164489"] ;
376 [label="leaf=0.039576441"] ;
188 [label="[f3<3.28417492] yes=377,no=378,missing=377"] ;
377 [label="leaf=0.0818592012"] ;
378 [label="leaf=-0.0726936236"] ;
94 [label="[f0<0.978915632] yes=189,no=190,missing=189"] ;
189 [label="[f3<1.66025925] yes=379,no=380,missing=379"] ;
379 [label="leaf=0.0498602651"] ;
380 [label="leaf=-0.0278249774"] ;
190 [label="[f24<2.31488132] yes=381,no=382,missing=381"] ;
381 [label="leaf=-0.0720260441"] ;
382 [label="leaf=-0.145941794"] ;
2 [label="[f22<1.00539947] yes=5,no=6,missing=5"] ;
5 [label="[f27<0.984502435] yes=11,no=12,missing=11"] ;
11 [label="[f21<0.955438018] yes=23,no=24,missing=23"] ;
23 [label="[f22<0.783270359] yes=47,no=48,missing=47"] ;
47 [label="[f26<0.901079953] yes=95,no=96,missing=95"] ;
95 [label="[f5<0.923125923] yes=191,no=192,missing=191"] ;
191 [label="[f13<1.7291677] yes=383,no=384,missing=383"] ;
383 [label="leaf=-0.0704368353"] ;
384 [label="leaf=0.110490851"] ;
192 [label="[f17<1.273628] yes=385,no=386,missing=385"] ;
385 [label="leaf=-0.00676651532"] ;
386 [label="leaf=0.0866541341"] ;
96 [label="[f25<1.37524414] yes=193,no=194,missing=193"] ;
193 [label="[f5<0.893857479] yes=387,no=388,missing=387"] ;
387 [label="leaf=0.00713931723"] ;
388 [label="leaf=0.0581848323"] ;
194 [label="[f13<0.870555043] yes=389,no=390,missing=389"] ;
389 [label="leaf=-0.0306076165"] ;
390 [label="leaf=0.0163734909"] ;
48 [label="[f21<0.67494148] yes=97,no=98,missing=97"] ;
97 [label="[f5<1.01670265] yes=195,no=196,missing=195"] ;
195 [label="[f26<0.905813575] yes=391,no=392,missing=391"] ;
391 [label="leaf=-0.0529593043"] ;
392 [label="leaf=-0.0167568941"] ;
196 [label="[f25<1.36713767] yes=393,no=394,missing=393"] ;
393 [label="leaf=0.0557005778"] ;
394 [label="leaf=-0.0104915006"] ;
98 [label="[f24<1.08460593] yes=197,no=198,missing=197"] ;
197 [label="[f24<0.74492228] yes=395,no=396,missing=395"] ;
395 [label="leaf=-0.0319106057"] ;
396 [label="leaf=-0.0748056248"] ;
198 [label="[f25<1.31664717] yes=397,no=398,missing=397"] ;
397 [label="leaf=-0.00742812827"] ;
398 [label="leaf=-0.0405112132"] ;
24 [label="[f5<0.782096624] yes=49,no=50,missing=49"] ;
49 [label="[f3<1.08779871] yes=99,no=100,missing=99"] ;
99 [label="[f0<1.18425179] yes=199,no=200,missing=199"] ;
199 [label="[f22<0.863523245] yes=399,no=400,missing=399"] ;
399 [label="leaf=0.031127885"] ;
400 [label="leaf=-0.0161514189"] ;
200 [label="[f24<1.11575305] yes=401,no=402,missing=401"] ;
401 [label="leaf=-0.0777726695"] ;
402 [label="leaf=0.00682526221"] ;
100 [label="[f9<0.982676744] yes=201,no=202,missing=201"] ;
201 [label="[f2<-1.14187098] yes=403,no=404,missing=403"] ;
403 [label="leaf=-0.0279724188"] ;
404 [label="leaf=-0.0974351466"] ;
202 [label="[f26<1.12002456] yes=405,no=406,missing=405"] ;
405 [label="leaf=-0.0335590728"] ;
406 [label="leaf=0.104452424"] ;
50 [label="[f27<0.866197109] yes=101,no=102,missing=101"] ;
101 [label="[f8<1.62980711] yes=203,no=204,missing=203"] ;
203 [label="[f26<0.971175313] yes=407,no=408,missing=407"] ;
407 [label="leaf=0.0642982945"] ;
408 [label="leaf=0.00905426778"] ;
204 [label="[f22<0.944953084] yes=409,no=410,missing=409"] ;
409 [label="leaf=0.0370362438"] ;
410 [label="leaf=-0.00335145812"] ;
102 [label="[f24<1.12464643] yes=205,no=206,missing=205"] ;
205 [label="[f0<1.1787616] yes=411,no=412,missing=411"] ;
411 [label="leaf=-0.0117399786"] ;
412 [label="leaf=-0.0751590133"] ;
206 [label="[f5<1.24823999] yes=413,no=414,missing=413"] ;
413 [label="leaf=0.0143686263"] ;
414 [label="leaf=0.062120121"] ;
12 [label="[f24<1.18736851] yes=25,no=26,missing=25"] ;
25 [label="[f27<1.11501837] yes=51,no=52,missing=51"] ;
51 [label="[f24<1.05365086] yes=103,no=104,missing=103"] ;
103 [label="[f22<0.795321822] yes=207,no=208,missing=207"] ;
207 [label="[f0<1.45656943] yes=415,no=416,missing=415"] ;
415 [label="leaf=-0.0549767278"] ;
416 [label="leaf=-0.111165404"] ;
208 [label="[f21<0.535056114] yes=417,no=418,missing=417"] ;
417 [label="leaf=-0.0251485445"] ;
418 [label="leaf=-0.103612982"] ;
104 [label="[f5<1.81528866] yes=209,no=210,missing=209"] ;
209 [label="[f23<1.19179082] yes=419,no=420,missing=419"] ;
419 [label="leaf=-0.0458738543"] ;
420 [label="leaf=-0.0954228565"] ;
210 [label="[f25<1.93915796] yes=421,no=422,missing=421"] ;
421 [label="leaf=0.108492509"] ;
422 [label="leaf=-0.0142410919"] ;
52 [label="[f22<0.812776983] yes=105,no=106,missing=105"] ;
105 [label="[f0<1.09265578] yes=211,no=212,missing=211"] ;
211 [label="[f25<1.7916801] yes=423,no=424,missing=423"] ;
423 [label="leaf=-0.0608454831"] ;
424 [label="leaf=-0.108322464"] ;
212 [label="[f27<1.30110097] yes=425,no=426,missing=425"] ;
425 [label="leaf=-0.105180107"] ;
426 [label="leaf=-0.133503467"] ;
106 [label="[f22<0.968733191] yes=213,no=214,missing=213"] ;
213 [label="[f25<1.3202579] yes=427,no=428,missing=427"] ;
427 [label="leaf=-0.110598266"] ;
428 [label="leaf=-0.126292363"] ;
214 [label="[f21<0.625933409] yes=429,no=430,missing=429"] ;
429 [label="leaf=-0.0305283125"] ;
430 [label="leaf=-0.108908117"] ;
26 [label="[f22<0.828615546] yes=53,no=54,missing=53"] ;
53 [label="[f24<1.34134221] yes=107,no=108,missing=107"] ;
107 [label="[f23<1.31864762] yes=215,no=216,missing=215"] ;
215 [label="[f27<1.10458899] yes=431,no=432,missing=431"] ;
431 [label="leaf=0.00275272154"] ;
432 [label="leaf=-0.0662869737"] ;
216 [label="[f3<2.09492183] yes=433,no=434,missing=433"] ;
433 [label="leaf=-0.135453328"] ;
434 [label="leaf=0.0169614311"] ;
108 [label="[f3<2.10510063] yes=217,no=218,missing=217"] ;
217 [label="[f23<1.9806366] yes=435,no=436,missing=435"] ;
435 [label="leaf=0.00840255152"] ;
436 [label="leaf=-0.103631161"] ;
218 [label="[f0<2.38039923] yes=437,no=438,missing=437"] ;
437 [label="leaf=-0.0433516428"] ;
438 [label="leaf=-0.141684011"] ;
54 [label="[f21<0.952915549] yes=109,no=110,missing=109"] ;
109 [label="[f27<1.29392815] yes=219,no=220,missing=219"] ;
219 [label="[f5<1.97912812] yes=439,no=440,missing=439"] ;
439 [label="leaf=-0.051502198"] ;
440 [label="leaf=0.0428661518"] ;
220 [label="[f24<1.71028519] yes=441,no=442,missing=441"] ;
441 [label="leaf=-0.106048904"] ;
442 [label="leaf=-0.0573376976"] ;
110 [label="[f27<1.41824186] yes=221,no=222,missing=221"] ;
221 [label="[f9<2.4283638] yes=443,no=444,missing=443"] ;
443 [label="leaf=-0.0110395448"] ;
444 [label="leaf=0.100782357"] ;
222 [label="[f6<-1.13680935] yes=445,no=446,missing=445"] ;
445 [label="leaf=0.00417917036"] ;
446 [label="leaf=-0.0659522638"] ;
6 [label="[f25<1.98797762] yes=13,no=14,missing=13"] ;
13 [label="[f0<1.25022662] yes=27,no=28,missing=27"] ;
27 [label="[f3<1.35435224] yes=55,no=56,missing=55"] ;
55 [label="[f5<1.28868449] yes=111,no=112,missing=111"] ;
111 [label="[f13<0.740156174] yes=223,no=224,missing=223"] ;
223 [label="[f24<0.633962989] yes=447,no=448,missing=447"] ;
447 [label="leaf=0.0509092994"] ;
448 [label="leaf=-0.0257965755"] ;
224 [label="[f9<0.703737617] yes=449,no=450,missing=449"] ;
449 [label="leaf=-0.0237127114"] ;
450 [label="leaf=0.0147121893"] ;
112 [label="[f5<1.94779849] yes=225,no=226,missing=225"] ;
225 [label="[f27<1.33837605] yes=451,no=452,missing=451"] ;
451 [label="leaf=0.0442725681"] ;
452 [label="leaf=0.00749791646"] ;
226 [label="[f8<0.543269038] yes=453,no=454,missing=453"] ;
453 [label="leaf=0.0978242978"] ;
454 [label="leaf=0.043355342"] ;
56 [label="[f24<1.09794593] yes=113,no=114,missing=113"] ;
113 [label="[f24<0.758075297] yes=227,no=228,missing=227"] ;
227 [label="[f0<0.504373074] yes=455,no=456,missing=455"] ;
455 [label="leaf=-0.0271061305"] ;
456 [label="leaf=0.0200502239"] ;
228 [label="[f5<1.99662519] yes=457,no=458,missing=457"] ;
457 [label="leaf=-0.0593041852"] ;
458 [label="leaf=0.0153917596"] ;
114 [label="[f3<2.42083716] yes=229,no=230,missing=229"] ;
229 [label="[f5<1.13556314] yes=459,no=460,missing=459"] ;
459 [label="leaf=-0.01833909"] ;
460 [label="leaf=0.0228186939"] ;
230 [label="[f23<1.11511469] yes=461,no=462,missing=461"] ;
461 [label="leaf=-0.0650713816"] ;
462 [label="leaf=0.0236738622"] ;
28 [label="[f25<1.41615891] yes=57,no=58,missing=57"] ;
57 [label="[f24<1.02544677] yes=115,no=116,missing=115"] ;
115 [label="[f24<0.724671483] yes=231,no=232,missing=231"] ;
231 [label="[f5<1.07917881] yes=463,no=464,missing=463"] ;
463 [label="leaf=-0.0228200853"] ;
464 [label="leaf=0.0524943843"] ;
232 [label="[f21<0.897616446] yes=465,no=466,missing=465"] ;
465 [label="leaf=-0.0121069448"] ;
466 [label="leaf=-0.0771518797"] ;
116 [label="[f24<1.78731561] yes=233,no=234,missing=233"] ;
233 [label="[f26<1.04563856] yes=467,no=468,missing=467"] ;
467 [label="leaf=-0.0612579659"] ;
468 [label="leaf=0.0467270426"] ;
234 [label="[f24<2.14842319] yes=469,no=470,missing=469"] ;
469 [label="leaf=-0.0576054417"] ;
470 [label="leaf=-0.114616528"] ;
58 [label="[f24<1.15483046] yes=117,no=118,missing=117"] ;
117 [label="[f0<1.56189108] yes=235,no=236,missing=235"] ;
235 [label="[f24<0.737686217] yes=471,no=472,missing=471"] ;
471 [label="leaf=0.0188334789"] ;
472 [label="leaf=-0.0586344786"] ;
236 [label="[f27<1.11009288] yes=473,no=474,missing=473"] ;
473 [label="leaf=-0.0588709302"] ;
474 [label="leaf=-0.105083764"] ;
118 [label="[f24<2.16277742] yes=237,no=238,missing=237"] ;
237 [label="[f26<1.16683662] yes=475,no=476,missing=475"] ;
475 [label="leaf=-0.0688220337"] ;
476 [label="leaf=-0.0174151566"] ;
238 [label="[f0<3.21217561] yes=477,no=478,missing=477"] ;
477 [label="leaf=-0.0773822069"] ;
478 [label="leaf=-0.133924544"] ;
14 [label="[f24<0.958126843] yes=29,no=30,missing=29"] ;
29 [label="[f27<1.09677958] yes=59,no=60,missing=59"] ;
59 [label="[f24<0.744796813] yes=119,no=120,missing=119"] ;
119 [label="[f11<0.164683953] yes=239,no=240,missing=239"] ;
239 [label="[f3<1.35925031] yes=479,no=480,missing=479"] ;
479 [label="leaf=0.0949615985"] ;
480 [label="leaf=-0.0832345113"] ;
240 [label="[f26<1.22869599] yes=481,no=482,missing=481"] ;
481 [label="leaf=-0.104576446"] ;
482 [label="leaf=0.0358690396"] ;
120 [label="[f17<1.10190415] yes=241,no=242,missing=241"] ;
241 [label="[f15<1.63942575] yes=483,no=484,missing=483"] ;
483 [label="leaf=-0.0764510781"] ;
484 [label="leaf=0.0486870483"] ;
242 [label="[f21<1.3652029] yes=485,no=486,missing=485"] ;
485 [label="leaf=-0.0317674056"] ;
486 [label="leaf=0.0819509849"] ;
60 [label="[f0<1.49399471] yes=121,no=122,missing=121"] ;
121 [label="[f17<1.0849874] yes=243,no=244,missing=243"] ;
243 [label="[f11<-1.69798529] yes=487,no=488,missing=487"] ;
487 [label="leaf=0.0138322758"] ;
488 [label="leaf=-0.105298094"] ;
244 [label="[f27<1.25438571] yes=489,no=490,missing=489"] ;
489 [label="leaf=-0.0422858261"] ;
490 [label="leaf=-0.0889929831"] ;
122 [label="[f10<-2.6542182] yes=245,no=246,missing=245"] ;
245 [label="leaf=0.0210759267"] ;
246 [label="[f21<0.283164799] yes=491,no=492,missing=491"] ;
491 [label="leaf=0.00859672669"] ;
492 [label="leaf=-0.128551364"] ;
30 [label="[f27<1.67398465] yes=61,no=62,missing=61"] ;
61 [label="[f17<1.3498143] yes=123,no=124,missing=123"] ;
123 [label="[f25<2.22107363] yes=247,no=248,missing=247"] ;
247 [label="[f9<1.64316654] yes=493,no=494,missing=493"] ;
493 [label="leaf=-0.0375740863"] ;
494 [label="leaf=0.00747695286"] ;
248 [label="[f26<1.48441124] yes=495,no=496,missing=495"] ;
495 [label="leaf=-0.0780507848"] ;
496 [label="leaf=-0.0463025123"] ;
124 [label="[f5<2.27085114] yes=249,no=250,missing=249"] ;
249 [label="[f3<0.991054058] yes=497,no=498,missing=497"] ;
497 [label="leaf=0.00350926491"] ;
498 [label="leaf=-0.0395585261"] ;
250 [label="[f24<1.11802506] yes=499,no=500,missing=499"] ;
499 [label="leaf=-0.0533478148"] ;
500 [label="leaf=0.0646028519"] ;
62 [label="[f3<2.01623917] yes=125,no=126,missing=125"] ;
125 [label="[f0<1.63033652] yes=251,no=252,missing=251"] ;
251 [label="[f24<2.14742136] yes=501,no=502,missing=501"] ;
501 [label="leaf=-0.0661542043"] ;
502 [label="leaf=-0.00637274608"] ;
252 [label="[f6<-2.52808261] yes=503,no=504,missing=503"] ;
503 [label="leaf=0.0998648927"] ;
504 [label="leaf=-0.0970923826"] ;
126 [label="[f3<2.94766855] yes=253,no=254,missing=253"] ;
253 [label="[f3<2.93459463] yes=505,no=506,missing=505"] ;
505 [label="leaf=-0.0925944746"] ;
506 [label="leaf=0.0791452155"] ;
254 [label="[f1<1.585567] yes=507,no=508,missing=507"] ;
507 [label="leaf=-0.130107984"] ;
508 [label="leaf=-0.0355482027"] ;
0 -> 1 [labeldistance=2.5, labelangle=45, headlabel="True"] ;
1 -> 3 ;
3 -> 7 ;
7 -> 15 ;
15 -> 31 ;
31 -> 63 ;
63 -> 127 ;
127 -> 255 ;
127 -> 256 ;
63 -> 128 ;
128 -> 257 ;
128 -> 258 ;
31 -> 64 ;
64 -> 129 ;
129 -> 259 ;
129 -> 260 ;
64 -> 130 ;
130 -> 261 ;
130 -> 262 ;
15 -> 32 ;
32 -> 65 ;
65 -> 131 ;
131 -> 263 ;
131 -> 264 ;
65 -> 132 ;
132 -> 265 ;
132 -> 266 ;
32 -> 66 ;
66 -> 133 ;
133 -> 267 ;
133 -> 268 ;
66 -> 134 ;
134 -> 269 ;
134 -> 270 ;
7 -> 16 ;
16 -> 33 ;
33 -> 67 ;
67 -> 135 ;
135 -> 271 ;
135 -> 272 ;
67 -> 136 ;
136 -> 273 ;
136 -> 274 ;
33 -> 68 ;
68 -> 137 ;
137 -> 275 ;
137 -> 276 ;
68 -> 138 ;
138 -> 277 ;
138 -> 278 ;
16 -> 34 ;
34 -> 69 ;
69 -> 139 ;
139 -> 279 ;
139 -> 280 ;
69 -> 140 ;
140 -> 281 ;
140 -> 282 ;
34 -> 70 ;
70 -> 141 ;
141 -> 283 ;
141 -> 284 ;
70 -> 142 ;
142 -> 285 ;
142 -> 286 ;
3 -> 8 ;
8 -> 17 ;
17 -> 35 ;
35 -> 71 ;
71 -> 143 ;
143 -> 287 ;
143 -> 288 ;
71 -> 144 ;
144 -> 289 ;
144 -> 290 ;
35 -> 72 ;
72 -> 145 ;
145 -> 291 ;
145 -> 292 ;
72 -> 146 ;
146 -> 293 ;
146 -> 294 ;
17 -> 36 ;
36 -> 73 ;
73 -> 147 ;
147 -> 295 ;
147 -> 296 ;
73 -> 148 ;
148 -> 297 ;
148 -> 298 ;
36 -> 74 ;
74 -> 149 ;
149 -> 299 ;
149 -> 300 ;
74 -> 150 ;
150 -> 301 ;
150 -> 302 ;
8 -> 18 ;
18 -> 37 ;
37 -> 75 ;
75 -> 151 ;
151 -> 303 ;
151 -> 304 ;
75 -> 152 ;
152 -> 305 ;
152 -> 306 ;
37 -> 76 ;
76 -> 153 ;
153 -> 307 ;
153 -> 308 ;
76 -> 154 ;
154 -> 309 ;
154 -> 310 ;
18 -> 38 ;
38 -> 77 ;
77 -> 155 ;
155 -> 311 ;
155 -> 312 ;
77 -> 156 ;
156 -> 313 ;
156 -> 314 ;
38 -> 78 ;
78 -> 157 ;
157 -> 315 ;
157 -> 316 ;
78 -> 158 ;
158 -> 317 ;
158 -> 318 ;
1 -> 4 ;
4 -> 9 ;
9 -> 19 ;
19 -> 39 ;
39 -> 79 ;
79 -> 159 ;
159 -> 319 ;
159 -> 320 ;
79 -> 160 ;
160 -> 321 ;
160 -> 322 ;
39 -> 80 ;
80 -> 161 ;
161 -> 323 ;
161 -> 324 ;
80 -> 162 ;
162 -> 325 ;
162 -> 326 ;
19 -> 40 ;
40 -> 81 ;
81 -> 163 ;
163 -> 327 ;
163 -> 328 ;
81 -> 164 ;
164 -> 329 ;
164 -> 330 ;
40 -> 82 ;
82 -> 165 ;
165 -> 331 ;
165 -> 332 ;
82 -> 166 ;
166 -> 333 ;
166 -> 334 ;
9 -> 20 ;
20 -> 41 ;
41 -> 83 ;
83 -> 167 ;
167 -> 335 ;
167 -> 336 ;
83 -> 168 ;
168 -> 337 ;
168 -> 338 ;
41 -> 84 ;
84 -> 169 ;
169 -> 339 ;
169 -> 340 ;
84 -> 170 ;
170 -> 341 ;
170 -> 342 ;
20 -> 42 ;
42 -> 85 ;
85 -> 171 ;
171 -> 343 ;
171 -> 344 ;
85 -> 172 ;
172 -> 345 ;
172 -> 346 ;
42 -> 86 ;
86 -> 173 ;
173 -> 347 ;
173 -> 348 ;
86 -> 174 ;
174 -> 349 ;
174 -> 350 ;
4 -> 10 ;
10 -> 21 ;
21 -> 43 ;
43 -> 87 ;
87 -> 175 ;
175 -> 351 ;
175 -> 352 ;
87 -> 176 ;
176 -> 353 ;
176 -> 354 ;
43 -> 88 ;
88 -> 177 ;
177 -> 355 ;
177 -> 356 ;
88 -> 178 ;
178 -> 357 ;
178 -> 358 ;
21 -> 44 ;
44 -> 89 ;
89 -> 179 ;
179 -> 359 ;
179 -> 360 ;
89 -> 180 ;
180 -> 361 ;
180 -> 362 ;
44 -> 90 ;
90 -> 181 ;
181 -> 363 ;
181 -> 364 ;
90 -> 182 ;
182 -> 365 ;
182 -> 366 ;
10 -> 22 ;
22 -> 45 ;
45 -> 91 ;
91 -> 183 ;
183 -> 367 ;
183 -> 368 ;
91 -> 184 ;
184 -> 369 ;
184 -> 370 ;
45 -> 92 ;
92 -> 185 ;
185 -> 371 ;
185 -> 372 ;
92 -> 186 ;
186 -> 373 ;
186 -> 374 ;
22 -> 46 ;
46 -> 93 ;
93 -> 187 ;
187 -> 375 ;
187 -> 376 ;
93 -> 188 ;
188 -> 377 ;
188 -> 378 ;
46 -> 94 ;
94 -> 189 ;
189 -> 379 ;
189 -> 380 ;
94 -> 190 ;
190 -> 381 ;
190 -> 382 ;
0 -> 2 [labeldistance=2.5, labelangle=-45, headlabel="False"] ;
2 -> 5 ;
5 -> 11 ;
11 -> 23 ;
23 -> 47 ;
47 -> 95 ;
95 -> 191 ;
191 -> 383 ;
191 -> 384 ;
95 -> 192 ;
192 -> 385 ;
192 -> 386 ;
47 -> 96 ;
96 -> 193 ;
193 -> 387 ;
193 -> 388 ;
96 -> 194 ;
194 -> 389 ;
194 -> 390 ;
23 -> 48 ;
48 -> 97 ;
97 -> 195 ;
195 -> 391 ;
195 -> 392 ;
97 -> 196 ;
196 -> 393 ;
196 -> 394 ;
48 -> 98 ;
98 -> 197 ;
197 -> 395 ;
197 -> 396 ;
98 -> 198 ;
198 -> 397 ;
198 -> 398 ;
11 -> 24 ;
24 -> 49 ;
49 -> 99 ;
99 -> 199 ;
199 -> 399 ;
199 -> 400 ;
99 -> 200 ;
200 -> 401 ;
200 -> 402 ;
49 -> 100 ;
100 -> 201 ;
201 -> 403 ;
201 -> 404 ;
100 -> 202 ;
202 -> 405 ;
202 -> 406 ;
24 -> 50 ;
50 -> 101 ;
101 -> 203 ;
203 -> 407 ;
203 -> 408 ;
101 -> 204 ;
204 -> 409 ;
204 -> 410 ;
50 -> 102 ;
102 -> 205 ;
205 -> 411 ;
205 -> 412 ;
102 -> 206 ;
206 -> 413 ;
206 -> 414 ;
5 -> 12 ;
12 -> 25 ;
25 -> 51 ;
51 -> 103 ;
103 -> 207 ;
207 -> 415 ;
207 -> 416 ;
103 -> 208 ;
208 -> 417 ;
208 -> 418 ;
51 -> 104 ;
104 -> 209 ;
209 -> 419 ;
209 -> 420 ;
104 -> 210 ;
210 -> 421 ;
210 -> 422 ;
25 -> 52 ;
52 -> 105 ;
105 -> 211 ;
211 -> 423 ;
211 -> 424 ;
105 -> 212 ;
212 -> 425 ;
212 -> 426 ;
52 -> 106 ;
106 -> 213 ;
213 -> 427 ;
213 -> 428 ;
106 -> 214 ;
214 -> 429 ;
214 -> 430 ;
12 -> 26 ;
26 -> 53 ;
53 -> 107 ;
107 -> 215 ;
215 -> 431 ;
215 -> 432 ;
107 -> 216 ;
216 -> 433 ;
216 -> 434 ;
53 -> 108 ;
108 -> 217 ;
217 -> 435 ;
217 -> 436 ;
108 -> 218 ;
218 -> 437 ;
218 -> 438 ;
26 -> 54 ;
54 -> 109 ;
109 -> 219 ;
219 -> 439 ;
219 -> 440 ;
109 -> 220 ;
220 -> 441 ;
220 -> 442 ;
54 -> 110 ;
110 -> 221 ;
221 -> 443 ;
221 -> 444 ;
110 -> 222 ;
222 -> 445 ;
222 -> 446 ;
2 -> 6 ;
6 -> 13 ;
13 -> 27 ;
27 -> 55 ;
55 -> 111 ;
111 -> 223 ;
223 -> 447 ;
223 -> 448 ;
111 -> 224 ;
224 -> 449 ;
224 -> 450 ;
55 -> 112 ;
112 -> 225 ;
225 -> 451 ;
225 -> 452 ;
112 -> 226 ;
226 -> 453 ;
226 -> 454 ;
27 -> 56 ;
56 -> 113 ;
113 -> 227 ;
227 -> 455 ;
227 -> 456 ;
113 -> 228 ;
228 -> 457 ;
228 -> 458 ;
56 -> 114 ;
114 -> 229 ;
229 -> 459 ;
229 -> 460 ;
114 -> 230 ;
230 -> 461 ;
230 -> 462 ;
13 -> 28 ;
28 -> 57 ;
57 -> 115 ;
115 -> 231 ;
231 -> 463 ;
231 -> 464 ;
115 -> 232 ;
232 -> 465 ;
232 -> 466 ;
57 -> 116 ;
116 -> 233 ;
233 -> 467 ;
233 -> 468 ;
116 -> 234 ;
234 -> 469 ;
234 -> 470 ;
28 -> 58 ;
58 -> 117 ;
117 -> 235 ;
235 -> 471 ;
235 -> 472 ;
117 -> 236 ;
236 -> 473 ;
236 -> 474 ;
58 -> 118 ;
118 -> 237 ;
237 -> 475 ;
237 -> 476 ;
118 -> 238 ;
238 -> 477 ;
238 -> 478 ;
6 -> 14 ;
14 -> 29 ;
29 -> 59 ;
59 -> 119 ;
119 -> 239 ;
239 -> 479 ;
239 -> 480 ;
119 -> 240 ;
240 -> 481 ;
240 -> 482 ;
59 -> 120 ;
120 -> 241 ;
241 -> 483 ;
241 -> 484 ;
120 -> 242 ;
242 -> 485 ;
242 -> 486 ;
29 -> 60 ;
60 -> 121 ;
121 -> 243 ;
243 -> 487 ;
243 -> 488 ;
121 -> 244 ;
244 -> 489 ;
244 -> 490 ;
60 -> 122 ;
122 -> 245 ;
122 -> 246 ;
246 -> 491 ;
246 -> 492 ;
14 -> 30 ;
30 -> 61 ;
61 -> 123 ;
123 -> 247 ;
247 -> 493 ;
247 -> 494 ;
123 -> 248 ;
248 -> 495 ;
248 -> 496 ;
61 -> 124 ;
124 -> 249 ;
249 -> 497 ;
249 -> 498 ;
124 -> 250 ;
250 -> 499 ;
250 -> 500 ;
30 -> 62 ;
62 -> 125 ;
125 -> 251 ;
251 -> 501 ;
251 -> 502 ;
125 -> 252 ;
252 -> 503 ;
252 -> 504 ;
62 -> 126 ;
126 -> 253 ;
253 -> 505 ;
253 -> 506 ;
126 -> 254 ;
254 -> 507 ;
254 -> 508 ;
}