digraph Tree {
node [shape=box] ;
0 [label="X[3] <= 84670656.0\ngini = 0.093\nsamples = 3718075\nvalue = [5595939, 287133]"] ;
1 [label="X[5] <= 479.5\ngini = 0.093\nsamples = 3433469\nvalue = [5167869, 264601]"] ;
0 -> 1 [labeldistance=2.5, labelangle=45, headlabel="True"] ;
2 [label="X[5] <= 379.5\ngini = 0.268\nsamples = 126426\nvalue = [31959, 168589]"] ;
1 -> 2 ;
3 [label="X[4] <= 998871302144.0\ngini = 0.147\nsamples = 94104\nvalue = [11953, 137241]"] ;
2 -> 3 ;
4 [label="X[0] <= 4.06\ngini = 0.147\nsamples = 93991\nvalue = [11920, 137088]"] ;
3 -> 4 ;
5 [label="X[4] <= 864124633088.0\ngini = 0.001\nsamples = 42606\nvalue = [17, 67486]"] ;
4 -> 5 ;
6 [label="X[0] <= 0.125\ngini = 0.0\nsamples = 36819\nvalue = [12, 58242]"] ;
5 -> 6 ;
7 [label="X[5] <= 241.0\ngini = 0.32\nsamples = 4\nvalue = [1, 4]"] ;
6 -> 7 ;
8 [label="gini = 0.444\nsamples = 3\nvalue = [1, 2]"] ;
7 -> 8 ;
9 [label="gini = 0.0\nsamples = 1\nvalue = [0, 2]"] ;
7 -> 9 ;
10 [label="X[2] <= 67176.5\ngini = 0.0\nsamples = 36815\nvalue = [11, 58238]"] ;
6 -> 10 ;
11 [label="gini = 0.0\nsamples = 34826\nvalue = [8, 55058]"] ;
10 -> 11 ;
12 [label="gini = 0.002\nsamples = 1989\nvalue = [3, 3180]"] ;
10 -> 12 ;
13 [label="X[5] <= 353.5\ngini = 0.001\nsamples = 5787\nvalue = [5, 9244]"] ;
5 -> 13 ;
14 [label="X[5] <= 206.5\ngini = 0.001\nsamples = 5625\nvalue = [3, 8994]"] ;
13 -> 14 ;
15 [label="gini = 0.0\nsamples = 3032\nvalue = [0, 4843]"] ;
14 -> 15 ;
16 [label="gini = 0.001\nsamples = 2593\nvalue = [3, 4151]"] ;
14 -> 16 ;
17 [label="X[5] <= 354.5\ngini = 0.016\nsamples = 162\nvalue = [2, 250]"] ;
13 -> 17 ;
18 [label="gini = 0.077\nsamples = 30\nvalue = [2, 48]"] ;
17 -> 18 ;
19 [label="gini = 0.0\nsamples = 132\nvalue = [0, 202]"] ;
17 -> 19 ;
20 [label="X[2] <= 65634.0\ngini = 0.249\nsamples = 51385\nvalue = [11903, 69602]"] ;
4 -> 20 ;
21 [label="X[5] <= 279.5\ngini = 0.243\nsamples = 49157\nvalue = [11049, 66940]"] ;
20 -> 21 ;
22 [label="X[5] <= 179.5\ngini = 0.128\nsamples = 33739\nvalue = [3699, 49995]"] ;
21 -> 22 ;
23 [label="gini = 0.062\nsamples = 21090\nvalue = [1083, 32499]"] ;
22 -> 23 ;
24 [label="gini = 0.226\nsamples = 12649\nvalue = [2616, 17496]"] ;
22 -> 24 ;
25 [label="X[4] <= 4731067904.0\ngini = 0.422\nsamples = 15418\nvalue = [7350, 16945]"] ;
21 -> 25 ;
26 [label="gini = 0.5\nsamples = 57\nvalue = [46, 49]"] ;
25 -> 26 ;
27 [label="gini = 0.421\nsamples = 15361\nvalue = [7304, 16896]"] ;
25 -> 27 ;
28 [label="X[6] <= 1042010.5\ngini = 0.368\nsamples = 2228\nvalue = [854, 2662]"] ;
20 -> 28 ;
29 [label="X[5] <= 230.5\ngini = 0.495\nsamples = 27\nvalue = [23, 28]"] ;
28 -> 29 ;
30 [label="gini = 0.083\nsamples = 12\nvalue = [1, 22]"] ;
29 -> 30 ;
31 [label="gini = 0.337\nsamples = 15\nvalue = [22, 6]"] ;
29 -> 31 ;
32 [label="X[0] <= 1102.339\ngini = 0.365\nsamples = 2201\nvalue = [831, 2634]"] ;
28 -> 32 ;
33 [label="gini = 0.251\nsamples = 450\nvalue = [608, 105]"] ;
32 -> 33 ;
34 [label="gini = 0.149\nsamples = 1751\nvalue = [223, 2529]"] ;
32 -> 34 ;
35 [label="X[3] <= 2272.5\ngini = 0.292\nsamples = 113\nvalue = [33, 153]"] ;
3 -> 35 ;
36 [label="gini = 0.0\nsamples = 1\nvalue = [3, 0]"] ;
35 -> 36 ;
37 [label="X[0] <= 6.015\ngini = 0.274\nsamples = 112\nvalue = [30, 153]"] ;
35 -> 37 ;
38 [label="gini = 0.0\nsamples = 47\nvalue = [0, 79]"] ;
37 -> 38 ;
39 [label="X[0] <= 2169.014\ngini = 0.411\nsamples = 65\nvalue = [30, 74]"] ;
37 -> 39 ;
40 [label="gini = 0.0\nsamples = 16\nvalue = [26, 0]"] ;
39 -> 40 ;
41 [label="X[0] <= 6831.578\ngini = 0.097\nsamples = 49\nvalue = [4, 74]"] ;
39 -> 41 ;
42 [label="gini = 0.0\nsamples = 41\nvalue = [0, 66]"] ;
41 -> 42 ;
43 [label="gini = 0.444\nsamples = 8\nvalue = [4, 8]"] ;
41 -> 43 ;
44 [label="X[5] <= 430.5\ngini = 0.476\nsamples = 32322\nvalue = [20006, 31348]"] ;
2 -> 44 ;
45 [label="X[0] <= 4.065\ngini = 0.478\nsamples = 16687\nvalue = [10477, 16034]"] ;
44 -> 45 ;
46 [label="X[4] <= 191578169344.0\ngini = 0.003\nsamples = 4924\nvalue = [13, 7888]"] ;
45 -> 46 ;
47 [label="X[4] <= 191432704000.0\ngini = 0.009\nsamples = 978\nvalue = [7, 1594]"] ;
46 -> 47 ;
48 [label="X[0] <= 0.39\ngini = 0.006\nsamples = 977\nvalue = [5, 1594]"] ;
47 -> 48 ;
49 [label="gini = 0.0\nsamples = 1\nvalue = [2, 0]"] ;
48 -> 49 ;
50 [label="gini = 0.004\nsamples = 976\nvalue = [3, 1594]"] ;
48 -> 50 ;
51 [label="gini = 0.0\nsamples = 1\nvalue = [2, 0]"] ;
47 -> 51 ;
52 [label="X[2] <= 1082.0\ngini = 0.002\nsamples = 3946\nvalue = [6, 6294]"] ;
46 -> 52 ;
53 [label="X[2] <= 844.0\ngini = 0.04\nsamples = 63\nvalue = [2, 95]"] ;
52 -> 53 ;
54 [label="gini = 0.0\nsamples = 62\nvalue = [0, 95]"] ;
53 -> 54 ;
55 [label="gini = 0.0\nsamples = 1\nvalue = [2, 0]"] ;
53 -> 55 ;
56 [label="X[5] <= 427.5\ngini = 0.001\nsamples = 3883\nvalue = [4, 6199]"] ;
52 -> 56 ;
57 [label="gini = 0.001\nsamples = 3547\nvalue = [2, 5669]"] ;
56 -> 57 ;
58 [label="gini = 0.007\nsamples = 336\nvalue = [2, 530]"] ;
56 -> 58 ;
59 [label="X[3] <= 3787.0\ngini = 0.492\nsamples = 11763\nvalue = [10464, 8146]"] ;
45 -> 59 ;
60 [label="X[4] <= 12604790272.0\ngini = 0.5\nsamples = 328\nvalue = [261, 271]"] ;
59 -> 60 ;
61 [label="gini = 0.0\nsamples = 5\nvalue = [11, 0]"] ;
60 -> 61 ;
62 [label="X[5] <= 420.5\ngini = 0.499\nsamples = 323\nvalue = [250, 271]"] ;
60 -> 62 ;
63 [label="gini = 0.491\nsamples = 218\nvalue = [154, 202]"] ;
62 -> 63 ;
64 [label="gini = 0.487\nsamples = 105\nvalue = [96, 69]"] ;
62 -> 64 ;
65 [label="X[2] <= 65620.5\ngini = 0.492\nsamples = 11435\nvalue = [10203, 7875]"] ;
59 -> 65 ;
66 [label="X[6] <= 1027010.5\ngini = 0.494\nsamples = 10807\nvalue = [9493, 7569]"] ;
65 -> 66 ;
67 [label="gini = 0.422\nsamples = 58\nvalue = [69, 30]"] ;
66 -> 67 ;
68 [label="gini = 0.494\nsamples = 10749\nvalue = [9424, 7539]"] ;
66 -> 68 ;
69 [label="X[0] <= 1650.514\ngini = 0.421\nsamples = 628\nvalue = [710, 306]"] ;
65 -> 69 ;
70 [label="gini = 0.111\nsamples = 384\nvalue = [593, 37]"] ;
69 -> 70 ;
71 [label="gini = 0.422\nsamples = 244\nvalue = [117, 269]"] ;
69 -> 71 ;
72 [label="X[3] <= 67549584.0\ngini = 0.473\nsamples = 15635\nvalue = [9529, 15314]"] ;
44 -> 72 ;
73 [label="X[2] <= 70029.5\ngini = 0.471\nsamples = 14158\nvalue = [8517, 13933]"] ;
72 -> 73 ;
74 [label="X[3] <= 67192980.0\ngini = 0.47\nsamples = 14059\nvalue = [8420, 13867]"] ;
73 -> 74 ;
75 [label="X[0] <= 4.28\ngini = 0.471\nsamples = 14018\nvalue = [8410, 13805]"] ;
74 -> 75 ;
76 [label="gini = 0.006\nsamples = 4364\nvalue = [21, 6944]"] ;
75 -> 76 ;
77 [label="gini = 0.495\nsamples = 9654\nvalue = [8389, 6861]"] ;
75 -> 77 ;
78 [label="X[3] <= 67393172.0\ngini = 0.239\nsamples = 41\nvalue = [10, 62]"] ;
74 -> 78 ;
79 [label="gini = 0.161\nsamples = 22\nvalue = [3, 31]"] ;
78 -> 79 ;
80 [label="gini = 0.301\nsamples = 19\nvalue = [7, 31]"] ;
78 -> 80 ;
81 [label="X[2] <= 70377.0\ngini = 0.482\nsamples = 99\nvalue = [97, 66]"] ;
73 -> 81 ;
82 [label="gini = 0.0\nsamples = 31\nvalue = [49, 0]"] ;
81 -> 82 ;
83 [label="X[0] <= 5701.897\ngini = 0.488\nsamples = 68\nvalue = [48, 66]"] ;
81 -> 83 ;
84 [label="gini = 0.5\nsamples = 57\nvalue = [48, 47]"] ;
83 -> 84 ;
85 [label="gini = 0.0\nsamples = 11\nvalue = [0, 19]"] ;
83 -> 85 ;
86 [label="X[6] <= 1087010.5\ngini = 0.488\nsamples = 1477\nvalue = [1012, 1381]"] ;
72 -> 86 ;
87 [label="X[3] <= 67645196.0\ngini = 0.399\nsamples = 25\nvalue = [29, 11]"] ;
86 -> 87 ;
88 [label="gini = 0.0\nsamples = 1\nvalue = [0, 2]"] ;
87 -> 88 ;
89 [label="X[0] <= 67.92\ngini = 0.361\nsamples = 24\nvalue = [29, 9]"] ;
87 -> 89 ;
90 [label="gini = 0.0\nsamples = 4\nvalue = [0, 4]"] ;
89 -> 90 ;
91 [label="gini = 0.251\nsamples = 20\nvalue = [29, 5]"] ;
89 -> 91 ;
92 [label="X[3] <= 67921312.0\ngini = 0.486\nsamples = 1452\nvalue = [983, 1370]"] ;
86 -> 92 ;
93 [label="X[4] <= 775640154112.0\ngini = 0.44\nsamples = 33\nvalue = [37, 18]"] ;
92 -> 93 ;
94 [label="gini = 0.491\nsamples = 25\nvalue = [21, 16]"] ;
93 -> 94 ;
95 [label="gini = 0.198\nsamples = 8\nvalue = [16, 2]"] ;
93 -> 95 ;
96 [label="X[3] <= 68060152.0\ngini = 0.484\nsamples = 1419\nvalue = [946, 1352]"] ;
92 -> 96 ;
97 [label="gini = 0.231\nsamples = 12\nvalue = [4, 26]"] ;
96 -> 97 ;
98 [label="gini = 0.486\nsamples = 1407\nvalue = [942, 1326]"] ;
96 -> 98 ;
99 [label="X[5] <= 679.5\ngini = 0.036\nsamples = 3307043\nvalue = [5135910, 96012]"] ;
1 -> 99 ;
100 [label="X[0] <= 3.545\ngini = 0.383\nsamples = 119938\nvalue = [140793, 48860]"] ;
99 -> 100 ;
101 [label="X[5] <= 614.5\ngini = 0.021\nsamples = 15397\nvalue = [261, 24091]"] ;
100 -> 101 ;
102 [label="X[4] <= 966493470720.0\ngini = 0.017\nsamples = 10316\nvalue = [137, 16201]"] ;
101 -> 102 ;
103 [label="X[3] <= 51971244.0\ngini = 0.015\nsamples = 9972\nvalue = [121, 15653]"] ;
102 -> 103 ;
104 [label="X[3] <= 407830.0\ngini = 0.012\nsamples = 8217\nvalue = [80, 12939]"] ;
103 -> 104 ;
105 [label="gini = 0.016\nsamples = 5428\nvalue = [67, 8464]"] ;
104 -> 105 ;
106 [label="gini = 0.006\nsamples = 2789\nvalue = [13, 4475]"] ;
104 -> 106 ;
107 [label="X[6] <= 1077010.5\ngini = 0.029\nsamples = 1755\nvalue = [41, 2714]"] ;
103 -> 107 ;
108 [label="gini = 0.135\nsamples = 36\nvalue = [4, 51]"] ;
107 -> 108 ;
109 [label="gini = 0.027\nsamples = 1719\nvalue = [37, 2663]"] ;
107 -> 109 ;
110 [label="X[3] <= 83584468.0\ngini = 0.055\nsamples = 344\nvalue = [16, 548]"] ;
102 -> 110 ;
111 [label="X[3] <= 27226.0\ngini = 0.045\nsamples = 343\nvalue = [13, 548]"] ;
110 -> 111 ;
112 [label="gini = 0.155\nsamples = 79\nvalue = [11, 119]"] ;
111 -> 112 ;
113 [label="gini = 0.009\nsamples = 264\nvalue = [2, 429]"] ;
111 -> 113 ;
114 [label="gini = 0.0\nsamples = 1\nvalue = [3, 0]"] ;
110 -> 114 ;
115 [label="X[2] <= 269.0\ngini = 0.03\nsamples = 5081\nvalue = [124, 7890]"] ;
101 -> 115 ;
116 [label="X[5] <= 651.0\ngini = 0.172\nsamples = 12\nvalue = [2, 19]"] ;
115 -> 116 ;
117 [label="gini = 0.0\nsamples = 11\nvalue = [0, 19]"] ;
116 -> 117 ;
118 [label="gini = 0.0\nsamples = 1\nvalue = [2, 0]"] ;
116 -> 118 ;
119 [label="X[0] <= 0.47\ngini = 0.03\nsamples = 5069\nvalue = [122, 7871]"] ;
115 -> 119 ;
120 [label="X[4] <= 114143707136.0\ngini = 0.432\nsamples = 14\nvalue = [13, 6]"] ;
119 -> 120 ;
121 [label="gini = 0.0\nsamples = 2\nvalue = [0, 2]"] ;
120 -> 121 ;
122 [label="gini = 0.36\nsamples = 12\nvalue = [13, 4]"] ;
120 -> 122 ;
123 [label="X[0] <= 3.19\ngini = 0.027\nsamples = 5055\nvalue = [109, 7865]"] ;
119 -> 123 ;
124 [label="gini = 0.022\nsamples = 4994\nvalue = [89, 7791]"] ;
123 -> 124 ;
125 [label="gini = 0.335\nsamples = 61\nvalue = [20, 74]"] ;
123 -> 125 ;
126 [label="X[4] <= 27138830336.0\ngini = 0.255\nsamples = 104541\nvalue = [140532, 24769]"] ;
100 -> 126 ;
127 [label="X[2] <= 65625.5\ngini = 0.22\nsamples = 2834\nvalue = [3868, 556]"] ;
126 -> 127 ;
128 [label="X[0] <= 1676.443\ngini = 0.232\nsamples = 2637\nvalue = [3559, 549]"] ;
127 -> 128 ;
129 [label="X[0] <= 1103.262\ngini = 0.02\nsamples = 1834\nvalue = [2848, 29]"] ;
128 -> 129 ;
130 [label="gini = 0.006\nsamples = 1593\nvalue = [2501, 8]"] ;
129 -> 130 ;
131 [label="gini = 0.108\nsamples = 241\nvalue = [347, 21]"] ;
129 -> 131 ;
132 [label="X[2] <= 57196.5\ngini = 0.488\nsamples = 803\nvalue = [711, 520]"] ;
128 -> 132 ;
133 [label="gini = 0.477\nsamples = 677\nvalue = [637, 413]"] ;
132 -> 133 ;
134 [label="gini = 0.483\nsamples = 126\nvalue = [74, 107]"] ;
132 -> 134 ;
135 [label="X[4] <= 242078600.0\ngini = 0.043\nsamples = 197\nvalue = [309, 7]"] ;
127 -> 135 ;
136 [label="gini = 0.0\nsamples = 1\nvalue = [0, 1]"] ;
135 -> 136 ;
137 [label="X[3] <= 66606.0\ngini = 0.037\nsamples = 196\nvalue = [309, 6]"] ;
135 -> 137 ;
138 [label="gini = 0.073\nsamples = 96\nvalue = [153, 6]"] ;
137 -> 138 ;
139 [label="gini = 0.0\nsamples = 100\nvalue = [156, 0]"] ;
137 -> 139 ;
140 [label="X[2] <= 65620.5\ngini = 0.256\nsamples = 101707\nvalue = [136664, 24213]"] ;
126 -> 140 ;
141 [label="X[0] <= 1767.773\ngini = 0.262\nsamples = 95207\nvalue = [127323, 23298]"] ;
140 -> 141 ;
142 [label="X[0] <= 1355.563\ngini = 0.028\nsamples = 65791\nvalue = [102745, 1453]"] ;
141 -> 142 ;
143 [label="gini = 0.018\nsamples = 62295\nvalue = [97852, 898]"] ;
142 -> 143 ;
144 [label="gini = 0.183\nsamples = 3496\nvalue = [4893, 555]"] ;
142 -> 144 ;
145 [label="X[2] <= 36621.0\ngini = 0.498\nsamples = 29416\nvalue = [24578, 21845]"] ;
141 -> 145 ;
146 [label="gini = 0.492\nsamples = 15245\nvalue = [13527, 10499]"] ;
145 -> 146 ;
147 [label="gini = 0.5\nsamples = 14171\nvalue = [11051, 11346]"] ;
145 -> 147 ;
148 [label="X[2] <= 67211.0\ngini = 0.163\nsamples = 6500\nvalue = [9341, 915]"] ;
140 -> 148 ;
149 [label="X[5] <= 557.5\ngini = 0.046\nsamples = 1616\nvalue = [2505, 60]"] ;
148 -> 149 ;
150 [label="gini = 0.098\nsamples = 533\nvalue = [810, 44]"] ;
149 -> 150 ;
151 [label="gini = 0.019\nsamples = 1083\nvalue = [1695, 16]"] ;
149 -> 151 ;
152 [label="X[5] <= 558.5\ngini = 0.198\nsamples = 4884\nvalue = [6836, 855]"] ;
148 -> 152 ;
153 [label="gini = 0.28\nsamples = 1762\nvalue = [2352, 475]"] ;
152 -> 153 ;
154 [label="gini = 0.144\nsamples = 3122\nvalue = [4484, 380]"] ;
152 -> 154 ;
155 [label="X[0] <= 3.145\ngini = 0.019\nsamples = 3187105\nvalue = [4995117, 47152]"] ;
99 -> 155 ;
156 [label="X[3] <= 4322.5\ngini = 0.363\nsamples = 19112\nvalue = [7248, 23130]"] ;
155 -> 156 ;
157 [label="X[0] <= 0.965\ngini = 0.41\nsamples = 601\nvalue = [278, 688]"] ;
156 -> 157 ;
158 [label="X[3] <= 2386.0\ngini = 0.102\nsamples = 55\nvalue = [88, 5]"] ;
157 -> 158 ;
159 [label="X[4] <= 918927474688.0\ngini = 0.206\nsamples = 26\nvalue = [38, 5]"] ;
158 -> 159 ;
160 [label="gini = 0.145\nsamples = 22\nvalue = [35, 3]"] ;
159 -> 160 ;
161 [label="gini = 0.48\nsamples = 4\nvalue = [3, 2]"] ;
159 -> 161 ;
162 [label="gini = 0.0\nsamples = 29\nvalue = [50, 0]"] ;
158 -> 162 ;
163 [label="X[0] <= 2.93\ngini = 0.341\nsamples = 546\nvalue = [190, 683]"] ;
157 -> 163 ;
164 [label="X[2] <= 8649.0\ngini = 0.321\nsamples = 529\nvalue = [170, 676]"] ;
163 -> 164 ;
165 [label="gini = 0.143\nsamples = 91\nvalue = [11, 131]"] ;
164 -> 165 ;
166 [label="gini = 0.35\nsamples = 438\nvalue = [159, 545]"] ;
164 -> 166 ;
167 [label="X[3] <= 977.5\ngini = 0.384\nsamples = 17\nvalue = [20, 7]"] ;
163 -> 167 ;
168 [label="gini = 0.0\nsamples = 3\nvalue = [7, 0]"] ;
167 -> 168 ;
169 [label="gini = 0.455\nsamples = 14\nvalue = [13, 7]"] ;
167 -> 169 ;
170 [label="X[0] <= 1.015\ngini = 0.362\nsamples = 18511\nvalue = [6970, 22442]"] ;
156 -> 170 ;
171 [label="X[4] <= 10027146752.0\ngini = 0.315\nsamples = 1777\nvalue = [2234, 545]"] ;
170 -> 171 ;
172 [label="X[6] <= 12117011.0\ngini = 0.045\nsamples = 31\nvalue = [42, 1]"] ;
171 -> 172 ;
173 [label="gini = 0.153\nsamples = 10\nvalue = [11, 1]"] ;
172 -> 173 ;
174 [label="gini = 0.0\nsamples = 21\nvalue = [31, 0]"] ;
172 -> 174 ;
175 [label="X[4] <= 20381984768.0\ngini = 0.319\nsamples = 1746\nvalue = [2192, 544]"] ;
171 -> 175 ;
176 [label="gini = 0.499\nsamples = 15\nvalue = [12, 11]"] ;
175 -> 176 ;
177 [label="gini = 0.316\nsamples = 1731\nvalue = [2180, 533]"] ;
175 -> 177 ;
178 [label="X[5] <= 1179.5\ngini = 0.292\nsamples = 16734\nvalue = [4736, 21897]"] ;
170 -> 178 ;
179 [label="X[3] <= 79810348.0\ngini = 0.157\nsamples = 14010\nvalue = [1924, 20423]"] ;
178 -> 179 ;
180 [label="gini = 0.156\nsamples = 13632\nvalue = [1847, 19888]"] ;
179 -> 180 ;
181 [label="gini = 0.22\nsamples = 378\nvalue = [77, 535]"] ;
179 -> 181 ;
182 [label="X[5] <= 1421.5\ngini = 0.451\nsamples = 2724\nvalue = [2812, 1474]"] ;
178 -> 182 ;
183 [label="gini = 0.496\nsamples = 1731\nvalue = [1482, 1237]"] ;
182 -> 183 ;
184 [label="gini = 0.257\nsamples = 993\nvalue = [1330, 237]"] ;
182 -> 184 ;
185 [label="X[0] <= 1853.587\ngini = 0.01\nsamples = 3167993\nvalue = [4987869, 24022]"] ;
155 -> 185 ;
186 [label="X[5] <= 879.5\ngini = 0.001\nsamples = 2546128\nvalue = [4026265, 1925]"] ;
185 -> 186 ;
187 [label="X[5] <= 779.5\ngini = 0.006\nsamples = 233743\nvalue = [368395, 1127]"] ;
186 -> 187 ;
188 [label="X[0] <= 3.66\ngini = 0.009\nsamples = 88569\nvalue = [139257, 634]"] ;
187 -> 188 ;
189 [label="gini = 0.461\nsamples = 80\nvalue = [41, 73]"] ;
188 -> 189 ;
190 [label="gini = 0.008\nsamples = 88489\nvalue = [139216, 561]"] ;
188 -> 190 ;
191 [label="X[4] <= 883012009984.0\ngini = 0.004\nsamples = 145174\nvalue = [229138, 493]"] ;
187 -> 191 ;
192 [label="gini = 0.004\nsamples = 128237\nvalue = [202466, 405]"] ;
191 -> 192 ;
193 [label="gini = 0.007\nsamples = 16937\nvalue = [26672, 88]"] ;
191 -> 193 ;
194 [label="X[5] <= 1100.5\ngini = 0.0\nsamples = 2312385\nvalue = [3657870, 798]"] ;
186 -> 194 ;
195 [label="X[5] <= 942.5\ngini = 0.001\nsamples = 496878\nvalue = [785773, 581]"] ;
194 -> 195 ;
196 [label="gini = 0.002\nsamples = 152149\nvalue = [240278, 287]"] ;
195 -> 196 ;
197 [label="gini = 0.001\nsamples = 344729\nvalue = [545495, 294]"] ;
195 -> 197 ;
198 [label="X[4] <= 413942608.0\ngini = 0.0\nsamples = 1815507\nvalue = [2872097, 217]"] ;
194 -> 198 ;
199 [label="gini = 0.003\nsamples = 771\nvalue = [1248, 2]"] ;
198 -> 199 ;
200 [label="gini = 0.0\nsamples = 1814736\nvalue = [2870849, 215]"] ;
198 -> 200 ;
201 [label="X[2] <= 73.5\ngini = 0.044\nsamples = 621865\nvalue = [961604, 22097]"] ;
185 -> 201 ;
202 [label="X[2] <= 63.5\ngini = 0.315\nsamples = 272\nvalue = [344, 84]"] ;
201 -> 202 ;
203 [label="gini = 0.0\nsamples = 180\nvalue = [280, 0]"] ;
202 -> 203 ;
204 [label="X[4] <= 353501446144.0\ngini = 0.491\nsamples = 92\nvalue = [64, 84]"] ;
202 -> 204 ;
205 [label="gini = 0.482\nsamples = 28\nvalue = [22, 15]"] ;
204 -> 205 ;
206 [label="gini = 0.47\nsamples = 64\nvalue = [42, 69]"] ;
204 -> 206 ;
207 [label="X[0] <= 5846.091\ngini = 0.044\nsamples = 621593\nvalue = [961260, 22013]"] ;
201 -> 207 ;
208 [label="X[0] <= 2020.865\ngini = 0.054\nsamples = 343756\nvalue = [528792, 14967]"] ;
207 -> 208 ;
209 [label="gini = 0.031\nsamples = 13568\nvalue = [21129, 341]"] ;
208 -> 209 ;
210 [label="gini = 0.054\nsamples = 330188\nvalue = [507663, 14626]"] ;
208 -> 210 ;
211 [label="X[0] <= 7822.232\ngini = 0.032\nsamples = 277837\nvalue = [432468, 7046]"] ;
207 -> 211 ;
212 [label="gini = 0.036\nsamples = 164580\nvalue = [255415, 4741]"] ;
211 -> 212 ;
213 [label="gini = 0.025\nsamples = 113257\nvalue = [177053, 2305]"] ;
211 -> 213 ;
214 [label="X[2] <= 27457.5\ngini = 0.095\nsamples = 284606\nvalue = [428070, 22532]"] ;
0 -> 214 [labeldistance=2.5, labelangle=-45, headlabel="False"] ;
215 [label="X[2] <= 6214.0\ngini = 0.085\nsamples = 110417\nvalue = [166979, 7818]"] ;
214 -> 215 ;
216 [label="X[4] <= 999942062080.0\ngini = 0.109\nsamples = 24861\nvalue = [36935, 2268]"] ;
215 -> 216 ;
217 [label="X[2] <= 6195.5\ngini = 0.109\nsamples = 24860\nvalue = [36935, 2266]"] ;
216 -> 217 ;
218 [label="X[2] <= 3851.5\ngini = 0.106\nsamples = 24738\nvalue = [36817, 2191]"] ;
217 -> 218 ;
219 [label="X[0] <= 3.37\ngini = 0.087\nsamples = 14831\nvalue = [22310, 1060]"] ;
218 -> 219 ;
220 [label="X[0] <= 0.58\ngini = 0.148\nsamples = 486\nvalue = [60, 684]"] ;
219 -> 220 ;
221 [label="gini = 0.0\nsamples = 6\nvalue = [15, 0]"] ;
220 -> 221 ;
222 [label="gini = 0.116\nsamples = 480\nvalue = [45, 684]"] ;
220 -> 222 ;
223 [label="X[0] <= 1628.923\ngini = 0.033\nsamples = 14345\nvalue = [22250, 376]"] ;
219 -> 223 ;
224 [label="gini = 0.007\nsamples = 11217\nvalue = [17625, 60]"] ;
223 -> 224 ;
225 [label="gini = 0.12\nsamples = 3128\nvalue = [4625, 316]"] ;
223 -> 225 ;
226 [label="X[6] <= 1042010.5\ngini = 0.134\nsamples = 9907\nvalue = [14507, 1131]"] ;
218 -> 226 ;
227 [label="X[3] <= 87116196.0\ngini = 0.226\nsamples = 114\nvalue = [141, 21]"] ;
226 -> 227 ;
228 [label="gini = 0.0\nsamples = 19\nvalue = [25, 0]"] ;
227 -> 228 ;
229 [label="gini = 0.26\nsamples = 95\nvalue = [116, 21]"] ;
227 -> 229 ;
230 [label="X[0] <= 3.545\ngini = 0.133\nsamples = 9793\nvalue = [14366, 1110]"] ;
226 -> 230 ;
231 [label="gini = 0.118\nsamples = 305\nvalue = [31, 460]"] ;
230 -> 231 ;
232 [label="gini = 0.083\nsamples = 9488\nvalue = [14335, 650]"] ;
230 -> 232 ;
233 [label="X[0] <= 13.505\ngini = 0.475\nsamples = 122\nvalue = [118, 75]"] ;
217 -> 233 ;
234 [label="gini = 0.0\nsamples = 23\nvalue = [0, 37]"] ;
233 -> 234 ;
235 [label="X[4] <= 180948393984.0\ngini = 0.369\nsamples = 99\nvalue = [118, 38]"] ;
233 -> 235 ;
236 [label="X[5] <= 766.0\ngini = 0.5\nsamples = 16\nvalue = [14, 14]"] ;
235 -> 236 ;
237 [label="gini = 0.0\nsamples = 7\nvalue = [0, 14]"] ;
236 -> 237 ;
238 [label="gini = 0.0\nsamples = 9\nvalue = [14, 0]"] ;
236 -> 238 ;
239 [label="X[0] <= 5008.988\ngini = 0.305\nsamples = 83\nvalue = [104, 24]"] ;
235 -> 239 ;
240 [label="gini = 0.019\nsamples = 63\nvalue = [102, 1]"] ;
239 -> 240 ;
241 [label="gini = 0.147\nsamples = 20\nvalue = [2, 23]"] ;
239 -> 241 ;
242 [label="gini = 0.0\nsamples = 1\nvalue = [0, 2]"] ;
216 -> 242 ;
243 [label="X[5] <= 500.5\ngini = 0.079\nsamples = 85556\nvalue = [130044, 5550]"] ;
215 -> 243 ;
244 [label="X[2] <= 6539.0\ngini = 0.299\nsamples = 2796\nvalue = [798, 3572]"] ;
243 -> 244 ;
245 [label="gini = 0.0\nsamples = 8\nvalue = [14, 0]"] ;
244 -> 245 ;
246 [label="X[2] <= 27341.0\ngini = 0.295\nsamples = 2788\nvalue = [784, 3572]"] ;
244 -> 246 ;
247 [label="X[5] <= 301.5\ngini = 0.293\nsamples = 2784\nvalue = [774, 3572]"] ;
246 -> 247 ;
248 [label="X[4] <= 29873696768.0\ngini = 0.087\nsamples = 1471\nvalue = [105, 2189]"] ;
247 -> 248 ;
249 [label="gini = 0.202\nsamples = 47\nvalue = [9, 70]"] ;
248 -> 249 ;
250 [label="gini = 0.083\nsamples = 1424\nvalue = [96, 2119]"] ;
248 -> 250 ;
251 [label="X[2] <= 21163.0\ngini = 0.439\nsamples = 1313\nvalue = [669, 1383]"] ;
247 -> 251 ;
252 [label="gini = 0.422\nsamples = 938\nvalue = [452, 1040]"] ;
251 -> 252 ;
253 [label="gini = 0.475\nsamples = 375\nvalue = [217, 343]"] ;
251 -> 253 ;
254 [label="gini = 0.0\nsamples = 4\nvalue = [10, 0]"] ;
246 -> 254 ;
255 [label="X[0] <= 3.195\ngini = 0.03\nsamples = 82760\nvalue = [129246, 1978]"] ;
243 -> 255 ;
256 [label="X[3] <= 99866496.0\ngini = 0.282\nsamples = 693\nvalue = [188, 918]"] ;
255 -> 256 ;
257 [label="X[5] <= 1279.5\ngini = 0.276\nsamples = 687\nvalue = [181, 915]"] ;
256 -> 257 ;
258 [label="X[2] <= 26297.5\ngini = 0.183\nsamples = 631\nvalue = [103, 907]"] ;
257 -> 258 ;
259 [label="gini = 0.168\nsamples = 616\nvalue = [91, 890]"] ;
258 -> 259 ;
260 [label="gini = 0.485\nsamples = 15\nvalue = [12, 17]"] ;
258 -> 260 ;
261 [label="X[6] <= 18042011.0\ngini = 0.169\nsamples = 56\nvalue = [78, 8]"] ;
257 -> 261 ;
262 [label="gini = 0.08\nsamples = 28\nvalue = [46, 2]"] ;
261 -> 262 ;
263 [label="gini = 0.266\nsamples = 28\nvalue = [32, 6]"] ;
261 -> 263 ;
264 [label="X[3] <= 99973216.0\ngini = 0.42\nsamples = 6\nvalue = [7, 3]"] ;
256 -> 264 ;
265 [label="gini = 0.0\nsamples = 4\nvalue = [7, 0]"] ;
264 -> 265 ;
266 [label="gini = 0.0\nsamples = 2\nvalue = [0, 3]"] ;
264 -> 266 ;
267 [label="X[0] <= 1800.808\ngini = 0.016\nsamples = 82067\nvalue = [129058, 1060]"] ;
255 -> 267 ;
268 [label="X[2] <= 6747.5\ngini = 0.001\nsamples = 65833\nvalue = [104363, 73]"] ;
267 -> 268 ;
269 [label="X[3] <= 87675856.0\ngini = 0.01\nsamples = 1501\nvalue = [2392, 12]"] ;
268 -> 269 ;
270 [label="gini = 0.026\nsamples = 285\nvalue = [456, 6]"] ;
269 -> 270 ;
271 [label="gini = 0.006\nsamples = 1216\nvalue = [1936, 6]"] ;
269 -> 271 ;
272 [label="X[2] <= 8426.5\ngini = 0.001\nsamples = 64332\nvalue = [101971, 61]"] ;
268 -> 272 ;
273 [label="gini = 0.004\nsamples = 5585\nvalue = [8873, 16]"] ;
272 -> 273 ;
274 [label="gini = 0.001\nsamples = 58747\nvalue = [93098, 45]"] ;
272 -> 274 ;
275 [label="X[5] <= 679.5\ngini = 0.074\nsamples = 16234\nvalue = [24695, 987]"] ;
267 -> 275 ;
276 [label="X[5] <= 579.5\ngini = 0.483\nsamples = 786\nvalue = [739, 511]"] ;
275 -> 276 ;
277 [label="gini = 0.495\nsamples = 323\nvalue = [233, 282]"] ;
276 -> 277 ;
278 [label="gini = 0.429\nsamples = 463\nvalue = [506, 229]"] ;
276 -> 278 ;
279 [label="X[5] <= 908.5\ngini = 0.038\nsamples = 15448\nvalue = [23956, 476]"] ;
275 -> 279 ;
280 [label="gini = 0.194\nsamples = 1776\nvalue = [2541, 311]"] ;
279 -> 280 ;
281 [label="gini = 0.015\nsamples = 13672\nvalue = [21415, 165]"] ;
279 -> 281 ;
282 [label="X[5] <= 458.5\ngini = 0.101\nsamples = 174189\nvalue = [261091, 14714]"] ;
214 -> 282 ;
283 [label="X[0] <= 4.305\ngini = 0.249\nsamples = 6969\nvalue = [1613, 9431]"] ;
282 -> 283 ;
284 [label="X[2] <= 60366.0\ngini = 0.001\nsamples = 2927\nvalue = [2, 4664]"] ;
283 -> 284 ;
285 [label="gini = 0.0\nsamples = 2211\nvalue = [0, 3544]"] ;
284 -> 285 ;
286 [label="X[5] <= 402.5\ngini = 0.004\nsamples = 716\nvalue = [2, 1120]"] ;
284 -> 286 ;
287 [label="gini = 0.0\nsamples = 593\nvalue = [0, 923]"] ;
286 -> 287 ;
288 [label="X[5] <= 403.5\ngini = 0.02\nsamples = 123\nvalue = [2, 197]"] ;
286 -> 288 ;
289 [label="gini = 0.0\nsamples = 1\nvalue = [1, 0]"] ;
288 -> 289 ;
290 [label="X[6] <= 28062012.0\ngini = 0.01\nsamples = 122\nvalue = [1, 197]"] ;
288 -> 290 ;
291 [label="gini = 0.0\nsamples = 107\nvalue = [0, 172]"] ;
290 -> 291 ;
292 [label="gini = 0.074\nsamples = 15\nvalue = [1, 25]"] ;
290 -> 292 ;
293 [label="X[0] <= 1587.927\ngini = 0.378\nsamples = 4042\nvalue = [1611, 4767]"] ;
283 -> 293 ;
294 [label="X[0] <= 988.974\ngini = 0.25\nsamples = 917\nvalue = [1234, 212]"] ;
293 -> 294 ;
295 [label="X[0] <= 659.314\ngini = 0.107\nsamples = 677\nvalue = [985, 59]"] ;
294 -> 295 ;
296 [label="X[2] <= 37372.5\ngini = 0.029\nsamples = 436\nvalue = [665, 10]"] ;
295 -> 296 ;
297 [label="gini = 0.0\nsamples = 104\nvalue = [156, 0]"] ;
296 -> 297 ;
298 [label="gini = 0.038\nsamples = 332\nvalue = [509, 10]"] ;
296 -> 298 ;
299 [label="X[5] <= 214.0\ngini = 0.23\nsamples = 241\nvalue = [320, 49]"] ;
295 -> 299 ;
300 [label="gini = 0.415\nsamples = 23\nvalue = [10, 24]"] ;
299 -> 300 ;
301 [label="gini = 0.138\nsamples = 218\nvalue = [310, 25]"] ;
299 -> 301 ;
302 [label="X[2] <= 70579.5\ngini = 0.471\nsamples = 240\nvalue = [249, 153]"] ;
294 -> 302 ;
303 [label="X[5] <= 279.5\ngini = 0.458\nsamples = 232\nvalue = [249, 137]"] ;
302 -> 303 ;
304 [label="gini = 0.265\nsamples = 65\nvalue = [16, 86]"] ;
303 -> 304 ;
305 [label="gini = 0.295\nsamples = 167\nvalue = [233, 51]"] ;
303 -> 305 ;
306 [label="gini = 0.0\nsamples = 8\nvalue = [0, 16]"] ;
302 -> 306 ;
307 [label="X[5] <= 327.5\ngini = 0.141\nsamples = 3125\nvalue = [377, 4555]"] ;
293 -> 307 ;
308 [label="X[4] <= 999866793984.0\ngini = 0.039\nsamples = 2097\nvalue = [66, 3217]"] ;
307 -> 308 ;
309 [label="X[4] <= 323640197120.0\ngini = 0.038\nsamples = 2096\nvalue = [63, 3217]"] ;
308 -> 309 ;
310 [label="gini = 0.014\nsamples = 655\nvalue = [7, 979]"] ;
309 -> 310 ;
311 [label="gini = 0.048\nsamples = 1441\nvalue = [56, 2238]"] ;
309 -> 311 ;
312 [label="gini = 0.0\nsamples = 1\nvalue = [3, 0]"] ;
308 -> 312 ;
313 [label="X[6] <= 29107011.0\ngini = 0.306\nsamples = 1028\nvalue = [311, 1338]"] ;
307 -> 313 ;
314 [label="X[2] <= 68179.0\ngini = 0.288\nsamples = 966\nvalue = [269, 1275]"] ;
313 -> 314 ;
315 [label="gini = 0.274\nsamples = 933\nvalue = [243, 1240]"] ;
314 -> 315 ;
316 [label="gini = 0.489\nsamples = 33\nvalue = [26, 35]"] ;
314 -> 316 ;
317 [label="X[6] <= 31032011.0\ngini = 0.48\nsamples = 62\nvalue = [42, 63]"] ;
313 -> 317 ;
318 [label="gini = 0.493\nsamples = 43\nvalue = [42, 33]"] ;
317 -> 318 ;
319 [label="gini = 0.0\nsamples = 19\nvalue = [0, 30]"] ;
317 -> 319 ;
320 [label="X[3] <= 84670688.0\ngini = 0.039\nsamples = 167220\nvalue = [259478, 5283]"] ;
282 -> 320 ;
321 [label="gini = 0.0\nsamples = 1\nvalue = [0, 3]"] ;
320 -> 321 ;
322 [label="X[0] <= 3.085\ngini = 0.039\nsamples = 167219\nvalue = [259478, 5280]"] ;
320 -> 322 ;
323 [label="X[2] <= 70459.5\ngini = 0.229\nsamples = 1884\nvalue = [394, 2592]"] ;
322 -> 323 ;
324 [label="X[2] <= 50134.0\ngini = 0.227\nsamples = 1881\nvalue = [389, 2592]"] ;
323 -> 324 ;
325 [label="X[5] <= 1042.5\ngini = 0.19\nsamples = 1005\nvalue = [170, 1426]"] ;
324 -> 325 ;
326 [label="gini = 0.071\nsamples = 870\nvalue = [51, 1342]"] ;
325 -> 326 ;
327 [label="gini = 0.485\nsamples = 135\nvalue = [119, 84]"] ;
325 -> 327 ;
328 [label="X[2] <= 54767.0\ngini = 0.266\nsamples = 876\nvalue = [219, 1166]"] ;
324 -> 328 ;
329 [label="gini = 0.453\nsamples = 117\nvalue = [60, 113]"] ;
328 -> 329 ;
330 [label="gini = 0.228\nsamples = 759\nvalue = [159, 1053]"] ;
328 -> 330 ;
331 [label="gini = 0.0\nsamples = 3\nvalue = [5, 0]"] ;
323 -> 331 ;
332 [label="X[0] <= 1785.453\ngini = 0.02\nsamples = 165335\nvalue = [259084, 2688]"] ;
322 -> 332 ;
333 [label="X[5] <= 638.5\ngini = 0.002\nsamples = 132063\nvalue = [208894, 191]"] ;
332 -> 333 ;
334 [label="X[5] <= 503.5\ngini = 0.042\nsamples = 2809\nvalue = [4340, 95]"] ;
333 -> 334 ;
335 [label="gini = 0.124\nsamples = 116\nvalue = [169, 12]"] ;
334 -> 335 ;
336 [label="gini = 0.038\nsamples = 2693\nvalue = [4171, 83]"] ;
334 -> 336 ;
337 [label="X[3] <= 86689152.0\ngini = 0.001\nsamples = 129254\nvalue = [204554, 96]"] ;
333 -> 337 ;
338 [label="gini = 0.0\nsamples = 16923\nvalue = [26770, 6]"] ;
337 -> 338 ;
339 [label="gini = 0.001\nsamples = 112331\nvalue = [177784, 90]"] ;
337 -> 339 ;
340 [label="X[2] <= 65620.5\ngini = 0.09\nsamples = 33272\nvalue = [50190, 2497]"] ;
332 -> 340 ;
341 [label="X[5] <= 702.5\ngini = 0.096\nsamples = 29520\nvalue = [44352, 2375]"] ;
340 -> 341 ;
342 [label="gini = 0.5\nsamples = 1577\nvalue = [1266, 1254]"] ;
341 -> 342 ;
343 [label="gini = 0.049\nsamples = 27943\nvalue = [43086, 1121]"] ;
341 -> 343 ;
344 [label="X[4] <= 5160334592.0\ngini = 0.04\nsamples = 3752\nvalue = [5838, 122]"] ;
340 -> 344 ;
345 [label="gini = 0.219\nsamples = 18\nvalue = [28, 4]"] ;
344 -> 345 ;
346 [label="gini = 0.039\nsamples = 3734\nvalue = [5810, 118]"] ;
344 -> 346 ;
}