digraph Tree {
node [shape=box] ;
0 [label="X[0] <= 3.415\ngini = 0.093\nsamples = 3719264\nvalue = [5596129, 286943]"] ;
1 [label="X[0] <= 0.735\ngini = 0.11\nsamples = 94611\nvalue = [8726, 140940]"] ;
0 -> 1 [labeldistance=2.5, labelangle=45, headlabel="True"] ;
2 [label="X[2] <= 69482.5\ngini = 0.426\nsamples = 1728\nvalue = [1891, 839]"] ;
1 -> 2 ;
3 [label="X[5] <= 741.5\ngini = 0.429\nsamples = 1697\nvalue = [1843, 835]"] ;
2 -> 3 ;
4 [label="X[6] <= 2092010.5\ngini = 0.208\nsamples = 513\nvalue = [95, 711]"] ;
3 -> 4 ;
5 [label="X[0] <= 0.46\ngini = 0.384\nsamples = 19\nvalue = [7, 20]"] ;
4 -> 5 ;
6 [label="X[4] <= 287282008064.0\ngini = 0.469\nsamples = 4\nvalue = [5, 3]"] ;
5 -> 6 ;
7 [label="gini = 0.0\nsamples = 2\nvalue = [0, 3]"] ;
6 -> 7 ;
8 [label="gini = 0.0\nsamples = 2\nvalue = [5, 0]"] ;
6 -> 8 ;
9 [label="X[5] <= 633.0\ngini = 0.188\nsamples = 15\nvalue = [2, 17]"] ;
5 -> 9 ;
10 [label="gini = 0.0\nsamples = 12\nvalue = [0, 16]"] ;
9 -> 10 ;
11 [label="X[0] <= 0.595\ngini = 0.444\nsamples = 3\nvalue = [2, 1]"] ;
9 -> 11 ;
12 [label="gini = 0.0\nsamples = 1\nvalue = [0, 1]"] ;
11 -> 12 ;
13 [label="gini = 0.0\nsamples = 2\nvalue = [2, 0]"] ;
11 -> 13 ;
14 [label="X[5] <= 626.5\ngini = 0.2\nsamples = 494\nvalue = [88, 691]"] ;
4 -> 14 ;
15 [label="X[4] <= 862846484480.0\ngini = 0.076\nsamples = 403\nvalue = [25, 605]"] ;
14 -> 15 ;
16 [label="X[3] <= 59998.5\ngini = 0.067\nsamples = 356\nvalue = [19, 532]"] ;
15 -> 16 ;
17 [label="gini = 0.017\nsamples = 145\nvalue = [2, 231]"] ;
16 -> 17 ;
18 [label="gini = 0.101\nsamples = 211\nvalue = [17, 301]"] ;
16 -> 18 ;
19 [label="X[5] <= 482.5\ngini = 0.14\nsamples = 47\nvalue = [6, 73]"] ;
15 -> 19 ;
20 [label="gini = 0.0\nsamples = 41\nvalue = [0, 71]"] ;
19 -> 20 ;
21 [label="gini = 0.375\nsamples = 6\nvalue = [6, 2]"] ;
19 -> 21 ;
22 [label="X[2] <= 64769.0\ngini = 0.488\nsamples = 91\nvalue = [63, 86]"] ;
14 -> 22 ;
23 [label="X[3] <= 3726.5\ngini = 0.47\nsamples = 82\nvalue = [51, 84]"] ;
22 -> 23 ;
24 [label="gini = 0.0\nsamples = 2\nvalue = [5, 0]"] ;
23 -> 24 ;
25 [label="gini = 0.457\nsamples = 80\nvalue = [46, 84]"] ;
23 -> 25 ;
26 [label="X[4] <= 332265193472.0\ngini = 0.245\nsamples = 9\nvalue = [12, 2]"] ;
22 -> 26 ;
27 [label="gini = 0.5\nsamples = 2\nvalue = [1, 1]"] ;
26 -> 27 ;
28 [label="gini = 0.153\nsamples = 7\nvalue = [11, 1]"] ;
26 -> 28 ;
29 [label="X[5] <= 948.5\ngini = 0.124\nsamples = 1184\nvalue = [1748, 124]"] ;
3 -> 29 ;
30 [label="X[0] <= 0.405\ngini = 0.387\nsamples = 215\nvalue = [259, 92]"] ;
29 -> 30 ;
31 [label="X[3] <= 48059.0\ngini = 0.095\nsamples = 91\nvalue = [133, 7]"] ;
30 -> 31 ;
32 [label="X[0] <= 0.21\ngini = 0.236\nsamples = 27\nvalue = [38, 6]"] ;
31 -> 32 ;
33 [label="gini = 0.0\nsamples = 14\nvalue = [25, 0]"] ;
32 -> 33 ;
34 [label="gini = 0.432\nsamples = 13\nvalue = [13, 6]"] ;
32 -> 34 ;
35 [label="X[6] <= 3517010.0\ngini = 0.021\nsamples = 64\nvalue = [95, 1]"] ;
31 -> 35 ;
36 [label="gini = 0.32\nsamples = 5\nvalue = [4, 1]"] ;
35 -> 36 ;
37 [label="gini = 0.0\nsamples = 59\nvalue = [91, 0]"] ;
35 -> 37 ;
38 [label="X[3] <= 64979.5\ngini = 0.481\nsamples = 124\nvalue = [126, 85]"] ;
30 -> 38 ;
39 [label="X[6] <= 29077011.0\ngini = 0.372\nsamples = 55\nvalue = [73, 24]"] ;
38 -> 39 ;
40 [label="gini = 0.347\nsamples = 54\nvalue = [73, 21]"] ;
39 -> 40 ;
41 [label="gini = 0.0\nsamples = 1\nvalue = [0, 3]"] ;
39 -> 41 ;
42 [label="X[0] <= 0.715\ngini = 0.498\nsamples = 69\nvalue = [53, 61]"] ;
38 -> 42 ;
43 [label="gini = 0.5\nsamples = 64\nvalue = [52, 55]"] ;
42 -> 43 ;
44 [label="gini = 0.245\nsamples = 5\nvalue = [1, 6]"] ;
42 -> 44 ;
45 [label="X[4] <= 976809132032.0\ngini = 0.041\nsamples = 969\nvalue = [1489, 32]"] ;
29 -> 45 ;
46 [label="X[5] <= 1053.5\ngini = 0.032\nsamples = 943\nvalue = [1461, 24]"] ;
45 -> 46 ;
47 [label="X[4] <= 72552087552.0\ngini = 0.1\nsamples = 148\nvalue = [233, 13]"] ;
46 -> 47 ;
48 [label="gini = 0.298\nsamples = 18\nvalue = [27, 6]"] ;
47 -> 48 ;
49 [label="gini = 0.064\nsamples = 130\nvalue = [206, 7]"] ;
47 -> 49 ;
50 [label="X[2] <= 62264.5\ngini = 0.018\nsamples = 795\nvalue = [1228, 11]"] ;
46 -> 50 ;
51 [label="gini = 0.014\nsamples = 735\nvalue = [1131, 8]"] ;
50 -> 51 ;
52 [label="gini = 0.058\nsamples = 60\nvalue = [97, 3]"] ;
50 -> 52 ;
53 [label="X[5] <= 1173.5\ngini = 0.346\nsamples = 26\nvalue = [28, 8]"] ;
45 -> 53 ;
54 [label="X[6] <= 7122010.0\ngini = 0.346\nsamples = 6\nvalue = [2, 7]"] ;
53 -> 54 ;
55 [label="gini = 0.0\nsamples = 1\nvalue = [1, 0]"] ;
54 -> 55 ;
56 [label="gini = 0.219\nsamples = 5\nvalue = [1, 7]"] ;
54 -> 56 ;
57 [label="X[0] <= 0.685\ngini = 0.071\nsamples = 20\nvalue = [26, 1]"] ;
53 -> 57 ;
58 [label="gini = 0.0\nsamples = 19\nvalue = [26, 0]"] ;
57 -> 58 ;
59 [label="gini = 0.0\nsamples = 1\nvalue = [0, 1]"] ;
57 -> 59 ;
60 [label="X[4] <= 318204772352.0\ngini = 0.142\nsamples = 31\nvalue = [48, 4]"] ;
2 -> 60 ;
61 [label="gini = 0.0\nsamples = 11\nvalue = [17, 0]"] ;
60 -> 61 ;
62 [label="X[4] <= 356882153472.0\ngini = 0.202\nsamples = 20\nvalue = [31, 4]"] ;
60 -> 62 ;
63 [label="gini = 0.0\nsamples = 1\nvalue = [0, 2]"] ;
62 -> 63 ;
64 [label="X[5] <= 240.5\ngini = 0.114\nsamples = 19\nvalue = [31, 2]"] ;
62 -> 64 ;
65 [label="gini = 0.0\nsamples = 1\nvalue = [0, 1]"] ;
64 -> 65 ;
66 [label="X[5] <= 872.5\ngini = 0.061\nsamples = 18\nvalue = [31, 1]"] ;
64 -> 66 ;
67 [label="X[2] <= 69903.5\ngini = 0.375\nsamples = 3\nvalue = [3, 1]"] ;
66 -> 67 ;
68 [label="gini = 0.0\nsamples = 2\nvalue = [3, 0]"] ;
67 -> 68 ;
69 [label="gini = 0.0\nsamples = 1\nvalue = [0, 1]"] ;
67 -> 69 ;
70 [label="gini = 0.0\nsamples = 15\nvalue = [28, 0]"] ;
66 -> 70 ;
71 [label="X[5] <= 1079.5\ngini = 0.089\nsamples = 92883\nvalue = [6835, 140101]"] ;
1 -> 71 ;
72 [label="X[0] <= 3.105\ngini = 0.03\nsamples = 87856\nvalue = [2101, 136985]"] ;
71 -> 72 ;
73 [label="X[0] <= 1.025\ngini = 0.027\nsamples = 86704\nvalue = [1873, 135381]"] ;
72 -> 73 ;
74 [label="X[5] <= 819.5\ngini = 0.151\nsamples = 1915\nvalue = [248, 2763]"] ;
73 -> 74 ;
75 [label="X[0] <= 0.765\ngini = 0.052\nsamples = 1668\nvalue = [71, 2568]"] ;
74 -> 75 ;
76 [label="X[5] <= 554.5\ngini = 0.123\nsamples = 96\nvalue = [10, 142]"] ;
75 -> 76 ;
77 [label="gini = 0.0\nsamples = 74\nvalue = [0, 111]"] ;
76 -> 77 ;
78 [label="gini = 0.369\nsamples = 22\nvalue = [10, 31]"] ;
76 -> 78 ;
79 [label="X[4] <= 12379265536.0\ngini = 0.048\nsamples = 1572\nvalue = [61, 2426]"] ;
75 -> 79 ;
80 [label="gini = 0.366\nsamples = 15\nvalue = [7, 22]"] ;
79 -> 80 ;
81 [label="gini = 0.043\nsamples = 1557\nvalue = [54, 2404]"] ;
79 -> 81 ;
82 [label="X[6] <= 2052010.5\ngini = 0.499\nsamples = 247\nvalue = [177, 195]"] ;
74 -> 82 ;
83 [label="X[5] <= 824.0\ngini = 0.32\nsamples = 19\nvalue = [7, 28]"] ;
82 -> 83 ;
84 [label="gini = 0.0\nsamples = 1\nvalue = [1, 0]"] ;
83 -> 84 ;
85 [label="gini = 0.291\nsamples = 18\nvalue = [6, 28]"] ;
83 -> 85 ;
86 [label="X[4] <= 952906416128.0\ngini = 0.5\nsamples = 228\nvalue = [170, 167]"] ;
82 -> 86 ;
87 [label="gini = 0.5\nsamples = 222\nvalue = [160, 166]"] ;
86 -> 87 ;
88 [label="gini = 0.165\nsamples = 6\nvalue = [10, 1]"] ;
86 -> 88 ;
89 [label="X[3] <= 2662.5\ngini = 0.024\nsamples = 84789\nvalue = [1625, 132618]"] ;
73 -> 89 ;
90 [label="X[6] <= 9077010.5\ngini = 0.005\nsamples = 1402\nvalue = [6, 2300]"] ;
89 -> 90 ;
91 [label="gini = 0.0\nsamples = 426\nvalue = [0, 676]"] ;
90 -> 91 ;
92 [label="X[5] <= 1026.5\ngini = 0.007\nsamples = 976\nvalue = [6, 1624]"] ;
90 -> 92 ;
93 [label="gini = 0.005\nsamples = 967\nvalue = [4, 1607]"] ;
92 -> 93 ;
94 [label="gini = 0.188\nsamples = 9\nvalue = [2, 17]"] ;
92 -> 94 ;
95 [label="X[3] <= 2672.0\ngini = 0.024\nsamples = 83387\nvalue = [1619, 130318]"] ;
89 -> 95 ;
96 [label="X[5] <= 881.0\ngini = 0.444\nsamples = 4\nvalue = [3, 6]"] ;
95 -> 96 ;
97 [label="gini = 0.0\nsamples = 3\nvalue = [0, 6]"] ;
96 -> 97 ;
98 [label="gini = 0.0\nsamples = 1\nvalue = [3, 0]"] ;
96 -> 98 ;
99 [label="X[0] <= 2.805\ngini = 0.024\nsamples = 83383\nvalue = [1616, 130312]"] ;
95 -> 99 ;
100 [label="gini = 0.022\nsamples = 79829\nvalue = [1387, 124897]"] ;
99 -> 100 ;
101 [label="gini = 0.078\nsamples = 3554\nvalue = [229, 5415]"] ;
99 -> 101 ;
102 [label="X[0] <= 3.285\ngini = 0.218\nsamples = 1152\nvalue = [228, 1604]"] ;
72 -> 102 ;
103 [label="X[3] <= 39365.5\ngini = 0.171\nsamples = 819\nvalue = [124, 1191]"] ;
102 -> 103 ;
104 [label="X[5] <= 740.5\ngini = 0.106\nsamples = 218\nvalue = [20, 335]"] ;
103 -> 104 ;
105 [label="X[4] <= 84904734720.0\ngini = 0.014\nsamples = 180\nvalue = [2, 287]"] ;
104 -> 105 ;
106 [label="gini = 0.124\nsamples = 22\nvalue = [2, 28]"] ;
105 -> 106 ;
107 [label="gini = 0.0\nsamples = 158\nvalue = [0, 259]"] ;
105 -> 107 ;
108 [label="X[5] <= 743.0\ngini = 0.397\nsamples = 38\nvalue = [18, 48]"] ;
104 -> 108 ;
109 [label="gini = 0.0\nsamples = 1\nvalue = [4, 0]"] ;
108 -> 109 ;
110 [label="gini = 0.35\nsamples = 37\nvalue = [14, 48]"] ;
108 -> 110 ;
111 [label="X[3] <= 42348.5\ngini = 0.193\nsamples = 601\nvalue = [104, 856]"] ;
103 -> 111 ;
112 [label="X[3] <= 41674.0\ngini = 0.5\nsamples = 11\nvalue = [9, 9]"] ;
111 -> 112 ;
113 [label="gini = 0.426\nsamples = 8\nvalue = [4, 9]"] ;
112 -> 113 ;
114 [label="gini = 0.0\nsamples = 3\nvalue = [5, 0]"] ;
112 -> 114 ;
115 [label="X[4] <= 874795597824.0\ngini = 0.181\nsamples = 590\nvalue = [95, 847]"] ;
111 -> 115 ;
116 [label="gini = 0.167\nsamples = 507\nvalue = [74, 731]"] ;
115 -> 116 ;
117 [label="gini = 0.26\nsamples = 83\nvalue = [21, 116]"] ;
115 -> 117 ;
118 [label="X[5] <= 779.0\ngini = 0.321\nsamples = 333\nvalue = [104, 413]"] ;
102 -> 118 ;
119 [label="X[3] <= 1433.0\ngini = 0.102\nsamples = 260\nvalue = [22, 385]"] ;
118 -> 119 ;
120 [label="gini = 0.0\nsamples = 1\nvalue = [1, 0]"] ;
119 -> 120 ;
121 [label="X[4] <= 933516738560.0\ngini = 0.098\nsamples = 259\nvalue = [21, 385]"] ;
119 -> 121 ;
122 [label="gini = 0.084\nsamples = 242\nvalue = [17, 369]"] ;
121 -> 122 ;
123 [label="gini = 0.32\nsamples = 17\nvalue = [4, 16]"] ;
121 -> 123 ;
124 [label="X[0] <= 3.335\ngini = 0.38\nsamples = 73\nvalue = [82, 28]"] ;
118 -> 124 ;
125 [label="X[5] <= 842.5\ngini = 0.444\nsamples = 37\nvalue = [36, 18]"] ;
124 -> 125 ;
126 [label="gini = 0.245\nsamples = 6\nvalue = [1, 6]"] ;
125 -> 126 ;
127 [label="gini = 0.38\nsamples = 31\nvalue = [35, 12]"] ;
125 -> 127 ;
128 [label="X[0] <= 3.355\ngini = 0.293\nsamples = 36\nvalue = [46, 10]"] ;
124 -> 128 ;
129 [label="gini = 0.0\nsamples = 6\nvalue = [7, 0]"] ;
128 -> 129 ;
130 [label="gini = 0.325\nsamples = 30\nvalue = [39, 10]"] ;
128 -> 130 ;
131 [label="X[0] <= 2.815\ngini = 0.479\nsamples = 5027\nvalue = [4734, 3116]"] ;
71 -> 131 ;
132 [label="X[5] <= 1257.5\ngini = 0.494\nsamples = 4239\nvalue = [3662, 2965]"] ;
131 -> 132 ;
133 [label="X[6] <= 9112010.5\ngini = 0.47\nsamples = 2263\nvalue = [1337, 2201]"] ;
132 -> 133 ;
134 [label="X[0] <= 1.17\ngini = 0.495\nsamples = 668\nvalue = [472, 582]"] ;
133 -> 134 ;
135 [label="X[2] <= 65079.0\ngini = 0.204\nsamples = 89\nvalue = [138, 18]"] ;
134 -> 135 ;
136 [label="gini = 0.17\nsamples = 84\nvalue = [135, 14]"] ;
135 -> 136 ;
137 [label="gini = 0.49\nsamples = 5\nvalue = [3, 4]"] ;
135 -> 137 ;
138 [label="X[5] <= 1179.5\ngini = 0.467\nsamples = 579\nvalue = [334, 564]"] ;
134 -> 138 ;
139 [label="gini = 0.414\nsamples = 336\nvalue = [146, 353]"] ;
138 -> 139 ;
140 [label="gini = 0.498\nsamples = 243\nvalue = [188, 211]"] ;
138 -> 140 ;
141 [label="X[0] <= 0.965\ngini = 0.454\nsamples = 1595\nvalue = [865, 1619]"] ;
133 -> 141 ;
142 [label="X[6] <= 22112011.0\ngini = 0.127\nsamples = 76\nvalue = [109, 8]"] ;
141 -> 142 ;
143 [label="gini = 0.18\nsamples = 44\nvalue = [63, 7]"] ;
142 -> 143 ;
144 [label="gini = 0.042\nsamples = 32\nvalue = [46, 1]"] ;
142 -> 144 ;
145 [label="X[5] <= 1179.5\ngini = 0.435\nsamples = 1519\nvalue = [756, 1611]"] ;
141 -> 145 ;
146 [label="gini = 0.404\nsamples = 875\nvalue = [394, 1007]"] ;
145 -> 146 ;
147 [label="gini = 0.469\nsamples = 644\nvalue = [362, 604]"] ;
145 -> 147 ;
148 [label="X[0] <= 1.395\ngini = 0.372\nsamples = 1976\nvalue = [2325, 764]"] ;
132 -> 148 ;
149 [label="X[3] <= 54347390.0\ngini = 0.173\nsamples = 514\nvalue = [748, 79]"] ;
148 -> 149 ;
150 [label="X[3] <= 32374177.0\ngini = 0.129\nsamples = 391\nvalue = [589, 44]"] ;
149 -> 150 ;
151 [label="gini = 0.149\nsamples = 330\nvalue = [487, 43]"] ;
150 -> 151 ;
152 [label="gini = 0.019\nsamples = 61\nvalue = [102, 1]"] ;
150 -> 152 ;
153 [label="X[2] <= 42767.5\ngini = 0.296\nsamples = 123\nvalue = [159, 35]"] ;
149 -> 153 ;
154 [label="gini = 0.208\nsamples = 79\nvalue = [112, 15]"] ;
153 -> 154 ;
155 [label="gini = 0.419\nsamples = 44\nvalue = [47, 20]"] ;
153 -> 155 ;
156 [label="X[5] <= 1411.5\ngini = 0.422\nsamples = 1462\nvalue = [1577, 685]"] ;
148 -> 156 ;
157 [label="X[0] <= 2.675\ngini = 0.496\nsamples = 616\nvalue = [529, 440]"] ;
156 -> 157 ;
158 [label="gini = 0.498\nsamples = 573\nvalue = [480, 418]"] ;
157 -> 158 ;
159 [label="gini = 0.428\nsamples = 43\nvalue = [49, 22]"] ;
157 -> 159 ;
160 [label="X[2] <= 27096.0\ngini = 0.307\nsamples = 846\nvalue = [1048, 245]"] ;
156 -> 160 ;
161 [label="gini = 0.216\nsamples = 316\nvalue = [426, 60]"] ;
160 -> 161 ;
162 [label="gini = 0.353\nsamples = 530\nvalue = [622, 185]"] ;
160 -> 162 ;
163 [label="X[4] <= 833371930624.0\ngini = 0.216\nsamples = 788\nvalue = [1072, 151]"] ;
131 -> 163 ;
164 [label="X[0] <= 2.955\ngini = 0.234\nsamples = 647\nvalue = [874, 137]"] ;
163 -> 164 ;
165 [label="X[0] <= 2.885\ngini = 0.403\nsamples = 176\nvalue = [201, 78]"] ;
164 -> 165 ;
166 [label="X[4] <= 817083351040.0\ngini = 0.373\nsamples = 92\nvalue = [115, 38]"] ;
165 -> 166 ;
167 [label="gini = 0.352\nsamples = 90\nvalue = [115, 34]"] ;
166 -> 167 ;
168 [label="gini = 0.0\nsamples = 2\nvalue = [0, 4]"] ;
166 -> 168 ;
169 [label="X[3] <= 57291.0\ngini = 0.433\nsamples = 84\nvalue = [86, 40]"] ;
165 -> 169 ;
170 [label="gini = 0.485\nsamples = 39\nvalue = [34, 24]"] ;
169 -> 170 ;
171 [label="gini = 0.36\nsamples = 45\nvalue = [52, 16]"] ;
169 -> 171 ;
172 [label="X[5] <= 1100.5\ngini = 0.148\nsamples = 471\nvalue = [673, 59]"] ;
164 -> 172 ;
173 [label="gini = 0.0\nsamples = 2\nvalue = [0, 4]"] ;
172 -> 173 ;
174 [label="X[5] <= 1210.5\ngini = 0.14\nsamples = 469\nvalue = [673, 55]"] ;
172 -> 174 ;
175 [label="gini = 0.283\nsamples = 131\nvalue = [165, 34]"] ;
174 -> 175 ;
176 [label="gini = 0.076\nsamples = 338\nvalue = [508, 21]"] ;
174 -> 176 ;
177 [label="X[6] <= 29562012.0\ngini = 0.123\nsamples = 141\nvalue = [198, 14]"] ;
163 -> 177 ;
178 [label="X[6] <= 1032010.5\ngini = 0.093\nsamples = 136\nvalue = [195, 10]"] ;
177 -> 178 ;
179 [label="X[0] <= 3.17\ngini = 0.444\nsamples = 2\nvalue = [1, 2]"] ;
178 -> 179 ;
180 [label="gini = 0.0\nsamples = 1\nvalue = [0, 2]"] ;
179 -> 180 ;
181 [label="gini = 0.0\nsamples = 1\nvalue = [1, 0]"] ;
179 -> 181 ;
182 [label="X[2] <= 539.5\ngini = 0.076\nsamples = 134\nvalue = [194, 8]"] ;
178 -> 182 ;
183 [label="gini = 0.0\nsamples = 1\nvalue = [0, 2]"] ;
182 -> 183 ;
184 [label="gini = 0.058\nsamples = 133\nvalue = [194, 6]"] ;
182 -> 184 ;
185 [label="X[2] <= 56344.5\ngini = 0.49\nsamples = 5\nvalue = [3, 4]"] ;
177 -> 185 ;
186 [label="gini = 0.0\nsamples = 2\nvalue = [2, 0]"] ;
185 -> 186 ;
187 [label="X[4] <= 913116168192.0\ngini = 0.32\nsamples = 3\nvalue = [1, 4]"] ;
185 -> 187 ;
188 [label="gini = 0.0\nsamples = 1\nvalue = [0, 2]"] ;
187 -> 188 ;
189 [label="gini = 0.444\nsamples = 2\nvalue = [1, 2]"] ;
187 -> 189 ;
190 [label="X[4] <= 127711.0\ngini = 0.05\nsamples = 3624653\nvalue = [5587403, 146003]"] ;
0 -> 190 [labeldistance=2.5, labelangle=-45, headlabel="False"] ;
191 [label="gini = 0.0\nsamples = 1\nvalue = [0, 2]"] ;
190 -> 191 ;
192 [label="X[0] <= 1827.301\ngini = 0.05\nsamples = 3624652\nvalue = [5587403, 146001]"] ;
190 -> 192 ;
193 [label="X[0] <= 1589.545\ngini = 0.005\nsamples = 2855490\nvalue = [4505473, 10587]"] ;
192 -> 193 ;
194 [label="X[0] <= 3.635\ngini = 0.004\nsamples = 2810055\nvalue = [4436169, 8014]"] ;
193 -> 194 ;
195 [label="X[4] <= 94212661248.0\ngini = 0.413\nsamples = 533\nvalue = [597, 246]"] ;
194 -> 195 ;
196 [label="X[0] <= 3.525\ngini = 0.194\nsamples = 51\nvalue = [82, 10]"] ;
195 -> 196 ;
197 [label="X[5] <= 681.0\ngini = 0.314\nsamples = 25\nvalue = [33, 8]"] ;
196 -> 197 ;
198 [label="gini = 0.0\nsamples = 6\nvalue = [0, 8]"] ;
197 -> 198 ;
199 [label="gini = 0.0\nsamples = 19\nvalue = [33, 0]"] ;
197 -> 199 ;
200 [label="X[0] <= 3.57\ngini = 0.075\nsamples = 26\nvalue = [49, 2]"] ;
196 -> 200 ;
201 [label="gini = 0.0\nsamples = 13\nvalue = [28, 0]"] ;
200 -> 201 ;
202 [label="gini = 0.159\nsamples = 13\nvalue = [21, 2]"] ;
200 -> 202 ;
203 [label="X[6] <= 31102011.0\ngini = 0.431\nsamples = 482\nvalue = [515, 236]"] ;
195 -> 203 ;
204 [label="X[5] <= 651.0\ngini = 0.428\nsamples = 481\nvalue = [515, 232]"] ;
203 -> 204 ;
205 [label="gini = 0.126\nsamples = 130\nvalue = [14, 193]"] ;
204 -> 205 ;
206 [label="gini = 0.134\nsamples = 351\nvalue = [501, 39]"] ;
204 -> 206 ;
207 [label="gini = 0.0\nsamples = 1\nvalue = [0, 4]"] ;
203 -> 207 ;
208 [label="X[5] <= 279.5\ngini = 0.003\nsamples = 2809522\nvalue = [4435572, 7768]"] ;
194 -> 208 ;
209 [label="X[0] <= 644.236\ngini = 0.498\nsamples = 4089\nvalue = [3456, 3053]"] ;
208 -> 209 ;
210 [label="X[2] <= 12947.0\ngini = 0.2\nsamples = 1330\nvalue = [1924, 244]"] ;
209 -> 210 ;
211 [label="gini = 0.339\nsamples = 282\nvalue = [362, 100]"] ;
210 -> 211 ;
212 [label="gini = 0.155\nsamples = 1048\nvalue = [1562, 144]"] ;
210 -> 212 ;
213 [label="X[5] <= 179.5\ngini = 0.457\nsamples = 2759\nvalue = [1532, 2809]"] ;
209 -> 213 ;
214 [label="gini = 0.313\nsamples = 1460\nvalue = [445, 1845]"] ;
213 -> 214 ;
215 [label="gini = 0.498\nsamples = 1299\nvalue = [1087, 964]"] ;
213 -> 215 ;
216 [label="X[0] <= 1121.532\ngini = 0.002\nsamples = 2805433\nvalue = [4432116, 4715]"] ;
208 -> 216 ;
217 [label="X[5] <= 479.5\ngini = 0.001\nsamples = 2484456\nvalue = [3927533, 2474]"] ;
216 -> 217 ;
218 [label="gini = 0.091\nsamples = 14026\nvalue = [21093, 1054]"] ;
217 -> 218 ;
219 [label="gini = 0.001\nsamples = 2470430\nvalue = [3906440, 1420]"] ;
217 -> 219 ;
220 [label="X[4] <= 949444706304.0\ngini = 0.009\nsamples = 320977\nvalue = [504583, 2241]"] ;
216 -> 220 ;
221 [label="gini = 0.009\nsamples = 304980\nvalue = [479391, 2095]"] ;
220 -> 221 ;
222 [label="gini = 0.011\nsamples = 15997\nvalue = [25192, 146]"] ;
220 -> 222 ;
223 [label="X[3] <= 95233484.0\ngini = 0.069\nsamples = 45435\nvalue = [69304, 2573]"] ;
193 -> 223 ;
224 [label="X[3] <= 82899416.0\ngini = 0.068\nsamples = 44308\nvalue = [67604, 2480]"] ;
223 -> 224 ;
225 [label="X[3] <= 82847284.0\ngini = 0.07\nsamples = 41524\nvalue = [63334, 2376]"] ;
224 -> 225 ;
226 [label="X[4] <= 998145753088.0\ngini = 0.07\nsamples = 41514\nvalue = [63320, 2371]"] ;
225 -> 226 ;
227 [label="gini = 0.069\nsamples = 41430\nvalue = [63203, 2359]"] ;
226 -> 227 ;
228 [label="gini = 0.169\nsamples = 84\nvalue = [117, 12]"] ;
226 -> 228 ;
229 [label="X[5] <= 643.0\ngini = 0.388\nsamples = 10\nvalue = [14, 5]"] ;
225 -> 229 ;
230 [label="gini = 0.0\nsamples = 2\nvalue = [0, 5]"] ;
229 -> 230 ;
231 [label="gini = 0.0\nsamples = 8\nvalue = [14, 0]"] ;
229 -> 231 ;
232 [label="X[0] <= 1589.572\ngini = 0.046\nsamples = 2784\nvalue = [4270, 104]"] ;
224 -> 232 ;
233 [label="gini = 0.0\nsamples = 1\nvalue = [0, 1]"] ;
232 -> 233 ;
234 [label="X[2] <= 15315.5\ngini = 0.046\nsamples = 2783\nvalue = [4270, 103]"] ;
232 -> 234 ;
235 [label="gini = 0.095\nsamples = 618\nvalue = [917, 48]"] ;
234 -> 235 ;
236 [label="gini = 0.032\nsamples = 2165\nvalue = [3353, 55]"] ;
234 -> 236 ;
237 [label="X[5] <= 401.0\ngini = 0.098\nsamples = 1127\nvalue = [1700, 93]"] ;
223 -> 237 ;
238 [label="X[5] <= 347.5\ngini = 0.038\nsamples = 35\nvalue = [1, 51]"] ;
237 -> 238 ;
239 [label="gini = 0.0\nsamples = 31\nvalue = [0, 47]"] ;
238 -> 239 ;
240 [label="X[5] <= 349.5\ngini = 0.32\nsamples = 4\nvalue = [1, 4]"] ;
238 -> 240 ;
241 [label="gini = 0.0\nsamples = 1\nvalue = [1, 0]"] ;
240 -> 241 ;
242 [label="gini = 0.0\nsamples = 3\nvalue = [0, 4]"] ;
240 -> 242 ;
243 [label="X[3] <= 95603224.0\ngini = 0.047\nsamples = 1092\nvalue = [1699, 42]"] ;
237 -> 243 ;
244 [label="X[0] <= 1695.34\ngini = 0.149\nsamples = 69\nvalue = [113, 10]"] ;
243 -> 244 ;
245 [label="gini = 0.033\nsamples = 36\nvalue = [59, 1]"] ;
244 -> 245 ;
246 [label="gini = 0.245\nsamples = 33\nvalue = [54, 9]"] ;
244 -> 246 ;
247 [label="X[0] <= 1789.815\ngini = 0.039\nsamples = 1023\nvalue = [1586, 32]"] ;
243 -> 247 ;
248 [label="gini = 0.034\nsamples = 906\nvalue = [1408, 25]"] ;
247 -> 248 ;
249 [label="gini = 0.073\nsamples = 117\nvalue = [178, 7]"] ;
247 -> 249 ;
250 [label="X[2] <= 65620.5\ngini = 0.198\nsamples = 769162\nvalue = [1081930, 135414]"] ;
192 -> 250 ;
251 [label="X[2] <= 65596.0\ngini = 0.203\nsamples = 718872\nvalue = [1007634, 130265]"] ;
250 -> 251 ;
252 [label="X[2] <= 35768.5\ngini = 0.202\nsamples = 718127\nvalue = [1007312, 129412]"] ;
251 -> 252 ;
253 [label="X[3] <= 78077228.0\ngini = 0.181\nsamples = 385389\nvalue = [548335, 61172]"] ;
252 -> 253 ;
254 [label="X[2] <= 34509.5\ngini = 0.18\nsamples = 343268\nvalue = [488638, 54195]"] ;
253 -> 254 ;
255 [label="gini = 0.185\nsamples = 330499\nvalue = [468844, 53813]"] ;
254 -> 255 ;
256 [label="gini = 0.037\nsamples = 12769\nvalue = [19794, 382]"] ;
254 -> 256 ;
257 [label="X[3] <= 78098884.0\ngini = 0.187\nsamples = 42121\nvalue = [59697, 6977]"] ;
253 -> 257 ;
258 [label="gini = 0.455\nsamples = 38\nvalue = [41, 22]"] ;
257 -> 258 ;
259 [label="gini = 0.187\nsamples = 42083\nvalue = [59656, 6955]"] ;
257 -> 259 ;
260 [label="X[3] <= 95771000.0\ngini = 0.225\nsamples = 332738\nvalue = [458977, 68240]"] ;
252 -> 260 ;
261 [label="X[4] <= 997687296000.0\ngini = 0.225\nsamples = 325814\nvalue = [449530, 66658]"] ;
260 -> 261 ;
262 [label="gini = 0.225\nsamples = 325058\nvalue = [448464, 66543]"] ;
261 -> 262 ;
263 [label="gini = 0.176\nsamples = 756\nvalue = [1066, 115]"] ;
261 -> 263 ;
264 [label="X[5] <= 700.5\ngini = 0.246\nsamples = 6924\nvalue = [9447, 1582]"] ;
260 -> 264 ;
265 [label="gini = 0.316\nsamples = 1008\nvalue = [319, 1305]"] ;
264 -> 265 ;
266 [label="gini = 0.057\nsamples = 5916\nvalue = [9128, 277]"] ;
264 -> 266 ;
267 [label="X[2] <= 65614.5\ngini = 0.398\nsamples = 745\nvalue = [322, 853]"] ;
251 -> 267 ;
268 [label="X[4] <= 639066308608.0\ngini = 0.462\nsamples = 437\nvalue = [250, 441]"] ;
267 -> 268 ;
269 [label="X[5] <= 749.5\ngini = 0.479\nsamples = 288\nvalue = [178, 270]"] ;
268 -> 269 ;
270 [label="gini = 0.031\nsamples = 160\nvalue = [4, 246]"] ;
269 -> 270 ;
271 [label="gini = 0.213\nsamples = 128\nvalue = [174, 24]"] ;
269 -> 271 ;
272 [label="X[5] <= 947.5\ngini = 0.417\nsamples = 149\nvalue = [72, 171]"] ;
268 -> 272 ;
273 [label="gini = 0.099\nsamples = 105\nvalue = [9, 163]"] ;
272 -> 273 ;
274 [label="gini = 0.2\nsamples = 44\nvalue = [63, 8]"] ;
272 -> 274 ;
275 [label="X[5] <= 1215.0\ngini = 0.253\nsamples = 308\nvalue = [72, 412]"] ;
267 -> 275 ;
276 [label="X[0] <= 4692.161\ngini = 0.151\nsamples = 285\nvalue = [37, 412]"] ;
275 -> 276 ;
277 [label="gini = 0.111\nsamples = 270\nvalue = [25, 398]"] ;
276 -> 277 ;
278 [label="gini = 0.497\nsamples = 15\nvalue = [12, 14]"] ;
276 -> 278 ;
279 [label="gini = 0.0\nsamples = 23\nvalue = [35, 0]"] ;
275 -> 279 ;
280 [label="X[2] <= 67211.0\ngini = 0.121\nsamples = 50290\nvalue = [74296, 5149]"] ;
250 -> 280 ;
281 [label="X[0] <= 3959.221\ngini = 0.037\nsamples = 13160\nvalue = [20475, 399]"] ;
280 -> 281 ;
282 [label="X[0] <= 2025.669\ngini = 0.121\nsamples = 3834\nvalue = [5687, 393]"] ;
281 -> 282 ;
283 [label="gini = 0.0\nsamples = 339\nvalue = [559, 0]"] ;
282 -> 283 ;
284 [label="X[3] <= 99756520.0\ngini = 0.132\nsamples = 3495\nvalue = [5128, 393]"] ;
282 -> 284 ;
285 [label="gini = 0.131\nsamples = 3491\nvalue = [5124, 389]"] ;
284 -> 285 ;
286 [label="gini = 0.5\nsamples = 4\nvalue = [4, 4]"] ;
284 -> 286 ;
287 [label="X[0] <= 4031.403\ngini = 0.001\nsamples = 9326\nvalue = [14788, 6]"] ;
281 -> 287 ;
288 [label="X[2] <= 66331.0\ngini = 0.047\nsamples = 157\nvalue = [242, 6]"] ;
287 -> 288 ;
289 [label="gini = 0.094\nsamples = 75\nvalue = [115, 6]"] ;
288 -> 289 ;
290 [label="gini = 0.0\nsamples = 82\nvalue = [127, 0]"] ;
288 -> 290 ;
291 [label="gini = 0.0\nsamples = 9169\nvalue = [14546, 0]"] ;
287 -> 291 ;
292 [label="X[6] <= 27107011.0\ngini = 0.149\nsamples = 37130\nvalue = [53821, 4750]"] ;
280 -> 292 ;
293 [label="X[0] <= 3099.797\ngini = 0.152\nsamples = 32809\nvalue = [47438, 4290]"] ;
292 -> 293 ;
294 [label="X[5] <= 453.0\ngini = 0.087\nsamples = 4667\nvalue = [6938, 331]"] ;
293 -> 294 ;
295 [label="gini = 0.402\nsamples = 168\nvalue = [79, 204]"] ;
294 -> 295 ;
296 [label="gini = 0.036\nsamples = 4499\nvalue = [6859, 127]"] ;
294 -> 296 ;
297 [label="X[5] <= 601.5\ngini = 0.162\nsamples = 28142\nvalue = [40500, 3959]"] ;
293 -> 297 ;
298 [label="gini = 0.308\nsamples = 2263\nvalue = [684, 2919]"] ;
297 -> 298 ;
299 [label="gini = 0.05\nsamples = 25879\nvalue = [39816, 1040]"] ;
297 -> 299 ;
300 [label="X[2] <= 67241.0\ngini = 0.125\nsamples = 4321\nvalue = [6383, 460]"] ;
292 -> 300 ;
301 [label="X[5] <= 869.0\ngini = 0.456\nsamples = 97\nvalue = [98, 53]"] ;
300 -> 301 ;
302 [label="gini = 0.171\nsamples = 39\nvalue = [5, 48]"] ;
301 -> 302 ;
303 [label="gini = 0.097\nsamples = 58\nvalue = [93, 5]"] ;
301 -> 303 ;
304 [label="X[2] <= 69685.0\ngini = 0.114\nsamples = 4224\nvalue = [6285, 407]"] ;
300 -> 304 ;
305 [label="gini = 0.148\nsamples = 2822\nvalue = [4117, 361]"] ;
304 -> 305 ;
306 [label="gini = 0.041\nsamples = 1402\nvalue = [2168, 46]"] ;
304 -> 306 ;
}