digraph Tree {
node [shape=box] ;
0 [label="X[0] <= 45.519\nmse = 120.151\nsamples = 293065\nvalue = 1998.373"] ;
1 [label="X[2] <= 3.495\nmse = 144.075\nsamples = 172116\nvalue = 1996.304"] ;
0 -> 1 [labeldistance=2.5, labelangle=45, headlabel="True"] ;
2 [label="X[13] <= 2925.331\nmse = 102.821\nsamples = 89245\nvalue = 1998.737"] ;
1 -> 2 ;
3 [label="X[0] <= 40.454\nmse = 112.292\nsamples = 49818\nvalue = 1997.193"] ;
2 -> 3 ;
4 [label="X[1] <= -20.108\nmse = 141.92\nsamples = 20420\nvalue = 1994.535"] ;
3 -> 4 ;
5 [label="X[0] <= 37.282\nmse = 160.908\nsamples = 11047\nvalue = 1996.268"] ;
4 -> 5 ;
6 [label="X[5] <= -18.348\nmse = 181.43\nsamples = 6772\nvalue = 1994.896"] ;
5 -> 6 ;
7 [label="X[5] <= -24.512\nmse = 99.46\nsamples = 1816\nvalue = 1999.067"] ;
6 -> 7 ;
8 [label="mse = 67.647\nsamples = 1062\nvalue = 2000.565"] ;
7 -> 8 ;
9 [label="mse = 135.174\nsamples = 754\nvalue = 1997.051"] ;
7 -> 9 ;
10 [label="X[39] <= 130.893\nmse = 202.702\nsamples = 4956\nvalue = 1993.373"] ;
6 -> 10 ;
11 [label="mse = 169.067\nsamples = 3334\nvalue = 1995.082"] ;
10 -> 11 ;
12 [label="mse = 253.417\nsamples = 1622\nvalue = 1989.864"] ;
10 -> 12 ;
13 [label="X[2] <= -22.397\nmse = 120.865\nsamples = 4275\nvalue = 1998.434"] ;
5 -> 13 ;
14 [label="X[1] <= -45.517\nmse = 77.208\nsamples = 1897\nvalue = 2000.788"] ;
13 -> 14 ;
15 [label="mse = 61.777\nsamples = 983\nvalue = 2002.146"] ;
14 -> 15 ;
16 [label="mse = 89.407\nsamples = 914\nvalue = 1999.367"] ;
14 -> 16 ;
17 [label="X[1] <= -64.093\nmse = 147.704\nsamples = 2378\nvalue = 1996.559"] ;
13 -> 17 ;
18 [label="mse = 88.558\nsamples = 690\nvalue = 2000.155"] ;
17 -> 18 ;
19 [label="mse = 163.946\nsamples = 1688\nvalue = 1995.137"] ;
17 -> 19 ;
20 [label="X[2] <= -30.995\nmse = 111.604\nsamples = 9373\nvalue = 1992.479"] ;
4 -> 20 ;
21 [label="X[0] <= 37.632\nmse = 90.739\nsamples = 3284\nvalue = 1995.152"] ;
20 -> 21 ;
22 [label="X[6] <= 0.207\nmse = 96.588\nsamples = 1550\nvalue = 1993.339"] ;
21 -> 22 ;
23 [label="mse = 115.231\nsamples = 850\nvalue = 1991.666"] ;
22 -> 23 ;
24 [label="mse = 67.583\nsamples = 700\nvalue = 1995.301"] ;
22 -> 24 ;
25 [label="X[1] <= 18.129\nmse = 80.064\nsamples = 1734\nvalue = 1996.758"] ;
21 -> 25 ;
26 [label="mse = 77.37\nsamples = 876\nvalue = 1998.438"] ;
25 -> 26 ;
27 [label="mse = 76.836\nsamples = 858\nvalue = 1994.999"] ;
25 -> 27 ;
28 [label="X[35] <= -7.088\nmse = 116.957\nsamples = 6089\nvalue = 1991.025"] ;
20 -> 28 ;
29 [label="X[1] <= -8.208\nmse = 65.956\nsamples = 521\nvalue = 1996.209"] ;
28 -> 29 ;
30 [label="mse = 64.425\nsamples = 71\nvalue = 2000.439"] ;
29 -> 30 ;
31 [label="mse = 62.639\nsamples = 450\nvalue = 1995.486"] ;
29 -> 31 ;
32 [label="X[37] <= 316.485\nmse = 119.026\nsamples = 5568\nvalue = 1990.527"] ;
28 -> 32 ;
33 [label="mse = 120.993\nsamples = 3797\nvalue = 1989.606"] ;
32 -> 33 ;
34 [label="mse = 109.131\nsamples = 1771\nvalue = 1992.497"] ;
32 -> 34 ;
35 [label="X[1] <= 7.612\nmse = 83.249\nsamples = 29398\nvalue = 1999.048"] ;
3 -> 35 ;
36 [label="X[0] <= 43.077\nmse = 73.058\nsamples = 14605\nvalue = 2000.915"] ;
35 -> 36 ;
37 [label="X[1] <= -21.289\nmse = 85.545\nsamples = 7452\nvalue = 1999.89"] ;
36 -> 37 ;
38 [label="X[2] <= -27.437\nmse = 71.567\nsamples = 3829\nvalue = 2001.39"] ;
37 -> 38 ;
39 [label="mse = 36.609\nsamples = 1078\nvalue = 2003.301"] ;
38 -> 39 ;
40 [label="mse = 83.779\nsamples = 2751\nvalue = 2000.607"] ;
38 -> 40 ;
41 [label="X[19] <= 503.201\nmse = 95.516\nsamples = 3623\nvalue = 1998.286"] ;
37 -> 41 ;
42 [label="mse = 112.058\nsamples = 1543\nvalue = 1996.399"] ;
41 -> 42 ;
43 [label="mse = 78.527\nsamples = 2080\nvalue = 1999.695"] ;
41 -> 43 ;
44 [label="X[19] <= 486.86\nmse = 57.727\nsamples = 7153\nvalue = 2001.989"] ;
36 -> 44 ;
45 [label="X[6] <= -36.725\nmse = 73.731\nsamples = 2967\nvalue = 2000.814"] ;
44 -> 45 ;
46 [label="mse = 467.455\nsamples = 14\nvalue = 1984.0"] ;
45 -> 46 ;
47 [label="mse = 68.963\nsamples = 2953\nvalue = 2000.932"] ;
45 -> 47 ;
48 [label="X[58] <= 462.632\nmse = 44.604\nsamples = 4186\nvalue = 2002.828"] ;
44 -> 48 ;
49 [label="mse = 42.706\nsamples = 4154\nvalue = 2002.9"] ;
48 -> 49 ;
50 [label="mse = 209.074\nsamples = 32\nvalue = 1992.244"] ;
48 -> 50 ;
51 [label="X[19] <= 561.771\nmse = 86.468\nsamples = 14793\nvalue = 1997.189"] ;
35 -> 51 ;
52 [label="X[0] <= 43.638\nmse = 92.468\nsamples = 8388\nvalue = 1995.4"] ;
51 -> 52 ;
53 [label="X[56] <= -131.467\nmse = 95.566\nsamples = 4346\nvalue = 1993.78"] ;
52 -> 53 ;
54 [label="mse = 63.833\nsamples = 518\nvalue = 1998.638"] ;
53 -> 54 ;
55 [label="mse = 96.234\nsamples = 3828\nvalue = 1993.121"] ;
53 -> 55 ;
56 [label="X[56] <= 6.765\nmse = 83.41\nsamples = 4042\nvalue = 1997.124"] ;
52 -> 56 ;
57 [label="mse = 60.991\nsamples = 1395\nvalue = 1999.201"] ;
56 -> 57 ;
58 [label="mse = 91.634\nsamples = 2647\nvalue = 1996.047"] ;
56 -> 58 ;
59 [label="X[0] <= 43.822\nmse = 68.929\nsamples = 6405\nvalue = 1999.531"] ;
51 -> 59 ;
60 [label="X[56] <= 19.007\nmse = 78.184\nsamples = 3651\nvalue = 1998.243"] ;
59 -> 60 ;
61 [label="mse = 54.818\nsamples = 1476\nvalue = 1999.807"] ;
60 -> 61 ;
62 [label="mse = 91.064\nsamples = 2175\nvalue = 1997.2"] ;
60 -> 62 ;
63 [label="X[15] <= 2364.484\nmse = 51.304\nsamples = 2754\nvalue = 2001.259"] ;
59 -> 63 ;
64 [label="mse = 62.866\nsamples = 1618\nvalue = 2000.276"] ;
63 -> 64 ;
65 [label="mse = 31.199\nsamples = 1136\nvalue = 2002.679"] ;
63 -> 65 ;
66 [label="X[0] <= 36.809\nmse = 83.983\nsamples = 39427\nvalue = 2000.693"] ;
2 -> 66 ;
67 [label="X[13] <= 4922.849\nmse = 125.938\nsamples = 13209\nvalue = 1998.133"] ;
66 -> 67 ;
68 [label="X[5] <= -19.796\nmse = 143.902\nsamples = 8264\nvalue = 1996.746"] ;
67 -> 68 ;
69 [label="X[1] <= -55.946\nmse = 78.741\nsamples = 1577\nvalue = 2000.079"] ;
68 -> 69 ;
70 [label="X[4] <= 6.164\nmse = 75.206\nsamples = 1077\nvalue = 2000.935"] ;
69 -> 70 ;
71 [label="mse = 37.653\nsamples = 420\nvalue = 2003.029"] ;
70 -> 71 ;
72 [label="mse = 94.757\nsamples = 657\nvalue = 1999.587"] ;
70 -> 72 ;
73 [label="X[22] <= 272.307\nmse = 81.343\nsamples = 500\nvalue = 1998.17"] ;
69 -> 73 ;
74 [label="mse = 94.146\nsamples = 342\nvalue = 1996.655"] ;
73 -> 74 ;
75 [label="mse = 34.682\nsamples = 158\nvalue = 2001.643"] ;
73 -> 75 ;
76 [label="X[0] <= 33.577\nmse = 155.858\nsamples = 6687\nvalue = 1995.972"] ;
68 -> 76 ;
77 [label="X[72] <= 86.104\nmse = 179.576\nsamples = 3126\nvalue = 1994.121"] ;
76 -> 77 ;
78 [label="mse = 193.123\nsamples = 2504\nvalue = 1993.256"] ;
77 -> 78 ;
79 [label="mse = 109.532\nsamples = 622\nvalue = 1997.617"] ;
77 -> 79 ;
80 [label="X[2] <= -14.829\nmse = 128.99\nsamples = 3561\nvalue = 1997.619"] ;
76 -> 80 ;
81 [label="mse = 100.387\nsamples = 2584\nvalue = 1998.977"] ;
80 -> 81 ;
82 [label="mse = 186.832\nsamples = 977\nvalue = 1994.029"] ;
80 -> 82 ;
83 [label="X[3] <= 30.047\nmse = 87.236\nsamples = 4945\nvalue = 2000.455"] ;
67 -> 83 ;
84 [label="X[5] <= -11.206\nmse = 98.085\nsamples = 4000\nvalue = 1999.751"] ;
83 -> 84 ;
85 [label="X[1] <= -106.88\nmse = 62.778\nsamples = 1980\nvalue = 2001.107"] ;
84 -> 85 ;
86 [label="mse = 44.92\nsamples = 606\nvalue = 2002.789"] ;
85 -> 86 ;
87 [label="mse = 68.835\nsamples = 1374\nvalue = 2000.368"] ;
85 -> 87 ;
88 [label="X[6] <= -69.773\nmse = 129.395\nsamples = 2020\nvalue = 1998.41"] ;
84 -> 88 ;
89 [label="mse = 567.0\nsamples = 3\nvalue = 1938.0"] ;
88 -> 89 ;
90 [label="mse = 118.985\nsamples = 2017\nvalue = 1998.564"] ;
88 -> 90 ;
91 [label="X[1] <= 82.084\nmse = 29.436\nsamples = 945\nvalue = 2003.475"] ;
83 -> 91 ;
92 [label="X[2] <= -46.012\nmse = 27.183\nsamples = 900\nvalue = 2003.781"] ;
91 -> 92 ;
93 [label="mse = 19.71\nsamples = 689\nvalue = 2004.355"] ;
92 -> 93 ;
94 [label="mse = 48.215\nsamples = 211\nvalue = 2001.76"] ;
92 -> 94 ;
95 [label="X[61] <= -73.714\nmse = 36.273\nsamples = 45\nvalue = 1997.569"] ;
91 -> 95 ;
96 [label="mse = 11.837\nsamples = 17\nvalue = 2001.857"] ;
95 -> 96 ;
97 [label="mse = 32.679\nsamples = 28\nvalue = 1994.841"] ;
95 -> 97 ;
98 [label="X[15] <= 2488.706\nmse = 58.278\nsamples = 26218\nvalue = 2001.964"] ;
66 -> 98 ;
99 [label="X[1] <= -23.157\nmse = 65.531\nsamples = 16675\nvalue = 2001.265"] ;
98 -> 99 ;
100 [label="X[0] <= 40.561\nmse = 55.955\nsamples = 7011\nvalue = 2002.573"] ;
99 -> 100 ;
101 [label="X[72] <= -43.842\nmse = 70.248\nsamples = 3630\nvalue = 2001.669"] ;
100 -> 101 ;
102 [label="mse = 117.572\nsamples = 799\nvalue = 1999.821"] ;
101 -> 102 ;
103 [label="mse = 55.219\nsamples = 2831\nvalue = 2002.206"] ;
101 -> 103 ;
104 [label="X[8] <= 37.585\nmse = 38.889\nsamples = 3381\nvalue = 2003.539"] ;
100 -> 104 ;
105 [label="mse = 36.914\nsamples = 3372\nvalue = 2003.598"] ;
104 -> 105 ;
106 [label="mse = 297.422\nsamples = 9\nvalue = 1982.333"] ;
104 -> 106 ;
107 [label="X[0] <= 41.639\nmse = 70.356\nsamples = 9664\nvalue = 2000.312"] ;
99 -> 107 ;
108 [label="X[2] <= -31.113\nmse = 91.844\nsamples = 3966\nvalue = 1998.312"] ;
107 -> 108 ;
109 [label="mse = 52.965\nsamples = 1746\nvalue = 2000.238"] ;
108 -> 109 ;
110 [label="mse = 117.816\nsamples = 2220\nvalue = 1996.757"] ;
108 -> 110 ;
111 [label="X[5] <= -17.535\nmse = 50.998\nsamples = 5698\nvalue = 2001.683"] ;
107 -> 111 ;
112 [label="mse = 26.378\nsamples = 1934\nvalue = 2002.942"] ;
111 -> 112 ;
113 [label="mse = 62.522\nsamples = 3764\nvalue = 2001.03"] ;
111 -> 113 ;
114 [label="X[5] <= -2.654\nmse = 43.293\nsamples = 9543\nvalue = 2003.183"] ;
98 -> 114 ;
115 [label="X[53] <= 404.715\nmse = 26.09\nsamples = 4261\nvalue = 2004.445"] ;
114 -> 115 ;
116 [label="X[26] <= -918.174\nmse = 25.198\nsamples = 4260\nvalue = 2004.461"] ;
115 -> 116 ;
117 [label="mse = 16.939\nsamples = 1689\nvalue = 2005.581"] ;
116 -> 117 ;
118 [label="mse = 29.318\nsamples = 2571\nvalue = 2003.713"] ;
116 -> 118 ;
119 [label="mse = 0.0\nsamples = 1\nvalue = 1949.0"] ;
115 -> 119 ;
120 [label="X[0] <= 41.169\nmse = 55.007\nsamples = 5282\nvalue = 2002.151"] ;
114 -> 120 ;
121 [label="X[13] <= 4125.19\nmse = 70.82\nsamples = 2855\nvalue = 2001.187"] ;
120 -> 121 ;
122 [label="mse = 92.235\nsamples = 1342\nvalue = 1999.51"] ;
121 -> 122 ;
123 [label="mse = 47.335\nsamples = 1513\nvalue = 2002.662"] ;
121 -> 123 ;
124 [label="X[37] <= -1357.287\nmse = 34.273\nsamples = 2427\nvalue = 2003.272"] ;
120 -> 124 ;
125 [label="mse = 188.864\nsamples = 6\nvalue = 1986.462"] ;
124 -> 125 ;
126 [label="mse = 32.794\nsamples = 2421\nvalue = 2003.329"] ;
124 -> 126 ;
127 [label="X[13] <= 2277.904\nmse = 175.346\nsamples = 82871\nvalue = 1993.675"] ;
1 -> 127 ;
128 [label="X[56] <= -72.018\nmse = 171.487\nsamples = 42051\nvalue = 1991.405"] ;
127 -> 128 ;
129 [label="X[0] <= 42.879\nmse = 137.648\nsamples = 7734\nvalue = 1995.407"] ;
128 -> 129 ;
130 [label="X[5] <= -10.273\nmse = 155.486\nsamples = 4731\nvalue = 1993.771"] ;
129 -> 130 ;
131 [label="X[1] <= -16.144\nmse = 91.273\nsamples = 1958\nvalue = 1996.913"] ;
130 -> 131 ;
132 [label="X[69] <= 12.585\nmse = 86.75\nsamples = 1144\nvalue = 1999.167"] ;
131 -> 132 ;
133 [label="mse = 93.046\nsamples = 905\nvalue = 1998.31"] ;
132 -> 133 ;
134 [label="mse = 52.837\nsamples = 239\nvalue = 2002.19"] ;
132 -> 134 ;
135 [label="X[48] <= -136.15\nmse = 80.776\nsamples = 814\nvalue = 1993.795"] ;
131 -> 135 ;
136 [label="mse = 62.328\nsamples = 203\nvalue = 1997.682"] ;
135 -> 136 ;
137 [label="mse = 80.2\nsamples = 611\nvalue = 1992.494"] ;
135 -> 137 ;
138 [label="X[77] <= 133.812\nmse = 188.725\nsamples = 2773\nvalue = 1991.569"] ;
130 -> 138 ;
139 [label="X[56] <= -226.672\nmse = 166.511\nsamples = 2212\nvalue = 1992.639"] ;
138 -> 139 ;
140 [label="mse = 159.049\nsamples = 781\nvalue = 1995.202"] ;
139 -> 140 ;
141 [label="mse = 165.024\nsamples = 1431\nvalue = 1991.234"] ;
139 -> 141 ;
142 [label="X[69] <= -3.862\nmse = 253.008\nsamples = 561\nvalue = 1987.441"] ;
138 -> 142 ;
143 [label="mse = 274.804\nsamples = 419\nvalue = 1985.347"] ;
142 -> 143 ;
144 [label="mse = 124.046\nsamples = 142\nvalue = 1994.153"] ;
142 -> 144 ;
145 [label="X[1] <= 23.49\nmse = 98.857\nsamples = 3003\nvalue = 1997.975"] ;
129 -> 145 ;
146 [label="X[2] <= 30.183\nmse = 96.798\nsamples = 1901\nvalue = 1999.432"] ;
145 -> 146 ;
147 [label="X[1] <= -11.594\nmse = 67.362\nsamples = 1148\nvalue = 2000.92"] ;
146 -> 147 ;
148 [label="mse = 51.138\nsamples = 486\nvalue = 2002.716"] ;
147 -> 148 ;
149 [label="mse = 75.215\nsamples = 662\nvalue = 1999.592"] ;
147 -> 149 ;
150 [label="X[69] <= 15.293\nmse = 132.497\nsamples = 753\nvalue = 1997.212"] ;
146 -> 150 ;
151 [label="mse = 148.908\nsamples = 530\nvalue = 1995.515"] ;
150 -> 151 ;
152 [label="mse = 72.411\nsamples = 223\nvalue = 2001.14"] ;
150 -> 152 ;
153 [label="X[37] <= 445.154\nmse = 92.405\nsamples = 1102\nvalue = 1995.457"] ;
145 -> 153 ;
154 [label="X[2] <= 25.019\nmse = 94.794\nsamples = 655\nvalue = 1993.083"] ;
153 -> 154 ;
155 [label="mse = 71.55\nsamples = 330\nvalue = 1995.737"] ;
154 -> 155 ;
156 [label="mse = 103.975\nsamples = 325\nvalue = 1990.398"] ;
154 -> 156 ;
157 [label="X[40] <= -38.549\nmse = 67.41\nsamples = 447\nvalue = 1999.045"] ;
153 -> 157 ;
158 [label="mse = 25.349\nsamples = 151\nvalue = 2002.65"] ;
157 -> 158 ;
159 [label="mse = 79.427\nsamples = 296\nvalue = 1997.069"] ;
157 -> 159 ;
160 [label="X[5] <= -12.976\nmse = 174.682\nsamples = 34317\nvalue = 1990.507"] ;
128 -> 160 ;
161 [label="X[1] <= -15.936\nmse = 112.276\nsamples = 9446\nvalue = 1993.287"] ;
160 -> 161 ;
162 [label="X[5] <= -18.616\nmse = 138.844\nsamples = 3028\nvalue = 1996.577"] ;
161 -> 162 ;
163 [label="X[8] <= -54.861\nmse = 93.049\nsamples = 1319\nvalue = 1998.825"] ;
162 -> 163 ;
164 [label="mse = 1346.0\nsamples = 3\nvalue = 1963.0"] ;
163 -> 164 ;
165 [label="mse = 88.234\nsamples = 1316\nvalue = 1998.893"] ;
163 -> 165 ;
166 [label="X[0] <= 20.57\nmse = 167.46\nsamples = 1709\nvalue = 1994.829"] ;
162 -> 166 ;
167 [label="mse = 462.0\nsamples = 4\nvalue = 1949.0"] ;
166 -> 167 ;
168 [label="mse = 161.262\nsamples = 1705\nvalue = 1994.948"] ;
166 -> 168 ;
169 [label="X[62] <= -24.388\nmse = 92.219\nsamples = 6418\nvalue = 1991.735"] ;
161 -> 169 ;
170 [label="X[1] <= 8.595\nmse = 84.805\nsamples = 766\nvalue = 1995.482"] ;
169 -> 170 ;
171 [label="mse = 72.048\nsamples = 206\nvalue = 1998.694"] ;
170 -> 171 ;
172 [label="mse = 84.274\nsamples = 560\nvalue = 1994.281"] ;
170 -> 172 ;
173 [label="X[5] <= -20.185\nmse = 91.026\nsamples = 5652\nvalue = 1991.214"] ;
169 -> 173 ;
174 [label="mse = 79.983\nsamples = 1640\nvalue = 1993.377"] ;
173 -> 174 ;
175 [label="mse = 92.853\nsamples = 4012\nvalue = 1990.323"] ;
173 -> 175 ;
176 [label="X[0] <= 43.701\nmse = 194.452\nsamples = 24871\nvalue = 1989.444"] ;
160 -> 176 ;
177 [label="X[19] <= 543.578\nmse = 199.952\nsamples = 17927\nvalue = 1988.417"] ;
176 -> 177 ;
178 [label="X[7] <= -2.444\nmse = 197.144\nsamples = 14097\nvalue = 1987.767"] ;
177 -> 178 ;
179 [label="mse = 167.303\nsamples = 6088\nvalue = 1989.176"] ;
178 -> 179 ;
180 [label="mse = 217.09\nsamples = 8009\nvalue = 1986.702"] ;
178 -> 180 ;
181 [label="X[37] <= 519.397\nmse = 203.043\nsamples = 3830\nvalue = 1990.784"] ;
177 -> 181 ;
182 [label="mse = 211.776\nsamples = 3219\nvalue = 1989.788"] ;
181 -> 182 ;
183 [label="mse = 122.368\nsamples = 611\nvalue = 1996.123"] ;
181 -> 183 ;
184 [label="X[2] <= 25.979\nmse = 170.678\nsamples = 6944\nvalue = 1992.08"] ;
176 -> 184 ;
185 [label="X[1] <= 14.002\nmse = 142.46\nsamples = 3548\nvalue = 1994.888"] ;
184 -> 185 ;
186 [label="mse = 132.26\nsamples = 1985\nvalue = 1997.541"] ;
185 -> 186 ;
187 [label="mse = 134.26\nsamples = 1563\nvalue = 1991.367"] ;
185 -> 187 ;
188 [label="X[80] <= 41.832\nmse = 183.313\nsamples = 3396\nvalue = 1989.149"] ;
184 -> 188 ;
189 [label="mse = 182.812\nsamples = 3201\nvalue = 1988.657"] ;
188 -> 189 ;
190 [label="mse = 123.649\nsamples = 195\nvalue = 1997.14"] ;
188 -> 190 ;
191 [label="X[35] <= 33.092\nmse = 168.434\nsamples = 40820\nvalue = 1996.035"] ;
127 -> 191 ;
192 [label="X[0] <= 42.493\nmse = 96.656\nsamples = 10814\nvalue = 1999.636"] ;
191 -> 192 ;
193 [label="X[1] <= -44.226\nmse = 106.004\nsamples = 6413\nvalue = 1998.487"] ;
192 -> 193 ;
194 [label="X[35] <= 5.827\nmse = 72.829\nsamples = 2152\nvalue = 2000.95"] ;
193 -> 194 ;
195 [label="X[0] <= 37.96\nmse = 56.204\nsamples = 1398\nvalue = 2001.954"] ;
194 -> 195 ;
196 [label="mse = 70.301\nsamples = 647\nvalue = 2000.647"] ;
195 -> 196 ;
197 [label="mse = 41.167\nsamples = 751\nvalue = 2003.09"] ;
195 -> 197 ;
198 [label="X[1] <= -88.127\nmse = 97.988\nsamples = 754\nvalue = 1999.117"] ;
194 -> 198 ;
199 [label="mse = 62.557\nsamples = 264\nvalue = 2001.526"] ;
198 -> 199 ;
200 [label="mse = 112.154\nsamples = 490\nvalue = 1997.831"] ;
198 -> 200 ;
201 [label="X[15] <= 1937.98\nmse = 118.106\nsamples = 4261\nvalue = 1997.248"] ;
193 -> 201 ;
202 [label="X[38] <= -20.882\nmse = 128.13\nsamples = 2945\nvalue = 1995.875"] ;
201 -> 202 ;
203 [label="mse = 141.225\nsamples = 2034\nvalue = 1994.584"] ;
202 -> 203 ;
204 [label="mse = 87.572\nsamples = 911\nvalue = 1998.716"] ;
202 -> 204 ;
205 [label="X[19] <= 988.571\nmse = 82.483\nsamples = 1316\nvalue = 2000.29"] ;
201 -> 205 ;
206 [label="mse = 102.307\nsamples = 825\nvalue = 1999.036"] ;
205 -> 206 ;
207 [label="mse = 40.743\nsamples = 491\nvalue = 2002.46"] ;
205 -> 207 ;
208 [label="X[35] <= -35.801\nmse = 78.525\nsamples = 4401\nvalue = 2001.292"] ;
192 -> 208 ;
209 [label="X[9] <= -27.507\nmse = 50.169\nsamples = 1899\nvalue = 2002.743"] ;
208 -> 209 ;
210 [label="mse = 0.0\nsamples = 1\nvalue = 1957.0"] ;
209 -> 210 ;
211 [label="X[19] <= 599.874\nmse = 48.837\nsamples = 1898\nvalue = 2002.772"] ;
209 -> 211 ;
212 [label="mse = 58.113\nsamples = 1311\nvalue = 2001.953"] ;
211 -> 212 ;
213 [label="mse = 24.015\nsamples = 587\nvalue = 2004.555"] ;
211 -> 213 ;
214 [label="X[2] <= 28.753\nmse = 97.767\nsamples = 2502\nvalue = 2000.158"] ;
208 -> 214 ;
215 [label="X[40] <= -13.291\nmse = 68.17\nsamples = 1577\nvalue = 2001.502"] ;
214 -> 215 ;
216 [label="mse = 51.248\nsamples = 843\nvalue = 2002.875"] ;
215 -> 216 ;
217 [label="mse = 82.86\nsamples = 734\nvalue = 1999.937"] ;
215 -> 217 ;
218 [label="X[1] <= -25.26\nmse = 139.43\nsamples = 925\nvalue = 1997.895"] ;
214 -> 218 ;
219 [label="mse = 101.068\nsamples = 378\nvalue = 2000.86"] ;
218 -> 219 ;
220 [label="mse = 156.009\nsamples = 547\nvalue = 1995.786"] ;
218 -> 220 ;
221 [label="X[5] <= -10.531\nmse = 188.07\nsamples = 30006\nvalue = 1994.728"] ;
191 -> 221 ;
222 [label="X[1] <= -45.946\nmse = 125.383\nsamples = 10229\nvalue = 1997.752"] ;
221 -> 222 ;
223 [label="X[0] <= 39.839\nmse = 117.386\nsamples = 4950\nvalue = 1999.216"] ;
222 -> 223 ;
224 [label="X[5] <= -22.756\nmse = 128.46\nsamples = 3663\nvalue = 1998.238"] ;
223 -> 224 ;
225 [label="mse = 67.578\nsamples = 1150\nvalue = 2000.786"] ;
224 -> 225 ;
226 [label="mse = 152.219\nsamples = 2513\nvalue = 1997.061"] ;
224 -> 226 ;
227 [label="X[12] <= 33.483\nmse = 74.724\nsamples = 1287\nvalue = 2002.036"] ;
223 -> 227 ;
228 [label="mse = 117.093\nsamples = 449\nvalue = 1999.742"] ;
227 -> 228 ;
229 [label="mse = 47.824\nsamples = 838\nvalue = 2003.26"] ;
227 -> 229 ;
230 [label="X[0] <= 40.697\nmse = 128.986\nsamples = 5279\nvalue = 1996.378"] ;
222 -> 230 ;
231 [label="X[85] <= -91.851\nmse = 135.471\nsamples = 2316\nvalue = 1993.89"] ;
230 -> 231 ;
232 [label="mse = 111.19\nsamples = 602\nvalue = 1997.026"] ;
231 -> 232 ;
233 [label="mse = 139.398\nsamples = 1714\nvalue = 1992.762"] ;
231 -> 233 ;
234 [label="X[12] <= 33.955\nmse = 115.162\nsamples = 2963\nvalue = 1998.338"] ;
230 -> 234 ;
235 [label="mse = 170.776\nsamples = 720\nvalue = 1994.415"] ;
234 -> 235 ;
236 [label="mse = 90.432\nsamples = 2243\nvalue = 1999.614"] ;
234 -> 236 ;
237 [label="X[19] <= 772.654\nmse = 213.399\nsamples = 19777\nvalue = 1993.159"] ;
221 -> 237 ;
238 [label="X[46] <= 171.575\nmse = 220.681\nsamples = 14688\nvalue = 1992.127"] ;
237 -> 238 ;
239 [label="X[12] <= 47.426\nmse = 241.822\nsamples = 9529\nvalue = 1990.728"] ;
238 -> 239 ;
240 [label="mse = 257.888\nsamples = 6534\nvalue = 1989.583"] ;
239 -> 240 ;
241 [label="mse = 196.922\nsamples = 2995\nvalue = 1993.264"] ;
239 -> 241 ;
242 [label="X[1] <= -37.225\nmse = 171.041\nsamples = 5159\nvalue = 1994.725"] ;
238 -> 242 ;
243 [label="mse = 160.671\nsamples = 2206\nvalue = 1997.097"] ;
242 -> 243 ;
244 [label="mse = 171.45\nsamples = 2953\nvalue = 1992.957"] ;
242 -> 244 ;
245 [label="X[0] <= 41.426\nmse = 180.462\nsamples = 5089\nvalue = 1996.135"] ;
237 -> 245 ;
246 [label="X[37] <= 451.754\nmse = 194.718\nsamples = 3789\nvalue = 1994.853"] ;
245 -> 246 ;
247 [label="mse = 224.951\nsamples = 2536\nvalue = 1993.319"] ;
246 -> 247 ;
248 [label="mse = 121.556\nsamples = 1253\nvalue = 1997.87"] ;
246 -> 248 ;
249 [label="X[37] <= 226.597\nmse = 118.517\nsamples = 1300\nvalue = 1999.954"] ;
245 -> 249 ;
250 [label="mse = 167.793\nsamples = 637\nvalue = 1998.058"] ;
249 -> 250 ;
251 [label="mse = 63.184\nsamples = 663\nvalue = 2001.813"] ;
249 -> 251 ;
252 [label="X[2] <= 32.998\nmse = 71.357\nsamples = 120949\nvalue = 2001.316"] ;
0 -> 252 [labeldistance=2.5, labelangle=-45, headlabel="False"] ;
253 [label="X[0] <= 48.543\nmse = 57.893\nsamples = 91921\nvalue = 2002.002"] ;
252 -> 253 ;
254 [label="X[13] <= 1529.638\nmse = 70.731\nsamples = 49418\nvalue = 2001.044"] ;
253 -> 254 ;
255 [label="X[1] <= 27.354\nmse = 84.795\nsamples = 18321\nvalue = 1998.723"] ;
254 -> 255 ;
256 [label="X[2] <= 21.24\nmse = 77.846\nsamples = 9536\nvalue = 2000.439"] ;
255 -> 256 ;
257 [label="X[1] <= 1.31\nmse = 65.675\nsamples = 7139\nvalue = 2001.195"] ;
256 -> 257 ;
258 [label="X[20] <= 735.68\nmse = 55.454\nsamples = 2838\nvalue = 2002.609"] ;
257 -> 258 ;
259 [label="mse = 53.775\nsamples = 2829\nvalue = 2002.673"] ;
258 -> 259 ;
260 [label="mse = 212.309\nsamples = 9\nvalue = 1985.062"] ;
258 -> 260 ;
261 [label="X[19] <= 511.755\nmse = 70.167\nsamples = 4301\nvalue = 2000.277"] ;
257 -> 261 ;
262 [label="mse = 75.407\nsamples = 3525\nvalue = 1999.62"] ;
261 -> 262 ;
263 [label="mse = 35.53\nsamples = 776\nvalue = 2003.258"] ;
261 -> 263 ;
264 [label="X[62] <= -21.683\nmse = 107.162\nsamples = 2397\nvalue = 1998.205"] ;
256 -> 264 ;
265 [label="X[56] <= 595.111\nmse = 64.789\nsamples = 536\nvalue = 2001.68"] ;
264 -> 265 ;
266 [label="mse = 58.123\nsamples = 534\nvalue = 2001.882"] ;
265 -> 266 ;
267 [label="mse = 2.16\nsamples = 2\nvalue = 1967.2"] ;
265 -> 267 ;
268 [label="X[56] <= 81.797\nmse = 114.88\nsamples = 1861\nvalue = 1997.205"] ;
264 -> 268 ;
269 [label="mse = 78.584\nsamples = 926\nvalue = 1999.092"] ;
268 -> 269 ;
270 [label="mse = 144.191\nsamples = 935\nvalue = 1995.308"] ;
268 -> 270 ;
271 [label="X[19] <= 487.438\nmse = 85.656\nsamples = 8785\nvalue = 1996.85"] ;
255 -> 271 ;
272 [label="X[56] <= 27.774\nmse = 84.185\nsamples = 7316\nvalue = 1996.054"] ;
271 -> 272 ;
273 [label="X[0] <= 47.477\nmse = 68.273\nsamples = 2350\nvalue = 1998.394"] ;
272 -> 273 ;
274 [label="mse = 74.371\nsamples = 1315\nvalue = 1997.086"] ;
273 -> 274 ;
275 [label="mse = 55.703\nsamples = 1035\nvalue = 2000.044"] ;
273 -> 275 ;
276 [label="X[2] <= 19.745\nmse = 87.867\nsamples = 4966\nvalue = 1994.959"] ;
272 -> 276 ;
277 [label="mse = 81.689\nsamples = 3623\nvalue = 1995.864"] ;
276 -> 277 ;
278 [label="mse = 96.36\nsamples = 1343\nvalue = 1992.535"] ;
276 -> 278 ;
279 [label="X[77] <= 88.285\nmse = 74.263\nsamples = 1469\nvalue = 2000.792"] ;
271 -> 279 ;
280 [label="X[88] <= 314.809\nmse = 48.923\nsamples = 1076\nvalue = 2001.628"] ;
279 -> 280 ;
281 [label="mse = 46.73\nsamples = 1074\nvalue = 2001.701"] ;
280 -> 281 ;
282 [label="mse = 0.0\nsamples = 2\nvalue = 1970.0"] ;
280 -> 282 ;
283 [label="X[2] <= 0.508\nmse = 140.991\nsamples = 393\nvalue = 1998.32"] ;
279 -> 283 ;
284 [label="mse = 81.678\nsamples = 208\nvalue = 2001.243"] ;
283 -> 284 ;
285 [label="mse = 185.301\nsamples = 185\nvalue = 1995.213"] ;
283 -> 285 ;
286 [label="X[19] <= 643.617\nmse = 57.408\nsamples = 31097\nvalue = 2002.41"] ;
254 -> 286 ;
287 [label="X[56] <= 60.923\nmse = 66.004\nsamples = 22040\nvalue = 2001.746"] ;
286 -> 287 ;
288 [label="X[40] <= -39.601\nmse = 46.101\nsamples = 11046\nvalue = 2002.789"] ;
287 -> 288 ;
289 [label="X[5] <= -17.451\nmse = 30.0\nsamples = 3479\nvalue = 2004.018"] ;
288 -> 289 ;
290 [label="mse = 16.349\nsamples = 1549\nvalue = 2004.772"] ;
289 -> 290 ;
291 [label="mse = 40.133\nsamples = 1930\nvalue = 2003.413"] ;
289 -> 291 ;
292 [label="X[1] <= 20.341\nmse = 52.48\nsamples = 7567\nvalue = 2002.225"] ;
288 -> 292 ;
293 [label="mse = 44.806\nsamples = 4471\nvalue = 2003.063"] ;
292 -> 293 ;
294 [label="mse = 61.059\nsamples = 3096\nvalue = 2001.019"] ;
292 -> 294 ;
295 [label="X[1] <= 5.76\nmse = 83.903\nsamples = 10994\nvalue = 2000.692"] ;
287 -> 295 ;
296 [label="X[2] <= 12.658\nmse = 69.722\nsamples = 4319\nvalue = 2002.378"] ;
295 -> 296 ;
297 [label="mse = 50.501\nsamples = 2470\nvalue = 2003.256"] ;
296 -> 297 ;
298 [label="mse = 92.663\nsamples = 1849\nvalue = 2001.223"] ;
296 -> 298 ;
299 [label="X[5] <= -14.74\nmse = 90.054\nsamples = 6675\nvalue = 1999.6"] ;
295 -> 299 ;
300 [label="mse = 57.756\nsamples = 3154\nvalue = 2001.096"] ;
299 -> 300 ;
301 [label="mse = 115.416\nsamples = 3521\nvalue = 1998.247"] ;
299 -> 301 ;
302 [label="X[5] <= -5.575\nmse = 32.741\nsamples = 9057\nvalue = 2004.031"] ;
286 -> 302 ;
303 [label="X[15] <= 1897.215\nmse = 24.595\nsamples = 4040\nvalue = 2004.707"] ;
302 -> 303 ;
304 [label="X[40] <= 51.538\nmse = 30.992\nsamples = 2450\nvalue = 2004.158"] ;
303 -> 304 ;
305 [label="mse = 24.297\nsamples = 1892\nvalue = 2004.59"] ;
304 -> 305 ;
306 [label="mse = 49.977\nsamples = 558\nvalue = 2002.766"] ;
304 -> 306 ;
307 [label="X[37] <= 3134.314\nmse = 13.606\nsamples = 1590\nvalue = 2005.549"] ;
303 -> 307 ;
308 [label="mse = 13.285\nsamples = 1589\nvalue = 2005.565"] ;
307 -> 308 ;
309 [label="mse = 0.0\nsamples = 1\nvalue = 1985.0"] ;
307 -> 309 ;
310 [label="X[37] <= 39.918\nmse = 38.743\nsamples = 5017\nvalue = 2003.476"] ;
302 -> 310 ;
311 [label="X[1] <= 43.262\nmse = 70.401\nsamples = 1167\nvalue = 2002.285"] ;
310 -> 311 ;
312 [label="mse = 62.136\nsamples = 1035\nvalue = 2002.842"] ;
311 -> 312 ;
313 [label="mse = 114.283\nsamples = 132\nvalue = 1997.806"] ;
311 -> 313 ;
314 [label="X[22] <= 296.286\nmse = 28.362\nsamples = 3850\nvalue = 2003.845"] ;
310 -> 314 ;
315 [label="mse = 80.743\nsamples = 158\nvalue = 2000.914"] ;
314 -> 315 ;
316 [label="mse = 25.634\nsamples = 3692\nvalue = 2003.975"] ;
314 -> 316 ;
317 [label="X[19] <= 355.972\nmse = 40.594\nsamples = 42503\nvalue = 2003.121"] ;
253 -> 317 ;
318 [label="X[0] <= 50.556\nmse = 44.9\nsamples = 24572\nvalue = 2002.425"] ;
317 -> 318 ;
319 [label="X[1] <= 55.296\nmse = 55.618\nsamples = 11936\nvalue = 2001.303"] ;
318 -> 319 ;
320 [label="X[24] <= 58.399\nmse = 53.211\nsamples = 9061\nvalue = 2001.958"] ;
319 -> 320 ;
321 [label="X[6] <= -8.082\nmse = 61.293\nsamples = 6340\nvalue = 2001.288"] ;
320 -> 321 ;
322 [label="mse = 84.77\nsamples = 1519\nvalue = 1999.441"] ;
321 -> 322 ;
323 [label="mse = 52.757\nsamples = 4821\nvalue = 2001.852"] ;
321 -> 323 ;
324 [label="X[5] <= -21.211\nmse = 30.749\nsamples = 2721\nvalue = 2003.529"] ;
320 -> 324 ;
325 [label="mse = 20.399\nsamples = 1239\nvalue = 2004.422"] ;
324 -> 325 ;
326 [label="mse = 38.23\nsamples = 1482\nvalue = 2002.777"] ;
324 -> 326 ;
327 [label="X[77] <= 57.978\nmse = 57.544\nsamples = 2875\nvalue = 1999.198"] ;
319 -> 327 ;
328 [label="X[5] <= -20.073\nmse = 48.945\nsamples = 2083\nvalue = 2000.256"] ;
327 -> 328 ;
329 [label="mse = 39.909\nsamples = 1339\nvalue = 2001.22"] ;
328 -> 329 ;
330 [label="mse = 60.442\nsamples = 744\nvalue = 1998.54"] ;
328 -> 330 ;
331 [label="X[5] <= -7.77\nmse = 69.448\nsamples = 792\nvalue = 1996.427"] ;
327 -> 331 ;
332 [label="mse = 58.709\nsamples = 753\nvalue = 1996.911"] ;
331 -> 332 ;
333 [label="mse = 182.179\nsamples = 39\nvalue = 1987.818"] ;
331 -> 333 ;
334 [label="X[6] <= -16.093\nmse = 32.426\nsamples = 12636\nvalue = 2003.487"] ;
318 -> 334 ;
335 [label="X[42] <= 58.559\nmse = 63.138\nsamples = 889\nvalue = 2000.006"] ;
334 -> 335 ;
336 [label="X[48] <= -3.003\nmse = 59.258\nsamples = 887\nvalue = 2000.127"] ;
335 -> 336 ;
337 [label="mse = 43.575\nsamples = 703\nvalue = 2001.122"] ;
336 -> 337 ;
338 [label="mse = 100.028\nsamples = 184\nvalue = 1996.445"] ;
336 -> 338 ;
339 [label="mse = 0.0\nsamples = 2\nvalue = 1966.0"] ;
335 -> 339 ;
340 [label="X[5] <= -22.556\nmse = 29.076\nsamples = 11747\nvalue = 2003.754"] ;
334 -> 340 ;
341 [label="X[17] <= 360.779\nmse = 23.926\nsamples = 6382\nvalue = 2004.372"] ;
340 -> 341 ;
342 [label="mse = 28.371\nsamples = 3295\nvalue = 2003.591"] ;
341 -> 342 ;
343 [label="mse = 17.82\nsamples = 3087\nvalue = 2005.209"] ;
341 -> 343 ;
344 [label="X[1] <= 56.222\nmse = 34.287\nsamples = 5365\nvalue = 2003.005"] ;
340 -> 344 ;
345 [label="mse = 30.407\nsamples = 3906\nvalue = 2003.511"] ;
344 -> 345 ;
346 [label="mse = 42.288\nsamples = 1459\nvalue = 2001.619"] ;
344 -> 346 ;
347 [label="X[40] <= -14.902\nmse = 33.101\nsamples = 17931\nvalue = 2004.076"] ;
317 -> 347 ;
348 [label="X[4] <= -17.184\nmse = 26.594\nsamples = 8864\nvalue = 2004.697"] ;
347 -> 348 ;
349 [label="X[7] <= 11.041\nmse = 27.275\nsamples = 2487\nvalue = 2003.841"] ;
348 -> 349 ;
350 [label="X[33] <= -149.586\nmse = 23.721\nsamples = 2405\nvalue = 2004.015"] ;
349 -> 350 ;
351 [label="mse = 0.0\nsamples = 1\nvalue = 1976.0"] ;
350 -> 351 ;
352 [label="mse = 23.319\nsamples = 2404\nvalue = 2004.03"] ;
350 -> 352 ;
353 [label="X[68] <= 107.212\nmse = 102.0\nsamples = 82\nvalue = 1998.985"] ;
349 -> 353 ;
354 [label="mse = 77.407\nsamples = 79\nvalue = 2000.086"] ;
353 -> 354 ;
355 [label="mse = 165.984\nsamples = 3\nvalue = 1981.375"] ;
353 -> 355 ;
356 [label="X[8] <= 32.668\nmse = 25.929\nsamples = 6377\nvalue = 2005.032"] ;
348 -> 356 ;
357 [label="X[3] <= -35.341\nmse = 25.672\nsamples = 6373\nvalue = 2005.042"] ;
356 -> 357 ;
358 [label="mse = 0.0\nsamples = 1\nvalue = 1958.0"] ;
357 -> 358 ;
359 [label="mse = 25.454\nsamples = 6372\nvalue = 2005.047"] ;
357 -> 359 ;
360 [label="X[82] <= -66.778\nmse = 90.16\nsamples = 4\nvalue = 1983.8"] ;
356 -> 360 ;
361 [label="mse = 0.0\nsamples = 1\nvalue = 2002.0"] ;
360 -> 361 ;
362 [label="mse = 9.188\nsamples = 3\nvalue = 1979.25"] ;
360 -> 362 ;
363 [label="X[62] <= -12.923\nmse = 38.708\nsamples = 9067\nvalue = 2003.471"] ;
347 -> 363 ;
364 [label="X[8] <= 27.872\nmse = 30.348\nsamples = 5496\nvalue = 2004.02"] ;
363 -> 364 ;
365 [label="X[45] <= -26.704\nmse = 29.586\nsamples = 5478\nvalue = 2004.058"] ;
364 -> 365 ;
366 [label="mse = 22.239\nsamples = 1986\nvalue = 2004.834"] ;
365 -> 366 ;
367 [label="mse = 33.218\nsamples = 3492\nvalue = 2003.617"] ;
365 -> 367 ;
368 [label="X[12] <= 16.849\nmse = 130.443\nsamples = 18\nvalue = 1993.484"] ;
364 -> 368 ;
369 [label="mse = 17.396\nsamples = 9\nvalue = 2004.067"] ;
368 -> 369 ;
370 [label="mse = 32.996\nsamples = 9\nvalue = 1983.562"] ;
368 -> 370 ;
371 [label="X[19] <= 524.136\nmse = 50.242\nsamples = 3571\nvalue = 2002.638"] ;
363 -> 371 ;
372 [label="X[5] <= -8.128\nmse = 55.476\nsamples = 2711\nvalue = 2002.116"] ;
371 -> 372 ;
373 [label="mse = 43.66\nsamples = 2135\nvalue = 2002.675"] ;
372 -> 373 ;
374 [label="mse = 93.594\nsamples = 576\nvalue = 2000.055"] ;
372 -> 374 ;
375 [label="X[64] <= 312.832\nmse = 30.29\nsamples = 860\nvalue = 2004.275"] ;
371 -> 375 ;
376 [label="mse = 27.175\nsamples = 815\nvalue = 2004.518"] ;
375 -> 376 ;
377 [label="mse = 66.705\nsamples = 45\nvalue = 1999.743"] ;
375 -> 377 ;
378 [label="X[0] <= 49.214\nmse = 107.803\nsamples = 29028\nvalue = 1999.141"] ;
252 -> 378 ;
379 [label="X[56] <= -23.732\nmse = 139.351\nsamples = 14257\nvalue = 1996.595"] ;
378 -> 379 ;
380 [label="X[56] <= -212.947\nmse = 89.741\nsamples = 4274\nvalue = 2000.507"] ;
379 -> 380 ;
381 [label="X[40] <= -32.94\nmse = 51.062\nsamples = 1415\nvalue = 2003.02"] ;
380 -> 381 ;
382 [label="X[47] <= -221.082\nmse = 30.633\nsamples = 604\nvalue = 2004.447"] ;
381 -> 382 ;
383 [label="X[6] <= 6.625\nmse = 122.0\nsamples = 4\nvalue = 1992.0"] ;
382 -> 383 ;
384 [label="mse = 2.0\nsamples = 2\nvalue = 1981.0"] ;
383 -> 384 ;
385 [label="mse = 0.0\nsamples = 2\nvalue = 2003.0"] ;
383 -> 385 ;
386 [label="X[41] <= -131.051\nmse = 29.084\nsamples = 600\nvalue = 2004.525"] ;
382 -> 386 ;
387 [label="mse = 112.883\nsamples = 45\nvalue = 2001.29"] ;
386 -> 387 ;
388 [label="mse = 22.512\nsamples = 555\nvalue = 2004.749"] ;
386 -> 388 ;
389 [label="X[55] <= 707.995\nmse = 63.254\nsamples = 811\nvalue = 2001.991"] ;
381 -> 389 ;
390 [label="X[87] <= -11.242\nmse = 59.19\nsamples = 807\nvalue = 2002.13"] ;
389 -> 390 ;
391 [label="mse = 12.507\nsamples = 129\nvalue = 2005.681"] ;
390 -> 391 ;
392 [label="mse = 65.05\nsamples = 678\nvalue = 2001.474"] ;
390 -> 392 ;
393 [label="X[38] <= -174.79\nmse = 262.24\nsamples = 4\nvalue = 1983.6"] ;
389 -> 393 ;
394 [label="mse = 3.84\nsamples = 2\nvalue = 1967.6"] ;
393 -> 394 ;
395 [label="mse = 8.64\nsamples = 2\nvalue = 1999.6"] ;
393 -> 395 ;
396 [label="X[40] <= -6.538\nmse = 104.779\nsamples = 2859\nvalue = 1999.208"] ;
380 -> 396 ;
397 [label="X[1] <= 20.463\nmse = 80.65\nsamples = 1470\nvalue = 2001.02"] ;
396 -> 397 ;
398 [label="X[50] <= -249.147\nmse = 72.379\nsamples = 888\nvalue = 2002.238"] ;
397 -> 398 ;
399 [label="mse = 526.688\nsamples = 2\nvalue = 1969.25"] ;
398 -> 399 ;
400 [label="mse = 67.846\nsamples = 886\nvalue = 2002.334"] ;
398 -> 400 ;
401 [label="X[16] <= 867.151\nmse = 87.428\nsamples = 582\nvalue = 1999.226"] ;
397 -> 401 ;
402 [label="mse = 107.457\nsamples = 334\nvalue = 1996.903"] ;
401 -> 402 ;
403 [label="mse = 44.824\nsamples = 248\nvalue = 2002.271"] ;
401 -> 403 ;
404 [label="X[1] <= 25.63\nmse = 123.254\nsamples = 1389\nvalue = 1997.28"] ;
396 -> 404 ;
405 [label="X[62] <= -10.846\nmse = 122.061\nsamples = 925\nvalue = 1998.779"] ;
404 -> 405 ;
406 [label="mse = 85.879\nsamples = 510\nvalue = 2000.722"] ;
405 -> 406 ;
407 [label="mse = 156.358\nsamples = 415\nvalue = 1996.375"] ;
405 -> 407 ;
408 [label="X[28] <= 139.769\nmse = 112.996\nsamples = 464\nvalue = 1994.409"] ;
404 -> 408 ;
409 [label="mse = 112.124\nsamples = 397\nvalue = 1993.374"] ;
408 -> 409 ;
410 [label="mse = 74.324\nsamples = 67\nvalue = 2000.533"] ;
408 -> 410 ;
411 [label="X[24] <= 100.677\nmse = 151.297\nsamples = 9983\nvalue = 1994.909"] ;
379 -> 411 ;
412 [label="X[1] <= 7.253\nmse = 154.037\nsamples = 8447\nvalue = 1993.992"] ;
411 -> 412 ;
413 [label="X[0] <= 46.965\nmse = 163.736\nsamples = 3237\nvalue = 1996.253"] ;
412 -> 413 ;
414 [label="X[40] <= -74.356\nmse = 187.674\nsamples = 1353\nvalue = 1993.842"] ;
413 -> 414 ;
415 [label="mse = 127.049\nsamples = 144\nvalue = 2000.333"] ;
414 -> 415 ;
416 [label="mse = 189.353\nsamples = 1209\nvalue = 1993.009"] ;
414 -> 416 ;
417 [label="X[5] <= -6.174\nmse = 140.008\nsamples = 1884\nvalue = 1997.944"] ;
413 -> 417 ;
418 [label="mse = 107.945\nsamples = 1310\nvalue = 1999.089"] ;
417 -> 418 ;
419 [label="mse = 202.569\nsamples = 574\nvalue = 1995.367"] ;
417 -> 419 ;
420 [label="X[62] <= -27.887\nmse = 142.894\nsamples = 5210\nvalue = 1992.591"] ;
412 -> 420 ;
421 [label="X[68] <= 15.145\nmse = 127.584\nsamples = 914\nvalue = 1997.063"] ;
420 -> 421 ;
422 [label="mse = 79.948\nsamples = 392\nvalue = 1999.846"] ;
421 -> 422 ;
423 [label="mse = 154.118\nsamples = 522\nvalue = 1994.879"] ;
421 -> 423 ;
424 [label="X[0] <= 47.538\nmse = 140.941\nsamples = 4296\nvalue = 1991.623"] ;
420 -> 424 ;
425 [label="mse = 145.953\nsamples = 2175\nvalue = 1989.809"] ;
424 -> 425 ;
426 [label="mse = 128.999\nsamples = 2121\nvalue = 1993.48"] ;
424 -> 426 ;
427 [label="X[5] <= -8.786\nmse = 108.01\nsamples = 1536\nvalue = 1999.82"] ;
411 -> 427 ;
428 [label="X[1] <= 4.551\nmse = 70.997\nsamples = 1103\nvalue = 2001.243"] ;
427 -> 428 ;
429 [label="X[52] <= 116.277\nmse = 59.223\nsamples = 590\nvalue = 2002.878"] ;
428 -> 429 ;
430 [label="mse = 54.659\nsamples = 587\nvalue = 2003.012"] ;
429 -> 430 ;
431 [label="mse = 277.44\nsamples = 3\nvalue = 1977.4"] ;
429 -> 431 ;
432 [label="X[36] <= -394.695\nmse = 77.961\nsamples = 513\nvalue = 1999.342"] ;
428 -> 432 ;
433 [label="mse = 27.03\nsamples = 113\nvalue = 2003.458"] ;
432 -> 433 ;
434 [label="mse = 86.71\nsamples = 400\nvalue = 1998.093"] ;
432 -> 434 ;
435 [label="X[2] <= 52.359\nmse = 185.582\nsamples = 433\nvalue = 1996.102"] ;
427 -> 435 ;
436 [label="X[16] <= 686.775\nmse = 133.821\nsamples = 288\nvalue = 1998.768"] ;
435 -> 436 ;
437 [label="mse = 203.602\nsamples = 80\nvalue = 1993.768"] ;
436 -> 437 ;
438 [label="mse = 93.398\nsamples = 208\nvalue = 2000.703"] ;
436 -> 438 ;
439 [label="X[57] <= -274.616\nmse = 244.897\nsamples = 145\nvalue = 1991.021"] ;
435 -> 439 ;
440 [label="mse = 151.271\nsamples = 14\nvalue = 1971.25"] ;
439 -> 440 ;
441 [label="mse = 206.027\nsamples = 131\nvalue = 1993.27"] ;
439 -> 441 ;
442 [label="X[62] <= -14.22\nmse = 65.535\nsamples = 14771\nvalue = 2001.575"] ;
378 -> 442 ;
443 [label="X[0] <= 50.298\nmse = 48.451\nsamples = 7193\nvalue = 2002.858"] ;
442 -> 443 ;
444 [label="X[62] <= -35.317\nmse = 71.199\nsamples = 2181\nvalue = 2001.598"] ;
443 -> 444 ;
445 [label="X[13] <= 1399.313\nmse = 37.526\nsamples = 797\nvalue = 2003.67"] ;
444 -> 445 ;
446 [label="X[55] <= 276.197\nmse = 59.778\nsamples = 332\nvalue = 2002.218"] ;
445 -> 446 ;
447 [label="mse = 51.072\nsamples = 328\nvalue = 2002.459"] ;
446 -> 447 ;
448 [label="mse = 364.806\nsamples = 4\nvalue = 1980.167"] ;
446 -> 448 ;
449 [label="X[3] <= -5.587\nmse = 18.153\nsamples = 465\nvalue = 2004.755"] ;
445 -> 449 ;
450 [label="mse = 59.599\nsamples = 28\nvalue = 2001.275"] ;
449 -> 450 ;
451 [label="mse = 15.066\nsamples = 437\nvalue = 2004.953"] ;
449 -> 451 ;
452 [label="X[39] <= 189.558\nmse = 87.197\nsamples = 1384\nvalue = 2000.362"] ;
444 -> 452 ;
453 [label="X[19] <= 368.923\nmse = 78.949\nsamples = 1315\nvalue = 2000.73"] ;
452 -> 453 ;
454 [label="mse = 88.288\nsamples = 838\nvalue = 1999.486"] ;
453 -> 454 ;
455 [label="mse = 54.425\nsamples = 477\nvalue = 2002.963"] ;
453 -> 455 ;
456 [label="X[25] <= 432.766\nmse = 191.223\nsamples = 69\nvalue = 1993.514"] ;
452 -> 456 ;
457 [label="mse = 124.77\nsamples = 66\nvalue = 1995.931"] ;
456 -> 457 ;
458 [label="mse = 127.21\nsamples = 3\nvalue = 1966.111"] ;
456 -> 458 ;
459 [label="X[40] <= -13.341\nmse = 37.416\nsamples = 5012\nvalue = 2003.414"] ;
443 -> 459 ;
460 [label="X[6] <= -10.568\nmse = 31.632\nsamples = 2467\nvalue = 2004.115"] ;
459 -> 460 ;
461 [label="X[6] <= -10.626\nmse = 66.738\nsamples = 292\nvalue = 2002.34"] ;
460 -> 461 ;
462 [label="mse = 55.766\nsamples = 288\nvalue = 2002.728"] ;
461 -> 462 ;
463 [label="mse = 188.359\nsamples = 4\nvalue = 1979.875"] ;
461 -> 463 ;
464 [label="X[77] <= 236.592\nmse = 26.278\nsamples = 2175\nvalue = 2004.36"] ;
460 -> 464 ;
465 [label="mse = 24.894\nsamples = 2156\nvalue = 2004.421"] ;
464 -> 465 ;
466 [label="mse = 142.629\nsamples = 19\nvalue = 1996.423"] ;
464 -> 466 ;
467 [label="X[11] <= 6.915\nmse = 42.076\nsamples = 2545\nvalue = 2002.736"] ;
459 -> 467 ;
468 [label="X[42] <= -48.058\nmse = 37.825\nsamples = 2169\nvalue = 2003.061"] ;
467 -> 468 ;
469 [label="mse = 24.783\nsamples = 749\nvalue = 2004.132"] ;
468 -> 469 ;
470 [label="mse = 43.923\nsamples = 1420\nvalue = 2002.481"] ;
468 -> 470 ;
471 [label="X[5] <= 9.062\nmse = 62.677\nsamples = 376\nvalue = 2000.84"] ;
467 -> 471 ;
472 [label="mse = 58.926\nsamples = 373\nvalue = 2001.002"] ;
471 -> 472 ;
473 [label="mse = 48.188\nsamples = 3\nvalue = 1977.25"] ;
471 -> 473 ;
474 [label="X[0] <= 51.425\nmse = 78.555\nsamples = 7578\nvalue = 2000.372"] ;
442 -> 474 ;
475 [label="X[1] <= 38.993\nmse = 93.287\nsamples = 4232\nvalue = 1999.027"] ;
474 -> 475 ;
476 [label="X[66] <= 6.232\nmse = 89.53\nsamples = 2962\nvalue = 1999.956"] ;
475 -> 476 ;
477 [label="X[40] <= 0.212\nmse = 67.903\nsamples = 1673\nvalue = 2001.154"] ;
476 -> 477 ;
478 [label="mse = 59.417\nsamples = 851\nvalue = 2002.357"] ;
477 -> 478 ;
479 [label="mse = 73.585\nsamples = 822\nvalue = 1999.924"] ;
477 -> 479 ;
480 [label="X[77] <= 68.511\nmse = 113.681\nsamples = 1289\nvalue = 1998.374"] ;
476 -> 480 ;
481 [label="mse = 89.546\nsamples = 831\nvalue = 1999.927"] ;
480 -> 481 ;
482 [label="mse = 144.877\nsamples = 458\nvalue = 1995.59"] ;
480 -> 482 ;
483 [label="X[77] <= 60.789\nmse = 95.38\nsamples = 1270\nvalue = 1996.893"] ;
475 -> 483 ;
484 [label="X[60] <= -13.56\nmse = 83.323\nsamples = 859\nvalue = 1998.339"] ;
483 -> 484 ;
485 [label="mse = 58.67\nsamples = 386\nvalue = 2000.602"] ;
484 -> 485 ;
486 [label="mse = 95.926\nsamples = 473\nvalue = 1996.477"] ;
484 -> 486 ;
487 [label="X[5] <= -4.847\nmse = 107.112\nsamples = 411\nvalue = 1993.814"] ;
483 -> 487 ;
488 [label="mse = 95.987\nsamples = 372\nvalue = 1994.574"] ;
487 -> 488 ;
489 [label="mse = 155.163\nsamples = 39\nvalue = 1986.587"] ;
487 -> 489 ;
490 [label="X[77] <= 163.395\nmse = 54.191\nsamples = 3346\nvalue = 2002.108"] ;
474 -> 490 ;
491 [label="X[5] <= -23.308\nmse = 49.407\nsamples = 3253\nvalue = 2002.323"] ;
490 -> 491 ;
492 [label="X[27] <= 173.028\nmse = 27.146\nsamples = 1209\nvalue = 2003.762"] ;
491 -> 492 ;
493 [label="mse = 25.511\nsamples = 1171\nvalue = 2003.916"] ;
492 -> 493 ;
494 [label="mse = 54.338\nsamples = 38\nvalue = 1999.082"] ;
492 -> 494 ;
495 [label="X[30] <= -5.081\nmse = 60.692\nsamples = 2044\nvalue = 2001.466"] ;
491 -> 495 ;
496 [label="mse = 36.874\nsamples = 1021\nvalue = 2002.944"] ;
495 -> 496 ;
497 [label="mse = 80.918\nsamples = 1023\nvalue = 1999.922"] ;
495 -> 497 ;
498 [label="X[11] <= 4.366\nmse = 164.186\nsamples = 93\nvalue = 1994.41"] ;
490 -> 498 ;
499 [label="X[66] <= 58.878\nmse = 105.63\nsamples = 63\nvalue = 1997.927"] ;
498 -> 499 ;
500 [label="mse = 77.654\nsamples = 48\nvalue = 2000.459"] ;
499 -> 500 ;
501 [label="mse = 105.605\nsamples = 15\nvalue = 1989.409"] ;
499 -> 501 ;
502 [label="X[22] <= 119.34\nmse = 207.068\nsamples = 30\nvalue = 1987.375"] ;
498 -> 502 ;
503 [label="mse = 80.941\nsamples = 8\nvalue = 1974.056"] ;
502 -> 503 ;
504 [label="mse = 112.432\nsamples = 22\nvalue = 1995.367"] ;
502 -> 504 ;
}