digraph Tree {
node [shape=box] ;
0 [label="X[27] <= 0.946\ngini = 0.498\nsamples = 5562466\nvalue = [4135227, 4664773]"] ;
1 [label="X[0] <= 0.551\ngini = 0.483\nsamples = 3471102\nvalue = [2238716, 3251706]"] ;
0 -> 1 [labeldistance=2.5, labelangle=45, headlabel="True"] ;
2 [label="X[12] <= 0.554\ngini = 0.497\nsamples = 713910\nvalue = [523024, 606862]"] ;
1 -> 2 ;
3 [label="X[13] <= 1.209\ngini = 0.491\nsamples = 364291\nvalue = [248955, 327488]"] ;
2 -> 3 ;
4 [label="X[25] <= 0.587\ngini = 0.496\nsamples = 273384\nvalue = [197116, 235365]"] ;
3 -> 4 ;
5 [label="X[13] <= 1.002\ngini = 0.486\nsamples = 72461\nvalue = [66923, 47773]"] ;
4 -> 5 ;
6 [label="X[5] <= 0.907\ngini = 0.483\nsamples = 60892\nvalue = [57137, 39148]"] ;
5 -> 6 ;
7 [label="X[24] <= 0.685\ngini = 0.458\nsamples = 45032\nvalue = [45961, 25351]"] ;
6 -> 7 ;
8 [label="gini = 0.486\nsamples = 19532\nvalue = [18106, 12943]"] ;
7 -> 8 ;
9 [label="gini = 0.426\nsamples = 25500\nvalue = [27855, 12408]"] ;
7 -> 9 ;
10 [label="X[8] <= 0.543\ngini = 0.494\nsamples = 15860\nvalue = [11176, 13797]"] ;
6 -> 10 ;
11 [label="gini = 0.486\nsamples = 10699\nvalue = [7005, 9819]"] ;
10 -> 11 ;
12 [label="gini = 0.5\nsamples = 5161\nvalue = [4171, 3978]"] ;
10 -> 12 ;
13 [label="X[3] <= 1.177\ngini = 0.498\nsamples = 11569\nvalue = [9786, 8625]"] ;
5 -> 13 ;
14 [label="X[26] <= 0.594\ngini = 0.498\nsamples = 6595\nvalue = [4886, 5572]"] ;
13 -> 14 ;
15 [label="gini = 0.458\nsamples = 1114\nvalue = [625, 1133]"] ;
14 -> 15 ;
16 [label="gini = 0.5\nsamples = 5481\nvalue = [4261, 4439]"] ;
14 -> 16 ;
17 [label="X[16] <= 0.637\ngini = 0.473\nsamples = 4974\nvalue = [4900, 3053]"] ;
13 -> 17 ;
18 [label="gini = 0.49\nsamples = 2142\nvalue = [1968, 1487]"] ;
17 -> 18 ;
19 [label="gini = 0.454\nsamples = 2832\nvalue = [2932, 1566]"] ;
17 -> 19 ;
20 [label="X[27] <= 0.731\ngini = 0.484\nsamples = 200923\nvalue = [130193, 187592]"] ;
4 -> 20 ;
21 [label="X[5] <= 0.858\ngini = 0.5\nsamples = 55167\nvalue = [44340, 42762]"] ;
20 -> 21 ;
22 [label="X[3] <= 0.994\ngini = 0.486\nsamples = 38358\nvalue = [35365, 25249]"] ;
21 -> 22 ;
23 [label="gini = 0.497\nsamples = 22547\nvalue = [19098, 16546]"] ;
22 -> 23 ;
24 [label="gini = 0.454\nsamples = 15811\nvalue = [16267, 8703]"] ;
22 -> 24 ;
25 [label="X[3] <= 1.152\ngini = 0.448\nsamples = 16809\nvalue = [8975, 17513]"] ;
21 -> 25 ;
26 [label="gini = 0.432\nsamples = 12524\nvalue = [6221, 13528]"] ;
25 -> 26 ;
27 [label="gini = 0.483\nsamples = 4285\nvalue = [2754, 3985]"] ;
25 -> 27 ;
28 [label="X[3] <= 1.276\ngini = 0.467\nsamples = 145756\nvalue = [85853, 144830]"] ;
20 -> 28 ;
29 [label="X[27] <= 0.867\ngini = 0.444\nsamples = 95040\nvalue = [50077, 100286]"] ;
28 -> 29 ;
30 [label="gini = 0.424\nsamples = 73088\nvalue = [35372, 80343]"] ;
29 -> 30 ;
31 [label="gini = 0.489\nsamples = 21952\nvalue = [14705, 19943]"] ;
29 -> 31 ;
32 [label="X[9] <= 1.296\ngini = 0.494\nsamples = 50716\nvalue = [35776, 44544]"] ;
28 -> 32 ;
33 [label="gini = 0.496\nsamples = 46799\nvalue = [33751, 40361]"] ;
32 -> 33 ;
34 [label="gini = 0.44\nsamples = 3917\nvalue = [2025, 4183]"] ;
32 -> 34 ;
35 [label="X[0] <= 0.486\ngini = 0.461\nsamples = 90907\nvalue = [51839, 92123]"] ;
3 -> 35 ;
36 [label="X[17] <= 1.141\ngini = 0.466\nsamples = 63121\nvalue = [36974, 62808]"] ;
35 -> 36 ;
37 [label="X[26] <= 1.025\ngini = 0.491\nsamples = 34981\nvalue = [23922, 31344]"] ;
36 -> 37 ;
38 [label="X[16] <= 0.637\ngini = 0.487\nsamples = 30745\nvalue = [20341, 28252]"] ;
37 -> 38 ;
39 [label="gini = 0.448\nsamples = 9172\nvalue = [4929, 9608]"] ;
38 -> 39 ;
40 [label="gini = 0.495\nsamples = 21573\nvalue = [15412, 18644]"] ;
38 -> 40 ;
41 [label="X[16] <= 0.637\ngini = 0.497\nsamples = 4236\nvalue = [3581, 3092]"] ;
37 -> 41 ;
42 [label="gini = 0.496\nsamples = 879\nvalue = [644, 765]"] ;
41 -> 42 ;
43 [label="gini = 0.493\nsamples = 3357\nvalue = [2937, 2327]"] ;
41 -> 43 ;
44 [label="X[22] <= 1.03\ngini = 0.414\nsamples = 28140\nvalue = [13052, 31464]"] ;
36 -> 44 ;
45 [label="X[27] <= 0.873\ngini = 0.454\nsamples = 18097\nvalue = [9948, 18646]"] ;
44 -> 45 ;
46 [label="gini = 0.425\nsamples = 14274\nvalue = [6900, 15583]"] ;
45 -> 46 ;
47 [label="gini = 0.5\nsamples = 3823\nvalue = [3048, 3063]"] ;
45 -> 47 ;
48 [label="X[13] <= 1.441\ngini = 0.314\nsamples = 10043\nvalue = [3104, 12818]"] ;
44 -> 48 ;
49 [label="gini = 0.343\nsamples = 4298\nvalue = [1507, 5353]"] ;
48 -> 49 ;
50 [label="gini = 0.29\nsamples = 5745\nvalue = [1597, 7465]"] ;
48 -> 50 ;
51 [label="X[9] <= 0.821\ngini = 0.447\nsamples = 27786\nvalue = [14865, 29315]"] ;
35 -> 51 ;
52 [label="X[25] <= 1.037\ngini = 0.49\nsamples = 11541\nvalue = [7912, 10490]"] ;
51 -> 52 ;
53 [label="X[27] <= 0.732\ngini = 0.44\nsamples = 7930\nvalue = [4151, 8526]"] ;
52 -> 53 ;
54 [label="gini = 0.488\nsamples = 2186\nvalue = [1482, 2018]"] ;
53 -> 54 ;
55 [label="gini = 0.413\nsamples = 5744\nvalue = [2669, 6508]"] ;
53 -> 55 ;
56 [label="X[5] <= 0.965\ngini = 0.451\nsamples = 3611\nvalue = [3761, 1964]"] ;
52 -> 56 ;
57 [label="gini = 0.415\nsamples = 2395\nvalue = [2698, 1125]"] ;
56 -> 57 ;
58 [label="gini = 0.493\nsamples = 1216\nvalue = [1063, 839]"] ;
56 -> 58 ;
59 [label="X[25] <= 1.026\ngini = 0.394\nsamples = 16245\nvalue = [6953, 18825]"] ;
51 -> 59 ;
60 [label="X[17] <= 1.198\ngini = 0.328\nsamples = 12234\nvalue = [4021, 15412]"] ;
59 -> 60 ;
61 [label="gini = 0.373\nsamples = 6535\nvalue = [2570, 7774]"] ;
60 -> 61 ;
62 [label="gini = 0.268\nsamples = 5699\nvalue = [1451, 7638]"] ;
60 -> 62 ;
63 [label="X[22] <= 1.075\ngini = 0.497\nsamples = 4011\nvalue = [2932, 3413]"] ;
59 -> 63 ;
64 [label="gini = 0.499\nsamples = 3171\nvalue = [2569, 2407]"] ;
63 -> 64 ;
65 [label="gini = 0.39\nsamples = 840\nvalue = [363, 1006]"] ;
63 -> 65 ;
66 [label="X[3] <= 1.054\ngini = 0.5\nsamples = 349619\nvalue = [274069, 279374]"] ;
2 -> 66 ;
67 [label="X[22] <= 1.029\ngini = 0.495\nsamples = 187367\nvalue = [133491, 162699]"] ;
66 -> 67 ;
68 [label="X[5] <= 0.821\ngini = 0.5\nsamples = 135324\nvalue = [108037, 106063]"] ;
67 -> 68 ;
69 [label="X[17] <= 0.909\ngini = 0.491\nsamples = 77338\nvalue = [69623, 52810]"] ;
68 -> 69 ;
70 [label="X[26] <= 0.797\ngini = 0.479\nsamples = 48974\nvalue = [46612, 30790]"] ;
69 -> 70 ;
71 [label="gini = 0.433\nsamples = 25301\nvalue = [27320, 12650]"] ;
70 -> 71 ;
72 [label="gini = 0.5\nsamples = 23673\nvalue = [19292, 18140]"] ;
70 -> 72 ;
73 [label="X[26] <= 0.792\ngini = 0.5\nsamples = 28364\nvalue = [23011, 22020]"] ;
69 -> 73 ;
74 [label="gini = 0.474\nsamples = 11356\nvalue = [11181, 7003]"] ;
73 -> 74 ;
75 [label="gini = 0.493\nsamples = 17008\nvalue = [11830, 15017]"] ;
73 -> 75 ;
76 [label="X[8] <= 0.543\ngini = 0.487\nsamples = 57986\nvalue = [38414, 53253]"] ;
68 -> 76 ;
77 [label="X[6] <= 1.061\ngini = 0.424\nsamples = 34866\nvalue = [16831, 38325]"] ;
76 -> 77 ;
78 [label="gini = 0.415\nsamples = 29712\nvalue = [13851, 33211]"] ;
77 -> 78 ;
79 [label="gini = 0.465\nsamples = 5154\nvalue = [2980, 5114]"] ;
77 -> 79 ;
80 [label="X[25] <= 1.043\ngini = 0.483\nsamples = 23120\nvalue = [21583, 14928]"] ;
76 -> 80 ;
81 [label="gini = 0.418\nsamples = 3787\nvalue = [1791, 4228]"] ;
80 -> 81 ;
82 [label="gini = 0.456\nsamples = 19333\nvalue = [19792, 10700]"] ;
80 -> 82 ;
83 [label="X[5] <= 0.672\ngini = 0.428\nsamples = 52043\nvalue = [25454, 56636]"] ;
67 -> 83 ;
84 [label="X[27] <= 0.744\ngini = 0.474\nsamples = 13691\nvalue = [8388, 13302]"] ;
83 -> 84 ;
85 [label="X[24] <= 0.537\ngini = 0.496\nsamples = 4874\nvalue = [3540, 4208]"] ;
84 -> 85 ;
86 [label="gini = 0.46\nsamples = 577\nvalue = [322, 574]"] ;
85 -> 86 ;
87 [label="gini = 0.498\nsamples = 4297\nvalue = [3218, 3634]"] ;
85 -> 87 ;
88 [label="X[26] <= 0.83\ngini = 0.454\nsamples = 8817\nvalue = [4848, 9094]"] ;
84 -> 88 ;
89 [label="gini = 0.478\nsamples = 1182\nvalue = [1121, 733]"] ;
88 -> 89 ;
90 [label="gini = 0.427\nsamples = 7635\nvalue = [3727, 8361]"] ;
88 -> 90 ;
91 [label="X[17] <= 0.981\ngini = 0.405\nsamples = 38352\nvalue = [17066, 43334]"] ;
83 -> 91 ;
92 [label="X[13] <= 0.846\ngini = 0.448\nsamples = 21098\nvalue = [11278, 22022]"] ;
91 -> 92 ;
93 [label="gini = 0.488\nsamples = 8991\nvalue = [6020, 8197]"] ;
92 -> 93 ;
94 [label="gini = 0.399\nsamples = 12107\nvalue = [5258, 13825]"] ;
92 -> 94 ;
95 [label="X[5] <= 1.584\ngini = 0.336\nsamples = 17254\nvalue = [5788, 21312]"] ;
91 -> 95 ;
96 [label="gini = 0.347\nsamples = 16130\nvalue = [5655, 19706]"] ;
95 -> 96 ;
97 [label="gini = 0.141\nsamples = 1124\nvalue = [133, 1606]"] ;
95 -> 97 ;
98 [label="X[25] <= 1.027\ngini = 0.496\nsamples = 162252\nvalue = [140578, 116675]"] ;
66 -> 98 ;
99 [label="X[27] <= 0.761\ngini = 0.5\nsamples = 118324\nvalue = [94038, 93613]"] ;
98 -> 99 ;
100 [label="X[5] <= 0.924\ngini = 0.475\nsamples = 44555\nvalue = [43301, 27500]"] ;
99 -> 100 ;
101 [label="X[1] <= -1.233\ngini = 0.444\nsamples = 36261\nvalue = [38528, 19152]"] ;
100 -> 101 ;
102 [label="gini = 0.473\nsamples = 6524\nvalue = [6429, 4004]"] ;
101 -> 102 ;
103 [label="gini = 0.436\nsamples = 29737\nvalue = [32099, 15148]"] ;
101 -> 103 ;
104 [label="X[9] <= 1.251\ngini = 0.463\nsamples = 8294\nvalue = [4773, 8348]"] ;
100 -> 104 ;
105 [label="gini = 0.483\nsamples = 6469\nvalue = [4169, 6068]"] ;
104 -> 105 ;
106 [label="gini = 0.331\nsamples = 1825\nvalue = [604, 2280]"] ;
104 -> 106 ;
107 [label="X[9] <= 1.024\ngini = 0.491\nsamples = 73769\nvalue = [50737, 66113]"] ;
99 -> 107 ;
108 [label="X[26] <= 0.852\ngini = 0.5\nsamples = 49083\nvalue = [39335, 38401]"] ;
107 -> 108 ;
109 [label="gini = 0.442\nsamples = 20194\nvalue = [21455, 10584]"] ;
108 -> 109 ;
110 [label="gini = 0.476\nsamples = 28889\nvalue = [17880, 27817]"] ;
108 -> 110 ;
111 [label="X[20] <= 0.775\ngini = 0.413\nsamples = 24686\nvalue = [11402, 27712]"] ;
107 -> 111 ;
112 [label="gini = 0.403\nsamples = 16248\nvalue = [7207, 18559]"] ;
111 -> 112 ;
113 [label="gini = 0.431\nsamples = 8438\nvalue = [4195, 9153]"] ;
111 -> 113 ;
114 [label="X[27] <= 0.764\ngini = 0.443\nsamples = 43928\nvalue = [46540, 23062]"] ;
98 -> 114 ;
115 [label="X[22] <= 0.995\ngini = 0.37\nsamples = 7897\nvalue = [9333, 3037]"] ;
114 -> 115 ;
116 [label="X[13] <= 1.345\ngini = 0.345\nsamples = 6803\nvalue = [8319, 2371]"] ;
115 -> 116 ;
117 [label="gini = 0.324\nsamples = 6228\nvalue = [7776, 1987]"] ;
116 -> 117 ;
118 [label="gini = 0.485\nsamples = 575\nvalue = [543, 384]"] ;
116 -> 118 ;
119 [label="X[5] <= 1.155\ngini = 0.479\nsamples = 1094\nvalue = [1014, 666]"] ;
115 -> 119 ;
120 [label="gini = 0.444\nsamples = 907\nvalue = [916, 456]"] ;
119 -> 120 ;
121 [label="gini = 0.434\nsamples = 187\nvalue = [98, 210]"] ;
119 -> 121 ;
122 [label="X[22] <= 1.027\ngini = 0.455\nsamples = 36031\nvalue = [37207, 20025]"] ;
114 -> 122 ;
123 [label="X[24] <= 1.13\ngini = 0.433\nsamples = 27824\nvalue = [30191, 14020]"] ;
122 -> 123 ;
124 [label="gini = 0.408\nsamples = 20713\nvalue = [23510, 9384]"] ;
123 -> 124 ;
125 [label="gini = 0.484\nsamples = 7111\nvalue = [6681, 4636]"] ;
123 -> 125 ;
126 [label="X[17] <= 1.216\ngini = 0.497\nsamples = 8207\nvalue = [7016, 6005]"] ;
122 -> 126 ;
127 [label="gini = 0.488\nsamples = 6103\nvalue = [5560, 4064]"] ;
126 -> 127 ;
128 [label="gini = 0.49\nsamples = 2104\nvalue = [1456, 1941]"] ;
126 -> 128 ;
129 [label="X[9] <= 1.086\ngini = 0.477\nsamples = 2757192\nvalue = [1715692, 2644844]"] ;
1 -> 129 ;
130 [label="X[24] <= 1.031\ngini = 0.487\nsamples = 2123210\nvalue = [1405428, 1951252]"] ;
129 -> 130 ;
131 [label="X[24] <= 0.721\ngini = 0.494\nsamples = 1681504\nvalue = [1180611, 1477628]"] ;
130 -> 131 ;
132 [label="X[27] <= 0.718\ngini = 0.477\nsamples = 551169\nvalue = [342236, 529367]"] ;
131 -> 132 ;
133 [label="X[22] <= 1.067\ngini = 0.497\nsamples = 262436\nvalue = [191352, 223842]"] ;
132 -> 133 ;
134 [label="X[5] <= 0.814\ngini = 0.499\nsamples = 229594\nvalue = [174284, 188801]"] ;
133 -> 134 ;
135 [label="gini = 0.496\nsamples = 158988\nvalue = [136962, 114631]"] ;
134 -> 135 ;
136 [label="gini = 0.445\nsamples = 70606\nvalue = [37322, 74170]"] ;
134 -> 136 ;
137 [label="X[25] <= 0.486\ngini = 0.441\nsamples = 32842\nvalue = [17068, 35041]"] ;
133 -> 137 ;
138 [label="gini = 0.499\nsamples = 8473\nvalue = [6392, 7071]"] ;
137 -> 138 ;
139 [label="gini = 0.4\nsamples = 24369\nvalue = [10676, 27970]"] ;
137 -> 139 ;
140 [label="X[12] <= 1.661\ngini = 0.443\nsamples = 288733\nvalue = [150884, 305525]"] ;
132 -> 140 ;
141 [label="X[25] <= 0.57\ngini = 0.429\nsamples = 199587\nvalue = [98222, 217242]"] ;
140 -> 141 ;
142 [label="gini = 0.5\nsamples = 44342\nvalue = [35257, 34729]"] ;
141 -> 142 ;
143 [label="gini = 0.381\nsamples = 155245\nvalue = [62965, 182513]"] ;
141 -> 143 ;
144 [label="X[0] <= 1.129\ngini = 0.468\nsamples = 89146\nvalue = [52662, 88283]"] ;
140 -> 144 ;
145 [label="gini = 0.454\nsamples = 63510\nvalue = [34912, 65369]"] ;
144 -> 145 ;
146 [label="gini = 0.492\nsamples = 25636\nvalue = [17750, 22914]"] ;
144 -> 146 ;
147 [label="X[5] <= 0.817\ngini = 0.498\nsamples = 1130335\nvalue = [838375, 948261]"] ;
131 -> 147 ;
148 [label="X[27] <= 0.717\ngini = 0.498\nsamples = 660776\nvalue = [557798, 486783]"] ;
147 -> 148 ;
149 [label="X[13] <= 1.345\ngini = 0.481\nsamples = 199048\nvalue = [187658, 126643]"] ;
148 -> 149 ;
150 [label="gini = 0.479\nsamples = 191586\nvalue = [182223, 120191]"] ;
149 -> 150 ;
151 [label="gini = 0.496\nsamples = 7462\nvalue = [5435, 6452]"] ;
149 -> 151 ;
152 [label="X[26] <= 0.809\ngini = 0.5\nsamples = 461728\nvalue = [370140, 360140]"] ;
148 -> 152 ;
153 [label="gini = 0.449\nsamples = 159172\nvalue = [166252, 85474]"] ;
152 -> 153 ;
154 [label="gini = 0.489\nsamples = 302556\nvalue = [203888, 274666]"] ;
152 -> 154 ;
155 [label="X[26] <= 0.824\ngini = 0.47\nsamples = 469559\nvalue = [280577, 461478]"] ;
147 -> 155 ;
156 [label="X[22] <= 0.781\ngini = 0.499\nsamples = 130119\nvalue = [98898, 107098]"] ;
155 -> 156 ;
157 [label="gini = 0.478\nsamples = 22160\nvalue = [13828, 21095]"] ;
156 -> 157 ;
158 [label="gini = 0.5\nsamples = 107959\nvalue = [85070, 86003]"] ;
156 -> 158 ;
159 [label="X[25] <= 1.05\ngini = 0.448\nsamples = 339440\nvalue = [181679, 354380]"] ;
155 -> 159 ;
160 [label="gini = 0.362\nsamples = 237678\nvalue = [89057, 286653]"] ;
159 -> 160 ;
161 [label="gini = 0.488\nsamples = 101762\nvalue = [92622, 67727]"] ;
159 -> 161 ;
162 [label="X[25] <= 1.067\ngini = 0.437\nsamples = 441706\nvalue = [224817, 473624]"] ;
130 -> 162 ;
163 [label="X[8] <= 0.543\ngini = 0.397\nsamples = 353705\nvalue = [152941, 406186]"] ;
162 -> 163 ;
164 [label="X[22] <= 0.795\ngini = 0.453\nsamples = 122266\nvalue = [66872, 126451]"] ;
163 -> 164 ;
165 [label="X[26] <= 0.81\ngini = 0.398\nsamples = 31627\nvalue = [13659, 36200]"] ;
164 -> 165 ;
166 [label="gini = 0.471\nsamples = 7027\nvalue = [4167, 6838]"] ;
165 -> 166 ;
167 [label="gini = 0.369\nsamples = 24600\nvalue = [9492, 29362]"] ;
165 -> 167 ;
168 [label="X[5] <= 1.489\ngini = 0.467\nsamples = 90639\nvalue = [53213, 90251]"] ;
164 -> 168 ;
169 [label="gini = 0.472\nsamples = 85682\nvalue = [51919, 83765]"] ;
168 -> 169 ;
170 [label="gini = 0.277\nsamples = 4957\nvalue = [1294, 6486]"] ;
168 -> 170 ;
171 [label="X[5] <= 0.849\ngini = 0.36\nsamples = 231439\nvalue = [86069, 279735]"] ;
163 -> 171 ;
172 [label="X[21] <= 1.075\ngini = 0.418\nsamples = 125556\nvalue = [59053, 139341]"] ;
171 -> 172 ;
173 [label="gini = 0.406\nsamples = 110727\nvalue = [49624, 125463]"] ;
172 -> 173 ;
174 [label="gini = 0.482\nsamples = 14829\nvalue = [9429, 13878]"] ;
172 -> 174 ;
175 [label="X[18] <= -1.011\ngini = 0.271\nsamples = 105883\nvalue = [27016, 140394]"] ;
171 -> 175 ;
176 [label="gini = 0.295\nsamples = 17183\nvalue = [4883, 22323]"] ;
175 -> 176 ;
177 [label="gini = 0.266\nsamples = 88700\nvalue = [22133, 118071]"] ;
175 -> 177 ;
178 [label="X[5] <= 1.032\ngini = 0.499\nsamples = 88001\nvalue = [71876, 67438]"] ;
162 -> 178 ;
179 [label="X[5] <= 0.878\ngini = 0.487\nsamples = 59017\nvalue = [54068, 39200]"] ;
178 -> 179 ;
180 [label="X[26] <= 1.023\ngini = 0.477\nsamples = 38907\nvalue = [37401, 24129]"] ;
179 -> 180 ;
181 [label="gini = 0.457\nsamples = 27707\nvalue = [28326, 15484]"] ;
180 -> 181 ;
182 [label="gini = 0.5\nsamples = 11200\nvalue = [9075, 8645]"] ;
180 -> 182 ;
183 [label="X[25] <= 1.231\ngini = 0.499\nsamples = 20110\nvalue = [16667, 15071]"] ;
179 -> 183 ;
184 [label="gini = 0.489\nsamples = 8757\nvalue = [5890, 7949]"] ;
183 -> 184 ;
185 [label="gini = 0.479\nsamples = 11353\nvalue = [10777, 7122]"] ;
183 -> 185 ;
186 [label="X[12] <= 1.661\ngini = 0.474\nsamples = 28984\nvalue = [17808, 28238]"] ;
178 -> 186 ;
187 [label="X[5] <= 1.264\ngini = 0.468\nsamples = 18647\nvalue = [11051, 18601]"] ;
186 -> 187 ;
188 [label="gini = 0.487\nsamples = 12214\nvalue = [8186, 11286]"] ;
187 -> 188 ;
189 [label="gini = 0.404\nsamples = 6433\nvalue = [2865, 7315]"] ;
187 -> 189 ;
190 [label="X[5] <= 1.256\ngini = 0.485\nsamples = 10337\nvalue = [6757, 9637]"] ;
186 -> 190 ;
191 [label="gini = 0.495\nsamples = 7223\nvalue = [5112, 6259]"] ;
190 -> 191 ;
192 [label="gini = 0.44\nsamples = 3114\nvalue = [1645, 3378]"] ;
190 -> 192 ;
193 [label="X[26] <= 1.028\ngini = 0.427\nsamples = 633982\nvalue = [310264, 693592]"] ;
129 -> 193 ;
194 [label="X[22] <= 0.738\ngini = 0.414\nsamples = 540799\nvalue = [250029, 606068]"] ;
193 -> 194 ;
195 [label="X[22] <= 0.632\ngini = 0.305\nsamples = 68261\nvalue = [20257, 87701]"] ;
194 -> 195 ;
196 [label="X[25] <= 1.038\ngini = 0.23\nsamples = 20498\nvalue = [4293, 28095]"] ;
195 -> 196 ;
197 [label="X[0] <= 1.38\ngini = 0.189\nsamples = 18353\nvalue = [3073, 25977]"] ;
196 -> 197 ;
198 [label="gini = 0.166\nsamples = 16434\nvalue = [2372, 23655]"] ;
197 -> 198 ;
199 [label="gini = 0.356\nsamples = 1919\nvalue = [701, 2322]"] ;
197 -> 199 ;
200 [label="X[12] <= 0.554\ngini = 0.464\nsamples = 2145\nvalue = [1220, 2118]"] ;
196 -> 200 ;
201 [label="gini = 0.416\nsamples = 829\nvalue = [390, 931]"] ;
200 -> 201 ;
202 [label="gini = 0.484\nsamples = 1316\nvalue = [830, 1187]"] ;
200 -> 202 ;
203 [label="X[17] <= 0.577\ngini = 0.333\nsamples = 47763\nvalue = [15964, 59606]"] ;
195 -> 203 ;
204 [label="X[25] <= 1.039\ngini = 0.398\nsamples = 11626\nvalue = [5038, 13360]"] ;
203 -> 204 ;
205 [label="gini = 0.349\nsamples = 9471\nvalue = [3382, 11644]"] ;
204 -> 205 ;
206 [label="gini = 0.5\nsamples = 2155\nvalue = [1656, 1716]"] ;
204 -> 206 ;
207 [label="X[16] <= 0.637\ngini = 0.309\nsamples = 36137\nvalue = [10926, 46246]"] ;
203 -> 207 ;
208 [label="gini = 0.299\nsamples = 25112\nvalue = [7253, 32401]"] ;
207 -> 208 ;
209 [label="gini = 0.331\nsamples = 11025\nvalue = [3673, 13845]"] ;
207 -> 209 ;
210 [label="X[14] <= -1.409\ngini = 0.426\nsamples = 472538\nvalue = [229772, 518367]"] ;
194 -> 210 ;
211 [label="X[25] <= 1.033\ngini = 0.443\nsamples = 31791\nvalue = [16617, 33623]"] ;
210 -> 211 ;
212 [label="X[26] <= 0.838\ngini = 0.389\nsamples = 24440\nvalue = [10215, 28458]"] ;
211 -> 212 ;
213 [label="gini = 0.449\nsamples = 10122\nvalue = [5474, 10633]"] ;
212 -> 213 ;
214 [label="gini = 0.332\nsamples = 14318\nvalue = [4741, 17825]"] ;
212 -> 214 ;
215 [label="X[22] <= 1.008\ngini = 0.494\nsamples = 7351\nvalue = [6402, 5165]"] ;
211 -> 215 ;
216 [label="gini = 0.48\nsamples = 5103\nvalue = [4839, 3240]"] ;
215 -> 216 ;
217 [label="gini = 0.495\nsamples = 2248\nvalue = [1563, 1925]"] ;
215 -> 217 ;
218 [label="X[25] <= 1.057\ngini = 0.424\nsamples = 440747\nvalue = [213155, 484744]"] ;
210 -> 218 ;
219 [label="X[26] <= 0.855\ngini = 0.368\nsamples = 343099\nvalue = [132152, 411214]"] ;
218 -> 219 ;
220 [label="gini = 0.436\nsamples = 148737\nvalue = [75800, 159904]"] ;
219 -> 220 ;
221 [label="gini = 0.299\nsamples = 194362\nvalue = [56352, 251310]"] ;
219 -> 221 ;
222 [label="X[21] <= 0.978\ngini = 0.499\nsamples = 97648\nvalue = [81003, 73530]"] ;
218 -> 222 ;
223 [label="gini = 0.491\nsamples = 73027\nvalue = [65574, 50076]"] ;
222 -> 223 ;
224 [label="gini = 0.479\nsamples = 24621\nvalue = [15429, 23454]"] ;
222 -> 224 ;
225 [label="X[24] <= 1.115\ngini = 0.483\nsamples = 93183\nvalue = [60235, 87524]"] ;
193 -> 225 ;
226 [label="X[5] <= 1.75\ngini = 0.493\nsamples = 64283\nvalue = [44782, 57139]"] ;
225 -> 226 ;
227 [label="X[20] <= 0.775\ngini = 0.497\nsamples = 59544\nvalue = [43613, 50790]"] ;
226 -> 227 ;
228 [label="X[8] <= 0.543\ngini = 0.5\nsamples = 44548\nvalue = [34364, 36306]"] ;
227 -> 228 ;
229 [label="gini = 0.477\nsamples = 15315\nvalue = [9506, 14668]"] ;
228 -> 229 ;
230 [label="gini = 0.498\nsamples = 29233\nvalue = [24858, 21638]"] ;
228 -> 230 ;
231 [label="X[21] <= 0.975\ngini = 0.476\nsamples = 14996\nvalue = [9249, 14484]"] ;
227 -> 231 ;
232 [label="gini = 0.492\nsamples = 8950\nvalue = [6192, 7975]"] ;
231 -> 232 ;
233 [label="gini = 0.435\nsamples = 6046\nvalue = [3057, 6509]"] ;
231 -> 233 ;
234 [label="X[8] <= 0.543\ngini = 0.263\nsamples = 4739\nvalue = [1169, 6349]"] ;
226 -> 234 ;
235 [label="X[19] <= 1.73\ngini = 0.214\nsamples = 3900\nvalue = [753, 5422]"] ;
234 -> 235 ;
236 [label="gini = 0.212\nsamples = 3891\nvalue = [743, 5419]"] ;
235 -> 236 ;
237 [label="gini = 0.355\nsamples = 9\nvalue = [10, 3]"] ;
235 -> 237 ;
238 [label="X[14] <= 1.244\ngini = 0.428\nsamples = 839\nvalue = [416, 927]"] ;
234 -> 238 ;
239 [label="gini = 0.439\nsamples = 770\nvalue = [399, 826]"] ;
238 -> 239 ;
240 [label="gini = 0.247\nsamples = 69\nvalue = [17, 101]"] ;
238 -> 240 ;
241 [label="X[8] <= 0.543\ngini = 0.447\nsamples = 28900\nvalue = [15453, 30385]"] ;
225 -> 241 ;
242 [label="X[22] <= 0.681\ngini = 0.366\nsamples = 10546\nvalue = [4060, 12768]"] ;
241 -> 242 ;
243 [label="X[25] <= 1.18\ngini = 0.24\nsamples = 718\nvalue = [161, 993]"] ;
242 -> 243 ;
244 [label="gini = 0.188\nsamples = 553\nvalue = [95, 807]"] ;
243 -> 244 ;
245 [label="gini = 0.387\nsamples = 165\nvalue = [66, 186]"] ;
243 -> 245 ;
246 [label="X[6] <= -0.443\ngini = 0.374\nsamples = 9828\nvalue = [3899, 11775]"] ;
242 -> 246 ;
247 [label="gini = 0.353\nsamples = 3625\nvalue = [1321, 4449]"] ;
246 -> 247 ;
248 [label="gini = 0.385\nsamples = 6203\nvalue = [2578, 7326]"] ;
246 -> 248 ;
249 [label="X[9] <= 2.3\ngini = 0.477\nsamples = 18354\nvalue = [11393, 17617]"] ;
241 -> 249 ;
250 [label="X[26] <= 1.106\ngini = 0.479\nsamples = 18046\nvalue = [11321, 17212]"] ;
249 -> 250 ;
251 [label="gini = 0.46\nsamples = 11255\nvalue = [6409, 11422]"] ;
250 -> 251 ;
252 [label="gini = 0.497\nsamples = 6791\nvalue = [4912, 5790]"] ;
250 -> 252 ;
253 [label="X[21] <= 0.741\ngini = 0.256\nsamples = 308\nvalue = [72, 405]"] ;
249 -> 253 ;
254 [label="gini = 0.408\nsamples = 89\nvalue = [38, 95]"] ;
253 -> 254 ;
255 [label="gini = 0.178\nsamples = 219\nvalue = [34, 310]"] ;
253 -> 255 ;
256 [label="X[25] <= 1.273\ngini = 0.489\nsamples = 2091364\nvalue = [1896511, 1413067]"] ;
0 -> 256 [labeldistance=2.5, labelangle=-45, headlabel="False"] ;
257 [label="X[26] <= 0.904\ngini = 0.5\nsamples = 1378061\nvalue = [1087703, 1093232]"] ;
256 -> 257 ;
258 [label="X[24] <= 1.059\ngini = 0.423\nsamples = 138468\nvalue = [152433, 66598]"] ;
257 -> 258 ;
259 [label="X[20] <= 0.775\ngini = 0.39\nsamples = 103040\nvalue = [119726, 43364]"] ;
258 -> 259 ;
260 [label="X[0] <= 0.843\ngini = 0.425\nsamples = 47541\nvalue = [52129, 23031]"] ;
259 -> 260 ;
261 [label="X[26] <= 0.869\ngini = 0.47\nsamples = 20829\nvalue = [20561, 12487]"] ;
260 -> 261 ;
262 [label="X[25] <= 0.59\ngini = 0.455\nsamples = 14565\nvalue = [14974, 8044]"] ;
261 -> 262 ;
263 [label="gini = 0.419\nsamples = 7109\nvalue = [7859, 3350]"] ;
262 -> 263 ;
264 [label="gini = 0.479\nsamples = 7456\nvalue = [7115, 4694]"] ;
262 -> 264 ;
265 [label="X[3] <= 1.212\ngini = 0.493\nsamples = 6264\nvalue = [5587, 4443]"] ;
261 -> 265 ;
266 [label="gini = 0.492\nsamples = 3383\nvalue = [2351, 3028]"] ;
265 -> 266 ;
267 [label="gini = 0.423\nsamples = 2881\nvalue = [3236, 1415]"] ;
265 -> 267 ;
268 [label="X[16] <= 0.637\ngini = 0.375\nsamples = 26712\nvalue = [31568, 10544]"] ;
260 -> 268 ;
269 [label="X[24] <= 0.681\ngini = 0.425\nsamples = 9281\nvalue = [10127, 4472]"] ;
268 -> 269 ;
270 [label="gini = 0.478\nsamples = 1407\nvalue = [1354, 884]"] ;
269 -> 270 ;
271 [label="gini = 0.412\nsamples = 7874\nvalue = [8773, 3588]"] ;
269 -> 271 ;
272 [label="X[22] <= 1.031\ngini = 0.344\nsamples = 17431\nvalue = [21441, 6072]"] ;
268 -> 272 ;
273 [label="gini = 0.293\nsamples = 13384\nvalue = [17385, 3777]"] ;
272 -> 273 ;
274 [label="gini = 0.462\nsamples = 4047\nvalue = [4056, 2295]"] ;
272 -> 274 ;
275 [label="X[22] <= 1.049\ngini = 0.356\nsamples = 55499\nvalue = [67597, 20333]"] ;
259 -> 275 ;
276 [label="X[21] <= 1.0\ngini = 0.314\nsamples = 44917\nvalue = [57339, 13863]"] ;
275 -> 276 ;
277 [label="X[0] <= 0.79\ngini = 0.282\nsamples = 34395\nvalue = [45444, 9288]"] ;
276 -> 277 ;
278 [label="gini = 0.409\nsamples = 12248\nvalue = [13891, 5583]"] ;
277 -> 278 ;
279 [label="gini = 0.188\nsamples = 22147\nvalue = [31553, 3705]"] ;
277 -> 279 ;
280 [label="X[24] <= 0.664\ngini = 0.401\nsamples = 10522\nvalue = [11895, 4575]"] ;
276 -> 280 ;
281 [label="gini = 0.484\nsamples = 1272\nvalue = [1198, 831]"] ;
280 -> 281 ;
282 [label="gini = 0.384\nsamples = 9250\nvalue = [10697, 3744]"] ;
280 -> 282 ;
283 [label="X[21] <= 1.61\ngini = 0.474\nsamples = 10582\nvalue = [10258, 6470]"] ;
275 -> 283 ;
284 [label="X[0] <= 0.809\ngini = 0.456\nsamples = 7923\nvalue = [8171, 4428]"] ;
283 -> 284 ;
285 [label="gini = 0.495\nsamples = 3212\nvalue = [2816, 2321]"] ;
284 -> 285 ;
286 [label="gini = 0.405\nsamples = 4711\nvalue = [5355, 2107]"] ;
284 -> 286 ;
287 [label="X[0] <= 0.777\ngini = 0.5\nsamples = 2659\nvalue = [2087, 2042]"] ;
283 -> 287 ;
288 [label="gini = 0.489\nsamples = 996\nvalue = [663, 897]"] ;
287 -> 288 ;
289 [label="gini = 0.494\nsamples = 1663\nvalue = [1424, 1145]"] ;
287 -> 289 ;
290 [label="X[22] <= 0.733\ngini = 0.486\nsamples = 35428\nvalue = [32707, 23234]"] ;
258 -> 290 ;
291 [label="X[27] <= 1.172\ngini = 0.468\nsamples = 3194\nvalue = [1864, 3128]"] ;
290 -> 291 ;
292 [label="X[26] <= 0.84\ngini = 0.451\nsamples = 2766\nvalue = [1487, 2849]"] ;
291 -> 292 ;
293 [label="X[5] <= 1.709\ngini = 0.499\nsamples = 747\nvalue = [563, 606]"] ;
292 -> 293 ;
294 [label="gini = 0.5\nsamples = 702\nvalue = [548, 553]"] ;
293 -> 294 ;
295 [label="gini = 0.344\nsamples = 45\nvalue = [15, 53]"] ;
293 -> 295 ;
296 [label="X[1] <= 0.966\ngini = 0.413\nsamples = 2019\nvalue = [924, 2243]"] ;
292 -> 296 ;
297 [label="gini = 0.399\nsamples = 1670\nvalue = [721, 1900]"] ;
296 -> 297 ;
298 [label="gini = 0.467\nsamples = 349\nvalue = [203, 343]"] ;
296 -> 298 ;
299 [label="X[26] <= 0.846\ngini = 0.489\nsamples = 428\nvalue = [377, 279]"] ;
291 -> 299 ;
300 [label="X[8] <= 1.63\ngini = 0.38\nsamples = 134\nvalue = [161, 55]"] ;
299 -> 300 ;
301 [label="gini = 0.346\nsamples = 125\nvalue = [157, 45]"] ;
300 -> 301 ;
302 [label="gini = 0.408\nsamples = 9\nvalue = [4, 10]"] ;
300 -> 302 ;
303 [label="X[25] <= 0.463\ngini = 0.5\nsamples = 294\nvalue = [216, 224]"] ;
299 -> 303 ;
304 [label="gini = 0.381\nsamples = 102\nvalue = [113, 39]"] ;
303 -> 304 ;
305 [label="gini = 0.459\nsamples = 192\nvalue = [103, 185]"] ;
303 -> 305 ;
306 [label="X[9] <= 1.045\ngini = 0.478\nsamples = 32234\nvalue = [30843, 20106]"] ;
290 -> 306 ;
307 [label="X[8] <= 0.543\ngini = 0.461\nsamples = 24141\nvalue = [24483, 13756]"] ;
306 -> 307 ;
308 [label="X[21] <= 0.929\ngini = 0.436\nsamples = 17887\nvalue = [19176, 9070]"] ;
307 -> 308 ;
309 [label="gini = 0.386\nsamples = 9218\nvalue = [10741, 3805]"] ;
308 -> 309 ;
310 [label="gini = 0.473\nsamples = 8669\nvalue = [8435, 5265]"] ;
308 -> 310 ;
311 [label="X[21] <= 0.857\ngini = 0.498\nsamples = 6254\nvalue = [5307, 4686]"] ;
307 -> 311 ;
312 [label="gini = 0.482\nsamples = 2222\nvalue = [2136, 1458]"] ;
311 -> 312 ;
313 [label="gini = 0.5\nsamples = 4032\nvalue = [3171, 3228]"] ;
311 -> 313 ;
314 [label="X[27] <= 1.098\ngini = 0.5\nsamples = 8093\nvalue = [6360, 6350]"] ;
306 -> 314 ;
315 [label="X[24] <= 1.204\ngini = 0.497\nsamples = 6141\nvalue = [4426, 5167]"] ;
314 -> 315 ;
316 [label="gini = 0.5\nsamples = 3340\nvalue = [2699, 2564]"] ;
315 -> 316 ;
317 [label="gini = 0.48\nsamples = 2801\nvalue = [1727, 2603]"] ;
315 -> 317 ;
318 [label="X[3] <= 1.54\ngini = 0.471\nsamples = 1952\nvalue = [1934, 1183]"] ;
314 -> 318 ;
319 [label="gini = 0.495\nsamples = 1202\nvalue = [1074, 872]"] ;
318 -> 319 ;
320 [label="gini = 0.39\nsamples = 750\nvalue = [860, 311]"] ;
318 -> 320 ;
321 [label="X[0] <= 2.089\ngini = 0.499\nsamples = 1239593\nvalue = [935270, 1026634]"] ;
257 -> 321 ;
322 [label="X[13] <= 1.51\ngini = 0.497\nsamples = 1135224\nvalue = [825373, 971132]"] ;
321 -> 322 ;
323 [label="X[17] <= 1.722\ngini = 0.499\nsamples = 944627\nvalue = [712590, 782301]"] ;
322 -> 323 ;
324 [label="X[22] <= 1.022\ngini = 0.499\nsamples = 862078\nvalue = [660206, 703967]"] ;
323 -> 324 ;
325 [label="X[24] <= 1.084\ngini = 0.493\nsamples = 429272\nvalue = [380905, 298923]"] ;
324 -> 325 ;
326 [label="gini = 0.394\nsamples = 165246\nvalue = [191098, 70781]"] ;
325 -> 326 ;
327 [label="gini = 0.496\nsamples = 264026\nvalue = [189807, 228142]"] ;
325 -> 327 ;
328 [label="X[24] <= 1.865\ngini = 0.483\nsamples = 432806\nvalue = [279301, 405044]"] ;
324 -> 328 ;
329 [label="gini = 0.48\nsamples = 406145\nvalue = [256281, 386155]"] ;
328 -> 329 ;
330 [label="gini = 0.495\nsamples = 26661\nvalue = [23020, 18889]"] ;
328 -> 330 ;
331 [label="X[27] <= 1.039\ngini = 0.48\nsamples = 82549\nvalue = [52384, 78334]"] ;
323 -> 331 ;
332 [label="X[0] <= 1.177\ngini = 0.456\nsamples = 23772\nvalue = [13198, 24246]"] ;
331 -> 332 ;
333 [label="gini = 0.442\nsamples = 17907\nvalue = [9292, 18933]"] ;
332 -> 333 ;
334 [label="gini = 0.488\nsamples = 5865\nvalue = [3906, 5313]"] ;
332 -> 334 ;
335 [label="X[25] <= 1.04\ngini = 0.487\nsamples = 58777\nvalue = [39186, 54088]"] ;
331 -> 335 ;
336 [label="gini = 0.471\nsamples = 42196\nvalue = [25476, 41625]"] ;
335 -> 336 ;
337 [label="gini = 0.499\nsamples = 16581\nvalue = [13710, 12463]"] ;
335 -> 337 ;
338 [label="X[22] <= 1.031\ngini = 0.468\nsamples = 190597\nvalue = [112783, 188831]"] ;
322 -> 338 ;
339 [label="X[1] <= 1.747\ngini = 0.499\nsamples = 62336\nvalue = [50962, 47699]"] ;
338 -> 339 ;
340 [label="X[5] <= 1.89\ngini = 0.5\nsamples = 59953\nvalue = [48648, 46224]"] ;
339 -> 340 ;
341 [label="gini = 0.496\nsamples = 52631\nvalue = [45210, 38028]"] ;
340 -> 341 ;
342 [label="gini = 0.416\nsamples = 7322\nvalue = [3438, 8196]"] ;
340 -> 342 ;
343 [label="X[6] <= 0.217\ngini = 0.475\nsamples = 2383\nvalue = [2314, 1475]"] ;
339 -> 343 ;
344 [label="gini = 0.425\nsamples = 968\nvalue = [1068, 471]"] ;
343 -> 344 ;
345 [label="gini = 0.494\nsamples = 1415\nvalue = [1246, 1004]"] ;
343 -> 345 ;
346 [label="X[14] <= -1.196\ngini = 0.424\nsamples = 128261\nvalue = [61821, 141132]"] ;
338 -> 346 ;
347 [label="X[24] <= 1.878\ngini = 0.464\nsamples = 11433\nvalue = [6631, 11525]"] ;
346 -> 347 ;
348 [label="gini = 0.453\nsamples = 10590\nvalue = [5849, 10982]"] ;
347 -> 348 ;
349 [label="gini = 0.484\nsamples = 843\nvalue = [782, 543]"] ;
347 -> 349 ;
350 [label="X[16] <= 0.637\ngini = 0.419\nsamples = 116828\nvalue = [55190, 129607]"] ;
346 -> 350 ;
351 [label="gini = 0.448\nsamples = 46924\nvalue = [25144, 49088]"] ;
350 -> 351 ;
352 [label="gini = 0.396\nsamples = 69904\nvalue = [30046, 80519]"] ;
350 -> 352 ;
353 [label="X[21] <= 1.012\ngini = 0.446\nsamples = 104369\nvalue = [109897, 55502]"] ;
321 -> 353 ;
354 [label="X[27] <= 1.044\ngini = 0.398\nsamples = 57462\nvalue = [66098, 24930]"] ;
353 -> 354 ;
355 [label="X[6] <= 1.669\ngini = 0.481\nsamples = 15434\nvalue = [14613, 9820]"] ;
354 -> 355 ;
356 [label="X[24] <= 1.002\ngini = 0.478\nsamples = 14742\nvalue = [14089, 9241]"] ;
355 -> 356 ;
357 [label="gini = 0.369\nsamples = 5752\nvalue = [6917, 2233]"] ;
356 -> 357 ;
358 [label="gini = 0.5\nsamples = 8990\nvalue = [7172, 7008]"] ;
356 -> 358 ;
359 [label="X[9] <= 1.718\ngini = 0.499\nsamples = 692\nvalue = [524, 579]"] ;
355 -> 359 ;
360 [label="gini = 0.5\nsamples = 622\nvalue = [497, 484]"] ;
359 -> 360 ;
361 [label="gini = 0.345\nsamples = 70\nvalue = [27, 95]"] ;
359 -> 361 ;
362 [label="X[3] <= 1.607\ngini = 0.351\nsamples = 42028\nvalue = [51485, 15110]"] ;
354 -> 362 ;
363 [label="X[0] <= 2.728\ngini = 0.373\nsamples = 33401\nvalue = [39733, 13136]"] ;
362 -> 363 ;
364 [label="gini = 0.424\nsamples = 19763\nvalue = [21682, 9515]"] ;
363 -> 364 ;
365 [label="gini = 0.278\nsamples = 13638\nvalue = [18051, 3621]"] ;
363 -> 365 ;
366 [label="X[23] <= 1.377\ngini = 0.246\nsamples = 8627\nvalue = [11752, 1974]"] ;
362 -> 366 ;
367 [label="gini = 0.206\nsamples = 7388\nvalue = [10377, 1370]"] ;
366 -> 367 ;
368 [label="gini = 0.424\nsamples = 1239\nvalue = [1375, 604]"] ;
366 -> 368 ;
369 [label="X[24] <= 1.795\ngini = 0.484\nsamples = 46907\nvalue = [43799, 30572]"] ;
353 -> 369 ;
370 [label="X[18] <= -1.052\ngini = 0.499\nsamples = 38852\nvalue = [32383, 29147]"] ;
369 -> 370 ;
371 [label="X[25] <= 0.691\ngini = 0.49\nsamples = 5747\nvalue = [5226, 3954]"] ;
370 -> 371 ;
372 [label="gini = 0.412\nsamples = 1507\nvalue = [1719, 702]"] ;
371 -> 372 ;
373 [label="gini = 0.499\nsamples = 4240\nvalue = [3507, 3252]"] ;
371 -> 373 ;
374 [label="X[3] <= 1.606\ngini = 0.499\nsamples = 33105\nvalue = [27157, 25193]"] ;
370 -> 374 ;
375 [label="gini = 0.5\nsamples = 28602\nvalue = [22432, 22770]"] ;
374 -> 375 ;
376 [label="gini = 0.448\nsamples = 4503\nvalue = [4725, 2423]"] ;
374 -> 376 ;
377 [label="X[25] <= 0.9\ngini = 0.197\nsamples = 8055\nvalue = [11416, 1425]"] ;
369 -> 377 ;
378 [label="X[26] <= 1.257\ngini = 0.155\nsamples = 4180\nvalue = [6075, 562]"] ;
377 -> 378 ;
379 [label="gini = 0.304\nsamples = 608\nvalue = [775, 178]"] ;
378 -> 379 ;
380 [label="gini = 0.126\nsamples = 3572\nvalue = [5300, 384]"] ;
378 -> 380 ;
381 [label="X[22] <= 1.177\ngini = 0.24\nsamples = 3875\nvalue = [5341, 863]"] ;
377 -> 381 ;
382 [label="gini = 0.297\nsamples = 1832\nvalue = [2390, 531]"] ;
381 -> 382 ;
383 [label="gini = 0.182\nsamples = 2043\nvalue = [2951, 332]"] ;
381 -> 383 ;
384 [label="X[22] <= 1.034\ngini = 0.406\nsamples = 713303\nvalue = [808808, 319835]"] ;
256 -> 384 ;
385 [label="X[20] <= 2.326\ngini = 0.316\nsamples = 388634\nvalue = [493767, 120661]"] ;
384 -> 385 ;
386 [label="X[24] <= 1.125\ngini = 0.32\nsamples = 326645\nvalue = [413210, 103299]"] ;
385 -> 386 ;
387 [label="X[27] <= 1.081\ngini = 0.188\nsamples = 180212\nvalue = [255026, 29913]"] ;
386 -> 387 ;
388 [label="X[13] <= 0.439\ngini = 0.285\nsamples = 76320\nvalue = [99670, 20727]"] ;
387 -> 388 ;
389 [label="X[17] <= 0.996\ngini = 0.38\nsamples = 2490\nvalue = [2878, 983]"] ;
388 -> 389 ;
390 [label="gini = 0.394\nsamples = 2072\nvalue = [2348, 867]"] ;
389 -> 390 ;
391 [label="gini = 0.295\nsamples = 418\nvalue = [530, 116]"] ;
389 -> 391 ;
392 [label="X[17] <= 1.958\ngini = 0.281\nsamples = 73830\nvalue = [96792, 19744]"] ;
388 -> 392 ;
393 [label="gini = 0.276\nsamples = 70478\nvalue = [92862, 18411]"] ;
392 -> 393 ;
394 [label="gini = 0.378\nsamples = 3352\nvalue = [3930, 1333]"] ;
392 -> 394 ;
395 [label="X[0] <= 1.115\ngini = 0.105\nsamples = 103892\nvalue = [155356, 9186]"] ;
387 -> 395 ;
396 [label="X[6] <= -2.962\ngini = 0.136\nsamples = 60910\nvalue = [89387, 7083]"] ;
395 -> 396 ;
397 [label="gini = 0.0\nsamples = 1\nvalue = [0, 5]"] ;
396 -> 397 ;
398 [label="gini = 0.136\nsamples = 60909\nvalue = [89387, 7078]"] ;
396 -> 398 ;
399 [label="X[26] <= 1.503\ngini = 0.06\nsamples = 42982\nvalue = [65969, 2103]"] ;
395 -> 399 ;
400 [label="gini = 0.074\nsamples = 26928\nvalue = [41191, 1644]"] ;
399 -> 400 ;
401 [label="gini = 0.036\nsamples = 16054\nvalue = [24778, 459]"] ;
399 -> 401 ;
402 [label="X[5] <= 2.023\ngini = 0.433\nsamples = 146433\nvalue = [158184, 73386]"] ;
386 -> 402 ;
403 [label="X[25] <= 1.798\ngini = 0.428\nsamples = 131132\nvalue = [143136, 64231]"] ;
402 -> 403 ;
404 [label="X[5] <= 1.177\ngini = 0.462\nsamples = 75583\nvalue = [76351, 43341]"] ;
403 -> 404 ;
405 [label="gini = 0.442\nsamples = 46501\nvalue = [49400, 24280]"] ;
404 -> 405 ;
406 [label="gini = 0.485\nsamples = 29082\nvalue = [26951, 19061]"] ;
404 -> 406 ;
407 [label="X[17] <= 0.952\ngini = 0.363\nsamples = 55549\nvalue = [66785, 20890]"] ;
403 -> 407 ;
408 [label="gini = 0.347\nsamples = 33973\nvalue = [41727, 11985]"] ;
407 -> 408 ;
409 [label="gini = 0.387\nsamples = 21576\nvalue = [25058, 8905]"] ;
407 -> 409 ;
410 [label="X[17] <= 0.898\ngini = 0.47\nsamples = 15301\nvalue = [15048, 9155]"] ;
402 -> 410 ;
411 [label="X[25] <= 2.001\ngini = 0.421\nsamples = 7864\nvalue = [8654, 3735]"] ;
410 -> 411 ;
412 [label="gini = 0.481\nsamples = 2701\nvalue = [2523, 1698]"] ;
411 -> 412 ;
413 [label="gini = 0.374\nsamples = 5163\nvalue = [6131, 2037]"] ;
411 -> 413 ;
414 [label="X[26] <= 1.485\ngini = 0.497\nsamples = 7437\nvalue = [6394, 5420]"] ;
410 -> 414 ;
415 [label="gini = 0.459\nsamples = 1879\nvalue = [1067, 1924]"] ;
414 -> 415 ;
416 [label="gini = 0.478\nsamples = 5558\nvalue = [5327, 3496]"] ;
414 -> 416 ;
417 [label="X[27] <= 1.079\ngini = 0.292\nsamples = 61989\nvalue = [80557, 17362]"] ;
385 -> 417 ;
418 [label="X[12] <= 1.661\ngini = 0.367\nsamples = 20246\nvalue = [24258, 7757]"] ;
417 -> 418 ;
419 [label="X[0] <= 1.326\ngini = 0.374\nsamples = 15440\nvalue = [18371, 6098]"] ;
418 -> 419 ;
420 [label="X[24] <= 1.091\ngini = 0.385\nsamples = 11973\nvalue = [14040, 4931]"] ;
419 -> 420 ;
421 [label="gini = 0.279\nsamples = 7442\nvalue = [9874, 1988]"] ;
420 -> 421 ;
422 [label="gini = 0.485\nsamples = 4531\nvalue = [4166, 2943]"] ;
420 -> 422 ;
423 [label="X[26] <= 1.102\ngini = 0.334\nsamples = 3467\nvalue = [4331, 1167]"] ;
419 -> 423 ;
424 [label="gini = 0.209\nsamples = 1342\nvalue = [1834, 247]"] ;
423 -> 424 ;
425 [label="gini = 0.394\nsamples = 2125\nvalue = [2497, 920]"] ;
423 -> 425 ;
426 [label="X[22] <= 0.742\ngini = 0.343\nsamples = 4806\nvalue = [5887, 1659]"] ;
418 -> 426 ;
427 [label="X[21] <= 1.081\ngini = 0.48\nsamples = 438\nvalue = [408, 271]"] ;
426 -> 427 ;
428 [label="gini = 0.47\nsamples = 422\nvalue = [405, 245]"] ;
427 -> 428 ;
429 [label="gini = 0.185\nsamples = 16\nvalue = [3, 26]"] ;
427 -> 429 ;
430 [label="X[5] <= 2.103\ngini = 0.323\nsamples = 4368\nvalue = [5479, 1388]"] ;
426 -> 430 ;
431 [label="gini = 0.301\nsamples = 4210\nvalue = [5397, 1220]"] ;
430 -> 431 ;
432 [label="gini = 0.441\nsamples = 158\nvalue = [82, 168]"] ;
430 -> 432 ;
433 [label="X[22] <= 0.751\ngini = 0.249\nsamples = 41743\nvalue = [56299, 9605]"] ;
417 -> 433 ;
434 [label="X[5] <= 1.732\ngini = 0.426\nsamples = 4240\nvalue = [4563, 2027]"] ;
433 -> 434 ;
435 [label="X[24] <= 1.249\ngini = 0.389\nsamples = 2838\nvalue = [3250, 1167]"] ;
434 -> 435 ;
436 [label="gini = 0.221\nsamples = 1468\nvalue = [2006, 290]"] ;
435 -> 436 ;
437 [label="gini = 0.485\nsamples = 1370\nvalue = [1244, 877]"] ;
435 -> 437 ;
438 [label="X[24] <= 1.373\ngini = 0.478\nsamples = 1402\nvalue = [1313, 860]"] ;
434 -> 438 ;
439 [label="gini = 0.211\nsamples = 494\nvalue = [661, 90]"] ;
438 -> 439 ;
440 [label="gini = 0.497\nsamples = 908\nvalue = [652, 770]"] ;
438 -> 440 ;
441 [label="X[24] <= 1.242\ngini = 0.223\nsamples = 37503\nvalue = [51736, 7578]"] ;
433 -> 441 ;
442 [label="X[0] <= 1.121\ngini = 0.097\nsamples = 25268\nvalue = [37908, 2047]"] ;
441 -> 442 ;
443 [label="gini = 0.127\nsamples = 14206\nvalue = [20972, 1538]"] ;
442 -> 443 ;
444 [label="gini = 0.057\nsamples = 11062\nvalue = [16936, 509]"] ;
442 -> 444 ;
445 [label="X[27] <= 1.404\ngini = 0.408\nsamples = 12235\nvalue = [13828, 5531]"] ;
441 -> 445 ;
446 [label="gini = 0.44\nsamples = 7794\nvalue = [8345, 4042]"] ;
445 -> 446 ;
447 [label="gini = 0.336\nsamples = 4441\nvalue = [5483, 1489]"] ;
445 -> 447 ;
448 [label="X[3] <= 1.998\ngini = 0.475\nsamples = 324669\nvalue = [315041, 199174]"] ;
384 -> 448 ;
449 [label="X[0] <= 1.329\ngini = 0.483\nsamples = 291667\nvalue = [273386, 188473]"] ;
448 -> 449 ;
450 [label="X[3] <= 1.364\ngini = 0.494\nsamples = 222397\nvalue = [196205, 156141]"] ;
449 -> 450 ;
451 [label="X[22] <= 1.145\ngini = 0.497\nsamples = 178471\nvalue = [152582, 130070]"] ;
450 -> 451 ;
452 [label="X[25] <= 2.073\ngini = 0.478\nsamples = 43551\nvalue = [41611, 27226]"] ;
451 -> 452 ;
453 [label="gini = 0.493\nsamples = 30966\nvalue = [27348, 21733]"] ;
452 -> 453 ;
454 [label="gini = 0.401\nsamples = 12585\nvalue = [14263, 5493]"] ;
452 -> 454 ;
455 [label="X[27] <= 1.163\ngini = 0.499\nsamples = 134920\nvalue = [110971, 102844]"] ;
451 -> 455 ;
456 [label="gini = 0.497\nsamples = 48927\nvalue = [36027, 41824]"] ;
455 -> 456 ;
457 [label="gini = 0.495\nsamples = 85993\nvalue = [74944, 61020]"] ;
455 -> 457 ;
458 [label="X[24] <= 1.11\ngini = 0.468\nsamples = 43926\nvalue = [43623, 26071]"] ;
450 -> 458 ;
459 [label="X[8] <= 0.543\ngini = 0.411\nsamples = 16863\nvalue = [18953, 7690]"] ;
458 -> 459 ;
460 [label="gini = 0.452\nsamples = 6268\nvalue = [6503, 3421]"] ;
459 -> 460 ;
461 [label="gini = 0.38\nsamples = 10595\nvalue = [12450, 4269]"] ;
459 -> 461 ;
462 [label="X[25] <= 1.763\ngini = 0.489\nsamples = 27063\nvalue = [24670, 18381]"] ;
458 -> 462 ;
463 [label="gini = 0.5\nsamples = 14447\nvalue = [11508, 11605]"] ;
462 -> 463 ;
464 [label="gini = 0.449\nsamples = 12616\nvalue = [13162, 6776]"] ;
462 -> 464 ;
465 [label="X[0] <= 2.372\ngini = 0.416\nsamples = 69270\nvalue = [77181, 32332]"] ;
449 -> 465 ;
466 [label="X[25] <= 1.591\ngini = 0.439\nsamples = 55066\nvalue = [58688, 28301]"] ;
465 -> 466 ;
467 [label="X[5] <= 1.078\ngini = 0.495\nsamples = 22003\nvalue = [19274, 15724]"] ;
466 -> 467 ;
468 [label="gini = 0.461\nsamples = 9661\nvalue = [9825, 5527]"] ;
467 -> 468 ;
469 [label="gini = 0.499\nsamples = 12342\nvalue = [9449, 10197]"] ;
467 -> 469 ;
470 [label="X[25] <= 1.869\ngini = 0.367\nsamples = 33063\nvalue = [39414, 12577]"] ;
466 -> 470 ;
471 [label="gini = 0.421\nsamples = 10863\nvalue = [11988, 5171]"] ;
470 -> 471 ;
472 [label="gini = 0.335\nsamples = 22200\nvalue = [27426, 7406]"] ;
470 -> 472 ;
473 [label="X[6] <= -1.447\ngini = 0.294\nsamples = 14204\nvalue = [18493, 4031]"] ;
465 -> 473 ;
474 [label="X[10] <= -1.259\ngini = 0.45\nsamples = 794\nvalue = [854, 444]"] ;
473 -> 474 ;
475 [label="gini = 0.166\nsamples = 77\nvalue = [119, 12]"] ;
474 -> 475 ;
476 [label="gini = 0.466\nsamples = 717\nvalue = [735, 432]"] ;
474 -> 476 ;
477 [label="X[25] <= 1.648\ngini = 0.281\nsamples = 13410\nvalue = [17639, 3587]"] ;
473 -> 477 ;
478 [label="gini = 0.388\nsamples = 4918\nvalue = [5758, 2055]"] ;
477 -> 478 ;
479 [label="gini = 0.202\nsamples = 8492\nvalue = [11881, 1532]"] ;
477 -> 479 ;
480 [label="X[3] <= 2.552\ngini = 0.325\nsamples = 33002\nvalue = [41655, 10701]"] ;
448 -> 480 ;
481 [label="X[5] <= 3.764\ngini = 0.391\nsamples = 18159\nvalue = [21140, 7666]"] ;
480 -> 481 ;
482 [label="X[25] <= 1.684\ngini = 0.393\nsamples = 17920\nvalue = [20782, 7641]"] ;
481 -> 482 ;
483 [label="X[25] <= 1.426\ngini = 0.468\nsamples = 8051\nvalue = [7907, 4730]"] ;
482 -> 483 ;
484 [label="gini = 0.49\nsamples = 3841\nvalue = [3455, 2592]"] ;
483 -> 484 ;
485 [label="gini = 0.438\nsamples = 4210\nvalue = [4452, 2138]"] ;
483 -> 485 ;
486 [label="X[25] <= 2.254\ngini = 0.301\nsamples = 9869\nvalue = [12875, 2911]"] ;
482 -> 486 ;
487 [label="gini = 0.334\nsamples = 4996\nvalue = [6355, 1713]"] ;
486 -> 487 ;
488 [label="gini = 0.262\nsamples = 4873\nvalue = [6520, 1198]"] ;
486 -> 488 ;
489 [label="X[21] <= 0.93\ngini = 0.122\nsamples = 239\nvalue = [358, 25]"] ;
481 -> 489 ;
490 [label="X[23] <= 1.076\ngini = 0.282\nsamples = 61\nvalue = [78, 16]"] ;
489 -> 490 ;
491 [label="gini = 0.18\nsamples = 52\nvalue = [72, 8]"] ;
490 -> 491 ;
492 [label="gini = 0.49\nsamples = 9\nvalue = [6, 8]"] ;
490 -> 492 ;
493 [label="X[27] <= 1.254\ngini = 0.06\nsamples = 178\nvalue = [280, 9]"] ;
489 -> 493 ;
494 [label="gini = 0.32\nsamples = 4\nvalue = [1, 4]"] ;
493 -> 494 ;
495 [label="gini = 0.035\nsamples = 174\nvalue = [279, 5]"] ;
493 -> 495 ;
496 [label="X[25] <= 1.758\ngini = 0.225\nsamples = 14843\nvalue = [20515, 3035]"] ;
480 -> 496 ;
497 [label="X[3] <= 3.371\ngini = 0.334\nsamples = 5872\nvalue = [7234, 1944]"] ;
496 -> 497 ;
498 [label="X[5] <= 1.853\ngini = 0.378\nsamples = 4176\nvalue = [4856, 1647]"] ;
497 -> 498 ;
499 [label="gini = 0.359\nsamples = 2890\nvalue = [3458, 1060]"] ;
498 -> 499 ;
500 [label="gini = 0.417\nsamples = 1286\nvalue = [1398, 587]"] ;
498 -> 500 ;
501 [label="X[26] <= 5.634\ngini = 0.197\nsamples = 1696\nvalue = [2378, 297]"] ;
497 -> 501 ;
502 [label="gini = 0.195\nsamples = 1691\nvalue = [2375, 292]"] ;
501 -> 502 ;
503 [label="gini = 0.469\nsamples = 5\nvalue = [3, 5]"] ;
501 -> 503 ;
504 [label="X[23] <= 1.521\ngini = 0.14\nsamples = 8971\nvalue = [13281, 1091]"] ;
496 -> 504 ;
505 [label="X[0] <= 2.078\ngini = 0.129\nsamples = 8720\nvalue = [13010, 971]"] ;
504 -> 505 ;
506 [label="gini = 0.14\nsamples = 7666\nvalue = [11352, 928]"] ;
505 -> 506 ;
507 [label="gini = 0.049\nsamples = 1054\nvalue = [1658, 43]"] ;
505 -> 507 ;
508 [label="X[6] <= -0.713\ngini = 0.425\nsamples = 251\nvalue = [271, 120]"] ;
504 -> 508 ;
509 [label="gini = 0.5\nsamples = 66\nvalue = [48, 47]"] ;
508 -> 509 ;
510 [label="gini = 0.372\nsamples = 185\nvalue = [223, 73]"] ;
508 -> 510 ;
}