digraph Tree {
node [shape=box] ;
0 [label="X[25] <= 1.081\ngini = 0.498\nsamples = 5563938\nvalue = [4137563, 4662437]\nclass = y[1]"] ;
1 [label="X[5] <= 0.799\ngini = 0.481\nsamples = 3993677\nvalue = [2546432, 3770295]\nclass = y[1]"] ;
0 -> 1 [labeldistance=2.5, labelangle=45, headlabel="True"] ;
2 [label="X[5] <= 0.685\ngini = 0.499\nsamples = 1803276\nvalue = [1369992, 1482516]\nclass = y[1]"] ;
1 -> 2 ;
3 [label="X[24] <= 0.985\ngini = 0.5\nsamples = 1231417\nvalue = [972888, 974359]\nclass = y[1]"] ;
2 -> 3 ;
4 [label="X[22] <= 1.031\ngini = 0.498\nsamples = 874157\nvalue = [738342, 644391]\nclass = y[0]"] ;
3 -> 4 ;
5 [label="X[0] <= 0.545\ngini = 0.491\nsamples = 688186\nvalue = [618456, 469707]\nclass = y[0]"] ;
4 -> 5 ;
6 [label="X[3] <= 1.027\ngini = 0.468\nsamples = 141319\nvalue = [140065, 83596]\nclass = y[0]"] ;
5 -> 6 ;
7 [label="X[26] <= 0.781\ngini = 0.491\nsamples = 68957\nvalue = [61938, 47431]\nclass = y[0]"] ;
6 -> 7 ;
8 [label="gini = 0.454\nsamples = 44183\nvalue = [45637, 24469]\nclass = y[0]"] ;
7 -> 8 ;
9 [label="gini = 0.486\nsamples = 24774\nvalue = [16301, 22962]\nclass = y[1]"] ;
7 -> 9 ;
10 [label="X[13] <= 1.326\ngini = 0.433\nsamples = 72362\nvalue = [78127, 36165]\nclass = y[0]"] ;
6 -> 10 ;
11 [label="gini = 0.426\nsamples = 67863\nvalue = [74310, 33017]\nclass = y[0]"] ;
10 -> 11 ;
12 [label="gini = 0.495\nsamples = 4499\nvalue = [3817, 3148]\nclass = y[0]"] ;
10 -> 12 ;
13 [label="X[27] <= 0.903\ngini = 0.494\nsamples = 546867\nvalue = [478391, 386111]\nclass = y[0]"] ;
5 -> 13 ;
14 [label="X[20] <= 2.326\ngini = 0.497\nsamples = 497223\nvalue = [421991, 364179]\nclass = y[0]"] ;
13 -> 14 ;
15 [label="gini = 0.498\nsamples = 330544\nvalue = [276971, 245797]\nclass = y[0]"] ;
14 -> 15 ;
16 [label="gini = 0.495\nsamples = 166679\nvalue = [145020, 118382]\nclass = y[0]"] ;
14 -> 16 ;
17 [label="X[24] <= 0.718\ngini = 0.403\nsamples = 49644\nvalue = [56400, 21932]\nclass = y[0]"] ;
13 -> 17 ;
18 [label="gini = 0.485\nsamples = 8264\nvalue = [7675, 5428]\nclass = y[0]"] ;
17 -> 18 ;
19 [label="gini = 0.378\nsamples = 41380\nvalue = [48725, 16504]\nclass = y[0]"] ;
17 -> 19 ;
20 [label="X[13] <= 1.148\ngini = 0.483\nsamples = 185971\nvalue = [119886, 174684]\nclass = y[1]"] ;
4 -> 20 ;
21 [label="X[3] <= 1.184\ngini = 0.49\nsamples = 140951\nvalue = [95992, 127459]\nclass = y[1]"] ;
20 -> 21 ;
22 [label="X[25] <= 0.596\ngini = 0.483\nsamples = 114074\nvalue = [73615, 107376]\nclass = y[1]"] ;
21 -> 22 ;
23 [label="gini = 0.49\nsamples = 32540\nvalue = [29474, 22224]\nclass = y[0]"] ;
22 -> 23 ;
24 [label="gini = 0.45\nsamples = 81534\nvalue = [44141, 85152]\nclass = y[1]"] ;
22 -> 24 ;
25 [label="X[21] <= 0.988\ngini = 0.499\nsamples = 26877\nvalue = [22377, 20083]\nclass = y[0]"] ;
21 -> 25 ;
26 [label="gini = 0.5\nsamples = 15965\nvalue = [12325, 13012]\nclass = y[1]"] ;
25 -> 26 ;
27 [label="gini = 0.485\nsamples = 10912\nvalue = [10052, 7071]\nclass = y[0]"] ;
25 -> 27 ;
28 [label="X[21] <= 1.008\ngini = 0.446\nsamples = 45020\nvalue = [23894, 47225]\nclass = y[1]"] ;
20 -> 28 ;
29 [label="X[25] <= 0.605\ngini = 0.405\nsamples = 28566\nvalue = [12718, 32444]\nclass = y[1]"] ;
28 -> 29 ;
30 [label="gini = 0.5\nsamples = 6021\nvalue = [4858, 4635]\nclass = y[0]"] ;
29 -> 30 ;
31 [label="gini = 0.344\nsamples = 22545\nvalue = [7860, 27809]\nclass = y[1]"] ;
29 -> 31 ;
32 [label="X[9] <= 0.88\ngini = 0.49\nsamples = 16454\nvalue = [11176, 14781]\nclass = y[1]"] ;
28 -> 32 ;
33 [label="gini = 0.499\nsamples = 9172\nvalue = [6860, 7605]\nclass = y[1]"] ;
32 -> 33 ;
34 [label="gini = 0.469\nsamples = 7282\nvalue = [4316, 7176]\nclass = y[1]"] ;
32 -> 34 ;
35 [label="X[12] <= 0.554\ngini = 0.486\nsamples = 357260\nvalue = [234546, 329968]\nclass = y[1]"] ;
3 -> 35 ;
36 [label="X[21] <= 1.196\ngini = 0.493\nsamples = 145108\nvalue = [101329, 127767]\nclass = y[1]"] ;
35 -> 36 ;
37 [label="X[22] <= 0.806\ngini = 0.491\nsamples = 123594\nvalue = [84587, 110398]\nclass = y[1]"] ;
36 -> 37 ;
38 [label="X[0] <= 0.607\ngini = 0.454\nsamples = 36261\nvalue = [19947, 37380]\nclass = y[1]"] ;
37 -> 38 ;
39 [label="gini = 0.496\nsamples = 8247\nvalue = [5912, 7118]\nclass = y[1]"] ;
38 -> 39 ;
40 [label="gini = 0.433\nsamples = 28014\nvalue = [14035, 30262]\nclass = y[1]"] ;
38 -> 40 ;
41 [label="X[0] <= 0.495\ngini = 0.498\nsamples = 87333\nvalue = [64640, 73018]\nclass = y[1]"] ;
37 -> 41 ;
42 [label="gini = 0.491\nsamples = 14610\nvalue = [13086, 10046]\nclass = y[0]"] ;
41 -> 42 ;
43 [label="gini = 0.495\nsamples = 72723\nvalue = [51554, 62972]\nclass = y[1]"] ;
41 -> 43 ;
44 [label="X[13] <= 1.364\ngini = 0.5\nsamples = 21514\nvalue = [16742, 17369]\nclass = y[1]"] ;
36 -> 44 ;
45 [label="X[0] <= 1.377\ngini = 0.5\nsamples = 17238\nvalue = [13984, 13289]\nclass = y[0]"] ;
44 -> 45 ;
46 [label="gini = 0.498\nsamples = 13145\nvalue = [11152, 9693]\nclass = y[0]"] ;
45 -> 46 ;
47 [label="gini = 0.493\nsamples = 4093\nvalue = [2832, 3596]\nclass = y[1]"] ;
45 -> 47 ;
48 [label="X[27] <= 1.234\ngini = 0.481\nsamples = 4276\nvalue = [2758, 4080]\nclass = y[1]"] ;
44 -> 48 ;
49 [label="gini = 0.47\nsamples = 3135\nvalue = [1904, 3148]\nclass = y[1]"] ;
48 -> 49 ;
50 [label="gini = 0.499\nsamples = 1141\nvalue = [854, 932]\nclass = y[1]"] ;
48 -> 50 ;
51 [label="X[24] <= 1.684\ngini = 0.479\nsamples = 212152\nvalue = [133217, 202201]\nclass = y[1]"] ;
35 -> 51 ;
52 [label="X[12] <= 1.661\ngini = 0.476\nsamples = 199361\nvalue = [123176, 192061]\nclass = y[1]"] ;
51 -> 52 ;
53 [label="X[24] <= 1.046\ngini = 0.484\nsamples = 33865\nvalue = [22000, 31762]\nclass = y[1]"] ;
52 -> 53 ;
54 [label="gini = 0.494\nsamples = 7696\nvalue = [5483, 6821]\nclass = y[1]"] ;
53 -> 54 ;
55 [label="gini = 0.479\nsamples = 26169\nvalue = [16517, 24941]\nclass = y[1]"] ;
53 -> 55 ;
56 [label="X[25] <= 0.654\ngini = 0.474\nsamples = 165496\nvalue = [101176, 160299]\nclass = y[1]"] ;
52 -> 56 ;
57 [label="gini = 0.494\nsamples = 39880\nvalue = [34818, 28122]\nclass = y[0]"] ;
56 -> 57 ;
58 [label="gini = 0.445\nsamples = 125616\nvalue = [66358, 132177]\nclass = y[1]"] ;
56 -> 58 ;
59 [label="X[0] <= 1.313\ngini = 0.5\nsamples = 12791\nvalue = [10041, 10140]\nclass = y[1]"] ;
51 -> 59 ;
60 [label="X[9] <= 1.036\ngini = 0.497\nsamples = 10768\nvalue = [7782, 9180]\nclass = y[1]"] ;
59 -> 60 ;
61 [label="gini = 0.499\nsamples = 6985\nvalue = [5656, 5242]\nclass = y[0]"] ;
60 -> 61 ;
62 [label="gini = 0.455\nsamples = 3783\nvalue = [2126, 3938]\nclass = y[1]"] ;
60 -> 62 ;
63 [label="X[9] <= 1.608\ngini = 0.419\nsamples = 2023\nvalue = [2259, 960]\nclass = y[0]"] ;
59 -> 63 ;
64 [label="gini = 0.385\nsamples = 1693\nvalue = [1975, 693]\nclass = y[0]"] ;
63 -> 64 ;
65 [label="gini = 0.5\nsamples = 330\nvalue = [284, 267]\nclass = y[0]"] ;
63 -> 65 ;
66 [label="X[26] <= 0.816\ngini = 0.492\nsamples = 571859\nvalue = [397104, 508157]\nclass = y[1]"] ;
2 -> 66 ;
67 [label="X[27] <= 0.782\ngini = 0.494\nsamples = 209004\nvalue = [183633, 147485]\nclass = y[0]"] ;
66 -> 67 ;
68 [label="X[25] <= 0.948\ngini = 0.499\nsamples = 164899\nvalue = [136637, 124763]\nclass = y[0]"] ;
67 -> 68 ;
69 [label="X[13] <= 1.215\ngini = 0.5\nsamples = 149802\nvalue = [120172, 117437]\nclass = y[0]"] ;
68 -> 69 ;
70 [label="X[3] <= 1.175\ngini = 0.499\nsamples = 134333\nvalue = [111147, 101818]\nclass = y[0]"] ;
69 -> 70 ;
71 [label="gini = 0.5\nsamples = 109177\nvalue = [87580, 85508]\nclass = y[0]"] ;
70 -> 71 ;
72 [label="gini = 0.483\nsamples = 25156\nvalue = [23567, 16310]\nclass = y[0]"] ;
70 -> 72 ;
73 [label="X[0] <= 1.219\ngini = 0.464\nsamples = 15469\nvalue = [9025, 15619]\nclass = y[1]"] ;
69 -> 73 ;
74 [label="gini = 0.454\nsamples = 13419\nvalue = [7429, 13871]\nclass = y[1]"] ;
73 -> 74 ;
75 [label="gini = 0.499\nsamples = 2050\nvalue = [1596, 1748]\nclass = y[1]"] ;
73 -> 75 ;
76 [label="X[22] <= 1.005\ngini = 0.426\nsamples = 15097\nvalue = [16465, 7326]\nclass = y[0]"] ;
68 -> 76 ;
77 [label="X[5] <= 0.706\ngini = 0.402\nsamples = 12056\nvalue = [13714, 5297]\nclass = y[0]"] ;
76 -> 77 ;
78 [label="gini = 0.359\nsamples = 2625\nvalue = [3127, 957]\nclass = y[0]"] ;
77 -> 78 ;
79 [label="gini = 0.412\nsamples = 9431\nvalue = [10587, 4340]\nclass = y[0]"] ;
77 -> 79 ;
80 [label="X[9] <= 0.961\ngini = 0.489\nsamples = 3041\nvalue = [2751, 2029]\nclass = y[0]"] ;
76 -> 80 ;
81 [label="gini = 0.471\nsamples = 2184\nvalue = [2113, 1294]\nclass = y[0]"] ;
80 -> 81 ;
82 [label="gini = 0.498\nsamples = 857\nvalue = [638, 735]\nclass = y[1]"] ;
80 -> 82 ;
83 [label="X[21] <= 1.011\ngini = 0.439\nsamples = 44105\nvalue = [46996, 22722]\nclass = y[0]"] ;
67 -> 83 ;
84 [label="X[13] <= 1.365\ngini = 0.42\nsamples = 32832\nvalue = [36352, 15538]\nclass = y[0]"] ;
83 -> 84 ;
85 [label="X[20] <= 2.326\ngini = 0.411\nsamples = 30618\nvalue = [34431, 13961]\nclass = y[0]"] ;
84 -> 85 ;
86 [label="gini = 0.435\nsamples = 17734\nvalue = [19069, 8943]\nclass = y[0]"] ;
85 -> 86 ;
87 [label="gini = 0.371\nsamples = 12884\nvalue = [15362, 5018]\nclass = y[0]"] ;
85 -> 87 ;
88 [label="X[27] <= 0.923\ngini = 0.495\nsamples = 2214\nvalue = [1921, 1577]\nclass = y[0]"] ;
84 -> 88 ;
89 [label="gini = 0.499\nsamples = 1882\nvalue = [1557, 1411]\nclass = y[0]"] ;
88 -> 89 ;
90 [label="gini = 0.43\nsamples = 332\nvalue = [364, 166]\nclass = y[0]"] ;
88 -> 90 ;
91 [label="X[23] <= 1.459\ngini = 0.481\nsamples = 11273\nvalue = [10644, 7184]\nclass = y[0]"] ;
83 -> 91 ;
92 [label="X[9] <= 1.222\ngini = 0.479\nsamples = 10871\nvalue = [10378, 6848]\nclass = y[0]"] ;
91 -> 92 ;
93 [label="gini = 0.474\nsamples = 10041\nvalue = [9749, 6116]\nclass = y[0]"] ;
92 -> 93 ;
94 [label="gini = 0.497\nsamples = 830\nvalue = [629, 732]\nclass = y[1]"] ;
92 -> 94 ;
95 [label="X[3] <= 1.022\ngini = 0.493\nsamples = 402\nvalue = [266, 336]\nclass = y[1]"] ;
91 -> 95 ;
96 [label="gini = 0.478\nsamples = 136\nvalue = [130, 85]\nclass = y[0]"] ;
95 -> 96 ;
97 [label="gini = 0.456\nsamples = 266\nvalue = [136, 251]\nclass = y[1]"] ;
95 -> 97 ;
98 [label="X[3] <= 1.268\ngini = 0.467\nsamples = 362855\nvalue = [213471, 360672]\nclass = y[1]"] ;
66 -> 98 ;
99 [label="X[17] <= 1.369\ngini = 0.447\nsamples = 267759\nvalue = [142978, 280683]\nclass = y[1]"] ;
98 -> 99 ;
100 [label="X[25] <= 0.652\ngini = 0.455\nsamples = 220628\nvalue = [122367, 226806]\nclass = y[1]"] ;
99 -> 100 ;
101 [label="X[25] <= 0.567\ngini = 0.494\nsamples = 42100\nvalue = [36816, 29776]\nclass = y[0]"] ;
100 -> 101 ;
102 [label="gini = 0.481\nsamples = 26731\nvalue = [25218, 17067]\nclass = y[0]"] ;
101 -> 102 ;
103 [label="gini = 0.499\nsamples = 15369\nvalue = [11598, 12709]\nclass = y[1]"] ;
101 -> 103 ;
104 [label="X[25] <= 0.976\ngini = 0.422\nsamples = 178528\nvalue = [85551, 197030]\nclass = y[1]"] ;
100 -> 104 ;
105 [label="gini = 0.39\nsamples = 148905\nvalue = [62657, 172955]\nclass = y[1]"] ;
104 -> 105 ;
106 [label="gini = 0.5\nsamples = 29623\nvalue = [22894, 24075]\nclass = y[1]"] ;
104 -> 106 ;
107 [label="X[25] <= 0.685\ngini = 0.4\nsamples = 47131\nvalue = [20611, 53877]\nclass = y[1]"] ;
99 -> 107 ;
108 [label="X[22] <= 0.775\ngini = 0.499\nsamples = 7631\nvalue = [5794, 6325]\nclass = y[1]"] ;
107 -> 108 ;
109 [label="gini = 0.387\nsamples = 629\nvalue = [264, 744]\nclass = y[1]"] ;
108 -> 109 ;
110 [label="gini = 0.5\nsamples = 7002\nvalue = [5530, 5581]\nclass = y[1]"] ;
108 -> 110 ;
111 [label="X[27] <= 0.902\ngini = 0.362\nsamples = 39500\nvalue = [14817, 47552]\nclass = y[1]"] ;
107 -> 111 ;
112 [label="gini = 0.268\nsamples = 24117\nvalue = [6043, 31928]\nclass = y[1]"] ;
111 -> 112 ;
113 [label="gini = 0.461\nsamples = 15383\nvalue = [8774, 15624]\nclass = y[1]"] ;
111 -> 113 ;
114 [label="X[8] <= 0.543\ngini = 0.498\nsamples = 95096\nvalue = [70493, 79989]\nclass = y[1]"] ;
98 -> 114 ;
115 [label="X[25] <= 0.62\ngini = 0.496\nsamples = 39886\nvalue = [34643, 28644]\nclass = y[0]"] ;
114 -> 115 ;
116 [label="X[27] <= 0.827\ngini = 0.428\nsamples = 11078\nvalue = [12097, 5443]\nclass = y[0]"] ;
115 -> 116 ;
117 [label="gini = 0.499\nsamples = 1305\nvalue = [1002, 1069]\nclass = y[1]"] ;
116 -> 117 ;
118 [label="gini = 0.406\nsamples = 9773\nvalue = [11095, 4374]\nclass = y[0]"] ;
116 -> 118 ;
119 [label="X[27] <= 0.935\ngini = 0.5\nsamples = 28808\nvalue = [22546, 23201]\nclass = y[1]"] ;
115 -> 119 ;
120 [label="gini = 0.456\nsamples = 12071\nvalue = [6757, 12423]\nclass = y[1]"] ;
119 -> 120 ;
121 [label="gini = 0.482\nsamples = 16737\nvalue = [15789, 10778]\nclass = y[0]"] ;
119 -> 121 ;
122 [label="X[27] <= 0.927\ngini = 0.484\nsamples = 55210\nvalue = [35850, 51345]\nclass = y[1]"] ;
114 -> 122 ;
123 [label="X[21] <= 1.151\ngini = 0.449\nsamples = 31293\nvalue = [16820, 32614]\nclass = y[1]"] ;
122 -> 123 ;
124 [label="gini = 0.443\nsamples = 29282\nvalue = [15319, 30936]\nclass = y[1]"] ;
123 -> 124 ;
125 [label="gini = 0.498\nsamples = 2011\nvalue = [1501, 1678]\nclass = y[1]"] ;
123 -> 125 ;
126 [label="X[26] <= 0.945\ngini = 0.5\nsamples = 23917\nvalue = [19030, 18731]\nclass = y[0]"] ;
122 -> 126 ;
127 [label="gini = 0.473\nsamples = 3179\nvalue = [3091, 1921]\nclass = y[0]"] ;
126 -> 127 ;
128 [label="gini = 0.5\nsamples = 20738\nvalue = [15939, 16810]\nclass = y[1]"] ;
126 -> 128 ;
129 [label="X[3] <= 1.792\ngini = 0.449\nsamples = 2190401\nvalue = [1176440, 2287779]\nclass = y[1]"] ;
1 -> 129 ;
130 [label="X[13] <= 1.195\ngini = 0.43\nsamples = 1938643\nvalue = [960487, 2105067]\nclass = y[1]"] ;
129 -> 130 ;
131 [label="X[26] <= 0.813\ngini = 0.44\nsamples = 1428445\nvalue = [738263, 1520905]\nclass = y[1]"] ;
130 -> 131 ;
132 [label="X[25] <= 0.526\ngini = 0.489\nsamples = 349269\nvalue = [235851, 316462]\nclass = y[1]"] ;
131 -> 132 ;
133 [label="X[27] <= 0.831\ngini = 0.5\nsamples = 132873\nvalue = [104656, 105639]\nclass = y[1]"] ;
132 -> 133 ;
134 [label="X[5] <= 1.063\ngini = 0.494\nsamples = 105086\nvalue = [74079, 92217]\nclass = y[1]"] ;
133 -> 134 ;
135 [label="gini = 0.5\nsamples = 67119\nvalue = [53138, 53161]\nclass = y[1]"] ;
134 -> 135 ;
136 [label="gini = 0.454\nsamples = 37967\nvalue = [20941, 39056]\nclass = y[1]"] ;
134 -> 136 ;
137 [label="X[22] <= 1.04\ngini = 0.424\nsamples = 27787\nvalue = [30577, 13422]\nclass = y[0]"] ;
133 -> 137 ;
138 [label="gini = 0.403\nsamples = 22328\nvalue = [25474, 9905]\nclass = y[0]"] ;
137 -> 138 ;
139 [label="gini = 0.483\nsamples = 5459\nvalue = [5103, 3517]\nclass = y[0]"] ;
137 -> 139 ;
140 [label="X[9] <= 1.019\ngini = 0.473\nsamples = 216396\nvalue = [131195, 210823]\nclass = y[1]"] ;
132 -> 140 ;
141 [label="X[27] <= 0.801\ngini = 0.485\nsamples = 158173\nvalue = [103705, 146409]\nclass = y[1]"] ;
140 -> 141 ;
142 [label="gini = 0.464\nsamples = 128823\nvalue = [74711, 129140]\nclass = y[1]"] ;
141 -> 142 ;
143 [label="gini = 0.468\nsamples = 29350\nvalue = [28994, 17269]\nclass = y[0]"] ;
141 -> 143 ;
144 [label="X[5] <= 1.706\ngini = 0.419\nsamples = 58223\nvalue = [27490, 64414]\nclass = y[1]"] ;
140 -> 144 ;
145 [label="gini = 0.432\nsamples = 51856\nvalue = [25870, 55982]\nclass = y[1]"] ;
144 -> 145 ;
146 [label="gini = 0.27\nsamples = 6367\nvalue = [1620, 8432]\nclass = y[1]"] ;
144 -> 146 ;
147 [label="X[20] <= 0.775\ngini = 0.415\nsamples = 1079176\nvalue = [502412, 1204443]\nclass = y[1]"] ;
131 -> 147 ;
148 [label="X[16] <= 0.637\ngini = 0.406\nsamples = 639805\nvalue = [286330, 725681]\nclass = y[1]"] ;
147 -> 148 ;
149 [label="X[13] <= 0.861\ngini = 0.378\nsamples = 297327\nvalue = [118978, 351630]\nclass = y[1]"] ;
148 -> 149 ;
150 [label="gini = 0.374\nsamples = 200093\nvalue = [78723, 238028]\nclass = y[1]"] ;
149 -> 150 ;
151 [label="gini = 0.386\nsamples = 97234\nvalue = [40255, 113602]\nclass = y[1]"] ;
149 -> 151 ;
152 [label="X[27] <= 0.893\ngini = 0.427\nsamples = 342478\nvalue = [167352, 374051]\nclass = y[1]"] ;
148 -> 152 ;
153 [label="gini = 0.335\nsamples = 175940\nvalue = [59265, 218986]\nclass = y[1]"] ;
152 -> 153 ;
154 [label="gini = 0.484\nsamples = 166538\nvalue = [108087, 155065]\nclass = y[1]"] ;
152 -> 154 ;
155 [label="X[6] <= 1.241\ngini = 0.429\nsamples = 439371\nvalue = [216082, 478762]\nclass = y[1]"] ;
147 -> 155 ;
156 [label="X[12] <= 0.554\ngini = 0.423\nsamples = 396497\nvalue = [190708, 436361]\nclass = y[1]"] ;
155 -> 156 ;
157 [label="gini = 0.405\nsamples = 278923\nvalue = [124492, 316612]\nclass = y[1]"] ;
156 -> 157 ;
158 [label="gini = 0.459\nsamples = 117574\nvalue = [66216, 119749]\nclass = y[1]"] ;
156 -> 158 ;
159 [label="X[3] <= 1.29\ngini = 0.468\nsamples = 42874\nvalue = [25374, 42401]\nclass = y[1]"] ;
155 -> 159 ;
160 [label="gini = 0.459\nsamples = 33920\nvalue = [19197, 34491]\nclass = y[1]"] ;
159 -> 160 ;
161 [label="gini = 0.492\nsamples = 8954\nvalue = [6177, 7910]\nclass = y[1]"] ;
159 -> 161 ;
162 [label="X[25] <= 0.657\ngini = 0.399\nsamples = 510198\nvalue = [222224, 584162]\nclass = y[1]"] ;
130 -> 162 ;
163 [label="X[5] <= 1.808\ngini = 0.488\nsamples = 118598\nvalue = [79171, 108446]\nclass = y[1]"] ;
162 -> 163 ;
164 [label="X[25] <= 0.547\ngini = 0.496\nsamples = 101937\nvalue = [73849, 87429]\nclass = y[1]"] ;
163 -> 164 ;
165 [label="X[24] <= 0.719\ngini = 0.5\nsamples = 61495\nvalue = [47982, 49219]\nclass = y[1]"] ;
164 -> 165 ;
166 [label="gini = 0.458\nsamples = 17523\nvalue = [9884, 17896]\nclass = y[1]"] ;
165 -> 166 ;
167 [label="gini = 0.495\nsamples = 43972\nvalue = [38098, 31323]\nclass = y[0]"] ;
165 -> 167 ;
168 [label="X[26] <= 0.93\ngini = 0.481\nsamples = 40442\nvalue = [25867, 38210]\nclass = y[1]"] ;
164 -> 168 ;
169 [label="gini = 0.433\nsamples = 22189\nvalue = [11201, 24071]\nclass = y[1]"] ;
168 -> 169 ;
170 [label="gini = 0.5\nsamples = 18253\nvalue = [14666, 14139]\nclass = y[0]"] ;
168 -> 170 ;
171 [label="X[3] <= 1.617\ngini = 0.322\nsamples = 16661\nvalue = [5322, 21017]\nclass = y[1]"] ;
163 -> 171 ;
172 [label="X[17] <= 0.831\ngini = 0.316\nsamples = 15441\nvalue = [4810, 19606]\nclass = y[1]"] ;
171 -> 172 ;
173 [label="gini = 0.395\nsamples = 4039\nvalue = [1741, 4683]\nclass = y[1]"] ;
172 -> 173 ;
174 [label="gini = 0.283\nsamples = 11402\nvalue = [3069, 14923]\nclass = y[1]"] ;
172 -> 174 ;
175 [label="X[8] <= 0.543\ngini = 0.391\nsamples = 1220\nvalue = [512, 1411]\nclass = y[1]"] ;
171 -> 175 ;
176 [label="gini = 0.375\nsamples = 1155\nvalue = [454, 1363]\nclass = y[1]"] ;
175 -> 176 ;
177 [label="gini = 0.496\nsamples = 65\nvalue = [58, 48]\nclass = y[0]"] ;
175 -> 177 ;
178 [label="X[0] <= 1.436\ngini = 0.355\nsamples = 391600\nvalue = [143053, 475716]\nclass = y[1]"] ;
162 -> 178 ;
179 [label="X[22] <= 1.002\ngini = 0.321\nsamples = 330726\nvalue = [104909, 417580]\nclass = y[1]"] ;
178 -> 179 ;
180 [label="X[9] <= 1.817\ngini = 0.358\nsamples = 148794\nvalue = [54867, 179786]\nclass = y[1]"] ;
179 -> 180 ;
181 [label="gini = 0.37\nsamples = 131743\nvalue = [50955, 156712]\nclass = y[1]"] ;
180 -> 181 ;
182 [label="gini = 0.248\nsamples = 17051\nvalue = [3912, 23074]\nclass = y[1]"] ;
180 -> 182 ;
183 [label="X[24] <= 1.53\ngini = 0.287\nsamples = 181932\nvalue = [50042, 237794]\nclass = y[1]"] ;
179 -> 183 ;
184 [label="gini = 0.277\nsamples = 168805\nvalue = [44367, 222720]\nclass = y[1]"] ;
183 -> 184 ;
185 [label="gini = 0.397\nsamples = 13127\nvalue = [5675, 15074]\nclass = y[1]"] ;
183 -> 185 ;
186 [label="X[26] <= 1.084\ngini = 0.478\nsamples = 60874\nvalue = [38144, 58136]\nclass = y[1]"] ;
178 -> 186 ;
187 [label="X[24] <= 1.052\ngini = 0.452\nsamples = 34538\nvalue = [18885, 35781]\nclass = y[1]"] ;
186 -> 187 ;
188 [label="gini = 0.483\nsamples = 20050\nvalue = [12983, 18752]\nclass = y[1]"] ;
187 -> 188 ;
189 [label="gini = 0.382\nsamples = 14488\nvalue = [5902, 17029]\nclass = y[1]"] ;
187 -> 189 ;
190 [label="X[25] <= 0.792\ngini = 0.497\nsamples = 26336\nvalue = [19259, 22355]\nclass = y[1]"] ;
186 -> 190 ;
191 [label="gini = 0.494\nsamples = 5758\nvalue = [5120, 4073]\nclass = y[0]"] ;
190 -> 191 ;
192 [label="gini = 0.492\nsamples = 20578\nvalue = [14139, 18282]\nclass = y[1]"] ;
190 -> 192 ;
193 [label="X[25] <= 0.697\ngini = 0.497\nsamples = 251758\nvalue = [215953, 182712]\nclass = y[0]"] ;
129 -> 193 ;
194 [label="X[22] <= 0.779\ngini = 0.455\nsamples = 104100\nvalue = [107300, 57666]\nclass = y[0]"] ;
193 -> 194 ;
195 [label="X[25] <= 0.527\ngini = 0.496\nsamples = 15232\nvalue = [13186, 10910]\nclass = y[0]"] ;
194 -> 195 ;
196 [label="X[3] <= 2.291\ngini = 0.48\nsamples = 8749\nvalue = [8294, 5549]\nclass = y[0]"] ;
195 -> 196 ;
197 [label="X[26] <= 1.446\ngini = 0.497\nsamples = 5007\nvalue = [4269, 3667]\nclass = y[0]"] ;
196 -> 197 ;
198 [label="gini = 0.498\nsamples = 4830\nvalue = [4064, 3591]\nclass = y[0]"] ;
197 -> 198 ;
199 [label="gini = 0.395\nsamples = 177\nvalue = [205, 76]\nclass = y[0]"] ;
197 -> 199 ;
200 [label="X[23] <= 1.354\ngini = 0.434\nsamples = 3742\nvalue = [4025, 1882]\nclass = y[0]"] ;
196 -> 200 ;
201 [label="gini = 0.421\nsamples = 3505\nvalue = [3869, 1668]\nclass = y[0]"] ;
200 -> 201 ;
202 [label="gini = 0.488\nsamples = 237\nvalue = [156, 214]\nclass = y[1]"] ;
200 -> 202 ;
203 [label="X[23] <= 1.187\ngini = 0.499\nsamples = 6483\nvalue = [4892, 5361]\nclass = y[1]"] ;
195 -> 203 ;
204 [label="X[27] <= 0.904\ngini = 0.5\nsamples = 5440\nvalue = [4386, 4221]\nclass = y[0]"] ;
203 -> 204 ;
205 [label="gini = 0.46\nsamples = 2667\nvalue = [1505, 2684]\nclass = y[1]"] ;
204 -> 205 ;
206 [label="gini = 0.454\nsamples = 2773\nvalue = [2881, 1537]\nclass = y[0]"] ;
204 -> 206 ;
207 [label="X[27] <= 1.241\ngini = 0.426\nsamples = 1043\nvalue = [506, 1140]\nclass = y[1]"] ;
203 -> 207 ;
208 [label="gini = 0.393\nsamples = 951\nvalue = [401, 1092]\nclass = y[1]"] ;
207 -> 208 ;
209 [label="gini = 0.431\nsamples = 92\nvalue = [105, 48]\nclass = y[0]"] ;
207 -> 209 ;
210 [label="X[23] <= 1.224\ngini = 0.443\nsamples = 88868\nvalue = [94114, 46756]\nclass = y[0]"] ;
194 -> 210 ;
211 [label="X[5] <= 1.871\ngini = 0.422\nsamples = 78545\nvalue = [86876, 37709]\nclass = y[0]"] ;
210 -> 211 ;
212 [label="X[24] <= 0.699\ngini = 0.399\nsamples = 66580\nvalue = [76545, 29092]\nclass = y[0]"] ;
211 -> 212 ;
213 [label="gini = 0.477\nsamples = 9145\nvalue = [8893, 5756]\nclass = y[0]"] ;
212 -> 213 ;
214 [label="gini = 0.381\nsamples = 57435\nvalue = [67652, 23336]\nclass = y[0]"] ;
212 -> 214 ;
215 [label="X[0] <= 2.067\ngini = 0.496\nsamples = 11965\nvalue = [10331, 8617]\nclass = y[0]"] ;
211 -> 215 ;
216 [label="gini = 0.5\nsamples = 9941\nvalue = [7860, 7902]\nclass = y[1]"] ;
215 -> 216 ;
217 [label="gini = 0.348\nsamples = 2024\nvalue = [2471, 715]\nclass = y[0]"] ;
215 -> 217 ;
218 [label="X[27] <= 0.917\ngini = 0.494\nsamples = 10323\nvalue = [7238, 9047]\nclass = y[1]"] ;
210 -> 218 ;
219 [label="X[17] <= 1.206\ngini = 0.415\nsamples = 3806\nvalue = [1759, 4219]\nclass = y[1]"] ;
218 -> 219 ;
220 [label="gini = 0.439\nsamples = 2896\nvalue = [1482, 3073]\nclass = y[1]"] ;
219 -> 220 ;
221 [label="gini = 0.314\nsamples = 910\nvalue = [277, 1146]\nclass = y[1]"] ;
219 -> 221 ;
222 [label="X[23] <= 1.397\ngini = 0.498\nsamples = 6517\nvalue = [5479, 4828]\nclass = y[0]"] ;
218 -> 222 ;
223 [label="gini = 0.465\nsamples = 2656\nvalue = [2645, 1541]\nclass = y[0]"] ;
222 -> 223 ;
224 [label="gini = 0.497\nsamples = 3861\nvalue = [2834, 3287]\nclass = y[1]"] ;
222 -> 224 ;
225 [label="X[27] <= 0.957\ngini = 0.498\nsamples = 147658\nvalue = [108653, 125046]\nclass = y[1]"] ;
193 -> 225 ;
226 [label="X[24] <= 0.662\ngini = 0.407\nsamples = 50087\nvalue = [22581, 56830]\nclass = y[1]"] ;
225 -> 226 ;
227 [label="X[0] <= 0.529\ngini = 0.328\nsamples = 7296\nvalue = [2392, 9185]\nclass = y[1]"] ;
226 -> 227 ;
228 [label="X[5] <= 1.052\ngini = 0.407\nsamples = 2568\nvalue = [1165, 2926]\nclass = y[1]"] ;
227 -> 228 ;
229 [label="gini = 0.494\nsamples = 936\nvalue = [666, 829]\nclass = y[1]"] ;
228 -> 229 ;
230 [label="gini = 0.311\nsamples = 1632\nvalue = [499, 2097]\nclass = y[1]"] ;
228 -> 230 ;
231 [label="X[12] <= 0.554\ngini = 0.274\nsamples = 4728\nvalue = [1227, 6259]\nclass = y[1]"] ;
227 -> 231 ;
232 [label="gini = 0.251\nsamples = 3353\nvalue = [789, 4566]\nclass = y[1]"] ;
231 -> 232 ;
233 [label="gini = 0.327\nsamples = 1375\nvalue = [438, 1693]\nclass = y[1]"] ;
231 -> 233 ;
234 [label="X[5] <= 1.768\ngini = 0.418\nsamples = 42791\nvalue = [20189, 47645]\nclass = y[1]"] ;
226 -> 234 ;
235 [label="X[26] <= 0.864\ngini = 0.442\nsamples = 36411\nvalue = [18991, 38649]\nclass = y[1]"] ;
234 -> 235 ;
236 [label="gini = 0.485\nsamples = 6880\nvalue = [6391, 4517]\nclass = y[0]"] ;
235 -> 236 ;
237 [label="gini = 0.394\nsamples = 29531\nvalue = [12600, 34132]\nclass = y[1]"] ;
235 -> 237 ;
238 [label="X[5] <= 2.175\ngini = 0.207\nsamples = 6380\nvalue = [1198, 8996]\nclass = y[1]"] ;
234 -> 238 ;
239 [label="gini = 0.273\nsamples = 2539\nvalue = [662, 3401]\nclass = y[1]"] ;
238 -> 239 ;
240 [label="gini = 0.16\nsamples = 3841\nvalue = [536, 5595]\nclass = y[1]"] ;
238 -> 240 ;
241 [label="X[5] <= 2.018\ngini = 0.493\nsamples = 97571\nvalue = [86072, 68216]\nclass = y[0]"] ;
225 -> 241 ;
242 [label="X[0] <= 1.448\ngini = 0.488\nsamples = 83783\nvalue = [76494, 55989]\nclass = y[0]"] ;
241 -> 242 ;
243 [label="X[22] <= 1.045\ngini = 0.496\nsamples = 70767\nvalue = [61156, 50725]\nclass = y[0]"] ;
242 -> 243 ;
244 [label="gini = 0.475\nsamples = 42171\nvalue = [40711, 25925]\nclass = y[0]"] ;
243 -> 244 ;
245 [label="gini = 0.495\nsamples = 28596\nvalue = [20445, 24800]\nclass = y[1]"] ;
243 -> 245 ;
246 [label="X[13] <= 1.745\ngini = 0.38\nsamples = 13016\nvalue = [15338, 5264]\nclass = y[0]"] ;
242 -> 246 ;
247 [label="gini = 0.375\nsamples = 11901\nvalue = [14145, 4703]\nclass = y[0]"] ;
246 -> 247 ;
248 [label="gini = 0.435\nsamples = 1115\nvalue = [1193, 561]\nclass = y[0]"] ;
246 -> 248 ;
249 [label="X[6] <= -1.284\ngini = 0.493\nsamples = 13788\nvalue = [9578, 12227]\nclass = y[1]"] ;
241 -> 249 ;
250 [label="X[24] <= 2.934\ngini = 0.314\nsamples = 1834\nvalue = [566, 2337]\nclass = y[1]"] ;
249 -> 250 ;
251 [label="gini = 0.297\nsamples = 1786\nvalue = [511, 2304]\nclass = y[1]"] ;
250 -> 251 ;
252 [label="gini = 0.469\nsamples = 48\nvalue = [55, 33]\nclass = y[0]"] ;
250 -> 252 ;
253 [label="X[24] <= 2.425\ngini = 0.499\nsamples = 11954\nvalue = [9012, 9890]\nclass = y[1]"] ;
249 -> 253 ;
254 [label="gini = 0.487\nsamples = 10226\nvalue = [6776, 9427]\nclass = y[1]"] ;
253 -> 254 ;
255 [label="gini = 0.284\nsamples = 1728\nvalue = [2236, 463]\nclass = y[0]"] ;
253 -> 255 ;
256 [label="X[25] <= 1.844\ngini = 0.46\nsamples = 1570261\nvalue = [1591131, 892142]\nclass = y[0]"] ;
0 -> 256 [labeldistance=2.5, labelangle=-45, headlabel="False"] ;
257 [label="X[22] <= 1.023\ngini = 0.478\nsamples = 1238385\nvalue = [1183512, 773853]\nclass = y[0]"] ;
256 -> 257 ;
258 [label="X[24] <= 1.083\ngini = 0.443\nsamples = 785190\nvalue = [830429, 409908]\nclass = y[0]"] ;
257 -> 258 ;
259 [label="X[26] <= 1.133\ngini = 0.403\nsamples = 515724\nvalue = [587710, 227659]\nclass = y[0]"] ;
258 -> 259 ;
260 [label="X[24] <= 0.72\ngini = 0.434\nsamples = 408293\nvalue = [440450, 205122]\nclass = y[0]"] ;
259 -> 260 ;
261 [label="X[27] <= 0.959\ngini = 0.491\nsamples = 65387\nvalue = [58578, 44564]\nclass = y[0]"] ;
260 -> 261 ;
262 [label="X[5] <= 1.067\ngini = 0.497\nsamples = 58229\nvalue = [49516, 42324]\nclass = y[0]"] ;
261 -> 262 ;
263 [label="gini = 0.482\nsamples = 43023\nvalue = [40396, 27474]\nclass = y[0]"] ;
262 -> 263 ;
264 [label="gini = 0.471\nsamples = 15206\nvalue = [9120, 14850]\nclass = y[1]"] ;
262 -> 264 ;
265 [label="X[13] <= 2.287\ngini = 0.318\nsamples = 7158\nvalue = [9062, 2240]\nclass = y[0]"] ;
261 -> 265 ;
266 [label="gini = 0.314\nsamples = 7066\nvalue = [8995, 2174]\nclass = y[0]"] ;
265 -> 266 ;
267 [label="gini = 0.5\nsamples = 92\nvalue = [67, 66]\nclass = y[0]"] ;
265 -> 267 ;
268 [label="X[27] <= 0.924\ngini = 0.417\nsamples = 342906\nvalue = [381872, 160558]\nclass = y[0]"] ;
260 -> 268 ;
269 [label="X[17] <= 1.075\ngini = 0.446\nsamples = 267997\nvalue = [281552, 142161]\nclass = y[0]"] ;
268 -> 269 ;
270 [label="gini = 0.43\nsamples = 183296\nvalue = [199434, 90604]\nclass = y[0]"] ;
269 -> 270 ;
271 [label="gini = 0.474\nsamples = 84701\nvalue = [82118, 51557]\nclass = y[0]"] ;
269 -> 271 ;
272 [label="X[27] <= 0.991\ngini = 0.262\nsamples = 74909\nvalue = [100320, 18397]\nclass = y[0]"] ;
268 -> 272 ;
273 [label="gini = 0.328\nsamples = 37098\nvalue = [46628, 12182]\nclass = y[0]"] ;
272 -> 273 ;
274 [label="gini = 0.186\nsamples = 37811\nvalue = [53692, 6215]\nclass = y[0]"] ;
272 -> 274 ;
275 [label="X[21] <= 0.578\ngini = 0.23\nsamples = 107431\nvalue = [147260, 22537]\nclass = y[0]"] ;
259 -> 275 ;
276 [label="X[26] <= 1.227\ngini = 0.425\nsamples = 8293\nvalue = [9050, 4006]\nclass = y[0]"] ;
275 -> 276 ;
277 [label="X[27] <= 0.946\ngini = 0.489\nsamples = 3655\nvalue = [3285, 2450]\nclass = y[0]"] ;
276 -> 277 ;
278 [label="gini = 0.473\nsamples = 1790\nvalue = [1070, 1721]\nclass = y[1]"] ;
277 -> 278 ;
279 [label="gini = 0.373\nsamples = 1865\nvalue = [2215, 729]\nclass = y[0]"] ;
277 -> 279 ;
280 [label="X[27] <= 1.044\ngini = 0.335\nsamples = 4638\nvalue = [5765, 1556]\nclass = y[0]"] ;
276 -> 280 ;
281 [label="gini = 0.481\nsamples = 1279\nvalue = [1217, 818]\nclass = y[0]"] ;
280 -> 281 ;
282 [label="gini = 0.24\nsamples = 3359\nvalue = [4548, 738]\nclass = y[0]"] ;
280 -> 282 ;
283 [label="X[26] <= 1.26\ngini = 0.208\nsamples = 99138\nvalue = [138210, 18531]\nclass = y[0]"] ;
275 -> 283 ;
284 [label="X[13] <= 0.766\ngini = 0.259\nsamples = 50978\nvalue = [68281, 12355]\nclass = y[0]"] ;
283 -> 284 ;
285 [label="gini = 0.332\nsamples = 11146\nvalue = [13786, 3677]\nclass = y[0]"] ;
284 -> 285 ;
286 [label="gini = 0.237\nsamples = 39832\nvalue = [54495, 8678]\nclass = y[0]"] ;
284 -> 286 ;
287 [label="X[21] <= 0.699\ngini = 0.149\nsamples = 48160\nvalue = [69929, 6176]\nclass = y[0]"] ;
283 -> 287 ;
288 [label="gini = 0.225\nsamples = 4218\nvalue = [5873, 871]\nclass = y[0]"] ;
287 -> 288 ;
289 [label="gini = 0.141\nsamples = 43942\nvalue = [64056, 5305]\nclass = y[0]"] ;
287 -> 289 ;
290 [label="X[5] <= 1.093\ngini = 0.49\nsamples = 269466\nvalue = [242719, 182249]\nclass = y[0]"] ;
258 -> 290 ;
291 [label="X[16] <= 1.911\ngini = 0.475\nsamples = 156479\nvalue = [151243, 96081]\nclass = y[0]"] ;
290 -> 291 ;
292 [label="X[27] <= 1.077\ngini = 0.482\nsamples = 105708\nvalue = [99677, 67648]\nclass = y[0]"] ;
291 -> 292 ;
293 [label="X[0] <= 0.615\ngini = 0.492\nsamples = 76960\nvalue = [68380, 53328]\nclass = y[0]"] ;
292 -> 293 ;
294 [label="gini = 0.458\nsamples = 19656\nvalue = [20032, 11068]\nclass = y[0]"] ;
293 -> 294 ;
295 [label="gini = 0.498\nsamples = 57304\nvalue = [48348, 42260]\nclass = y[0]"] ;
293 -> 295 ;
296 [label="X[17] <= 0.701\ngini = 0.431\nsamples = 28748\nvalue = [31297, 14320]\nclass = y[0]"] ;
292 -> 296 ;
297 [label="gini = 0.458\nsamples = 8189\nvalue = [8382, 4631]\nclass = y[0]"] ;
296 -> 297 ;
298 [label="gini = 0.418\nsamples = 20559\nvalue = [22915, 9689]\nclass = y[0]"] ;
296 -> 298 ;
299 [label="X[21] <= 0.945\ngini = 0.458\nsamples = 50771\nvalue = [51566, 28433]\nclass = y[0]"] ;
291 -> 299 ;
300 [label="X[0] <= 0.651\ngini = 0.442\nsamples = 36171\nvalue = [38211, 18743]\nclass = y[0]"] ;
299 -> 300 ;
301 [label="gini = 0.385\nsamples = 11976\nvalue = [14059, 4943]\nclass = y[0]"] ;
300 -> 301 ;
302 [label="gini = 0.463\nsamples = 24195\nvalue = [24152, 13800]\nclass = y[0]"] ;
300 -> 302 ;
303 [label="X[27] <= 1.167\ngini = 0.487\nsamples = 14600\nvalue = [13355, 9690]\nclass = y[0]"] ;
299 -> 303 ;
304 [label="gini = 0.496\nsamples = 11506\nvalue = [9889, 8234]\nclass = y[0]"] ;
303 -> 304 ;
305 [label="gini = 0.417\nsamples = 3094\nvalue = [3466, 1456]\nclass = y[0]"] ;
303 -> 305 ;
306 [label="X[0] <= 2.266\ngini = 0.5\nsamples = 112987\nvalue = [91476, 86168]\nclass = y[0]"] ;
290 -> 306 ;
307 [label="X[22] <= 0.802\ngini = 0.5\nsamples = 104505\nvalue = [81924, 82403]\nclass = y[1]"] ;
306 -> 307 ;
308 [label="X[5] <= 1.376\ngini = 0.484\nsamples = 30713\nvalue = [19871, 28471]\nclass = y[1]"] ;
307 -> 308 ;
309 [label="gini = 0.493\nsamples = 13917\nvalue = [9629, 12257]\nclass = y[1]"] ;
308 -> 309 ;
310 [label="gini = 0.475\nsamples = 16796\nvalue = [10242, 16214]\nclass = y[1]"] ;
308 -> 310 ;
311 [label="X[25] <= 1.391\ngini = 0.498\nsamples = 73792\nvalue = [62053, 53932]\nclass = y[0]"] ;
307 -> 311 ;
312 [label="gini = 0.496\nsamples = 36325\nvalue = [25925, 30979]\nclass = y[1]"] ;
311 -> 312 ;
313 [label="gini = 0.475\nsamples = 37467\nvalue = [36128, 22953]\nclass = y[0]"] ;
311 -> 313 ;
314 [label="X[0] <= 3.026\ngini = 0.406\nsamples = 8482\nvalue = [9552, 3765]\nclass = y[0]"] ;
306 -> 314 ;
315 [label="X[27] <= 1.06\ngini = 0.447\nsamples = 5724\nvalue = [5987, 3044]\nclass = y[0]"] ;
314 -> 315 ;
316 [label="gini = 0.5\nsamples = 1764\nvalue = [1361, 1391]\nclass = y[1]"] ;
315 -> 316 ;
317 [label="gini = 0.388\nsamples = 3960\nvalue = [4626, 1653]\nclass = y[0]"] ;
315 -> 317 ;
318 [label="X[5] <= 1.742\ngini = 0.28\nsamples = 2758\nvalue = [3565, 721]\nclass = y[0]"] ;
314 -> 318 ;
319 [label="gini = 0.234\nsamples = 1352\nvalue = [1796, 281]\nclass = y[0]"] ;
318 -> 319 ;
320 [label="gini = 0.319\nsamples = 1406\nvalue = [1769, 440]\nclass = y[0]"] ;
318 -> 320 ;
321 [label="X[22] <= 1.097\ngini = 0.5\nsamples = 453195\nvalue = [353083, 363945]\nclass = y[1]"] ;
257 -> 321 ;
322 [label="X[21] <= 1.22\ngini = 0.496\nsamples = 128484\nvalue = [110853, 92527]\nclass = y[0]"] ;
321 -> 322 ;
323 [label="X[16] <= 1.911\ngini = 0.492\nsamples = 110385\nvalue = [98353, 76533]\nclass = y[0]"] ;
322 -> 323 ;
324 [label="X[26] <= 1.23\ngini = 0.496\nsamples = 73478\nvalue = [63391, 53069]\nclass = y[0]"] ;
323 -> 324 ;
325 [label="X[5] <= 1.092\ngini = 0.498\nsamples = 59236\nvalue = [49569, 44337]\nclass = y[0]"] ;
324 -> 325 ;
326 [label="gini = 0.49\nsamples = 42774\nvalue = [38720, 29083]\nclass = y[0]"] ;
325 -> 326 ;
327 [label="gini = 0.486\nsamples = 16462\nvalue = [10849, 15254]\nclass = y[1]"] ;
325 -> 327 ;
328 [label="X[0] <= 2.245\ngini = 0.475\nsamples = 14242\nvalue = [13822, 8732]\nclass = y[0]"] ;
324 -> 328 ;
329 [label="gini = 0.483\nsamples = 13049\nvalue = [12245, 8390]\nclass = y[0]"] ;
328 -> 329 ;
330 [label="gini = 0.293\nsamples = 1193\nvalue = [1577, 342]\nclass = y[0]"] ;
328 -> 330 ;
331 [label="X[25] <= 1.342\ngini = 0.481\nsamples = 36907\nvalue = [34962, 23464]\nclass = y[0]"] ;
323 -> 331 ;
332 [label="X[26] <= 0.994\ngini = 0.493\nsamples = 20082\nvalue = [17841, 14139]\nclass = y[0]"] ;
331 -> 332 ;
333 [label="gini = 0.476\nsamples = 9990\nvalue = [9710, 6210]\nclass = y[0]"] ;
332 -> 333 ;
334 [label="gini = 0.5\nsamples = 10092\nvalue = [8131, 7929]\nclass = y[0]"] ;
332 -> 334 ;
335 [label="X[27] <= 1.014\ngini = 0.457\nsamples = 16825\nvalue = [17121, 9325]\nclass = y[0]"] ;
331 -> 335 ;
336 [label="gini = 0.483\nsamples = 10026\nvalue = [9306, 6424]\nclass = y[0]"] ;
335 -> 336 ;
337 [label="gini = 0.395\nsamples = 6799\nvalue = [7815, 2901]\nclass = y[0]"] ;
335 -> 337 ;
338 [label="X[24] <= 1.978\ngini = 0.492\nsamples = 18099\nvalue = [12500, 15994]\nclass = y[1]"] ;
322 -> 338 ;
339 [label="X[16] <= 1.911\ngini = 0.49\nsamples = 17276\nvalue = [11647, 15554]\nclass = y[1]"] ;
338 -> 339 ;
340 [label="X[25] <= 1.587\ngini = 0.484\nsamples = 10724\nvalue = [6928, 9994]\nclass = y[1]"] ;
339 -> 340 ;
341 [label="gini = 0.476\nsamples = 9158\nvalue = [5595, 8765]\nclass = y[1]"] ;
340 -> 341 ;
342 [label="gini = 0.499\nsamples = 1566\nvalue = [1333, 1229]\nclass = y[0]"] ;
340 -> 342 ;
343 [label="X[26] <= 1.119\ngini = 0.497\nsamples = 6552\nvalue = [4719, 5560]\nclass = y[1]"] ;
339 -> 343 ;
344 [label="gini = 0.479\nsamples = 4332\nvalue = [2674, 4055]\nclass = y[1]"] ;
343 -> 344 ;
345 [label="gini = 0.488\nsamples = 2220\nvalue = [2045, 1505]\nclass = y[0]"] ;
343 -> 345 ;
346 [label="X[15] <= 1.489\ngini = 0.449\nsamples = 823\nvalue = [853, 440]\nclass = y[0]"] ;
338 -> 346 ;
347 [label="X[5] <= 0.998\ngini = 0.439\nsamples = 759\nvalue = [803, 388]\nclass = y[0]"] ;
346 -> 347 ;
348 [label="gini = 0.49\nsamples = 173\nvalue = [141, 106]\nclass = y[0]"] ;
347 -> 348 ;
349 [label="gini = 0.419\nsamples = 586\nvalue = [662, 282]\nclass = y[0]"] ;
347 -> 349 ;
350 [label="X[27] <= 1.674\ngini = 0.5\nsamples = 64\nvalue = [50, 52]\nclass = y[1]"] ;
346 -> 350 ;
351 [label="gini = 0.485\nsamples = 49\nvalue = [47, 33]\nclass = y[0]"] ;
350 -> 351 ;
352 [label="gini = 0.236\nsamples = 15\nvalue = [3, 19]\nclass = y[1]"] ;
350 -> 352 ;
353 [label="X[0] <= 2.155\ngini = 0.498\nsamples = 324711\nvalue = [242230, 271418]\nclass = y[1]"] ;
321 -> 353 ;
354 [label="X[3] <= 2.077\ngini = 0.497\nsamples = 308329\nvalue = [225236, 262463]\nclass = y[1]"] ;
353 -> 354 ;
355 [label="X[5] <= 1.183\ngini = 0.495\nsamples = 289498\nvalue = [205844, 252093]\nclass = y[1]"] ;
354 -> 355 ;
356 [label="X[21] <= 2.02\ngini = 0.5\nsamples = 186120\nvalue = [146157, 147873]\nclass = y[1]"] ;
355 -> 356 ;
357 [label="gini = 0.5\nsamples = 154197\nvalue = [118259, 125258]\nclass = y[1]"] ;
356 -> 357 ;
358 [label="gini = 0.495\nsamples = 31923\nvalue = [27898, 22615]\nclass = y[0]"] ;
356 -> 358 ;
359 [label="X[3] <= 1.487\ngini = 0.463\nsamples = 103378\nvalue = [59687, 104220]\nclass = y[1]"] ;
355 -> 359 ;
360 [label="gini = 0.455\nsamples = 86716\nvalue = [48068, 89516]\nclass = y[1]"] ;
359 -> 360 ;
361 [label="gini = 0.493\nsamples = 16662\nvalue = [11619, 14704]\nclass = y[1]"] ;
359 -> 361 ;
362 [label="X[27] <= 1.32\ngini = 0.454\nsamples = 18831\nvalue = [19392, 10370]\nclass = y[0]"] ;
354 -> 362 ;
363 [label="X[3] <= 2.328\ngini = 0.483\nsamples = 6432\nvalue = [5973, 4112]\nclass = y[0]"] ;
362 -> 363 ;
364 [label="gini = 0.497\nsamples = 3068\nvalue = [2592, 2208]\nclass = y[0]"] ;
363 -> 364 ;
365 [label="gini = 0.461\nsamples = 3364\nvalue = [3381, 1904]\nclass = y[0]"] ;
363 -> 365 ;
366 [label="X[12] <= 0.554\ngini = 0.434\nsamples = 12399\nvalue = [13419, 6258]\nclass = y[0]"] ;
362 -> 366 ;
367 [label="gini = 0.386\nsamples = 5298\nvalue = [6295, 2223]\nclass = y[0]"] ;
366 -> 367 ;
368 [label="gini = 0.462\nsamples = 7101\nvalue = [7124, 4035]\nclass = y[0]"] ;
366 -> 368 ;
369 [label="X[24] <= 1.846\ngini = 0.452\nsamples = 16382\nvalue = [16994, 8955]\nclass = y[0]"] ;
353 -> 369 ;
370 [label="X[25] <= 1.47\ngini = 0.482\nsamples = 12802\nvalue = [12056, 8212]\nclass = y[0]"] ;
369 -> 370 ;
371 [label="X[6] <= -1.232\ngini = 0.498\nsamples = 9199\nvalue = [7742, 6843]\nclass = y[0]"] ;
370 -> 371 ;
372 [label="gini = 0.484\nsamples = 1326\nvalue = [865, 1243]\nclass = y[1]"] ;
371 -> 372 ;
373 [label="gini = 0.495\nsamples = 7873\nvalue = [6877, 5600]\nclass = y[0]"] ;
371 -> 373 ;
374 [label="X[0] <= 2.741\ngini = 0.366\nsamples = 3603\nvalue = [4314, 1369]\nclass = y[0]"] ;
370 -> 374 ;
375 [label="gini = 0.409\nsamples = 2347\nvalue = [2631, 1060]\nclass = y[0]"] ;
374 -> 375 ;
376 [label="gini = 0.262\nsamples = 1256\nvalue = [1683, 309]\nclass = y[0]"] ;
374 -> 376 ;
377 [label="X[0] <= 3.454\ngini = 0.227\nsamples = 3580\nvalue = [4938, 743]\nclass = y[0]"] ;
369 -> 377 ;
378 [label="X[3] <= 1.767\ngini = 0.268\nsamples = 2724\nvalue = [3619, 686]\nclass = y[0]"] ;
377 -> 378 ;
379 [label="gini = 0.31\nsamples = 2004\nvalue = [2563, 609]\nclass = y[0]"] ;
378 -> 379 ;
380 [label="gini = 0.127\nsamples = 720\nvalue = [1056, 77]\nclass = y[0]"] ;
378 -> 380 ;
381 [label="X[1] <= 2.107\ngini = 0.079\nsamples = 856\nvalue = [1319, 57]\nclass = y[0]"] ;
377 -> 381 ;
382 [label="gini = 0.077\nsamples = 855\nvalue = [1319, 55]\nclass = y[0]"] ;
381 -> 382 ;
383 [label="gini = 0.0\nsamples = 1\nvalue = [0, 2]\nclass = y[1]"] ;
381 -> 383 ;
384 [label="X[3] <= 1.779\ngini = 0.349\nsamples = 331876\nvalue = [407619, 118289]\nclass = y[0]"] ;
256 -> 384 ;
385 [label="X[22] <= 1.03\ngini = 0.365\nsamples = 286565\nvalue = [345070, 108919]\nclass = y[0]"] ;
384 -> 385 ;
386 [label="X[24] <= 1.083\ngini = 0.291\nsamples = 162814\nvalue = [212429, 45623]\nclass = y[0]"] ;
385 -> 386 ;
387 [label="X[0] <= 1.254\ngini = 0.208\nsamples = 96554\nvalue = [134892, 18052]\nclass = y[0]"] ;
386 -> 387 ;
388 [label="X[26] <= 1.175\ngini = 0.245\nsamples = 73314\nvalue = [99443, 16547]\nclass = y[0]"] ;
387 -> 388 ;
389 [label="X[21] <= 0.622\ngini = 0.398\nsamples = 24447\nvalue = [28157, 10662]\nclass = y[0]"] ;
388 -> 389 ;
390 [label="gini = 0.493\nsamples = 4038\nvalue = [3592, 2830]\nclass = y[0]"] ;
389 -> 390 ;
391 [label="gini = 0.367\nsamples = 20409\nvalue = [24565, 7832]\nclass = y[0]"] ;
389 -> 391 ;
392 [label="X[25] <= 2.431\ngini = 0.141\nsamples = 48867\nvalue = [71286, 5885]\nclass = y[0]"] ;
388 -> 392 ;
393 [label="gini = 0.163\nsamples = 31277\nvalue = [44924, 4411]\nclass = y[0]"] ;
392 -> 393 ;
394 [label="gini = 0.1\nsamples = 17590\nvalue = [26362, 1474]\nclass = y[0]"] ;
392 -> 394 ;
395 [label="X[26] <= 1.217\ngini = 0.078\nsamples = 23240\nvalue = [35449, 1505]\nclass = y[0]"] ;
387 -> 395 ;
396 [label="X[26] <= 1.048\ngini = 0.211\nsamples = 3777\nvalue = [5277, 718]\nclass = y[0]"] ;
395 -> 396 ;
397 [label="gini = 0.454\nsamples = 201\nvalue = [210, 112]\nclass = y[0]"] ;
396 -> 397 ;
398 [label="gini = 0.191\nsamples = 3576\nvalue = [5067, 606]\nclass = y[0]"] ;
396 -> 398 ;
399 [label="X[26] <= 1.405\ngini = 0.05\nsamples = 19463\nvalue = [30172, 787]\nclass = y[0]"] ;
395 -> 399 ;
400 [label="gini = 0.083\nsamples = 7110\nvalue = [10769, 487]\nclass = y[0]"] ;
399 -> 400 ;
401 [label="gini = 0.03\nsamples = 12353\nvalue = [19403, 300]\nclass = y[0]"] ;
399 -> 401 ;
402 [label="X[26] <= 1.178\ngini = 0.387\nsamples = 66260\nvalue = [77537, 27571]\nclass = y[0]"] ;
386 -> 402 ;
403 [label="X[5] <= 1.458\ngini = 0.458\nsamples = 8413\nvalue = [8518, 4680]\nclass = y[0]"] ;
402 -> 403 ;
404 [label="X[0] <= 1.184\ngini = 0.431\nsamples = 7174\nvalue = [7717, 3537]\nclass = y[0]"] ;
403 -> 404 ;
405 [label="gini = 0.447\nsamples = 6042\nvalue = [6278, 3187]\nclass = y[0]"] ;
404 -> 405 ;
406 [label="gini = 0.315\nsamples = 1132\nvalue = [1439, 350]\nclass = y[0]"] ;
404 -> 406 ;
407 [label="X[24] <= 1.321\ngini = 0.485\nsamples = 1239\nvalue = [801, 1143]\nclass = y[1]"] ;
403 -> 407 ;
408 [label="gini = 0.493\nsamples = 969\nvalue = [669, 850]\nclass = y[1]"] ;
407 -> 408 ;
409 [label="gini = 0.428\nsamples = 270\nvalue = [132, 293]\nclass = y[1]"] ;
407 -> 409 ;
410 [label="X[9] <= 2.57\ngini = 0.374\nsamples = 57847\nvalue = [69019, 22891]\nclass = y[0]"] ;
402 -> 410 ;
411 [label="X[5] <= 2.015\ngini = 0.368\nsamples = 54306\nvalue = [65261, 20988]\nclass = y[0]"] ;
410 -> 411 ;
412 [label="gini = 0.349\nsamples = 47519\nvalue = [58470, 17025]\nclass = y[0]"] ;
411 -> 412 ;
413 [label="gini = 0.465\nsamples = 6787\nvalue = [6791, 3963]\nclass = y[0]"] ;
411 -> 413 ;
414 [label="X[25] <= 2.971\ngini = 0.446\nsamples = 3541\nvalue = [3758, 1903]\nclass = y[0]"] ;
410 -> 414 ;
415 [label="gini = 0.488\nsamples = 1923\nvalue = [1785, 1299]\nclass = y[0]"] ;
414 -> 415 ;
416 [label="gini = 0.359\nsamples = 1618\nvalue = [1973, 604]\nclass = y[0]"] ;
414 -> 416 ;
417 [label="X[0] <= 1.321\ngini = 0.437\nsamples = 123751\nvalue = [132641, 63296]\nclass = y[0]"] ;
385 -> 417 ;
418 [label="X[12] <= 1.661\ngini = 0.463\nsamples = 93742\nvalue = [94427, 53898]\nclass = y[0]"] ;
417 -> 418 ;
419 [label="X[27] <= 1.59\ngini = 0.474\nsamples = 41093\nvalue = [39973, 25085]\nclass = y[0]"] ;
418 -> 419 ;
420 [label="X[17] <= 1.061\ngini = 0.483\nsamples = 31208\nvalue = [29285, 20172]\nclass = y[0]"] ;
419 -> 420 ;
421 [label="gini = 0.463\nsamples = 14636\nvalue = [14756, 8460]\nclass = y[0]"] ;
420 -> 421 ;
422 [label="gini = 0.494\nsamples = 16572\nvalue = [14529, 11712]\nclass = y[0]"] ;
420 -> 422 ;
423 [label="X[21] <= 0.949\ngini = 0.431\nsamples = 9885\nvalue = [10688, 4913]\nclass = y[0]"] ;
419 -> 423 ;
424 [label="gini = 0.47\nsamples = 2803\nvalue = [2746, 1672]\nclass = y[0]"] ;
423 -> 424 ;
425 [label="gini = 0.412\nsamples = 7082\nvalue = [7942, 3241]\nclass = y[0]"] ;
423 -> 425 ;
426 [label="X[25] <= 2.133\ngini = 0.453\nsamples = 52649\nvalue = [54454, 28813]\nclass = y[0]"] ;
418 -> 426 ;
427 [label="X[5] <= 1.493\ngini = 0.493\nsamples = 21748\nvalue = [19249, 15065]\nclass = y[0]"] ;
426 -> 427 ;
428 [label="gini = 0.484\nsamples = 18285\nvalue = [16987, 11817]\nclass = y[0]"] ;
427 -> 428 ;
429 [label="gini = 0.484\nsamples = 3463\nvalue = [2262, 3248]\nclass = y[1]"] ;
427 -> 429 ;
430 [label="X[5] <= 2.091\ngini = 0.404\nsamples = 30901\nvalue = [35205, 13748]\nclass = y[0]"] ;
426 -> 430 ;
431 [label="gini = 0.389\nsamples = 26222\nvalue = [30565, 10966]\nclass = y[0]"] ;
430 -> 431 ;
432 [label="gini = 0.469\nsamples = 4679\nvalue = [4640, 2782]\nclass = y[0]"] ;
430 -> 432 ;
433 [label="X[6] <= -1.146\ngini = 0.317\nsamples = 30009\nvalue = [38214, 9398]\nclass = y[0]"] ;
417 -> 433 ;
434 [label="X[3] <= 0.201\ngini = 0.39\nsamples = 3070\nvalue = [3561, 1287]\nclass = y[0]"] ;
433 -> 434 ;
435 [label="X[22] <= 1.031\ngini = 0.244\nsamples = 143\nvalue = [199, 33]\nclass = y[0]"] ;
434 -> 435 ;
436 [label="gini = 0.0\nsamples = 1\nvalue = [0, 2]\nclass = y[1]"] ;
435 -> 436 ;
437 [label="gini = 0.233\nsamples = 142\nvalue = [199, 31]\nclass = y[0]"] ;
435 -> 437 ;
438 [label="X[21] <= 1.212\ngini = 0.396\nsamples = 2927\nvalue = [3362, 1254]\nclass = y[0]"] ;
434 -> 438 ;
439 [label="gini = 0.419\nsamples = 1814\nvalue = [2022, 861]\nclass = y[0]"] ;
438 -> 439 ;
440 [label="gini = 0.351\nsamples = 1113\nvalue = [1340, 393]\nclass = y[0]"] ;
438 -> 440 ;
441 [label="X[6] <= 1.014\ngini = 0.307\nsamples = 26939\nvalue = [34653, 8111]\nclass = y[0]"] ;
433 -> 441 ;
442 [label="X[5] <= 3.35\ngini = 0.293\nsamples = 22692\nvalue = [29619, 6418]\nclass = y[0]"] ;
441 -> 442 ;
443 [label="gini = 0.298\nsamples = 21934\nvalue = [28479, 6334]\nclass = y[0]"] ;
442 -> 443 ;
444 [label="gini = 0.128\nsamples = 758\nvalue = [1140, 84]\nclass = y[0]"] ;
442 -> 444 ;
445 [label="X[0] <= 1.623\ngini = 0.377\nsamples = 4247\nvalue = [5034, 1693]\nclass = y[0]"] ;
441 -> 445 ;
446 [label="gini = 0.426\nsamples = 1551\nvalue = [1673, 744]\nclass = y[0]"] ;
445 -> 446 ;
447 [label="gini = 0.343\nsamples = 2696\nvalue = [3361, 949]\nclass = y[0]"] ;
445 -> 447 ;
448 [label="X[24] <= 1.163\ngini = 0.227\nsamples = 45311\nvalue = [62549, 9370]\nclass = y[0]"] ;
384 -> 448 ;
449 [label="X[8] <= 0.543\ngini = 0.091\nsamples = 19083\nvalue = [28743, 1439]\nclass = y[0]"] ;
448 -> 449 ;
450 [label="X[24] <= 1.026\ngini = 0.121\nsamples = 4964\nvalue = [7290, 503]\nclass = y[0]"] ;
449 -> 450 ;
451 [label="X[27] <= 1.007\ngini = 0.105\nsamples = 4169\nvalue = [6182, 365]\nclass = y[0]"] ;
450 -> 451 ;
452 [label="X[26] <= 1.074\ngini = 0.484\nsamples = 61\nvalue = [56, 39]\nclass = y[0]"] ;
451 -> 452 ;
453 [label="gini = 0.0\nsamples = 5\nvalue = [0, 12]\nclass = y[1]"] ;
452 -> 453 ;
454 [label="gini = 0.439\nsamples = 56\nvalue = [56, 27]\nclass = y[0]"] ;
452 -> 454 ;
455 [label="X[22] <= 1.142\ngini = 0.096\nsamples = 4108\nvalue = [6126, 326]\nclass = y[0]"] ;
451 -> 455 ;
456 [label="gini = 0.054\nsamples = 2717\nvalue = [4118, 117]\nclass = y[0]"] ;
455 -> 456 ;
457 [label="gini = 0.171\nsamples = 1391\nvalue = [2008, 209]\nclass = y[0]"] ;
455 -> 457 ;
458 [label="X[22] <= 3.504\ngini = 0.197\nsamples = 795\nvalue = [1108, 138]\nclass = y[0]"] ;
450 -> 458 ;
459 [label="X[26] <= 1.05\ngini = 0.184\nsamples = 782\nvalue = [1100, 126]\nclass = y[0]"] ;
458 -> 459 ;
460 [label="gini = 0.0\nsamples = 2\nvalue = [0, 4]\nclass = y[1]"] ;
459 -> 460 ;
461 [label="gini = 0.18\nsamples = 780\nvalue = [1100, 122]\nclass = y[0]"] ;
459 -> 461 ;
462 [label="X[17] <= 1.821\ngini = 0.48\nsamples = 13\nvalue = [8, 12]\nclass = y[1]"] ;
458 -> 462 ;
463 [label="gini = 0.18\nsamples = 6\nvalue = [1, 9]\nclass = y[1]"] ;
462 -> 463 ;
464 [label="gini = 0.42\nsamples = 7\nvalue = [7, 3]\nclass = y[0]"] ;
462 -> 464 ;
465 [label="X[24] <= 1.04\ngini = 0.08\nsamples = 14119\nvalue = [21453, 936]\nclass = y[0]"] ;
449 -> 465 ;
466 [label="X[24] <= 0.707\ngini = 0.066\nsamples = 12169\nvalue = [18616, 656]\nclass = y[0]"] ;
465 -> 466 ;
467 [label="X[9] <= 1.438\ngini = 0.141\nsamples = 1350\nvalue = [1956, 162]\nclass = y[0]"] ;
466 -> 467 ;
468 [label="gini = 0.187\nsamples = 691\nvalue = [995, 116]\nclass = y[0]"] ;
467 -> 468 ;
469 [label="gini = 0.087\nsamples = 659\nvalue = [961, 46]\nclass = y[0]"] ;
467 -> 469 ;
470 [label="X[23] <= 1.367\ngini = 0.056\nsamples = 10819\nvalue = [16660, 494]\nclass = y[0]"] ;
466 -> 470 ;
471 [label="gini = 0.05\nsamples = 10505\nvalue = [16231, 427]\nclass = y[0]"] ;
470 -> 471 ;
472 [label="gini = 0.234\nsamples = 314\nvalue = [429, 67]\nclass = y[0]"] ;
470 -> 472 ;
473 [label="X[22] <= 1.018\ngini = 0.164\nsamples = 1950\nvalue = [2837, 280]\nclass = y[0]"] ;
465 -> 473 ;
474 [label="X[11] <= -1.539\ngini = 0.094\nsamples = 1092\nvalue = [1659, 86]\nclass = y[0]"] ;
473 -> 474 ;
475 [label="gini = 0.25\nsamples = 66\nvalue = [93, 16]\nclass = y[0]"] ;
474 -> 475 ;
476 [label="gini = 0.082\nsamples = 1026\nvalue = [1566, 70]\nclass = y[0]"] ;
474 -> 476 ;
477 [label="X[25] <= 2.086\ngini = 0.243\nsamples = 858\nvalue = [1178, 194]\nclass = y[0]"] ;
473 -> 477 ;
478 [label="gini = 0.397\nsamples = 215\nvalue = [269, 101]\nclass = y[0]"] ;
477 -> 478 ;
479 [label="gini = 0.168\nsamples = 643\nvalue = [909, 93]\nclass = y[0]"] ;
477 -> 479 ;
480 [label="X[3] <= 2.54\ngini = 0.308\nsamples = 26228\nvalue = [33806, 7931]\nclass = y[0]"] ;
448 -> 480 ;
481 [label="X[27] <= 1.688\ngini = 0.362\nsamples = 16473\nvalue = [20001, 6211]\nclass = y[0]"] ;
480 -> 481 ;
482 [label="X[18] <= -0.653\ngini = 0.386\nsamples = 10813\nvalue = [12661, 4473]\nclass = y[0]"] ;
481 -> 482 ;
483 [label="X[24] <= 1.324\ngini = 0.348\nsamples = 3037\nvalue = [3687, 1064]\nclass = y[0]"] ;
482 -> 483 ;
484 [label="gini = 0.252\nsamples = 404\nvalue = [541, 94]\nclass = y[0]"] ;
483 -> 484 ;
485 [label="gini = 0.36\nsamples = 2633\nvalue = [3146, 970]\nclass = y[0]"] ;
483 -> 485 ;
486 [label="X[22] <= 0.798\ngini = 0.399\nsamples = 7776\nvalue = [8974, 3409]\nclass = y[0]"] ;
482 -> 486 ;
487 [label="gini = 0.464\nsamples = 886\nvalue = [898, 516]\nclass = y[0]"] ;
486 -> 487 ;
488 [label="gini = 0.388\nsamples = 6890\nvalue = [8076, 2893]\nclass = y[0]"] ;
486 -> 488 ;
489 [label="X[14] <= -2.698\ngini = 0.31\nsamples = 5660\nvalue = [7340, 1738]\nclass = y[0]"] ;
481 -> 489 ;
490 [label="X[23] <= 1.001\ngini = 0.32\nsamples = 6\nvalue = [2, 8]\nclass = y[1]"] ;
489 -> 490 ;
491 [label="gini = 0.0\nsamples = 2\nvalue = [2, 0]\nclass = y[0]"] ;
490 -> 491 ;
492 [label="gini = 0.0\nsamples = 4\nvalue = [0, 8]\nclass = y[1]"] ;
490 -> 492 ;
493 [label="X[0] <= 2.618\ngini = 0.309\nsamples = 5654\nvalue = [7338, 1730]\nclass = y[0]"] ;
489 -> 493 ;
494 [label="gini = 0.326\nsamples = 5113\nvalue = [6504, 1675]\nclass = y[0]"] ;
493 -> 494 ;
495 [label="gini = 0.116\nsamples = 541\nvalue = [834, 55]\nclass = y[0]"] ;
493 -> 495 ;
496 [label="X[3] <= 3.754\ngini = 0.197\nsamples = 9755\nvalue = [13805, 1720]\nclass = y[0]"] ;
480 -> 496 ;
497 [label="X[23] <= 1.223\ngini = 0.229\nsamples = 7346\nvalue = [10201, 1550]\nclass = y[0]"] ;
496 -> 497 ;
498 [label="X[25] <= 4.034\ngini = 0.212\nsamples = 6657\nvalue = [9406, 1291]\nclass = y[0]"] ;
497 -> 498 ;
499 [label="gini = 0.222\nsamples = 5989\nvalue = [8419, 1225]\nclass = y[0]"] ;
498 -> 499 ;
500 [label="gini = 0.117\nsamples = 668\nvalue = [987, 66]\nclass = y[0]"] ;
498 -> 500 ;
501 [label="X[22] <= 0.672\ngini = 0.371\nsamples = 689\nvalue = [795, 259]\nclass = y[0]"] ;
497 -> 501 ;
502 [label="gini = 0.172\nsamples = 13\nvalue = [2, 19]\nclass = y[1]"] ;
501 -> 502 ;
503 [label="gini = 0.357\nsamples = 676\nvalue = [793, 240]\nclass = y[0]"] ;
501 -> 503 ;
504 [label="X[3] <= 4.624\ngini = 0.086\nsamples = 2409\nvalue = [3604, 170]\nclass = y[0]"] ;
496 -> 504 ;
505 [label="X[3] <= 4.624\ngini = 0.116\nsamples = 1507\nvalue = [2219, 146]\nclass = y[0]"] ;
504 -> 505 ;
506 [label="gini = 0.114\nsamples = 1506\nvalue = [2219, 144]\nclass = y[0]"] ;
505 -> 506 ;
507 [label="gini = 0.0\nsamples = 1\nvalue = [0, 2]\nclass = y[1]"] ;
505 -> 507 ;
508 [label="X[18] <= 2.416\ngini = 0.033\nsamples = 902\nvalue = [1385, 24]\nclass = y[0]"] ;
504 -> 508 ;
509 [label="gini = 0.03\nsamples = 895\nvalue = [1377, 21]\nclass = y[0]"] ;
508 -> 509 ;
510 [label="gini = 0.397\nsamples = 7\nvalue = [8, 3]\nclass = y[0]"] ;
508 -> 510 ;
}